{"fc0.weight": [[0.3586883842945099, 0.36919018626213074, 0.25521180033683777, 0.4496062099933624, -0.3333504796028137, -0.36886072158813477, 0.31426841020584106, -0.3900744616985321], [0.02719982899725437, -0.20847423374652863, -0.41490402817726135, -0.06449519842863083, 0.18693813681602478, -0.08607692271471024, 0.4296306371688843, -0.059001095592975616], [-0.2161187082529068, 0.33018016815185547, -0.19871091842651367, 0.2230067402124405, -0.4258165955543518, -0.21433769166469574, 0.09055449068546295, -0.21896950900554657], [0.016473639756441116, 0.31700509786605835, -0.16097292304039001, 0.04067869111895561, 0.15285275876522064, -0.3710774779319763, 0.23841559886932373, 0.34883353114128113], [-0.5376477241516113, 0.07460436969995499, 0.05529572814702988, 0.23690403997898102, -0.2877412438392639, 0.06587083637714386, 0.28151100873947144, -0.42015841603279114], [-0.4077231287956238, -0.4457355737686157, 0.07277829945087433, 0.2995462417602539, 0.37286826968193054, 0.08813658356666565, 0.1483541876077652, -0.179449200630188], [-0.36333322525024414, -0.2227180302143097, -0.4689842164516449, -0.3600909411907196, -0.36687952280044556, 0.06656752526760101, -0.3399553894996643, -0.5398580431938171], [-0.3972674012184143, 0.01272253505885601, 0.272614061832428, 0.03378046303987503, -0.019882889464497566, 0.19221922755241394, 0.05234430357813835, 0.33177661895751953], [0.5117862820625305, -0.13096387684345245, 0.372540682554245, 0.21480847895145416, -0.23839443922042847, 0.03570455685257912, -0.32093217968940735, -0.3305073082447052], [-0.2866804003715515, -0.2506873607635498, 0.3430197238922119, 0.5187543034553528, -0.0802469402551651, -0.08090537041425705, 0.25248798727989197, 0.297847718000412], [0.013642565347254276, -0.4289082884788513, 0.36146676540374756, 0.0038181766867637634, -0.35405176877975464, 0.42371493577957153, 0.1167224794626236, -0.2700246572494507], [-0.008619428612291813, -0.4133574068546295, 0.4922753870487213, 0.4840081036090851, 0.2898346781730652, -0.2385595142841339, -0.2612040042877197, 0.407128244638443], [-0.2512367069721222, -0.10066626220941544, 0.0707198828458786, -0.5422314405441284, -0.06793944537639618, 0.2557566463947296, -0.5384607315063477, 0.29819294810295105], [-0.402712345123291, 0.32896900177001953, -0.4475165903568268, 0.322190523147583, 0.32849106192588806, -0.46143803000450134, 0.10652753710746765, -0.11613941192626953], [0.5508073568344116, 0.006946459412574768, -0.13896581530570984, 0.01449141837656498, -0.36969494819641113, -0.1499479115009308, -0.49524709582328796, 0.15904495120048523], [-0.27533841133117676, 0.4654555022716522, -0.377576619386673, 0.10468599200248718, 0.3007500171661377, 0.3249870240688324, -0.0320315882563591, 0.2376399040222168], [-0.4113181531429291, 0.10791991651058197, -0.2632525563240051, -0.48102089762687683, -0.16832254827022552, -0.4505118727684021, -0.5089970231056213, -0.11969078332185745], [0.3367927670478821, 0.032951220870018005, 0.46725913882255554, -0.006903523113578558, -0.08292040973901749, 0.38495177030563354, -0.23351740837097168, -0.011678236536681652], [-0.3829622268676758, -0.39981505274772644, -0.35005995631217957, -0.25147226452827454, 0.43994152545928955, 0.4616871774196625, -0.04995296895503998, 0.46581748127937317], [-0.031934622675180435, 0.2623806595802307, 0.36085930466651917, -0.4747094511985779, -0.015129855833947659, 0.04737776517868042, 0.0022628174629062414, -0.46482303738594055], [0.028940780088305473, -0.12819622457027435, -0.48267167806625366, 0.089373879134655, 0.3168981969356537, -0.35153475403785706, -0.07555405050516129, -0.11067723482847214], [0.1116490513086319, 0.5475224256515503, 0.04261992871761322, 0.41749608516693115, -0.15220315754413605, 0.23617401719093323, -0.5896397233009338, -0.3977530300617218], [-0.3714660704135895, -0.5488998293876648, 0.022933563217520714, 0.31787624955177307, 0.40478000044822693, 0.1282646656036377, 0.6010711789131165, -0.16838598251342773], [-0.3461124002933502, -0.0853433907032013, 0.2731155455112457, 0.45652297139167786, -0.11497658491134644, 0.04409192129969597, -0.26766297221183777, -0.2805054485797882], [0.1430804282426834, -0.23830248415470123, 0.2627226710319519, 0.16369178891181946, 0.00914180651307106, 0.23279038071632385, 0.08984838426113129, 0.36306947469711304], [0.26026830077171326, 0.10361324995756149, -0.47831669449806213, -0.45991674065589905, 0.3191513121128082, -0.40259119868278503, 0.19150228798389435, 0.013626882806420326], [-0.06247521936893463, -0.2620018720626831, 0.31421029567718506, -0.40251269936561584, -0.183589369058609, 0.28352460265159607, -0.28764575719833374, 0.3180099427700043], [-0.03998364135622978, 0.251444011926651, 0.2648947536945343, 0.2447294294834137, 0.18575020134449005, 0.28520703315734863, -0.20112773776054382, -0.20832188427448273], [0.1369386464357376, -0.32718926668167114, -0.37763750553131104, 0.3434462249279022, -0.2081102430820465, -0.423897385597229, 0.18719978630542755, 0.154380202293396], [-0.4538399279117584, 0.19298386573791504, -0.17754146456718445, -0.15713195502758026, -0.040717463940382004, 0.4005095064640045, -0.08172506839036942, -0.16609850525856018], [0.24259519577026367, -0.3780934810638428, -0.3894752264022827, 0.3662404417991638, 0.409405380487442, 0.038691237568855286, -0.00342505588196218, 0.3577408194541931], [-0.24567365646362305, 0.3402898609638214, -0.337373822927475, 0.48186999559402466, 0.17955166101455688, -0.19662974774837494, 0.1936444491147995, -0.20021288096904755], [0.003070996841415763, -0.17899328470230103, 0.37139326333999634, 0.579371452331543, -0.33071285486221313, 0.14413577318191528, 0.2096313089132309, 0.3605373203754425], [-0.048798929899930954, 0.35986682772636414, -0.09866855293512344, 0.3471651077270508, 0.17566239833831787, -0.19241337478160858, 0.0812641829252243, -0.2330584079027176], [0.006316097918897867, 0.2970419228076935, -0.045063961297273636, 0.35374215245246887, -0.21979372203350067, -0.07580895721912384, -0.20192694664001465, 0.03970634192228317], [-0.1881295144557953, -0.0935884639620781, 0.5018474459648132, 0.4261786639690399, -0.15483561158180237, 0.0336480513215065, 0.11186759173870087, -0.24442417919635773], [0.055883266031742096, 0.27677035331726074, -0.11710149049758911, -0.15882453322410583, 0.10629131644964218, 0.0012794663198292255, -0.2626841962337494, -0.3630954921245575], [0.03137950599193573, -0.4836789667606354, 0.2003335952758789, 0.08702501654624939, 0.3152836263179779, -0.14736196398735046, -0.1423284411430359, 0.011195623315870762], [-0.34102827310562134, 0.5107969641685486, -0.28424397110939026, 0.17634503543376923, -0.39538729190826416, 0.29364877939224243, -0.3702017664909363, -0.15865831077098846], [0.4803437888622284, 0.32600921392440796, 0.3602370321750641, -0.382708877325058, 0.019437873736023903, -0.16334182024002075, -0.22971361875534058, -0.34091025590896606], [0.31851550936698914, 0.2798917293548584, 0.32854384183883667, 0.23977743089199066, 0.1950443983078003, 0.4728845953941345, 0.4535089433193207, -0.19186103343963623], [0.4130576252937317, 0.18276932835578918, 0.1448085904121399, -0.03923024609684944, -0.4695363938808441, 0.3690219521522522, -0.14807955920696259, -0.16793209314346313], [0.18131135404109955, 0.5758736729621887, -0.04519585147500038, 0.1900353878736496, -0.3129023611545563, -0.44308629631996155, 0.0821961984038353, -0.3456137478351593], [0.06348725408315659, 0.32574954628944397, -0.391897588968277, 0.222783625125885, -0.3473573327064514, 0.25850939750671387, -0.21271833777427673, -0.21861332654953003], [0.3414112329483032, 0.27605873346328735, -0.13758575916290283, -0.19057971239089966, -0.3692605495452881, 0.04572681337594986, 0.4499753713607788, 0.03218398243188858], [0.45405083894729614, -0.40351706743240356, -0.34001874923706055, -0.2930070757865906, 0.06173998862504959, 0.2879959046840668, 0.01906963810324669, -0.24405784904956818], [-0.0077547538094222546, -0.4054272472858429, 0.3608408272266388, -0.41682368516921997, -0.05112915858626366, 0.14278019964694977, 0.39774399995803833, -0.03202257677912712], [0.029912669211626053, 0.38517308235168457, 0.06432195752859116, 0.018587669357657433, -0.47740641236305237, 0.17283642292022705, 0.2518307864665985, -0.2822093069553375], [-0.017981084063649178, -0.39012640714645386, 0.04771049693226814, 0.11672793328762054, -0.46108531951904297, 0.13128960132598877, 0.17997199296951294, -0.09474362432956696], [0.027957800775766373, 0.23813487589359283, 0.2994407117366791, -0.27819448709487915, 0.10416747629642487, 0.48006245493888855, 0.2079337239265442, -0.45101749897003174], [0.42669758200645447, -0.5000537633895874, 0.17610739171504974, 0.07100570946931839, -0.07759549468755722, 0.4486057460308075, 0.2179419845342636, -0.33587679266929626], [-0.11382575333118439, 0.14765526354312897, -0.4638756513595581, -0.4101964235305786, -0.004431044217199087, -0.001116464613005519, -0.257715106010437, 0.20554538071155548], [-0.6535775661468506, 0.004046312067657709, 0.03565159812569618, -0.1045294776558876, -0.2535671293735504, -0.27528974413871765, 0.5194846391677856, 0.5519018173217773], [0.5028786063194275, 0.02663690410554409, -0.0658516064286232, 0.21415334939956665, 0.028866855427622795, -0.00034097308525815606, -0.19376236200332642, -0.19039392471313477], [-0.3583141267299652, 0.4535684585571289, -0.19878563284873962, 0.5634148716926575, 0.2650572657585144, -0.3840387463569641, 0.21785469353199005, -0.16784407198429108], [0.2236907184123993, 0.09450218081474304, -0.1327427327632904, 0.4633491039276123, -0.21561898291110992, 0.40087297558784485, 0.19204308092594147, 0.08482153713703156], [-0.1143719032406807, 0.4619530141353607, -0.33833879232406616, 0.35699570178985596, 0.13456031680107117, -0.15404561161994934, 0.5222700834274292, 0.10794133692979813], [-0.5479441285133362, 0.1550714075565338, -0.044978514313697815, 0.37765321135520935, 0.0012242912780493498, -0.03925549238920212, -0.20885337889194489, 0.43785083293914795], [-0.014880476519465446, 0.3296544551849365, 0.42633020877838135, 0.29445281624794006, -0.20576100051403046, 0.3401217758655548, -0.21094158291816711, 0.08491095155477524], [-0.041889965534210205, 0.4584040939807892, 0.45787689089775085, 0.3965083658695221, -0.19131962954998016, 0.1531660258769989, -0.340848445892334, 0.13725616037845612], [-0.20298324525356293, -0.08088885247707367, -0.4408673942089081, 0.3092889189720154, -0.24512982368469238, 0.2668037712574005, 0.04886706918478012, 0.3135527968406677], [0.5819300413131714, -0.001641103532165289, -0.48357853293418884, 0.24838218092918396, 0.30573299527168274, 0.09808685630559921, 0.29035472869873047, -0.13703173398971558], [0.12576432526111603, 0.2875557243824005, 0.03837919980287552, -0.12926968932151794, 0.1526549905538559, -0.022865844890475273, 0.38710182905197144, -0.09378000348806381], [-0.009579028002917767, -0.27386394143104553, -0.43413862586021423, 0.08515127748250961, 0.2714036703109741, 0.38914814591407776, -0.3888826370239258, -0.38741955161094666]], "fc0.bias": [0.21268603205680847, -0.18692640960216522, 0.261273056268692, -0.3486781120300293, -0.07881602644920349, 0.39382320642471313, 0.25409069657325745, -0.22943617403507233, -0.32968974113464355, 0.1349790245294571, 0.12334797531366348, 0.04950101673603058, 0.24837762117385864, -0.11525622755289078, 0.014909942634403706, -0.09625256806612015, -0.04220900312066078, -0.16222308576107025, 0.21946723759174347, -0.24118299782276154, 0.21231408417224884, -0.16231922805309296, -0.10318859666585922, 0.046579040586948395, -0.06499422341585159, 0.4015361964702606, 0.25187647342681885, -0.05686723813414574, 0.046376317739486694, 0.09315988421440125, -0.02887308970093727, -0.262868195772171, -0.41553980112075806, -0.18324217200279236, 0.10291782766580582, 0.09666495025157928, -0.3516972064971924, 0.10146324336528778, -0.04191293194890022, -0.05019943788647652, 0.26997652649879456, 0.11366060376167297, 0.022017132490873337, -0.021089540794491768, 0.0025204187259078026, -0.03482646495103836, 0.14638115465641022, 0.12868715822696686, -0.33812034130096436, -0.15338438749313354, 0.22597160935401917, 0.3879440426826477, -0.25093692541122437, 0.019030889496207237, 0.25009992718696594, 0.2744171619415283, -0.4542219340801239, -0.025903677567839622, 0.36709141731262207, 0.36832234263420105, 0.2144189327955246, -0.30016210675239563, -0.3502731919288635, 0.3961114287376404], "fc1.weight": [[0.20081189274787903, 0.3714195191860199, -0.294769823551178, 0.3077770471572876, -0.3245333731174469, 0.02773568034172058, -0.2696736752986908, -0.7602890729904175, 0.20404881238937378, 0.3012934625148773, -0.43976789712905884, -0.2159299999475479, -0.006704321131110191, 0.2425762414932251, 0.39036378264427185, 0.294755220413208, 0.08004716038703918, 0.033485934138298035, 0.430972158908844, 0.26448363065719604, -0.21317076683044434, -0.2549082934856415, -0.15641069412231445, 0.2694037854671478, -0.36838290095329285, 0.5040991902351379, 0.07041216641664505, 0.020658686757087708, -0.262558251619339, -0.18831825256347656, -0.017507163807749748, 0.15938320755958557, -0.22824884951114655, 0.23841027915477753, 0.04660779982805252, 0.13844335079193115, -0.003424218622967601, -0.0769524946808815, -0.3303346633911133, -0.2190859019756317, 0.31203794479370117, 0.3484771251678467, -0.35005807876586914, 0.4313434362411499, -0.19265985488891602, 0.06255354732275009, 0.04673874005675316, -0.25605669617652893, 0.16248857975006104, -0.3308311700820923, -0.27414655685424805, -0.36819571256637573, 0.029603198170661926, 0.17694854736328125, -0.06954144686460495, 0.19886581599712372, -0.12016558647155762, -0.2361287623643875, -0.09342820197343826, -0.38133981823921204, -0.3003062605857849, 0.7420327067375183, 0.21219171583652496, -0.1444779336452484], [-0.24421484768390656, 0.42696982622146606, -0.18887248635292053, -0.24609309434890747, -0.0033471144270151854, 0.16607660055160522, -0.311104416847229, 0.20732872188091278, 0.3008284270763397, 0.1384110450744629, -0.0719403475522995, 0.3108895421028137, -0.020145004615187645, -0.2964287996292114, 0.5278087258338928, 0.0323503203690052, -0.06923950463533401, -0.27815547585487366, -0.06326542049646378, -0.7494366765022278, 0.332234263420105, 0.36528390645980835, 0.018672967329621315, -0.36818552017211914, 0.01713705062866211, -0.034409891813993454, 0.12606342136859894, -0.2866717576980591, 0.07218179106712341, 0.24445730447769165, 0.49696433544158936, -0.23287342488765717, 0.6092488765716553, -0.3164593577384949, 0.18129213154315948, 0.26996883749961853, -0.2899172306060791, 0.5268699526786804, -0.1221374124288559, -0.23414266109466553, 0.33728358149528503, -0.2456713616847992, -0.18527133762836456, 0.5112521648406982, 0.4960511028766632, 0.1077432706952095, -0.1377875655889511, 0.12577442824840546, 0.13435296714305878, -0.3026435673236847, -0.21377955377101898, -0.04124876484274864, -0.20529870688915253, 0.4183228313922882, 0.030897051095962524, 0.022349216043949127, 0.12110286951065063, -0.23660458624362946, -0.458737313747406, -0.14354932308197021, 0.11188910156488419, 0.4488322138786316, 0.49182915687561035, 0.5804656744003296], [0.3748806118965149, 0.23667490482330322, 0.6675698161125183, 0.07194171100854874, -0.012349238619208336, -0.28374919295310974, -0.3319348990917206, -0.26681047677993774, -0.4464479684829712, 0.3692617416381836, 0.02586684562265873, 0.3033626079559326, -0.2618034780025482, 0.34531036019325256, 0.2939628064632416, 0.4970288574695587, 0.3883393406867981, -0.46278566122055054, 0.21583783626556396, 0.31784921884536743, 0.1262986958026886, -0.35954368114471436, 0.1323453038930893, 0.28591829538345337, -0.5752913355827332, -0.2964576482772827, -0.2967739403247833, 0.1742144376039505, 0.10648120939731598, 0.15139968693256378, -0.3666791319847107, 0.09760050475597382, -0.3330654501914978, 0.035897549241781235, -0.3343861401081085, 0.3568057715892792, 0.3707038462162018, 0.1965670883655548, 0.5172804594039917, 0.345003217458725, -0.18940114974975586, -0.12828050553798676, -0.2943163812160492, 0.17596027255058289, -0.15454411506652832, -0.34863340854644775, -0.1767689287662506, -0.30629318952560425, -0.05987704545259476, -0.08437328785657883, -0.024398963898420334, 0.20550905168056488, 0.05530684068799019, 0.23160706460475922, 0.17618076503276825, 0.23501244187355042, 0.2842467129230499, -0.04293415695428848, 0.32134804129600525, -0.04423889145255089, -0.02343197725713253, 0.30705615878105164, -0.3574443459510803, -0.44710010290145874], [-0.3073641061782837, -0.4334316551685333, 0.18358437716960907, -0.010097095742821693, -0.14479422569274902, 0.25123339891433716, 0.15605998039245605, -0.3452109694480896, -0.30491843819618225, 0.12136834859848022, -0.2662923336029053, -0.374281644821167, 0.14993835985660553, -0.3938279449939728, 0.47707846760749817, -0.13977788388729095, -0.21602416038513184, -0.20736145973205566, -0.3028982877731323, -0.08231839537620544, -0.42217278480529785, 0.491669237613678, -0.4683760702610016, 0.29220205545425415, -0.2368658185005188, 0.4381577670574188, -0.4729284942150116, -0.23432621359825134, -0.22855155169963837, 0.052312348037958145, 0.029204433783888817, 0.1373121589422226, -0.30698975920677185, 0.4942219853401184, -0.29990333318710327, 0.25643688440322876, 0.4378029704093933, -0.03730153292417526, -0.14746583998203278, -0.14389599859714508, 0.10110821574926376, 0.05302190035581589, -0.01107034645974636, 0.05206768214702606, 0.31141409277915955, -0.04571068659424782, -0.21154868602752686, 0.2816045880317688, 0.07565146684646606, -0.1197730228304863, 0.2730497419834137, 0.3302266001701355, -0.2184744030237198, 0.3580363392829895, 0.21675294637680054, 0.028452422469854355, -0.41768038272857666, -0.011728493496775627, 0.4194442331790924, -0.23315496742725372, -0.168577179312706, 0.2188226878643036, -0.1954646110534668, -0.3047935962677002], [0.522610604763031, -0.46936026215553284, 0.12068106234073639, -0.10832871496677399, 0.19929860532283783, -0.31024685502052307, -0.35069048404693604, 0.01741255261003971, 0.007911955006420612, 0.14299370348453522, -0.042578328400850296, -0.30097252130508423, -0.5504488348960876, -0.16130661964416504, 0.19761551916599274, 0.3817135691642761, 0.3810259997844696, 0.30591845512390137, -0.1630188673734665, -0.06332721561193466, -0.5251471400260925, 0.35247111320495605, 0.10337196290493011, 0.44891178607940674, -0.21997509896755219, 0.2063365876674652, -0.385952889919281, -0.13013622164726257, 0.13801664113998413, -0.17153766751289368, -0.2427368462085724, 0.02757912687957287, 0.35496631264686584, -0.09832644462585449, 0.08242566138505936, 0.49509546160697937, 0.2783582806587219, -0.5156043767929077, 0.013755705207586288, -0.42410820722579956, -0.25902560353279114, 0.2766851782798767, -0.08061696588993073, 0.2505350410938263, 0.022757571190595627, -0.24137188494205475, -0.07469020783901215, 0.37264499068260193, -0.2768959701061249, -0.29213881492614746, -0.28555798530578613, -0.30906254053115845, -0.17388324439525604, 0.2660137116909027, 0.3608868718147278, -0.11924884468317032, 0.19468465447425842, 0.034491363912820816, 0.5671255588531494, -0.04321109503507614, -0.058798812329769135, -0.19404026865959167, 0.33048728108406067, -0.4195677936077118], [-0.21157892048358917, 0.2843269109725952, -0.0012702754465863109, 0.204564169049263, 0.4297078549861908, 0.05785661190748215, -0.13463711738586426, -0.001224864856339991, 0.37710851430892944, -0.16186977922916412, 0.37010177969932556, 0.34829476475715637, -0.30320411920547485, -0.33772552013397217, 0.08507948368787766, -0.244644433259964, -0.043868836015462875, -0.26691311597824097, -0.06404278427362442, -0.3349284827709198, 0.21024943888187408, -0.23262836039066315, 0.44809573888778687, 0.16721385717391968, -0.23793333768844604, -0.522757351398468, 0.06725601851940155, -0.010151248425245285, 0.3323926627635956, 0.15517158806324005, 0.02012713998556137, -0.15617884695529938, 0.06651349365711212, 0.020209042355418205, -0.22715649008750916, 0.40190133452415466, 0.18608735501766205, 0.5046452879905701, -0.45732682943344116, -0.2714214026927948, 0.03790433704853058, -0.204728364944458, -0.10646424442529678, -0.2207808792591095, -0.30494073033332825, -0.07705230265855789, 0.32856839895248413, -0.14048011600971222, -0.14355438947677612, 0.09307420998811722, -0.13470514118671417, -0.08066489547491074, -0.10770224034786224, -0.19115175306797028, 0.28956764936447144, -0.3499448001384735, -0.4263915717601776, 0.39066240191459656, -0.05870995298027992, -0.27515801787376404, -0.07263839989900589, -0.31549715995788574, -0.23185503482818604, 0.2344447821378708], [0.0867556780576706, 0.2684359550476074, -0.314214289188385, 0.07366787642240524, -0.5408205986022949, 0.032173287123441696, -0.22835363447666168, 0.12209209054708481, 0.1815936267375946, -0.1667913794517517, 0.08578605949878693, -0.23845912516117096, -0.5927550792694092, -0.09132730960845947, 0.42538148164749146, 0.3924815356731415, -0.115065798163414, 0.0926617980003357, 0.015860117971897125, 0.13968120515346527, -0.16126491129398346, -0.18788623809814453, 0.03461422026157379, -0.23667789995670319, 0.06596207618713379, 0.6050728559494019, -0.026970116421580315, 0.19395343959331512, 0.3219270706176758, -0.4238865077495575, 0.1479695588350296, -0.14892889559268951, -0.19837737083435059, 0.487598717212677, 0.57007896900177, 0.021651752293109894, 0.3756636381149292, 0.0476839654147625, -0.15478290617465973, 0.25822246074676514, 0.01003661286085844, 0.10888313502073288, 0.02052231878042221, -0.22434669733047485, 0.13847815990447998, 0.14371618628501892, -0.13437919318675995, 0.4300778806209564, -0.12732523679733276, 0.4753643572330475, -0.21673056483268738, -0.5487749576568604, 0.06635469943284988, -0.024207336828112602, 0.38372913002967834, 0.24350373446941376, 0.1395113170146942, -0.15445789694786072, -0.18593543767929077, -0.2616040110588074, -0.08727464824914932, 0.013401673175394535, 0.4241747558116913, -0.4780995547771454], [-0.12682662904262543, 0.2534533739089966, -0.2795422673225403, -0.2591095268726349, 0.2210467904806137, 0.464078813791275, 0.4742477834224701, 0.3551980257034302, -0.41459211707115173, 0.46211352944374084, -0.021923307329416275, 0.06076212227344513, 0.2488163560628891, -0.24693016707897186, -0.3026342988014221, -0.1692291498184204, 0.4651784896850586, 0.017941255122423172, 0.12258586287498474, -0.11248638480901718, -0.17104080319404602, -0.16575591266155243, 0.01564403437077999, 0.2544858753681183, -0.35442954301834106, 0.34134989976882935, -0.11022726446390152, 0.19403095543384552, 0.29820388555526733, 0.025679143145680428, 0.05579007416963577, -0.10118934512138367, 0.3017076253890991, -0.36154600977897644, -0.5204439759254456, 0.26859918236732483, -0.14968790113925934, 0.27564072608947754, 0.05317672714591026, -0.10054834932088852, -0.19963593780994415, 0.18480812013149261, 0.14094658195972443, -0.37173211574554443, -0.4594201147556305, 0.07158591598272324, 0.2426304668188095, -0.4361304044723511, 0.011527622118592262, 0.238410085439682, 0.04591764509677887, 0.3504161238670349, 0.4401102662086487, 0.044982414692640305, -0.02788391523063183, -0.09927133470773697, -0.03131845220923424, -0.3050076365470886, -0.42945995926856995, -0.16072677075862885, 0.18357081711292267, 0.2522789537906647, -0.3264875113964081, 0.30418407917022705], [-0.3200385868549347, -0.5662500858306885, 0.42259153723716736, -0.2819885015487671, 0.1657935231924057, -0.0477527417242527, -0.2911059856414795, 0.13651573657989502, 0.21797160804271698, 0.018755273893475533, -0.17778263986110687, -0.45008695125579834, 0.22300413250923157, -0.19332385063171387, -0.055936552584171295, -0.15351960062980652, -0.256130576133728, -0.21353617310523987, -0.2980407774448395, 0.32686877250671387, 0.4202548861503601, 0.1528446078300476, -0.2111606001853943, 0.2778998613357544, -0.49943867325782776, 0.14801082015037537, -0.09576234221458435, 0.10735229402780533, 0.31791916489601135, -0.018411369994282722, 0.16685505211353302, -0.10277009755373001, -0.04387925565242767, 0.336414635181427, 0.5229363441467285, 0.4154807925224304, 0.07120207697153091, -0.35573652386665344, 0.07154937833547592, 0.15196576714515686, -0.22407354414463043, -0.05745357275009155, -0.2889365255832672, 0.17471756041049957, -0.16276194155216217, -0.15279151499271393, -0.4383278489112854, 0.2673867642879486, -0.41108769178390503, -0.14598892629146576, -0.032087359577417374, 0.1374051421880722, 0.018712705001235008, 0.2701689898967743, -0.17385262250900269, -0.11547519266605377, 0.036179881542921066, 0.3683646619319916, -0.04486541077494621, 0.367505818605423, 0.28357774019241333, -0.04350333288311958, 0.28317585587501526, -0.15502652525901794], [-0.33694419264793396, 0.3283902704715729, -0.3638099730014801, -0.4424406588077545, 0.16600292921066284, -0.18081969022750854, 0.0027655945159494877, -0.41575077176094055, 0.13471847772598267, 0.3299875557422638, 0.237373948097229, 0.09636522084474564, 0.1060418039560318, -0.4018445312976837, -0.055831052362918854, 0.13385257124900818, 0.15317411720752716, 0.2631247639656067, 0.36745086312294006, 0.3040420711040497, 0.07938341796398163, -0.35554003715515137, -0.348264217376709, 0.25046515464782715, 0.37054744362831116, 0.22377805411815643, -0.31531745195388794, -0.4889765679836273, 0.14920611679553986, -0.41507506370544434, 0.19545355439186096, 0.3488648533821106, -0.4832976162433624, -0.3072410225868225, -0.4965624511241913, 0.29432007670402527, -0.16415849328041077, 0.27407100796699524, 0.12537173926830292, -0.3894989490509033, -0.38242384791374207, 0.3853403925895691, -0.1828112006187439, 0.03213831037282944, 0.15027059614658356, -0.10207618027925491, 0.29994165897369385, -0.014717238023877144, 0.23567454516887665, -0.04535602778196335, 0.3530321419239044, 0.36246785521507263, 0.108230821788311, -0.2823467552661896, -0.12831151485443115, -0.25390806794166565, 0.2044132798910141, 0.23878595232963562, -0.39599311351776123, -0.3395562767982483, -0.06048879027366638, 0.3191576898097992, 0.272298127412796, 0.2976503074169159], [0.0763198584318161, -0.2679806649684906, 0.06644001603126526, -0.25626280903816223, -0.3723545968532562, 0.36778438091278076, -0.056761275976896286, 0.311838299036026, 0.015821199864149094, 0.08865827322006226, -0.17561763525009155, -0.19580024480819702, -0.28066596388816833, -0.06775005906820297, -0.13624273240566254, -0.1842878758907318, 0.0940123200416565, -0.0975998193025589, 0.46905189752578735, 0.1111101433634758, -0.20846979320049286, -0.25195175409317017, -0.040785033255815506, 0.5329785346984863, 0.3940581679344177, -0.11527508497238159, 0.07990221679210663, -0.09146775305271149, 0.2013157606124878, 0.32374924421310425, 0.44206687808036804, -0.43701452016830444, 0.1323777288198471, 0.08403963595628738, -0.4801834225654602, 0.5183995366096497, -0.1730765402317047, -0.04689811170101166, 0.22577263414859772, -0.2888140082359314, -0.31401321291923523, -0.08258599042892456, -0.052623238414525986, 0.0946233794093132, -0.09116882085800171, 0.041381869465112686, -0.16252554953098297, -0.12539519369602203, 0.5254254937171936, -0.017758984118700027, -0.10576499998569489, -0.22087039053440094, 0.19472089409828186, 0.08643191307783127, -0.03675731271505356, -0.3714905381202698, -0.33175352215766907, 0.10677456855773926, -0.25991663336753845, -0.3178962767124176, 0.2139964997768402, -0.07740798592567444, -0.5947761535644531, 0.3068886995315552], [-0.16476991772651672, -0.21143466234207153, 0.27970853447914124, 0.23931646347045898, -0.5182741284370422, 0.12026315182447433, -0.10535159707069397, -0.3605356514453888, 0.3901563584804535, -0.34595078229904175, -0.3041360676288605, 0.17626796662807465, -0.21324782073497772, 0.039590831845998764, 0.5695582032203674, 0.007110633887350559, -0.03236345946788788, -0.11484229564666748, -0.017577672377228737, -0.14662989974021912, -0.23465585708618164, -0.20259536802768707, -0.40196606516838074, 0.11747520416975021, -0.08860279619693756, 0.1492401361465454, 0.1297076791524887, -0.012878852896392345, 0.20265112817287445, 0.06402786821126938, 0.24201688170433044, 0.3548974096775055, 0.3740362226963043, 0.3997596204280853, 0.07104016840457916, -0.18481414020061493, -0.37095972895622253, -0.24383097887039185, -0.42714235186576843, 0.45239904522895813, 0.11076761782169342, -0.23622006177902222, -0.10401478409767151, -0.07379801571369171, 0.05547032505273819, 0.18929284811019897, 0.13972358405590057, -0.2767692506313324, -0.32118675112724304, 0.18437913060188293, 0.32693520188331604, 0.08139023929834366, -0.7776557803153992, -0.012610412202775478, 0.29046154022216797, 0.3419574499130249, 0.09052255749702454, -0.23376049101352692, -0.3223046660423279, -0.39954695105552673, -0.3052446246147156, 0.3816035985946655, 0.40813252329826355, 0.16445674002170563], [0.16400820016860962, 0.11692401021718979, -0.1926974058151245, 0.3943764567375183, 0.15120264887809753, 0.3346455693244934, -0.3496485650539398, -0.1410193294286728, -0.19657665491104126, 0.38627079129219055, 0.17089879512786865, -0.32176676392555237, -0.3176524341106415, -0.07067178189754486, 0.019551869481801987, 0.1883743703365326, 0.480935275554657, -0.2649383544921875, 0.2753487229347229, -0.26937657594680786, 0.42056432366371155, 0.31488746404647827, 0.23160091042518616, 0.4934484660625458, -0.4508603811264038, -0.15201932191848755, -0.008855031803250313, -0.07402127236127853, -0.41958820819854736, 0.5389493703842163, 0.08180519193410873, 0.2670951187610626, 0.24950860440731049, -0.39689528942108154, -0.2958703935146332, -0.12919551134109497, -0.2607334852218628, -0.2749146521091461, -0.2744891941547394, 0.1963277906179428, 0.02739357203245163, -0.3304421901702881, -0.3010573089122772, 0.2585669755935669, -0.2707061469554901, -0.2002781331539154, -0.3074137270450592, -0.06252077966928482, 0.34238341450691223, -0.21888770163059235, -0.2218860685825348, -0.08141692727804184, 0.4273432493209839, -0.2369966208934784, -0.3509526252746582, 0.10311122983694077, 0.31047824025154114, 0.666556179523468, 0.4667905569076538, 0.3939531147480011, 0.058606795966625214, 0.17036302387714386, 0.07838493585586548, -0.2581529915332794], [-0.04884611442685127, 0.16991151869297028, 0.23462924361228943, -0.08759098500013351, 0.4347328841686249, -0.3740854263305664, 0.11124417185783386, 0.3657744228839874, 0.25100579857826233, 0.059527136385440826, -0.37914663553237915, 0.09676798433065414, -0.20519524812698364, -0.3192327320575714, 0.23856273293495178, 0.368613064289093, 0.2839060127735138, 0.2117162048816681, -0.04347122088074684, 0.32334256172180176, 0.007715900428593159, -0.09294161200523376, 0.28082016110420227, 0.02242293208837509, -0.393244206905365, -0.08930571377277374, -0.2587711811065674, 0.40283843874931335, -0.27018502354621887, 0.0878705084323883, -0.40577569603919983, -0.04523821547627449, -0.16158373653888702, 0.4456445574760437, 0.5930102467536926, 0.09624779224395752, 0.24807436764240265, -0.2521728575229645, -0.14026227593421936, 0.3443610668182373, 0.23464080691337585, 0.2109268754720688, 0.49314606189727783, 0.4956550598144531, -0.008596105501055717, 0.11686189472675323, -0.14476384222507477, 0.10262684524059296, -0.23023657500743866, -0.22021321952342987, -0.23099999129772186, -0.03007744811475277, 0.24882595241069794, -0.07566703855991364, -0.20596550405025482, 0.371161550283432, -0.3294420540332794, 0.2770725190639496, -0.0583101287484169, 0.06142907962203026, 0.37999963760375977, -0.38983258605003357, 0.40555301308631897, 0.286639004945755], [-0.053576331585645676, 0.15603995323181152, -0.18920043110847473, 0.09611756354570389, -0.15098635852336884, -0.3171961009502411, -0.23457373678684235, 0.4623975455760956, -0.007873292081058025, 0.0696384459733963, -0.4991220235824585, 0.3451675474643707, -0.09114813059568405, -0.010864867828786373, 0.12975181639194489, 0.13966603577136993, -0.3267892897129059, -0.08695369213819504, 0.2627890110015869, 0.016152633354067802, -0.24261553585529327, 0.31666257977485657, -0.21003565192222595, 0.4348331689834595, -0.4210517406463623, -0.15329548716545105, 0.21251146495342255, -0.10540939122438431, -0.01341994758695364, -0.2233349233865738, -0.5610098838806152, 0.6350229978561401, 0.0018855640664696693, 0.10902753472328186, 0.3838415741920471, -0.21809370815753937, -0.23611807823181152, -0.46946680545806885, 0.3530009090900421, -0.40434467792510986, -0.30237478017807007, 0.2820868194103241, 0.027026087045669556, -0.02045685052871704, -0.06073170527815819, -0.29416534304618835, -0.18931333720684052, -0.03255978599190712, -0.13282649219036102, 0.10850950330495834, 0.016984980553388596, 0.46881723403930664, 0.023395495489239693, -0.38699406385421753, 0.018072154372930527, 0.2276986539363861, 0.24952490627765656, 0.24232269823551178, 0.4048265814781189, -0.19988852739334106, 0.1304215043783188, -0.5105574727058411, -0.02601507119834423, -0.12363108992576599], [0.057299233973026276, 0.026772931218147278, -0.04114980250597, 0.1245364397764206, -0.04956553503870964, -0.08920043706893921, 0.16295714676380157, -0.1938251256942749, -0.13661910593509674, -0.3085324168205261, 0.11831334978342056, 0.26696687936782837, -0.007023591548204422, 0.1011037603020668, 0.2858390212059021, -0.3922514021396637, -0.30654317140579224, -0.1382201611995697, -0.1280093789100647, -0.11450916528701782, -0.4634685814380646, -0.30533191561698914, 0.2229810506105423, -0.2187088429927826, 0.3977382779121399, 0.3722347915172577, -0.23071981966495514, 0.1758057028055191, 0.1419985592365265, 0.09918620437383652, 0.18139636516571045, -0.16800938546657562, 0.6659414172172546, -0.5040730237960815, -0.31335124373435974, -0.12759797275066376, -0.04184531792998314, 0.5738806128501892, 0.051123835146427155, -0.08453585207462311, 0.05959723889827728, 0.011314679868519306, -0.15786342322826385, -0.24079740047454834, -0.10636778920888901, -0.046977005898952484, 0.16635233163833618, -0.010449551977217197, -0.08181008696556091, -0.058627381920814514, 0.015196893364191055, 0.03908730670809746, 0.020908696576952934, -0.35154005885124207, -0.22059942781925201, -0.18241186439990997, -0.2225344181060791, -0.19243256747722626, 0.21564170718193054, 0.06715631484985352, -0.10488381236791611, -0.0660700872540474, 0.30281224846839905, 0.568154513835907], [0.12244231253862381, -0.45813995599746704, -0.08350756764411926, 0.1368357539176941, 0.343860924243927, -0.3791898190975189, -0.23263461887836456, 0.17286129295825958, 0.12975981831550598, -0.1461603343486786, -0.08309583365917206, -0.1820993721485138, 0.018808413296937943, 0.3352818191051483, -0.2587059438228607, 0.4588903784751892, 0.37630632519721985, 0.042125824838876724, -0.3021254241466522, 0.5965093374252319, 0.21245019137859344, -0.07569131255149841, -0.38647785782814026, -0.10670023411512375, 0.1935286521911621, -0.12043218314647675, 0.007878833450376987, 0.3135988414287567, -0.13659636676311493, 0.41666141152381897, 0.12476284056901932, -0.12999339401721954, -0.3320426046848297, 0.02326652780175209, -0.060228656977415085, 0.1871364861726761, 0.4409567713737488, -0.33734357357025146, 0.3247799873352051, -0.036489129066467285, -0.2530063986778259, 0.29872334003448486, 0.27222296595573425, 0.09737537801265717, 0.15625524520874023, -0.3399607539176941, -0.33202412724494934, 0.43397650122642517, 0.1663983166217804, -0.21521985530853271, -0.09552272409200668, 0.3506191670894623, 0.28879883885383606, -0.33737796545028687, 0.08639930933713913, -0.0887034460902214, -0.16259008646011353, -0.11749763041734695, 0.21904174983501434, -0.19142623245716095, -0.23353321850299835, -0.39601612091064453, 0.30401670932769775, -0.33955904841423035], [0.23627027869224548, -0.08292379230260849, 0.18909254670143127, 0.3228621184825897, -0.12944388389587402, -0.022730868309736252, -0.03428979590535164, -0.1492529958486557, -0.314198762178421, -0.1335238814353943, 0.22356420755386353, -0.3810754418373108, -0.29866307973861694, 0.47684040665626526, -0.09969905018806458, 0.2192588895559311, 0.21467064321041107, 0.30387672781944275, 0.08486668020486832, -0.037469107657670975, 0.23076927661895752, -0.12291935086250305, -0.1619156450033188, -0.36543792486190796, -0.17086383700370789, 0.3640914857387543, 0.1517229974269867, 0.29616931080818176, -0.05536102503538132, 0.32412683963775635, 0.08813607692718506, 0.4095432460308075, -0.19120919704437256, 0.22514455020427704, -0.17079760134220123, 0.17394810914993286, 0.3990130126476288, 0.0865844190120697, 0.5030149221420288, 0.17457494139671326, 0.22352595627307892, 0.006888208910822868, -0.37919527292251587, -0.06699293106794357, 0.25065937638282776, 0.2223244607448578, -0.41869208216667175, 0.2705545127391815, 0.4166630804538727, 0.15507537126541138, -0.42495593428611755, 0.596766471862793, 0.28951719403266907, -0.3985305428504944, 0.26396408677101135, -0.19342045485973358, 0.23198115825653076, 0.37920045852661133, -0.24408242106437683, 0.16388826072216034, -0.11722254008054733, -0.32046911120414734, -0.31300121545791626, 0.20746856927871704], [-0.07359641790390015, 0.3504960238933563, -0.07732225954532623, 0.34954071044921875, -0.005403186660259962, -0.009868590161204338, 0.48914942145347595, -0.12328267842531204, -0.15078431367874146, 0.47827887535095215, -0.1543911099433899, 0.3136409819126129, 0.29426613450050354, 0.406297892332077, -0.3987683355808258, -0.16326607763767242, 0.3204249143600464, -0.25129416584968567, 0.26217514276504517, -0.31084758043289185, 0.4165808856487274, -0.14985229074954987, -0.05079951882362366, 0.4343320429325104, 0.23956695199012756, 0.12265051901340485, -0.23719269037246704, 0.27632713317871094, -0.338913232088089, 0.2919860780239105, 0.059417981654405594, -0.2151811718940735, 0.3339258134365082, 0.1540653109550476, 0.2958778142929077, 0.5810718536376953, 0.27369260787963867, 0.3148502707481384, 0.07056031376123428, 0.01188564021140337, -0.37509530782699585, -0.1883159726858139, 0.24731804430484772, 0.017436694353818893, 0.19816765189170837, 0.32037585973739624, -0.06606197357177734, -0.3814032971858978, -0.2946847379207611, -0.3343120217323303, -0.3786521255970001, 0.1442072093486786, 0.4563518762588501, 0.07342532277107239, 0.24347525835037231, 0.13005425035953522, -0.3062906265258789, 0.3858415484428406, 0.05794317647814751, -0.09393739700317383, 0.5546043515205383, 0.3440793454647064, -0.04350918531417847, -0.34332337975502014], [0.01522786170244217, -0.13158881664276123, -0.3241063058376312, -0.12638193368911743, -0.1330973505973816, 0.1407911330461502, 0.2265314906835556, 0.566079318523407, 0.3015647232532501, -0.10160695761442184, 0.24916067719459534, -0.1825864464044571, -0.048670317977666855, 0.0993647649884224, -0.45667436718940735, 0.3462390899658203, 0.011098865419626236, -0.13602973520755768, -0.03714470937848091, 0.037029195576906204, -0.24916502833366394, -0.19813822209835052, 0.17077890038490295, -0.11491210758686066, 0.21648673713207245, -0.3372436463832855, -0.04294465854763985, 0.07604048401117325, -0.25762492418289185, 0.37246352434158325, 0.2800535559654236, -0.36684951186180115, 0.31849899888038635, -0.4038611054420471, -0.32678160071372986, 0.027660001069307327, 0.36265188455581665, -0.1417749971151352, -0.16335560381412506, -0.4359686076641083, 0.373793363571167, 0.10368485748767853, -0.2790975868701935, -0.3216177225112915, 0.07236842811107635, -0.3952166438102722, 0.2885076701641083, -0.025717560201883316, -0.13848194479942322, 0.4226909577846527, -0.2417716234922409, 0.35187074542045593, 0.4288856089115143, -0.347468763589859, 0.06226611137390137, 0.11881259083747864, 0.250651091337204, 0.24029099941253662, 0.32453155517578125, -0.3256836235523224, 0.29093822836875916, -0.77652907371521, -0.08687619864940643, -0.014074706472456455], [-0.2194143831729889, 0.24998942017555237, -0.35026419162750244, 0.4094852805137634, -0.18213076889514923, -0.27853628993034363, 0.0331258662045002, 0.2903914153575897, -0.16922642290592194, 0.36668723821640015, 0.45232918858528137, 0.28900760412216187, -0.06302889436483383, 0.0010590683668851852, -0.2677675187587738, -0.18216057121753693, -0.03450658917427063, -0.20515570044517517, -0.006889791693538427, 0.011118849739432335, 0.1935993731021881, -0.3602554202079773, -0.04272596910595894, -0.39309313893318176, 0.435497522354126, 0.08942458033561707, 0.12932263314723969, -0.3164171576499939, 0.38516196608543396, -0.08212678879499435, 0.0840158611536026, -0.45214685797691345, -0.13329309225082397, -0.35050883889198303, -0.19768668711185455, -0.2602141797542572, -0.4367111027240753, 0.28217798471450806, 0.0239163376390934, 0.3645361065864563, 0.32666030526161194, -0.21755732595920563, 0.3317842185497284, -0.3488753139972687, -0.3449588418006897, 0.3713741898536682, -0.14153268933296204, 0.08376195281744003, 0.2749134302139282, 0.32315221428871155, -0.14516593515872955, -0.35070887207984924, 0.11726158112287521, -0.20721489191055298, 0.1483684927225113, -0.19516201317310333, -0.1893802285194397, -0.3959982991218567, 0.514122486114502, -0.46252530813217163, -0.38935375213623047, -0.14224451780319214, 0.35510894656181335, 0.08735175430774689], [-0.455280601978302, 0.08113983273506165, 0.186944842338562, -0.06763292104005814, -0.04042784497141838, 0.021792367100715637, -0.23866413533687592, 0.060488250106573105, 0.4254591464996338, 0.3207099735736847, -0.08265430480241776, 0.24395088851451874, 0.2777620553970337, 0.06700479984283447, 0.39346936345100403, -0.09339912980794907, -0.06067439913749695, -0.16735981404781342, -0.2897658348083496, -0.24517670273780823, 0.2939003109931946, 0.26261332631111145, -0.20893970131874084, 0.12722398340702057, -0.03052108734846115, 0.18215598165988922, -0.0770731046795845, 0.2517937123775482, 0.057140156626701355, -0.38586437702178955, 0.34088242053985596, 0.11687270551919937, 0.35631299018859863, -0.2065218687057495, -0.03886658325791359, -0.4270848333835602, -0.4661999046802521, 0.3005565106868744, -0.3094840347766876, 0.07700533419847488, -0.2021244913339615, -0.2443249672651291, -0.03776291385293007, 0.20467355847358704, 0.028464099392294884, -0.02510015480220318, 0.15769463777542114, -0.06756770610809326, -0.09377045184373856, -0.16363869607448578, 0.19147130846977234, -0.41292843222618103, -0.37230250239372253, -0.2579212188720703, 0.17501269280910492, 0.23296353220939636, -0.24537155032157898, -0.15286125242710114, -0.4173582196235657, 0.05174240097403526, 0.06164795160293579, -0.20555786788463593, -0.26077255606651306, -0.0011879272060468793], [0.02501547709107399, -0.23346450924873352, -0.3413276970386505, -0.5750804543495178, 0.24287743866443634, -0.005390169098973274, 0.05673489347100258, 0.005679977126419544, -0.1264035701751709, -0.012671672739088535, 0.1438467651605606, 0.05132730305194855, -0.3733122646808624, 0.10391852259635925, 0.2453685849905014, -0.45854222774505615, -0.11965037882328033, 0.045069046318531036, -0.226022407412529, -0.2503587603569031, -0.4403834342956543, -0.14578382670879364, -0.3333326578140259, -0.053938135504722595, 0.25505244731903076, 0.2992292046546936, 0.002745332196354866, 0.09671586006879807, 0.5933922529220581, -0.42918649315834045, -0.0755508691072464, -0.3781234323978424, 0.06626368314027786, 0.224973663687706, -0.10499298572540283, 0.3117966651916504, -0.10675270855426788, 0.6743642091751099, -0.2109312117099762, 0.18391020596027374, -0.10072850435972214, -0.28697043657302856, 0.2913779616355896, -0.27171680331230164, 0.28197991847991943, 0.22368589043617249, 0.34446367621421814, 0.1374204009771347, -0.12006554007530212, -0.14362789690494537, 0.1683165729045868, -0.011331024579703808, -0.22262166440486908, 0.24384112656116486, -0.4438912272453308, -0.21197670698165894, 0.20730972290039062, -0.36416804790496826, -0.2100657820701599, -0.344529390335083, 0.23137733340263367, 0.20485155284404755, -0.19035372138023376, 0.25772178173065186], [-0.0015586056979373097, -0.3044623136520386, -0.16169460117816925, 0.014486796222627163, 0.09736818075180054, -0.3199714422225952, -0.1776374727487564, 0.0006243215757422149, -0.4227431118488312, -0.48930326104164124, 0.017576854676008224, 0.1807008534669876, 0.27056753635406494, -0.3740743100643158, -0.3228360712528229, 0.05476939305663109, 0.026405801996588707, 0.14484354853630066, -0.016462769359350204, 0.01843278482556343, -0.10523651540279388, 0.2165742814540863, 0.3126491904258728, -0.31086573004722595, 0.0929015651345253, 0.23207654058933258, 0.3379722237586975, 0.25285086035728455, 0.0912078395485878, -0.05420359969139099, -0.4555308520793915, -0.15297535061836243, -0.5727618336677551, 0.3588794469833374, 0.32568907737731934, -0.390972375869751, 0.42971694469451904, -0.48247385025024414, -0.0004336201527621597, 0.0637042447924614, -0.01766878552734852, 0.179537832736969, 0.029695233330130577, 0.5422559380531311, -0.18790218234062195, -0.36407235264778137, -0.4300837218761444, -0.08007440716028214, -0.2590915560722351, 0.09341893345117569, 0.10824462026357651, -0.3762879967689514, 0.1358117014169693, 0.3628077507019043, -0.09696941822767258, -0.30543258786201477, -0.1499459147453308, -0.31522002816200256, -0.06008662283420563, 0.17245176434516907, 0.06051843985915184, -0.3250674903392792, -0.03472144529223442, -0.13461922109127045], [0.08782513439655304, -0.00020828224660363048, -0.3244820535182953, 0.377927303314209, 0.2780311405658722, -0.07446105033159256, -0.3017713129520416, -0.08534876257181168, 0.2161351889371872, 0.3396790623664856, -0.13105276226997375, -0.6891591548919678, 0.10180477052927017, 0.27844202518463135, 0.3273438513278961, 0.2540481388568878, 0.06695332378149033, -0.06412149220705032, -0.06018238887190819, 0.4777679741382599, 0.2683289647102356, 0.3067268133163452, 0.1607166826725006, 0.043456606566905975, -0.14392103254795074, 0.0676368847489357, -0.09062778204679489, -0.015125987119972706, -0.1592976599931717, 0.34897154569625854, 0.04994896054267883, 0.46708789467811584, -0.09055058658123016, -0.042130932211875916, 0.46286267042160034, 0.12159418314695358, 0.24672141671180725, -0.19050392508506775, 0.0787823274731636, 0.10301801562309265, 0.23644079267978668, 0.06469734013080597, -0.13020871579647064, -0.11057218909263611, -0.275688499212265, 0.14718781411647797, -0.2331925481557846, 0.44856464862823486, -0.2987311780452728, 0.11520697176456451, -0.22494922578334808, -0.14256790280342102, -0.25256603956222534, -0.25962159037590027, -0.16248689591884613, 0.22884175181388855, 0.35758042335510254, -0.3105581998825073, -0.12290026247501373, -0.19838760793209076, -0.28199708461761475, 0.20775540173053741, 0.1991109699010849, -0.357826292514801], [0.12784165143966675, -0.14365290105342865, -0.23532409965991974, -0.11130742728710175, -0.15798358619213104, 0.34519270062446594, -0.08908906579017639, -0.0966469943523407, -0.1696508526802063, 0.4274563789367676, 0.3756212592124939, 0.09624508768320084, -0.05342245474457741, -0.6227881908416748, 0.1635940819978714, -0.19879847764968872, -0.4141705632209778, -0.039438892155885696, -0.17680302262306213, -0.4480966627597809, -0.30239421129226685, 0.09987888485193253, -0.35543885827064514, -0.3455590307712555, -0.10911005735397339, -0.3567263185977936, -0.4168337285518646, -0.2201138138771057, 0.3839300274848938, -0.06352506577968597, 0.15694859623908997, -0.14765571057796478, 0.0836767628788948, 0.1022845059633255, -0.18721094727516174, -0.1222984790802002, 0.10165620595216751, 0.40689322352409363, -0.16445688903331757, 0.2762989103794098, -0.2942517101764679, 0.3503445088863373, -0.24560445547103882, 0.18120509386062622, 0.04649892821907997, 0.4731403887271881, -0.2225341945886612, -0.43791672587394714, -0.0735519751906395, 0.23457221686840057, -0.16880466043949127, -0.5249273180961609, -0.02731718122959137, -0.3040415048599243, -0.39889296889305115, -0.10795159637928009, 0.009857556782662868, -0.2429126799106598, -0.00022801234445068985, -0.0025176543276757, 0.00849228911101818, 0.07483784109354019, 0.25571852922439575, 0.1529868096113205], [0.1715945601463318, 0.1379186511039734, -0.44348427653312683, -0.04509170725941658, -0.09770011156797409, 0.385972797870636, -0.3901713788509369, 0.07808873802423477, -0.12271639704704285, 0.07321963459253311, 0.030203068628907204, 0.1561133712530136, 0.38374704122543335, -0.5996126532554626, -0.24014204740524292, -0.16646799445152283, -0.24243438243865967, 0.3907549977302551, 0.09449505805969238, 0.30524933338165283, 0.12872186303138733, 0.010105135850608349, -0.11619801819324493, -0.46400755643844604, 0.5486416816711426, 0.18994419276714325, -0.10973139852285385, -0.012937387451529503, 0.11556630581617355, -0.43314334750175476, 0.5430895090103149, -0.362123966217041, 0.2997756004333496, 0.046235233545303345, -0.23815956711769104, 0.33804455399513245, -0.08585253357887268, 0.37020689249038696, -0.17129454016685486, -0.34679701924324036, 0.2488618940114975, -0.2616066634654999, -0.006735325790941715, -0.09386241436004639, -0.020228542387485504, 0.45405441522598267, -0.16144771873950958, 0.3430372178554535, 0.25140827894210815, -0.032970625907182693, -0.06496606022119522, -0.1818481832742691, -0.25529831647872925, 0.3224092721939087, 0.04254754260182381, 0.017762919887900352, -0.1205003559589386, 0.014282848685979843, -0.4084388315677643, 0.1275375932455063, -0.3112581670284271, 0.3270845115184784, 0.40568801760673523, 0.10393663495779037], [0.06305302679538727, 0.0473814383149147, -0.20333147048950195, -0.12265785783529282, 0.030774611979722977, -0.20261067152023315, -0.3171694278717041, -0.3089355230331421, 0.19088585674762726, 0.17153342068195343, -0.4858783185482025, -0.0405445471405983, -0.1600572019815445, -0.3563770055770874, -0.03934929892420769, 0.2557160556316376, -0.24354222416877747, -0.29097920656204224, -0.35003459453582764, 0.7486257553100586, 0.11386775970458984, -0.38263237476348877, 0.34338507056236267, 0.38678109645843506, 0.008587438613176346, -0.04235411807894707, 0.053202662616968155, 0.14961916208267212, -0.44160187244415283, -0.15937523543834686, -0.19671747088432312, 0.24235865473747253, -0.5772923827171326, -0.09835510700941086, 0.019901728257536888, -0.024921806529164314, 0.3438223600387573, -0.019935648888349533, -0.17601460218429565, -0.21883760392665863, -0.44962310791015625, 0.2541462182998657, 0.3470442295074463, 0.34252727031707764, -0.34589529037475586, -0.44951367378234863, -0.11895707249641418, 0.21868479251861572, -0.4951762557029724, -0.10326027125120163, 0.09185267984867096, 0.3153616189956665, 0.14865046739578247, -0.030742837116122246, 0.4221087396144867, 0.04159017652273178, -0.28773248195648193, 0.0444427952170372, -0.308872789144516, 0.3459526002407074, 0.3794623017311096, -0.20293854176998138, 0.21605795621871948, -0.4511532187461853], [0.017690284177660942, -0.27868378162384033, -0.10003338754177094, 0.05538427457213402, 0.12650270760059357, 0.1278555989265442, 0.07452990114688873, 0.11768822371959686, -0.4369145333766937, -0.5270299911499023, -0.16430024802684784, -0.6538293361663818, 0.19435641169548035, 0.12699654698371887, -0.09734126925468445, 0.0576554499566555, -0.310006320476532, 0.11167562752962112, 0.12121356278657913, 0.054143063724040985, -0.2722355127334595, 0.1712673306465149, -0.041782211512327194, 0.11341781914234161, -0.32188913226127625, 0.4312761127948761, 0.06855566799640656, 0.08031893521547318, -0.22132723033428192, 0.34147462248802185, 0.2500184178352356, 0.5285094380378723, -0.2924802005290985, 0.488261342048645, 0.6162061095237732, -0.08892887830734253, -0.034557901322841644, -0.012834996916353703, -0.15911297500133514, 0.1878325492143631, -0.060521043837070465, 0.2041161060333252, 0.3978007137775421, 0.21737463772296906, -0.04007510095834732, 0.1250266581773758, -0.4330326318740845, 0.38983267545700073, -0.6884652972221375, -0.11049377918243408, 0.17901410162448883, 0.35627785325050354, -0.2914632260799408, 0.34924113750457764, -0.10740667581558228, 0.03667626902461052, 0.12823675572872162, 0.041327886283397675, 0.052421923726797104, 0.40788471698760986, 0.24814854562282562, 0.09546191245317459, 0.24872785806655884, 0.08793702721595764], [0.163402259349823, -0.15787674486637115, 0.2670787274837494, -0.26959073543548584, 0.07200436294078827, -0.3624953031539917, -0.3697415888309479, -0.02014867402613163, -0.3289896845817566, 0.22429905831813812, 0.006429195869714022, 0.26983633637428284, 0.12375122308731079, 0.15440776944160461, 0.5011904239654541, -0.4517752230167389, 0.3708362579345703, 0.1552196741104126, -0.022756846621632576, -0.6114408373832703, -0.19992727041244507, 0.14709961414337158, 0.032994095236063004, -0.0808958187699318, -0.09569183737039566, 0.18473437428474426, 0.3282299041748047, -0.35276418924331665, 0.2764975428581238, -0.004000050015747547, -0.09281187504529953, 0.1312635838985443, 0.09576229006052017, -0.2102082371711731, 0.10522521287202835, -0.0809047669172287, -0.3270568549633026, 0.31910958886146545, 0.1424822062253952, 0.24454237520694733, 0.11304274201393127, 0.20994232594966888, 0.3875170946121216, -0.38110095262527466, -0.24520352482795715, 0.4280819594860077, -0.45986390113830566, -0.2542581856250763, 0.007733146194368601, -0.3875900208950043, 0.3652374744415283, -0.5441125631332397, -0.18390433490276337, -0.02352006733417511, 0.1577807515859604, 0.09465372562408447, -0.35868385434150696, 0.3581502139568329, -0.3030480444431305, -0.06519651412963867, 0.04068202152848244, 0.4034315347671509, 0.1384994238615036, 0.15260806679725647], [-0.45484909415245056, -0.0548238605260849, -0.3892289400100708, -0.08696705102920532, 0.23522399365901947, -0.10152453184127808, 0.21200038492679596, -0.14867232739925385, -0.0048976740799844265, 0.5088323354721069, 0.17649677395820618, 0.06976886838674545, 0.37729334831237793, 0.08595199137926102, -0.26019254326820374, -0.2966305911540985, -0.12051746994256973, 0.058567918837070465, 0.4969683289527893, 0.05342400446534157, 0.08615508675575256, 0.14848150312900543, -0.07996752858161926, -0.09900791198015213, 0.3566667139530182, 0.11303047835826874, 0.1272655874490738, -0.5237297415733337, 0.3935835063457489, 0.4116569459438324, -0.2889726758003235, 0.21409642696380615, 0.02764970064163208, -0.5467164516448975, 0.197157084941864, 0.5274615287780762, 0.13436158001422882, 0.5001435279846191, 0.34567704796791077, 0.14660117030143738, -0.21256475150585175, 0.282793253660202, -0.2824961245059967, 0.13473767042160034, -0.0428704135119915, 0.08205638080835342, 0.5095455050468445, -0.180991530418396, 0.6290691494941711, -0.058098990470170975, -0.0471440814435482, -0.23809286952018738, -0.17678965628147125, -0.33498290181159973, 0.038781315088272095, 0.1852686107158661, -0.28755372762680054, -0.31650254130363464, -0.15851940214633942, 0.2714959979057312, -0.14064200222492218, -0.12689249217510223, -0.2557627260684967, 0.6485776305198669], [0.17036552727222443, 0.0752556249499321, -0.01299570593982935, 0.2374539077281952, -0.1660340577363968, 0.40219447016716003, 0.011206664144992828, 0.34827184677124023, -0.21140620112419128, -0.4357072710990906, 0.025309709832072258, -0.4461653232574463, -0.21007126569747925, -0.2540197968482971, 0.001570182736031711, 0.28174418210983276, -0.26036033034324646, 0.0486426055431366, -0.3697155714035034, 0.5471067428588867, -0.01372385025024414, -0.42347413301467896, 0.010097881779074669, -0.06382979452610016, 0.28662970662117004, 0.17913837730884552, -0.2705751359462738, -0.4102356433868408, -0.479544460773468, 0.3699071705341339, -0.2625506520271301, 0.4136054813861847, -0.55308598279953, 0.03261571004986763, 0.060439858585596085, 0.36866065859794617, 0.4419703185558319, 0.02685992419719696, 0.27747225761413574, -0.33475130796432495, -0.03618043288588524, 0.2167617529630661, 0.07812868058681488, 0.3038637936115265, 0.37747156620025635, -0.12932057678699493, 0.05202442780137062, 0.30830520391464233, -0.23035059869289398, -0.2564626634120941, -0.03334902226924896, 0.3460489809513092, -0.0872504785656929, 0.01953630894422531, 0.48825085163116455, 0.1018308699131012, 0.3233620822429657, 0.2372160106897354, 0.3124285042285919, 0.49528759717941284, 0.08886261284351349, 0.15904143452644348, 0.06312981992959976, 0.16907206177711487]], "fc1.bias": [-0.2086993157863617, -0.09915319085121155, 0.21221081912517548, -0.16432777047157288, 0.019528992474079132, 0.09747614711523056, 0.37100815773010254, -0.1848868727684021, -0.08178748190402985, -0.24586668610572815, -0.021513668820261955, -0.15987646579742432, 0.6291431784629822, 0.21575820446014404, 0.02983047254383564, 0.062201812863349915, 0.1659415364265442, -0.09780542552471161, 0.34296873211860657, 0.15954947471618652, 0.2771725654602051, 0.23963113129138947, 0.09301600605249405, -0.03842615708708763, -0.3486388325691223, 0.24593500792980194, 0.18229414522647858, -0.09514640271663666, 0.06419221311807632, 0.2675010561943054, -0.06977156549692154, -0.3186512887477875], "fc2.weight": [[-0.16730117797851562, -0.14451488852500916, 0.6307752728462219, -0.16960999369621277, 0.6101843118667603, 0.3760983943939209, 0.17042388021945953, 0.13339544832706451, 0.24227285385131836, -0.4455907940864563, 0.17636847496032715, -0.50248122215271, 0.08300791680812836, 0.30861350893974304, 0.4361855685710907, 0.06823495775461197, -0.488873690366745, -0.006165120750665665, 0.02734328806400299, 0.367707222700119, 0.10596371442079544, 0.015089328400790691, 0.21971645951271057, -0.07782356441020966, -0.5548914670944214, 0.39323514699935913, 0.35108768939971924, -0.4951888918876648, -0.02504879981279373, -0.021092623472213745, 0.4533517360687256, -0.2685742676258087], [0.0780278891324997, 0.3477542996406555, 0.2546609342098236, 0.29290372133255005, 0.021809089928865433, -0.21684160828590393, 0.04332313686609268, -0.42679932713508606, -0.33947426080703735, -0.3837139904499054, -0.2936626970767975, 0.2630193829536438, 0.20028020441532135, -0.12206800282001495, -0.2640804648399353, 0.335784375667572, -0.13356299698352814, 0.08557070046663284, 0.5767614841461182, -0.6718265414237976, 0.061421703547239304, 0.06448692828416824, 0.2096100151538849, -0.020502157509326935, -0.25796234607696533, 0.1748058795928955, 0.16051042079925537, -0.26706746220588684, 0.12986162304878235, 0.47215479612350464, -0.34391212463378906, -0.2826590836048126]], "fc2.bias": [0.32672131061553955, 0.5536012053489685]}