{"fc0.weight": [[-0.5956905484199524, 0.011829283088445663, 0.2409028559923172, -0.49946656823158264, 0.02579408325254917, -0.1317446529865265, -0.6817939281463623, 0.017933102324604988], [0.10650351643562317, 0.2128342092037201, -0.14213266968727112, 1.0513360500335693, -0.45869505405426025, -0.2650057077407837, 0.08839631080627441, -0.060695283114910126], [0.06928063184022903, -0.11566588282585144, 0.8093163967132568, -0.07976426929235458, 0.37345850467681885, 0.008726616390049458, 0.8979840278625488, -0.17276319861412048], [-0.7809511423110962, -0.05441894754767418, -0.564420759677887, 0.05668507516384125, -0.1024283692240715, -0.14795765280723572, -0.8623165488243103, -0.3405812978744507], [-0.7099117636680603, -0.045987632125616074, -0.10102760046720505, 0.40639281272888184, 0.43553218245506287, 0.3992640972137451, -0.2907218337059021, -0.3824946880340576], [-0.14114077389240265, -0.5993067026138306, 0.3640875220298767, -0.7006917595863342, -0.2588558793067932, -0.35085630416870117, 0.4612729251384735, -0.09563137590885162], [-0.21287108957767487, 0.057386331260204315, -0.838860273361206, 0.5877067446708679, -0.02984263002872467, -0.35371968150138855, -0.6575928330421448, -0.0516362302005291], [-0.08971786499023438, -0.5724406838417053, 0.5421537756919861, 0.09484601765871048, 0.037178799510002136, 0.3006274402141571, -0.18421831727027893, 0.17695675790309906], [0.06961490213871002, -0.703994631767273, 0.4187261462211609, -0.02046975865960121, -0.3435153365135193, -0.2865636348724365, 0.36041459441185, 0.23083794116973877], [-0.7998783588409424, 0.016448762267827988, -0.12847384810447693, -0.4102169871330261, 0.08205527067184448, 0.11121343076229095, -1.0377990007400513, -0.2604880928993225], [-0.10199907422065735, -0.6177554726600647, 0.6596395373344421, 0.04508739337325096, -0.07592716068029404, -0.43121129274368286, 0.2741592824459076, 0.013196264393627644], [0.5157463550567627, 0.11107709258794785, 0.6121537089347839, -0.13824491202831268, 0.3684702515602112, 0.16946424543857574, 0.8782972693443298, 0.17372141778469086], [-0.10471512377262115, 0.4250299334526062, -0.46834003925323486, 0.8180077075958252, 0.4408295154571533, -0.0751398578286171, -0.3883780837059021, 0.38459810614585876], [0.07865013927221298, 0.472891628742218, -0.27114301919937134, 0.7629290819168091, -0.2885844111442566, -0.11302899569272995, 0.3497922420501709, 0.13644197583198547], [0.8586593270301819, -0.007677693385630846, -0.6414654850959778, -0.14825907349586487, 0.09037186205387115, -0.36371660232543945, -0.34112101793289185, -0.6396940350532532], [0.42594560980796814, -0.021840395405888557, 1.7702479362487793, -0.08857236057519913, -0.2956237196922302, -0.40605300664901733, 1.7184064388275146, 0.3591272830963135], [0.6778748631477356, -0.02278989367187023, -0.017764423042535782, 0.41579514741897583, 0.3934773802757263, -0.08397481590509415, -0.05553163215517998, 0.08061164617538452], [0.404956191778183, 0.14332853257656097, 0.2797907888889313, 0.021026335656642914, 0.11058522760868073, -0.07317007333040237, -0.16428545117378235, 0.0198429673910141], [0.05783744156360626, 0.46593979001045227, 0.4057803452014923, -0.4425666332244873, -0.13697464764118195, 0.25779199600219727, -0.24391521513462067, 0.4217081665992737], [0.8638299703598022, 0.0030223338399082422, -0.6167886853218079, -0.16011059284210205, 0.07006099075078964, -0.2795308232307434, -0.7759634256362915, -0.04510560631752014], [-0.013466287404298782, -0.5932146310806274, 0.18424953520298004, 0.7723419666290283, 0.03097790665924549, 0.3066468834877014, -0.5521937608718872, 0.3552866280078888], [0.13606028258800507, 0.48845964670181274, 0.45300227403640747, 0.42618265748023987, 0.29396188259124756, -0.08126091212034225, 0.29152581095695496, 0.5896940231323242], [0.38265034556388855, 0.2786385118961334, 0.04968073591589928, 0.5141764879226685, -0.3127153217792511, 0.16467297077178955, -0.2719353139400482, -0.0783851370215416], [0.024376055225729942, 0.49335792660713196, 0.5302788019180298, 0.5311322212219238, 0.40932497382164, 0.23280271887779236, -0.10526131093502045, 0.648478090763092], [0.4916574954986572, -0.09125064313411713, 0.16724230349063873, -0.20164676010608673, -0.10630938410758972, 0.03474828228354454, 0.4641278386116028, -0.03708437830209732], [0.31502532958984375, 0.6162235736846924, 0.12825050950050354, 0.28251880407333374, 0.4377349317073822, 0.19271965324878693, -0.36322537064552307, 0.32382339239120483], [0.08984093368053436, 0.09300883114337921, -0.285500168800354, -0.8681535124778748, -0.30737733840942383, 0.12919123470783234, 0.4270468056201935, -0.028096729889512062], [-0.0011497309897094965, -0.6645182967185974, 0.2424890249967575, -0.5313219428062439, -0.2737591862678528, -0.2609124779701233, 0.20214132964611053, -0.3805047273635864], [-0.49302199482917786, 0.023389505222439766, -0.9968600273132324, 1.079296588897705, 0.2801397442817688, 0.401327908039093, -0.8441815972328186, 0.10235971957445145], [-0.044531334191560745, 0.5688170194625854, 0.3759785294532776, 0.4427410364151001, 0.1202428787946701, -0.21371544897556305, -0.4233570396900177, 0.31363189220428467], [-1.0556379556655884, 0.009989937767386436, 0.21639478206634521, -0.5973562002182007, 0.45911741256713867, -0.34090861678123474, -0.1867785006761551, -0.09349094331264496], [-0.004090149886906147, 0.01877673901617527, -0.4277833104133606, 1.1758347749710083, 0.22632502019405365, 0.07790446281433105, -0.3322773277759552, -0.18903420865535736], [-0.2102022022008896, -0.6381255984306335, -0.2541438937187195, -0.7631052136421204, 0.36419010162353516, -0.4064028561115265, 0.40168190002441406, -0.19545316696166992], [1.010420560836792, 0.00866639893501997, -0.4622955322265625, -0.0050806887447834015, 0.17773988842964172, -0.11421221494674683, -0.2520652711391449, -0.16882342100143433], [-0.07415511459112167, 0.3230893611907959, 0.05270068719983101, 0.7423005104064941, 0.12829431891441345, -0.012221232056617737, -0.20873042941093445, -0.329190731048584], [0.015061107464134693, -0.5083032250404358, 0.44085100293159485, -0.16790863871574402, 0.1055225357413292, -0.05241401493549347, 0.6991685032844543, 0.5098280310630798], [-0.3221449553966522, -0.01113798189908266, 0.34654587507247925, 0.022872496396303177, 0.02408095821738243, -0.22598262131214142, -0.39294442534446716, -0.31431496143341064], [0.6469793319702148, -0.1408250480890274, -0.005041695199906826, -0.1195201426744461, 0.03155059367418289, -0.1298748403787613, -0.09946537762880325, 0.707807183265686], [0.19013077020645142, 0.47546127438545227, -0.3586096465587616, 0.32313072681427, 0.271158367395401, -0.19354365766048431, -0.3611745536327362, -0.46759966015815735], [0.7248014807701111, 0.02336321398615837, 0.3425918519496918, -0.06362402439117432, 0.1913660764694214, 0.351238876581192, 0.03645283728837967, 0.04391983151435852], [0.6131610870361328, -0.06864047050476074, 0.28835198283195496, 0.7298310995101929, 0.3672337532043457, -0.0311195719987154, -0.11488316208124161, 0.08605799823999405], [0.14102908968925476, 0.5550743937492371, 0.1366560012102127, 0.5074866414070129, 0.13350968062877655, -0.4046415686607361, -0.05631803348660469, 0.027330666780471802], [-0.006594771519303322, 0.4429176151752472, -0.35613468289375305, -0.19426113367080688, -0.34549033641815186, 0.23379769921302795, -0.6641879677772522, -0.2087520956993103], [-0.6384073495864868, 0.08368059992790222, -0.6008848547935486, 0.14469367265701294, -0.05188164860010147, -0.11563105881214142, -1.0636590719223022, 0.0035002753138542175], [0.5690445899963379, 0.06375264376401901, -0.12166930735111237, 0.31684067845344543, 0.38027605414390564, 0.07127644866704941, 0.3077843487262726, 0.455571711063385], [0.19261802732944489, -0.45521000027656555, -0.3607497811317444, 0.21568967401981354, 0.4643581807613373, 0.2553505301475525, 0.14190392196178436, -0.4506573975086212], [-0.4682311415672302, 0.03721274435520172, -0.46504276990890503, 0.14218305051326752, -0.4024699330329895, -0.42611151933670044, -0.5317382216453552, 0.16343140602111816], [-0.5988749265670776, 0.04622218757867813, -0.805852472782135, -0.19097314774990082, -0.18948788940906525, 0.277151882648468, -0.7381895184516907, -0.4773830771446228], [-0.9947716593742371, 0.004348456393927336, 0.18431174755096436, -0.6215687394142151, 0.2859334945678711, 0.3071605861186981, 0.2095862179994583, 0.8392049670219421], [-0.3637681007385254, 0.0269521102309227, -0.5649633407592773, 0.2634543180465698, -0.3598783016204834, -0.30040010809898376, -0.8335049152374268, -0.028486477211117744], [-0.09065485000610352, 0.6642987728118896, 0.45269590616226196, 0.7455981373786926, -0.1048983484506607, -0.2892521917819977, -0.2901543974876404, -0.14484651386737823], [0.029640555381774902, 0.5102354288101196, 0.20130212604999542, -0.5201146006584167, -0.3687742352485657, -0.37624043226242065, 0.4602603614330292, 0.4989537298679352], [-0.5664440393447876, 0.06517660617828369, -0.47419264912605286, -0.036135483533144, -0.2119443416595459, -0.08092968910932541, -1.0348763465881348, 0.04499064013361931], [-0.018207814544439316, 0.47562459111213684, -0.38858285546302795, -0.0453842431306839, 0.04338926821947098, -0.20731112360954285, -0.06798035651445389, 0.2412661463022232], [0.7046266794204712, 0.0837666243314743, 0.3934747874736786, 0.341972678899765, -0.19107770919799805, 0.3143484592437744, 0.393337607383728, 0.12797224521636963], [-0.009068488143384457, -0.6048823595046997, -0.4175091087818146, 0.09573578089475632, 0.37661212682724, -0.36833444237709045, -0.13229039311408997, -0.44880563020706177], [0.38639020919799805, 0.0018029159400612116, 0.7507466077804565, 0.8085384368896484, 0.26627933979034424, -0.21443460881710052, 0.27268487215042114, 0.15631066262722015], [0.03664160147309303, -0.440488338470459, -0.08849504590034485, -0.00470719812437892, -0.4357992708683014, 0.4366953670978546, 0.11170333623886108, 0.5303168296813965], [-0.03577170521020889, 0.018835600465536118, 0.2516905963420868, 0.6126284003257751, -0.4070005416870117, 0.3139321208000183, 0.3772358298301697, -0.06700649112462997], [0.09531059861183167, 0.6501922607421875, 0.5118429660797119, -0.07341715693473816, 0.02474546991288662, 0.08140423893928528, 0.8616548776626587, 0.12393965572118759], [-0.3510679602622986, -0.2713433802127838, -0.20860716700553894, -0.7123209238052368, 0.13097025454044342, 0.44379088282585144, 0.15349386632442474, 0.3296442925930023], [-0.712401807308197, 0.01648348942399025, 0.22232586145401, -0.3753575384616852, 0.46571996808052063, 0.21053186058998108, -0.04067782312631607, 0.3441002666950226], [0.0313543826341629, 0.3540116846561432, -0.4188256859779358, 0.6372995376586914, -0.16650612652301788, 0.42224863171577454, 0.1275867521762848, -0.3132455348968506], [-0.12256724387407303, 0.6740639805793762, -0.16225865483283997, 0.8673456907272339, 0.19948622584342957, 0.09529879689216614, -0.16441670060157776, 0.12085406482219696]], "fc0.bias": [-0.29377952218055725, 0.1949148178100586, -0.2688106298446655, -0.02646755613386631, -0.16894686222076416, 0.1693113148212433, 0.4775058627128601, -0.060241054743528366, -0.0030870314221829176, 0.08725333958864212, 0.004952526185661554, 0.03975197672843933, -0.4028923511505127, -0.08543374389410019, 0.15614987909793854, 0.15675266087055206, -0.4478643536567688, -0.2882724404335022, 0.3325541019439697, -0.07343606650829315, 0.1151098757982254, 0.4017874598503113, 0.3419908583164215, -0.23213611543178558, 0.20261740684509277, -0.13680751621723175, 0.210593581199646, -0.22650370001792908, 0.021406499668955803, 0.1927349716424942, -0.10886333882808685, 0.15257728099822998, -0.15230999886989594, 0.581483781337738, -0.18181726336479187, -0.021537823602557182, 0.23997023701667786, 0.3702862560749054, 0.6371272802352905, -0.04235169664025307, 0.12457232177257538, -0.11595170199871063, -0.19511885941028595, -0.01521118264645338, 0.1761389523744583, 0.08015753328800201, 0.16658896207809448, -0.22399955987930298, 0.29249897599220276, 0.3693578541278839, -0.35704490542411804, 0.1317986398935318, 0.5053671598434448, -0.14800822734832764, 0.17735861241817474, -0.11346162110567093, 0.44110244512557983, -0.47425878047943115, -0.0326680913567543, -0.0397053025662899, 0.3618227243423462, -0.3580194413661957, -0.13120605051517487, 0.23480799794197083], "fc1.weight": [[0.5866385102272034, 0.6504551768302917, -0.35762161016464233, 0.06186138466000557, -0.4168977737426758, -0.06736264377832413, -0.5012627243995667, -0.6114786863327026, -0.25010165572166443, 0.39101117849349976, -0.4696325659751892, -0.036405906081199646, 0.16312284767627716, 0.13265325129032135, 0.6113043427467346, 0.0828171968460083, -0.02622401714324951, -0.17494864761829376, 0.41626283526420593, 0.315427303314209, -0.23045411705970764, 0.42832690477371216, 0.5453494191169739, 0.46946951746940613, 0.22961050271987915, -0.08295275270938873, 0.20828191936016083, -0.5407199859619141, -0.16154664754867554, 0.38137149810791016, 0.025392889976501465, -0.6836872696876526, -0.4941927492618561, 0.6585582494735718, 0.09881452471017838, -0.5714331865310669, -0.1999322772026062, -0.11652538925409317, 0.2469993680715561, 0.524690568447113, -0.49704718589782715, 0.6256087422370911, 0.8057956099510193, 0.4290143549442291, -0.16676247119903564, -0.22928118705749512, -0.6136862635612488, 0.1918908804655075, -0.3684518337249756, -0.5049365162849426, 0.13966414332389832, 0.46118107438087463, 0.23880445957183838, 0.40103089809417725, -0.10014739632606506, -0.6462351083755493, -0.28876975178718567, -0.3224778473377228, -0.0034580633509904146, 0.11005882918834686, 0.0580245703458786, 0.005450962111353874, 0.8635021448135376, 0.08259434252977371], [0.46705296635627747, 0.32194259762763977, 0.6519507169723511, -0.06528696417808533, 0.4304022192955017, -0.21981878578662872, 0.7171794176101685, -0.13151679933071136, -0.2676529884338379, 0.44855841994285583, 0.43972548842430115, -0.1526714414358139, -0.23177136480808258, 0.020016049966216087, -0.05683267489075661, -0.12575538456439972, -0.01547623984515667, -0.2654176652431488, 0.23998099565505981, -0.34263700246810913, 0.013930306769907475, -0.005211290437728167, -0.26690441370010376, -0.038221172988414764, 0.2547347843647003, -0.11144794523715973, 0.5309449434280396, 0.13216114044189453, 0.10249482095241547, 0.4479864537715912, 1.2027246952056885, -0.9574753642082214, 0.029477257281541824, -0.44963884353637695, -0.1515267938375473, 0.3305697739124298, 0.3984546959400177, -0.5882744193077087, -0.3009594678878784, -0.3043087124824524, -0.0954144150018692, -0.26182350516319275, 0.3497038185596466, 0.5699875354766846, 0.0021203618962317705, -0.2507692277431488, 0.39358270168304443, -0.0012700142106041312, 0.4160110354423523, 0.24696952104568481, -0.3224976658821106, 0.14325210452079773, 0.5443281531333923, -0.07806975394487381, 0.0741138607263565, -0.33358240127563477, -0.7895678877830505, -0.42753952741622925, -0.5389915108680725, 0.2804323732852936, 0.07254330068826675, 0.7125157117843628, 0.11523152142763138, -0.06878571957349777], [-0.6094600558280945, 0.4693847596645355, 0.7127560377120972, -0.05553938448429108, -0.607506275177002, -0.1957305520772934, -0.43331512808799744, 0.0909494012594223, 0.17763742804527283, -0.3807193338871002, -0.047582995146512985, -0.033748723566532135, 0.36939486861228943, 0.364123672246933, -0.1118125319480896, 0.7429724335670471, 0.005760536063462496, -0.025992661714553833, 0.247331440448761, 0.14914290606975555, -0.29779645800590515, -0.3299112021923065, -0.07624784857034683, 0.33963367342948914, 0.10702729970216751, 0.684880793094635, 0.4093562066555023, -0.20480863749980927, -0.6640000939369202, -0.24896830320358276, -0.30336618423461914, -0.6165838241577148, -0.76680988073349, -0.11535465717315674, 0.17331771552562714, -0.02659326046705246, -0.37183892726898193, 0.3568478226661682, 0.17768634855747223, 0.5143296122550964, 0.33019721508026123, 0.4870923161506653, -0.21549072861671448, -0.6659190654754639, 0.3482535183429718, -0.14324815571308136, -0.23709288239479065, -0.2544168531894684, 0.007003409788012505, -0.11871694028377533, 0.16636627912521362, 0.3571547865867615, -0.574431300163269, 0.055921345949172974, -0.0660417303442955, 0.0560818612575531, -0.27480044960975647, 0.03831477835774422, -0.4133303463459015, -0.3706076741218567, -0.5827155113220215, 0.1386050134897232, -0.370364248752594, 0.16202323138713837], [0.1698101907968521, -0.4030562937259674, 0.27630615234375, 0.2737537622451782, 0.3990994691848755, 0.41480356454849243, -0.046610552817583084, 0.3274289667606354, -0.22181273996829987, -0.011467212811112404, -0.14981412887573242, -0.22173480689525604, 0.28919893503189087, -0.32485002279281616, -0.9219774603843689, 0.41614097356796265, -0.007983515970408916, -0.08919414132833481, -0.037591349333524704, -0.7161872982978821, 0.12227772176265717, 0.3223211169242859, -0.10263223946094513, 0.07443742454051971, -0.32328641414642334, -0.011855615302920341, 0.23554064333438873, -0.2434130311012268, -0.2761708199977875, 0.2367098182439804, 0.6331278085708618, -0.12157120555639267, 0.010671109892427921, -0.7302967309951782, 0.04920925945043564, -0.12866951525211334, 0.1056932583451271, -0.19074945151805878, -0.035579863935709, -0.012153384275734425, -0.24530041217803955, -0.19747693836688995, 0.28752967715263367, 0.13962708413600922, -0.4765568673610687, 0.314106285572052, -0.23728661239147186, -0.31196463108062744, 0.7110533714294434, 0.41493284702301025, -0.3526574373245239, -0.031906772404909134, 0.2483808994293213, -0.11955036222934723, -0.04446207731962204, 0.05698948726058006, -0.20843328535556793, 0.05700642615556717, 0.24555924534797668, -0.17547495663166046, 0.22956101596355438, 0.6604334115982056, 0.14961357414722443, 0.062327995896339417], [-0.21669436991214752, -1.1354825496673584, -0.1474718153476715, -0.2255324274301529, -0.23471784591674805, 0.11310803890228271, 0.054195865988731384, 0.5312610864639282, 0.4235321283340454, 0.2023075968027115, 0.5471310019493103, -0.19063985347747803, -0.38628655672073364, -0.22891978919506073, 0.15131033957004547, -0.2853505313396454, -0.4051400125026703, -0.2650502920150757, -0.30141326785087585, -0.3753683865070343, 0.42005372047424316, -0.5493468642234802, 0.3419996500015259, -0.21333280205726624, 0.34752535820007324, -0.43714359402656555, -0.11951876431703568, 0.2215203493833542, -0.10076358914375305, -0.3639027178287506, -0.3693833649158478, -0.8494250774383545, -0.005476327612996101, -0.07554254680871964, -0.39045602083206177, 0.0801621824502945, 0.2916572391986847, 0.18319188058376312, -0.5960551500320435, -0.033035360276699066, -0.36045241355895996, -0.21872618794441223, 0.1694962978363037, 0.03545399010181427, -0.1839330941438675, -0.01284767221659422, 0.21895913779735565, 0.1596508026123047, -0.22394327819347382, -0.17685432732105255, -0.4275387227535248, -0.3330267667770386, -0.0836319550871849, -0.19372406601905823, -0.29379650950431824, -0.11647514253854752, -0.36541444063186646, -0.2757437527179718, -0.09472499042749405, -0.3840603530406952, -0.022890528663992882, -0.08000710606575012, -0.5939755439758301, -0.4794386327266693], [-0.4687903821468353, -0.3998969495296478, -0.19317257404327393, 0.449312686920166, -0.16592223942279816, 0.29090753197669983, -0.2105662226676941, -0.31004881858825684, -0.3582455515861511, 0.3486167788505554, 0.28842419385910034, -0.28074291348457336, 0.05535805970430374, -0.3327241837978363, 0.21337096393108368, -0.06269907206296921, -0.05993335321545601, -0.250936895608902, -0.0376272052526474, 0.19517849385738373, -1.4544111490249634, -0.33477264642715454, -0.3735016882419586, -0.6796351671218872, -0.13857725262641907, 0.09996912628412247, 0.9023512005805969, 0.29950615763664246, -0.07727684080600739, -0.004847090691328049, 0.1234421357512474, -1.266501784324646, 0.3423045575618744, 0.4229458272457123, 0.031869783997535706, 0.04893377423286438, -0.037464309483766556, -0.10064444690942764, 0.379459947347641, 0.1228986531496048, 0.1302536576986313, 0.20653733611106873, 0.2522587776184082, -0.35908424854278564, -0.05011885240674019, -0.018384374678134918, -0.3339262902736664, -0.33503207564353943, 0.3730124533176422, 0.27565687894821167, 0.15598200261592865, -0.11639867722988129, -0.2921498417854309, 0.42596960067749023, -0.4241766035556793, 0.4093458652496338, -0.0009640035568736494, 0.14487095177173615, -0.5414942502975464, -0.09621985256671906, 0.208780899643898, 0.1467590481042862, -0.15751869976520538, -0.05492992699146271], [-0.475614994764328, 0.5389825105667114, -0.5668999552726746, -0.3560803234577179, -0.016003940254449844, 0.20153836905956268, -0.15634121000766754, -0.004013133235275745, 0.1697506159543991, -0.524571418762207, 0.29398369789123535, -0.009005336090922356, 0.1791122704744339, -0.05774514004588127, -0.3361382484436035, 0.05890193581581116, -0.2974289357662201, -0.22379016876220703, -0.18507184088230133, 0.04871005192399025, 0.09590256214141846, 0.4271355867385864, 0.07599251717329025, -0.05790770426392555, 0.026782553642988205, -0.0157583300024271, -0.12197447568178177, -0.40772080421447754, -0.22010114789009094, 0.03610757738351822, -0.3902272880077362, 1.7562062740325928, 0.06335501372814178, 0.3749609887599945, 0.05932234227657318, -0.22188325226306915, 0.3160473108291626, 0.4805610775947571, 0.13412410020828247, -0.029356542974710464, 0.5471862554550171, -0.4080530107021332, -0.06490333378314972, -0.5707021951675415, 0.7063765525817871, 0.09137046337127686, -0.26208657026290894, -0.09364455193281174, -0.6062732338905334, -0.7804909944534302, 0.45632076263427734, -0.151272252202034, -0.41278576850891113, 0.15414687991142273, 0.3352409303188324, 0.1805780977010727, 0.3624478578567505, -0.14732636511325836, 1.0945392847061157, 0.1732804775238037, 0.24390099942684174, 0.34052032232284546, 0.11226028203964233, 0.35073554515838623], [0.3878360092639923, -0.09455626457929611, -0.06219867616891861, 0.23802831768989563, 0.49112167954444885, 0.28784996271133423, 0.0752938911318779, 0.38866353034973145, 0.19158126413822174, -0.30213966965675354, 0.10463033616542816, 0.1269611418247223, -0.682134211063385, -0.44103068113327026, -0.046825554221868515, 0.08488127589225769, 0.25386276841163635, 0.19411595165729523, -0.9244259595870972, 0.09789308905601501, 0.4009416103363037, -0.5321764349937439, -0.3191213309764862, -0.6434825658798218, 0.19546639919281006, -0.4593105912208557, -0.346937894821167, 0.3611809313297272, -0.16792555153369904, -0.21488898992538452, -0.36734604835510254, 0.1473158597946167, 0.4402100443840027, -0.37934163212776184, -0.6119352579116821, 0.41063621640205383, 0.5976263880729675, -0.060460541397333145, 0.07480112463235855, -0.222906693816185, 0.4098668396472931, -0.22247011959552765, -0.4034259617328644, 0.3829909563064575, 0.0005614195251837373, 0.017643336206674576, 0.2834569215774536, 0.2500721216201782, -0.02336214669048786, -0.11652741581201553, -0.41510239243507385, -0.8678213953971863, -0.2995302379131317, -0.6193789839744568, 0.14652997255325317, 0.6188614964485168, 0.14085599780082703, 0.5269036293029785, 0.35637515783309937, -0.520982563495636, -0.12622742354869843, -0.49237996339797974, 0.032860223203897476, -0.15123188495635986], [-0.19825980067253113, 0.41770052909851074, -0.5135285258293152, 0.3272092938423157, 0.07798703014850616, -0.18290632963180542, 0.018203940242528915, -0.41168320178985596, -0.4581063985824585, 0.01845281757414341, -1.1730786561965942, 0.33461445569992065, 0.024773871526122093, -0.10993891954421997, 0.17416062951087952, 0.05096476897597313, 0.4393601417541504, 0.42778462171554565, 0.1871553361415863, -0.3389928340911865, -0.2960704565048218, -0.2900543510913849, 0.04882875457406044, 0.014254674315452576, -0.18261606991291046, 0.7791846394538879, -0.1259680539369583, -0.17798897624015808, 0.1961078643798828, 0.121269591152668, -0.195765420794487, 0.22451864182949066, -0.48626288771629333, -0.03670552745461464, 0.7663071155548096, -0.49065330624580383, -0.20360207557678223, 0.3451078236103058, 0.3336274027824402, 0.6388292908668518, 0.26934218406677246, 0.2750053405761719, 0.2557983994483948, 0.15367422997951508, -0.030691616237163544, 0.22623278200626373, 0.23426415026187897, 0.007812907919287682, -0.03871321305632591, 0.24244818091392517, -0.17443475127220154, 0.5186221599578857, 0.01833314634859562, 0.4128355383872986, 0.0010405920911580324, -0.25287511944770813, -0.2441566437482834, -0.5286954641342163, 0.1481151133775711, 0.23136542737483978, -0.46385616064071655, -0.3918813169002533, 0.3449207842350006, 0.10296351462602615], [-0.7204363346099854, 0.12328523397445679, 0.4375723600387573, -0.4170362055301666, -0.33953261375427246, 0.06661049276590347, -0.19794462621212006, -0.35757529735565186, 0.21033792197704315, -0.2344718724489212, -0.006063845008611679, -0.3418768048286438, 0.056890882551670074, 0.0591655932366848, 0.5059834718704224, -0.6662018895149231, -0.24903881549835205, 0.2376175820827484, -0.20369163155555725, 0.8808984756469727, -0.02828051894903183, -0.13912945985794067, 0.24761590361595154, 0.052460864186286926, 0.48236560821533203, -0.04737904667854309, 0.13452297449111938, 0.32878878712654114, -0.2534233629703522, -0.021332522854208946, -0.8475273847579956, 0.5058434009552002, 0.21465599536895752, 0.5576327443122864, 0.40535590052604675, -0.3124498426914215, 0.0708363801240921, 0.03989671170711517, -0.14080099761486053, -0.03402869403362274, 0.43240872025489807, 0.42472606897354126, 0.23796793818473816, -0.15727512538433075, 0.5499229431152344, 0.06162354350090027, -0.27900442481040955, 0.1350802481174469, -0.7386815547943115, -0.24281956255435944, 0.33981794118881226, 0.22524705529212952, -0.41876283288002014, 0.011002682149410248, 0.609303891658783, 0.11196145415306091, -0.10910838842391968, 0.17556656897068024, -0.12797798216342926, -0.07085622847080231, -0.48225751519203186, -0.5302370190620422, 0.4013337790966034, 0.22574029862880707], [-0.23639290034770966, -0.0957799181342125, 0.2744702994823456, -0.5567647218704224, -0.14825253188610077, -0.0712815374135971, -0.11119939386844635, -0.17292647063732147, 0.1974291056394577, -0.6144371032714844, 0.04942004382610321, 0.9109538793563843, -0.3109014630317688, 0.27091866731643677, 0.0841110348701477, 0.9030306935310364, 0.4616088271141052, 0.07609650492668152, 0.04617943987250328, -0.10243252664804459, 0.24645793437957764, -0.12993240356445312, 0.5005485415458679, -0.12270738184452057, 0.8631010055541992, 0.1798887997865677, -0.4338808059692383, 0.32424741983413696, -0.3776698708534241, -0.14540717005729675, -0.15042807161808014, -1.3038158416748047, -0.08096937090158463, 0.18207664787769318, -0.13432317972183228, 0.118502676486969, -0.12721754610538483, 0.5570623278617859, 0.2519163191318512, -0.16544577479362488, 0.4251132309436798, 0.3690505921840668, 0.13312415778636932, -0.03885294497013092, 0.9597510099411011, 0.548367977142334, -0.4704538881778717, -0.31709158420562744, -0.5754765868186951, 0.20706592500209808, -0.11961667239665985, -0.03363044559955597, -0.5196036100387573, 0.21143320202827454, 0.19110125303268433, -0.235722154378891, 0.5087581872940063, -0.016437899321317673, 0.5542012453079224, -0.0055313147604465485, -0.09613613039255142, -0.46769487857818604, -0.20210006833076477, 0.11164882034063339], [0.532954216003418, 0.2731439471244812, -0.48690739274024963, 0.5649330019950867, 0.5559859275817871, 0.4274568259716034, 0.5382787585258484, 0.043260131031274796, 0.06203543394804001, 0.3533380925655365, -0.2094910591840744, 0.010508271865546703, 0.32363808155059814, -0.046395476907491684, -0.454745352268219, 0.01578735001385212, 0.29995065927505493, -0.07799413800239563, -0.35230401158332825, -0.7367459535598755, 0.009762328118085861, -0.030937451869249344, 0.22925971448421478, 0.03181251138448715, -0.3022271990776062, 0.10873246192932129, 0.284028559923172, -0.035745520144701004, 0.021310260519385338, -0.25538384914398193, 0.5038021206855774, -0.5973220467567444, 0.06173100695014, -0.9071705937385559, 0.12044952064752579, 0.35496392846107483, 0.006810307502746582, -0.17257259786128998, 0.03436943516135216, 0.07651500403881073, -0.574481189250946, 0.32298901677131653, -0.31293874979019165, 0.37453046441078186, -0.5794772505760193, -0.1017952561378479, 0.4143082797527313, 0.17974641919136047, 0.6342858076095581, -0.12925943732261658, 0.4639749526977539, -0.3570916950702667, 0.6939886212348938, -0.23338080942630768, -0.029154378920793533, -0.254453182220459, -0.10409281402826309, -0.1737091988325119, -0.3923548758029938, 0.02000565454363823, -0.2325955331325531, 0.05666569620370865, -0.19267359375953674, -0.0011093762004747987], [-0.4031790494918823, 0.24672770500183105, 0.010623244568705559, 0.025269893929362297, 0.07891559600830078, -0.26877906918525696, -0.20219556987285614, 0.11886440962553024, 0.11634459346532822, -0.947104811668396, -0.32481876015663147, -0.06318622827529907, 0.33062025904655457, -0.05694045498967171, 0.43610450625419617, 0.2885575294494629, 0.3885962963104248, 0.09115883708000183, -0.3207416832447052, 0.2999984323978424, 0.25778183341026306, 0.1176413968205452, 0.4467359483242035, 0.2115975022315979, 0.45323246717453003, 0.09725714474916458, -0.02761213481426239, -0.3600712716579437, -0.3305196762084961, 0.22352762520313263, -0.6665599346160889, 0.09902314841747284, -0.0935155525803566, 0.6590932607650757, 0.03866264969110489, -0.16025573015213013, -0.517275333404541, 0.5598315000534058, -0.23542775213718414, -0.04374353587627411, 0.9055334329605103, 0.07997173070907593, -0.3910413384437561, -0.11345766484737396, 0.7614601254463196, -0.1850108802318573, -0.4520461857318878, 0.029373284429311752, -0.42139628529548645, 0.0853535458445549, -0.4070473611354828, 0.3429723083972931, 0.055098727345466614, -0.1678798347711563, 0.6942497491836548, 0.38946661353111267, 0.2324952483177185, -0.0409250371158123, 0.11485027521848679, 0.28656676411628723, -0.11556682735681534, -0.505109965801239, 0.3072669506072998, -0.32975074648857117], [-0.4245792329311371, 0.09893228113651276, -0.21261034905910492, -0.26496338844299316, -0.08783365041017532, 0.18753878772258759, 0.25565847754478455, 0.21925531327724457, -0.30510422587394714, 0.0465235598385334, 0.40013715624809265, 0.2164209634065628, -0.059176620095968246, 0.2172841578722, 1.241306185722351, 0.11056425422430038, 0.18655793368816376, -0.36429014801979065, -0.3038252294063568, 0.18549783527851105, -0.304464727640152, 0.11527998000383377, -0.07118971645832062, 0.1029592826962471, 0.2739599347114563, 0.029626745730638504, -0.46005284786224365, -0.2053239494562149, -0.34951651096343994, 0.20967558026313782, -0.46915456652641296, -0.05244608595967293, 0.0991600826382637, 1.175652265548706, -0.06029094383120537, -0.16270951926708221, 0.09476008266210556, 0.2537093758583069, 0.400247722864151, -0.2121705561876297, 0.06839519739151001, -0.015611603856086731, 0.029130985960364342, -0.23053185641765594, -0.2982463836669922, 0.10211671888828278, 0.2339419573545456, -0.5248833298683167, -0.6770636439323425, -0.3642789125442505, -0.04851716756820679, 0.16283729672431946, -0.7056484222412109, -0.3974687457084656, 0.08653604239225388, -0.2513020932674408, -0.029001379385590553, -0.0014285630313679576, 0.22833673655986786, 0.18942713737487793, -0.15306878089904785, -0.6133238077163696, -0.2277859002351761, 0.3245803415775299], [0.37446802854537964, -0.7303003668785095, 0.0020965358708053827, 0.3408564329147339, 0.10666614770889282, -0.16199006140232086, 0.12484193593263626, 0.3384115695953369, 0.01266467198729515, 0.16502372920513153, 0.06032551825046539, -0.5081520080566406, -0.2754841446876526, -0.30164235830307007, -0.8131632804870605, -0.5100631713867188, 0.10519561171531677, -0.4143306314945221, 0.003416103310883045, -0.6206525564193726, -0.4442264139652252, -0.2029968649148941, 0.21000264585018158, 0.3896757960319519, -0.1383160799741745, -0.014188977889716625, -0.0736655592918396, 0.26031386852264404, 0.3265700042247772, 0.11833512783050537, 0.5224754214286804, -0.2750050127506256, -0.15412797033786774, -0.5676030516624451, 0.004290601704269648, -0.24693191051483154, 0.6699326038360596, -0.42124637961387634, 0.2869810461997986, -0.5265585780143738, -0.04275313764810562, -0.12120329588651657, 0.34713685512542725, 0.6396703124046326, -0.41878819465637207, -0.039941705763339996, 0.2766411006450653, 0.09903281927108765, 0.33976006507873535, -0.05047271028161049, 0.26465630531311035, 0.44517502188682556, 0.3498923182487488, 0.20044715702533722, 0.16324496269226074, -0.39842209219932556, -0.17310285568237305, -0.2677348554134369, -0.026362381875514984, -0.09497744590044022, -0.06381991505622864, 0.5159189105033875, -0.5783975124359131, 0.46672508120536804], [-0.40304023027420044, -0.17323024570941925, -0.027215946465730667, -0.2526955306529999, 0.2134486585855484, 0.19387231767177582, -0.2728015184402466, 0.49344462156295776, 0.5770990252494812, -0.066492460668087, -0.40325233340263367, 0.054847028106451035, 0.022699473425745964, -0.3634530007839203, 0.1616954356431961, 0.29893696308135986, -0.3152771294116974, -0.09188368916511536, -0.5184651017189026, 0.21392004191875458, 1.192359447479248, -0.2144642025232315, -0.20389844477176666, 0.15683144330978394, 0.1447867900133133, -0.31470388174057007, -0.8062201142311096, -0.05148947238922119, -0.016245871782302856, -0.46144363284111023, -0.2761179506778717, 0.3762492537498474, 0.05767739191651344, 0.0007902881479822099, -0.28302261233329773, 0.21146157383918762, -0.06767317652702332, 0.32531437277793884, -0.05983603000640869, 0.4469423294067383, -0.14626340568065643, 0.13013647496700287, -0.25915026664733887, -0.24583101272583008, 0.30916300415992737, 0.23752297461032867, -0.10746502131223679, 0.27844372391700745, -0.21424709260463715, -0.32908308506011963, 0.04029398038983345, -0.4307851791381836, 0.11304592341184616, -0.2276231050491333, 0.4616192579269409, 0.026620151475071907, 0.4814414083957672, 0.3782719075679779, -0.23414812982082367, -0.18804243206977844, 0.2125379741191864, -0.1024463027715683, 0.15078464150428772, -0.18761864304542542], [0.2753541171550751, 0.22740840911865234, -0.08507516235113144, -0.11707792431116104, -0.5791275501251221, 0.2711491286754608, 0.2732696235179901, 0.3162698447704315, -0.3657037913799286, -0.20371943712234497, 0.17401255667209625, 0.3386364281177521, 0.2932809591293335, 0.016846299171447754, 1.0226508378982544, -0.14795856177806854, 0.10762880742549896, 0.09758231043815613, 0.24002477526664734, 0.877091109752655, -0.4146837592124939, -0.16906948387622833, 0.47216227650642395, -0.08812842518091202, 0.46923619508743286, 0.4999391734600067, -0.1704452633857727, -0.429915189743042, -0.3549838960170746, 0.0803765133023262, -0.5901622176170349, 0.00046265311539173126, -0.30286794900894165, 0.5293457508087158, -0.08206731081008911, -0.290550172328949, 0.3244474530220032, 0.2055712640285492, 0.45522424578666687, 0.27395570278167725, 0.2665207087993622, -0.25706666707992554, 0.35016897320747375, 0.20225445926189423, 0.5104105472564697, 0.20045284926891327, 0.07344938069581985, -0.30615323781967163, -0.17209787666797638, 0.01357587706297636, 0.37211793661117554, 0.2682906985282898, 0.1439027041196823, -0.0012501399032771587, 0.15080995857715607, 0.3110380172729492, -0.11958696693181992, 0.10384710878133774, 0.11695075035095215, -0.10885179042816162, -0.3955875635147095, -0.5432639718055725, 0.08175614476203918, 0.07732435315847397], [-0.23033300042152405, -0.2824796438217163, -0.11084820330142975, -0.023179825395345688, 0.020779980346560478, -0.3710896670818329, 0.0927475243806839, -0.6602230668067932, -0.09543774276971817, 0.4062195122241974, -0.3686487674713135, -0.1687595695257187, 0.20512773096561432, -0.014479150995612144, -0.28644275665283203, 0.1291019767522812, 0.26169413328170776, 0.011399788782000542, 0.2874166667461395, -0.3676164448261261, -1.7764776945114136, -0.2698421776294708, -0.099892258644104, 0.3533570170402527, -0.06613031029701233, 0.1001015454530716, 0.8775280714035034, -0.07626169174909592, 0.4064188599586487, -0.015695974230766296, 0.17129823565483093, -0.20771466195583344, 0.20470231771469116, 0.28480470180511475, 0.258097380399704, 0.0426783412694931, -0.2802572548389435, 0.022884653881192207, -0.2694576680660248, 0.2628481090068817, -0.3366050124168396, 0.08550809323787689, 0.3843200206756592, -0.12349912524223328, 0.19034914672374725, -0.10817189514636993, 0.40654298663139343, 0.15121836960315704, 0.19374822080135345, 0.22770924866199493, -0.1914953887462616, 0.3962137997150421, -0.2746293246746063, 0.30546271800994873, 0.10856536775827408, -0.32279422879219055, 0.24234120547771454, -0.39965546131134033, -0.44164299964904785, 0.2544402480125427, 0.29059314727783203, -0.010049644857645035, -0.3118418753147125, -0.19503609836101532], [-0.4494312107563019, 0.28376469016075134, 0.6359851956367493, -0.135642409324646, -0.27773934602737427, -0.46883857250213623, -0.4607527256011963, 0.1923919916152954, -0.20903457701206207, 0.146140918135643, 0.20614871382713318, 0.4263078272342682, 0.35523495078086853, 0.03558749705553055, 0.5763373374938965, 1.2331680059432983, 0.6198118925094604, -0.12356656789779663, 0.20508693158626556, 0.2996205985546112, -0.08435357362031937, 0.1953502595424652, -0.03755035251379013, -0.2687210142612457, 0.5610799789428711, 0.21954753994941711, -0.010912592522799969, 0.426449179649353, -1.2536921501159668, 0.2923271358013153, -0.26444023847579956, -0.26159989833831787, 0.1092611774802208, -0.08938827365636826, 0.30270978808403015, -0.09996304661035538, -0.2485511749982834, -0.007480377331376076, 0.1463291496038437, 0.4133802652359009, 0.44700688123703003, 0.4407627582550049, 0.4603744149208069, -0.2562579810619354, 0.2101740539073944, 0.24044089019298553, -0.47606244683265686, -0.6860490441322327, -0.22569993138313293, -0.1288902908563614, -0.33816254138946533, -0.031229380518198013, -0.3506782650947571, -0.22268037497997284, 0.48536211252212524, -0.29370394349098206, 0.5116394758224487, 0.10227137804031372, -0.10813513398170471, -0.4199448823928833, 0.08660326898097992, -0.4170052409172058, 0.20268945395946503, -0.33093249797821045], [0.17373953759670258, 0.09667237848043442, 0.21420307457447052, -0.5442660450935364, -0.09911719709634781, -0.41489177942276, 0.23032425343990326, 0.43462663888931274, -0.06858588755130768, -0.5900510549545288, 0.12991639971733093, 0.005874857772141695, -0.14518381655216217, -0.25810179114341736, -0.11502338945865631, 1.5544804334640503, 0.4479416608810425, 0.2690789997577667, -0.22661219537258148, -0.1903376281261444, -0.058476660400629044, -0.376315176486969, -0.1399170607328415, -0.07204268872737885, 0.31947654485702515, 0.3407479226589203, -0.4997883141040802, 0.06611889600753784, -0.9307751655578613, 0.4681762456893921, 0.16233845055103302, -0.21969304978847504, -0.19903819262981415, 0.42356547713279724, 0.37341615557670593, -0.23906846344470978, 0.47365400195121765, -0.0053074234165251255, 0.4355505406856537, 0.25579580664634705, 0.2720284163951874, 0.036212675273418427, 0.1460801064968109, -0.3742130398750305, 0.12091159075498581, 0.4172670245170593, -0.16417434811592102, -0.4979071319103241, 0.17162294685840607, -0.7407761812210083, -0.05828368291258812, -0.38292020559310913, -0.5773680210113525, -0.1506592035293579, 0.1448998898267746, -0.36031684279441833, 0.7106389999389648, -0.2405897080898285, 0.07252707332372665, 0.05218898504972458, -0.5123780369758606, -0.5436914563179016, 0.016728738322854042, -0.11117905378341675], [0.137907937169075, 0.2383888065814972, 0.002584953559562564, -0.012280702590942383, 0.14671699702739716, -0.07805976271629333, -0.07106579095125198, 0.5156094431877136, 0.13406795263290405, -0.25536197423934937, 0.458782434463501, 0.36740821599960327, 0.11956401914358139, -0.31670114398002625, -1.373523473739624, -0.23192304372787476, -0.5299798846244812, -0.4026894271373749, 0.021303407847881317, -0.8283687233924866, 0.3171256482601166, -0.0504060834646225, -0.015076654963195324, -0.317171186208725, -0.18273894488811493, 0.08851373195648193, 0.1500510275363922, 0.18294954299926758, 0.7941592931747437, 0.19257688522338867, 0.3959677219390869, -0.024367915466427803, 0.1524062305688858, -1.204314947128296, 0.14770448207855225, 0.15529249608516693, 0.035479836165905, 0.05365446209907532, -0.25926047563552856, -0.4754597544670105, -0.15786662697792053, -0.3686779737472534, -0.5605494379997253, 0.27961233258247375, -0.30807098746299744, -0.16537678241729736, 0.5168966054916382, -0.4826046824455261, 0.06527034193277359, 0.41098374128341675, 0.24157387018203735, -0.27000680565834045, 0.23352697491645813, -0.20988740026950836, 0.1905212104320526, 0.1609116792678833, 0.18428850173950195, 0.056670594960451126, 0.32788437604904175, -0.03390974551439285, -0.10392699390649796, 0.19179309904575348, -0.10903341323137283, 0.16063041985034943], [-0.47185465693473816, 0.7620519995689392, 0.09068704396486282, 0.5287336111068726, 0.15126360952854156, -0.6514074802398682, -0.186985045671463, -0.447052925825119, -0.6166830062866211, 0.27796217799186707, -0.1405216008424759, -0.09243511408567429, 0.5038564801216125, 0.7769424915313721, -0.29350531101226807, -0.09376297146081924, 0.40461036562919617, 0.15164798498153687, 0.729489803314209, 0.5049184560775757, 0.17111635208129883, 0.5725799202919006, 0.4818823039531708, 0.8083087801933289, 0.4156332314014435, 0.05769231915473938, 0.005303076934069395, -0.7261202931404114, 0.20831315219402313, 0.4647218585014343, 0.3493623435497284, 0.2626378834247589, -0.23845885694026947, 0.15044310688972473, 0.2576245665550232, -0.8140743374824524, -0.30748504400253296, -0.39484524726867676, -0.1928299218416214, -0.04024670273065567, -0.06551774591207504, 0.35133761167526245, 0.5873519778251648, -0.35893043875694275, 0.20544323325157166, 0.00567314587533474, 0.2948164939880371, -0.02265402488410473, -0.4327946603298187, 0.42672833800315857, 0.6049522161483765, 0.0797874927520752, -0.4823572337627411, 0.45258960127830505, -0.3849698007106781, -0.31324321031570435, -0.2671125829219818, -0.17270763218402863, -0.3318643569946289, -0.04559716582298279, 0.03993622213602066, -0.19054313004016876, 0.6798184514045715, 0.31296515464782715], [0.17031708359718323, -0.4994427561759949, -0.02211150899529457, -0.20448939502239227, -0.03311197832226753, 0.2366306334733963, -0.3748725950717926, -0.40395280718803406, -0.41588711738586426, -0.4058360755443573, 0.010312787257134914, 0.13192836940288544, -0.47004008293151855, -0.03084232099354267, -0.18101122975349426, 0.31727927923202515, 0.24793556332588196, 0.009484274312853813, 0.36358577013015747, -0.03105909191071987, -1.5208913087844849, 0.16844314336776733, -0.07319654524326324, -0.1805579960346222, 0.2728489339351654, -0.44456934928894043, 0.6747047901153564, 0.023122554644942284, 0.1370915025472641, -0.12883687019348145, -0.413480669260025, -0.501041829586029, 0.18651655316352844, 0.2857738435268402, -0.1804819107055664, -0.26856663823127747, -0.3730431795120239, 0.49863237142562866, -0.04343626648187637, 0.22635115683078766, 0.1938605010509491, 0.1039467379450798, -0.5499332547187805, -0.2803344130516052, -0.22617509961128235, 0.3661166727542877, -0.1710478812456131, -0.4494355618953705, 0.20328804850578308, -0.45755207538604736, -0.2729761600494385, 0.3273594081401825, -0.3015614151954651, -0.003831670619547367, 0.38123518228530884, 0.07538548856973648, 0.42296987771987915, -0.0816785916686058, -0.6674419641494751, 0.0050824168138206005, -0.35521724820137024, -0.09658116102218628, 0.31940165162086487, 0.23923911154270172], [0.27918002009391785, 1.0633426904678345, -0.13712766766548157, -0.01641988381743431, 0.04249381273984909, -0.553337037563324, 0.1292620748281479, -0.4030284583568573, 0.046512994915246964, -0.17637568712234497, 0.28135916590690613, 0.09739675372838974, 0.7519491910934448, 0.49947869777679443, -0.043281130492687225, -0.0197776947170496, -0.11311199516057968, 0.49320200085639954, 0.3442796468734741, -0.13833284378051758, 0.7103911638259888, 0.3408414125442505, 0.19852353632450104, 0.1566067487001419, -0.08291973918676376, 0.38675132393836975, -0.5065295696258545, -0.17040538787841797, -0.2075500637292862, -0.27134302258491516, -0.2591121196746826, 1.7591135501861572, 0.03179095312952995, 0.3567725419998169, 0.6469839215278625, -0.028983833268284798, 0.004052222240716219, -0.13043297827243805, -0.14287950098514557, 0.5680429339408875, -0.0929359495639801, 0.4164988100528717, 0.13022968173027039, -0.2824140787124634, -0.2309861034154892, -0.16608896851539612, 0.4967484772205353, 0.28825345635414124, -0.286830872297287, 0.051180317997932434, 0.6739605665206909, -0.09376046061515808, -0.04752959683537483, 0.3884497284889221, -0.574418842792511, 0.1573818325996399, -0.04620128497481346, -0.06078892946243286, 0.3382112383842468, -0.08763778209686279, -0.042972587049007416, 0.06484980881214142, 0.4385078549385071, 0.5029269456863403], [-0.2406725138425827, 0.4491805136203766, 0.16138294339179993, -0.15420719981193542, -0.28087615966796875, 0.28140443563461304, 0.40113741159439087, -0.47692108154296875, -0.24503658711910248, 0.38355931639671326, -0.48673659563064575, -0.09303943812847137, 0.5148388743400574, 0.09698432683944702, -0.2930782437324524, 0.19508029520511627, 0.09389657527208328, 0.20058000087738037, 0.7367571592330933, 0.08140434324741364, 0.27867591381073, 0.24377323687076569, 0.2992192804813385, 0.5464662313461304, -0.2572152316570282, -0.1974315196275711, -0.1080058366060257, -0.577334463596344, -0.09805292636156082, 0.04336666688323021, -0.37755250930786133, 0.6669173836708069, -0.22280673682689667, 0.17910827696323395, 0.7146252393722534, 0.02138078771531582, -0.3251991271972656, -0.20166587829589844, 0.47675952315330505, -0.12386410683393478, -0.448600172996521, 0.5124370455741882, 0.6957781910896301, 0.11382682621479034, -0.19342657923698425, -0.15315032005310059, 0.5892009735107422, -0.2993711829185486, -0.27092742919921875, -0.04977446049451828, 0.19432438910007477, 0.21076051890850067, 0.17142683267593384, 0.16214486956596375, -0.4051016867160797, -0.01824246346950531, -0.010657117702066898, 0.13052211701869965, -0.2015136331319809, 0.7128728628158569, 0.047260742634534836, 0.04634352773427963, 1.1552112102508545, 0.21916237473487854], [0.3487151861190796, 0.9235865473747253, -0.09474200755357742, 0.5563838481903076, -0.18239562213420868, 0.5149619579315186, -0.057169947773218155, 0.17983707785606384, -0.47889775037765503, -0.1423751562833786, 0.4366670548915863, -0.47657784819602966, 0.7529407739639282, 0.2509407699108124, -0.04437091201543808, -0.009749718941748142, -0.38843604922294617, 0.07518792897462845, 0.03318856284022331, 0.019503945484757423, 0.43666619062423706, 0.035471111536026, -0.5779601335525513, 0.4612550437450409, -0.27601635456085205, -0.3923388719558716, 0.08107868582010269, -0.6046515107154846, -0.15067285299301147, 0.4713781774044037, 0.4321734309196472, 0.5889766216278076, -0.2814829647541046, -0.39031583070755005, 0.5592946410179138, 0.2884845435619354, -0.11205781996250153, -0.11551793664693832, -0.2813103199005127, 0.21711669862270355, 0.029846739023923874, -0.49722591042518616, -0.059789836406707764, 0.4272814691066742, -0.14780758321285248, -0.6989935636520386, -0.02952159009873867, 0.5124732255935669, -0.14836138486862183, 0.09501545876264572, 0.4460051953792572, 0.4313642680644989, 0.13544093072414398, 0.008956418372690678, -0.3002249300479889, 0.2633042335510254, 0.16154634952545166, 0.3649156987667084, 0.21188001334667206, 0.3656643331050873, 0.5105264782905579, 0.3972969353199005, -0.1437692940235138, 0.46344441175460815], [0.09882310032844543, -0.06785526126623154, 0.16642393171787262, 0.3703230619430542, 0.04219378903508186, -0.09009134024381638, -0.42019763588905334, -0.5446018576622009, -0.6303296685218811, 0.19532036781311035, -0.31028851866722107, -0.002504529431462288, -0.17659954726696014, 0.30084407329559326, -0.45720770955085754, 0.21920455992221832, -0.12368085235357285, 0.0920071229338646, 0.23991015553474426, -0.8462204337120056, -0.6178552508354187, -0.19866400957107544, 0.37181615829467773, 0.015613982453942299, -0.2856186032295227, 0.04422175511717796, 0.09449420869350433, 0.0643080621957779, -0.005219432525336742, 0.7468320727348328, 0.38849425315856934, 0.13141313195228577, -0.5006800293922424, -0.4568365812301636, -0.08508482575416565, -0.009537088684737682, -0.10266929864883423, -0.15184971690177917, -0.05186003819108009, 0.2943209409713745, -0.038712505251169205, 0.23448064923286438, -0.09999988228082657, 0.3157210946083069, -0.17095156013965607, -0.3439105153083801, 0.02570079267024994, 0.06956163048744202, 0.07237625867128372, 0.5288102030754089, -0.048811160027980804, 0.5126648545265198, 0.2258833795785904, 0.3736863434314728, 0.13886965811252594, -0.18584012985229492, 0.3643169403076172, -0.4765321612358093, -0.4001845121383667, 0.5414687395095825, 0.22510185837745667, 0.5687152743339539, 0.4647578299045563, 0.6827546954154968], [0.04017121344804764, -0.5496981143951416, -0.5716812014579773, 0.2636214792728424, 0.387472540140152, 0.850619375705719, -0.21418188512325287, 0.2556505799293518, 0.04436308890581131, 0.14899276196956635, 0.6372121572494507, -0.6634172797203064, 0.0955309048295021, 0.1875912994146347, 0.06234576180577278, -1.014778971672058, -0.5154846906661987, -0.4113430380821228, -0.12541255354881287, -0.02284299209713936, 0.5673184394836426, -0.00624156603589654, -0.6123336553573608, -0.22690710425376892, -0.03354688733816147, -0.6215521097183228, -0.047909386456012726, 0.3299390971660614, 0.16266801953315735, -0.2838258743286133, 0.14561627805233002, 0.2836078107357025, 0.4479586184024811, 0.03134854510426521, 0.01638214848935604, 0.37592315673828125, 0.7633054852485657, 0.15497848391532898, -0.8430827856063843, -0.5652093887329102, -0.026559434831142426, -0.16657258570194244, -0.006571666337549686, 0.008690210990607738, -0.008117455057799816, 0.3859420716762543, 0.2745679020881653, -0.08706554025411606, 0.5336753726005554, 0.2229350358247757, -0.2640044689178467, -0.3981361985206604, 0.5154432058334351, -0.04634398967027664, -0.17553991079330444, 0.1978013664484024, -0.7573241591453552, 0.48955076932907104, -0.1357995718717575, 0.20458705723285675, 1.1833750009536743, 0.11579307168722153, 0.17708595097064972, -0.11274396628141403], [-1.2442232370376587, -0.28138038516044617, 0.9428036212921143, -0.1804252564907074, -0.029414363205432892, -0.04252446070313454, 0.18742460012435913, 0.3758993148803711, 0.09397882968187332, -0.32745835185050964, -0.3751260042190552, 0.41056400537490845, 0.12436003237962723, 0.14776979386806488, -0.2399509698152542, 0.8165704607963562, -0.05756504461169243, -0.3166005611419678, -0.3331774175167084, -0.34257352352142334, 0.1426568627357483, -0.30171555280685425, 0.15537109971046448, -0.5190063118934631, 0.7772926688194275, -0.35857635736465454, -0.13600558042526245, -0.18709656596183777, -0.32665082812309265, 0.014413004741072655, -0.12999247014522552, 0.0625004842877388, -0.01511586643755436, -0.054714981466531754, -0.19869381189346313, -0.22515016794204712, 0.4566780924797058, 0.17251645028591156, 0.2942253351211548, 0.08449330180883408, 0.24125640094280243, -0.12785223126411438, -0.14688193798065186, -1.4883801937103271, 0.21493752300739288, 0.5631043314933777, -0.22900833189487457, -0.43698546290397644, 0.01911539025604725, -0.5798517465591431, 0.18757633864879608, -0.4484083652496338, -0.2651497423648834, -0.21767546236515045, 0.04698750376701355, 0.4627135992050171, 0.3936314582824707, 0.3319546580314636, -0.023636462166905403, 0.1574479043483734, -0.5323384404182434, -0.5566078424453735, -0.011857247911393642, 0.12017961591482162], [0.0017011068994179368, -0.5094066262245178, -0.11500633507966995, 0.2745313346385956, 0.39666086435317993, 0.06108678877353668, 0.09968221932649612, -0.47461533546447754, -0.658604621887207, -0.09416519105434418, -0.16204528510570526, 0.17266026139259338, -0.37579166889190674, -0.4163975417613983, 0.1002984493970871, -0.5496522784233093, 0.3959697484970093, -0.12545594573020935, 0.7265870571136475, 0.11090917885303497, -0.5648017525672913, -0.25447213649749756, -0.19213074445724487, 0.2047530561685562, -0.39730745553970337, -0.05980705842375755, 1.024256944656372, -0.034918371587991714, 0.027041561901569366, 0.237022265791893, -0.054213136434555054, -1.1759533882141113, -0.31384342908859253, -0.28168195486068726, 0.5338631868362427, -0.8770862817764282, 0.4030662775039673, -0.3534563183784485, -0.031172465533018112, 0.3385351002216339, -0.46735480427742004, 0.3896709382534027, 0.5341395139694214, 0.4266371428966522, -0.08228912949562073, -0.5428856611251831, -0.20425467193126678, 0.22789107263088226, -0.0380370058119297, -0.24608638882637024, 0.5801713466644287, -0.011777346953749657, 0.2322607785463333, 0.2946526110172272, -0.4401306211948395, -0.07296380400657654, -0.31512749195098877, -0.09938668459653854, -0.4729796350002289, -0.0911424458026886, 0.024429023265838623, -0.17655394971370697, 0.06554137170314789, -0.007424140814691782], [-0.39990559220314026, 0.2879387140274048, 0.18560463190078735, -0.31225651502609253, -0.05271946266293526, 0.429392009973526, 0.2771053612232208, 0.5967013239860535, 0.7214285731315613, 0.007916298694908619, 0.30211952328681946, 0.10233443230390549, -0.2431333214044571, -0.09662574529647827, 0.3710859417915344, 0.3538130819797516, 0.16882678866386414, 0.2703811526298523, -0.7814818620681763, -0.07088024169206619, 1.2066608667373657, -0.05208548903465271, -0.4139963686466217, -0.26054054498672485, 0.06677644699811935, -0.12460651248693466, -0.509050726890564, 0.41177767515182495, 0.4041747450828552, 0.144378200173378, 0.1804894655942917, 0.44256657361984253, 0.09393486380577087, 0.3043280243873596, 0.19710929691791534, 0.3620973229408264, -0.22509154677391052, 0.1759469211101532, -0.33154916763305664, -0.034594062715768814, 0.38788431882858276, 0.04695369303226471, -0.3996741771697998, -0.2859496474266052, 0.19555111229419708, 0.3436271846294403, 0.4176872968673706, -0.30774131417274475, -0.057572126388549805, 0.406308114528656, -0.49598371982574463, -0.626904308795929, 0.12491938471794128, 0.1614457219839096, 0.1233397126197815, -0.020578591153025627, -0.3807108402252197, 0.16450338065624237, 0.1064874455332756, -0.38421598076820374, 0.42038846015930176, -0.21063518524169922, -0.25096791982650757, -0.3216452896595001], [-0.12213080376386642, -0.023930393159389496, -0.3758367896080017, -0.49689769744873047, -0.6425631046295166, 0.2345820814371109, -0.44110578298568726, -0.33031749725341797, 0.05435996875166893, -0.37805041670799255, -0.2197236269712448, 0.5348084568977356, -0.583561360836029, -0.17762845754623413, 0.15360867977142334, 0.16222089529037476, 0.5688055753707886, -0.17508366703987122, 0.07773751765489578, 0.07764848321676254, 0.34191563725471497, 0.04708149656653404, -0.06814306974411011, 0.22501178085803986, 0.3576325476169586, 0.4578068256378174, -0.21565306186676025, 0.13503029942512512, -0.5774731040000916, 0.37887024879455566, -0.22359782457351685, 1.3319023847579956, -0.3381687104701996, 0.3128741383552551, -0.21835501492023468, -0.35862264037132263, 0.3111015558242798, -0.2999119758605957, 0.030052753165364265, -0.1176246777176857, 0.2734694480895996, -0.15253783762454987, -0.43389463424682617, -0.1736786961555481, 0.422921359539032, 0.08915658295154572, -0.15413078665733337, -0.6188899278640747, -0.5616900324821472, -0.23931032419204712, -0.07615165412425995, -0.6623981595039368, -0.14322064816951752, -0.7246063947677612, 0.34631243348121643, 0.04010133817791939, -0.06322567164897919, 0.38230276107788086, -0.008624991402029991, 0.08239596337080002, -0.2674195468425751, 0.2719598412513733, -0.18194089829921722, -0.25232449173927307]], "fc1.bias": [-0.8617048859596252, -0.24040453135967255, -0.663120687007904, -0.07312227040529251, 0.19534306228160858, 0.2388867437839508, 0.35923445224761963, 0.2302512675523758, 0.3292478621006012, 0.4361485540866852, 0.12180925160646439, 0.03628392517566681, -0.2735927104949951, 0.4037816524505615, 0.1918906271457672, -0.12058334797620773, 0.16856172680854797, 0.03755948320031166, -0.1273087114095688, 0.030841821804642677, -0.1068698987364769, 0.2439490407705307, -0.20729908347129822, 0.29467323422431946, 0.8180878162384033, 0.22754792869091034, -0.1203322634100914, 0.45703670382499695, -0.16300584375858307, 0.4073585569858551, -0.18952353298664093, 0.6338468194007874], "fc2.weight": [[-0.23271015286445618, -0.04494563490152359, 0.22459940612316132, 0.34402814507484436, -0.1294526904821396, -0.3792455792427063, 0.3176525831222534, 0.020850934088230133, -0.2600501775741577, -0.2058020979166031, 0.39418190717697144, 0.08041729778051376, 0.027133140712976456, -0.36321160197257996, 0.06512004137039185, 0.6538397073745728, -0.25348442792892456, -0.3218843638896942, 0.35271260142326355, 0.09426788240671158, 0.4012508988380432, -0.07028555124998093, -0.3655679225921631, 0.2913219630718231, 0.1722165197134018, 0.2311050295829773, 0.03952222317457199, -0.21095259487628937, 0.11294318735599518, -0.10356725752353668, 0.23819434642791748, 0.12257012724876404], [-0.2569012939929962, -0.25603803992271423, -0.10714835673570633, -0.3525198698043823, 0.18505947291851044, -0.38001495599746704, 0.2477496862411499, 0.14815545082092285, 0.18725810945034027, 0.34810101985931396, -0.09894745796918869, -0.36425644159317017, 0.042460400611162186, 0.34151607751846313, -0.18294940888881683, 0.04660921171307564, 0.06801117956638336, -0.745098888874054, -0.4044477641582489, -0.3453400731086731, -0.040362317115068436, 0.27947625517845154, -0.4752153754234314, 0.2510291039943695, 0.23276464641094208, -0.1160009503364563, -0.18594639003276825, -0.1061907559633255, 0.08252227306365967, -0.23858274519443512, 0.471803218126297, 0.13548097014427185]], "fc2.bias": [0.3660518527030945, 0.43430352210998535]}