{"fc0.weight": [[-0.17801588773727417, -0.4808419346809387, -0.1387995332479477, 1.3484961986541748, -0.4494938850402832, 0.20631062984466553, -0.4561649560928345, -0.3106466829776764], [0.674310028553009, -0.08935951441526413, -1.666386604309082, 0.770882248878479, 0.3454563617706299, -0.19300992786884308, -2.7982265949249268, 1.0895519256591797], [-0.0053376369178295135, -1.157361388206482, -0.1035955622792244, 0.8815866708755493, -0.2639694809913635, -0.1617293506860733, 0.5363309383392334, -0.4153616428375244], [-0.6347689032554626, 0.01188159454613924, -2.0309417247772217, -1.2574217319488525, -0.09386349469423294, -0.024350525811314583, -2.1181130409240723, 0.1480776071548462], [-0.10968927294015884, 0.6289794445037842, 0.10943145304918289, 1.9557161331176758, -0.27797067165374756, -0.26865994930267334, 0.47698456048965454, -0.5865023732185364], [-0.1778261661529541, -0.07834780961275101, -1.767452597618103, 0.9991556406021118, 0.10698989778757095, -0.3233567178249359, -1.247198224067688, 0.27127498388290405], [0.22479687631130219, 0.021861683577299118, 2.9533169269561768, 0.21472398936748505, 0.11332075297832489, 0.1125636175274849, 2.639035940170288, -0.2943741977214813], [0.05283602327108383, 0.5474079251289368, -0.23808272182941437, 0.2685451805591583, -0.45284873247146606, 0.003961195237934589, -0.21020594239234924, 0.13459700345993042], [0.730678915977478, 0.004296612460166216, -2.3689358234405518, -0.014678613282740116, -0.4762681722640991, -0.14866730570793152, -2.8648552894592285, 0.19397807121276855], [-0.7625259160995483, -0.021192898973822594, -0.20466212928295135, 1.26687490940094, 0.3401482105255127, 0.04830972105264664, -0.6449304223060608, -0.5471731424331665], [0.44993525743484497, 0.17699111998081207, 1.8040797710418701, 0.27603110671043396, 0.08947191387414932, -0.24333353340625763, 1.3356724977493286, -0.915687620639801], [0.5762243866920471, -0.02072487585246563, 2.0086538791656494, 0.17898879945278168, 0.006445280276238918, -0.2735753357410431, 2.522257089614868, -0.07879407703876495], [0.025796785950660706, -0.8815852999687195, 0.6109415888786316, 0.1764705628156662, 0.07410603761672974, 0.28211647272109985, -0.030689304694533348, -0.06640803068876266], [-0.8223460912704468, 0.08231335133314133, -1.0410269498825073, 1.331420660018921, -0.26270291209220886, -0.40065208077430725, -1.0604530572891235, -0.4331747889518738], [-0.3917142450809479, 0.0454975888133049, 3.164015293121338, -0.29417529702186584, -0.09376925975084305, -0.43719854950904846, 3.6290619373321533, -1.1052088737487793], [-0.20768548548221588, 0.0036640644539147615, -0.531238853931427, -1.2564316987991333, 0.07474101334810257, 0.2866051197052002, -0.9287331104278564, 0.19374717772006989], [0.1681620180606842, 0.22679591178894043, -0.8297498226165771, -1.2472419738769531, 0.2105659395456314, 0.045665789395570755, -1.6182808876037598, 0.59152752161026], [-0.16991858184337616, -0.485769659280777, -0.3878953754901886, -0.2895955741405487, 0.1983962059020996, -0.21704740822315216, -0.5842886567115784, -0.4140291213989258], [-0.8670275211334229, -0.03301483020186424, -1.601797103881836, -0.17514580488204956, -0.4354332387447357, 0.17124970257282257, -1.9472382068634033, -0.5356120467185974], [-0.24849173426628113, -0.531630277633667, -0.10423803329467773, -1.5104104280471802, -0.320340096950531, -0.3914342224597931, -0.7328851222991943, -0.5468035936355591], [-0.3493943214416504, -0.03512578830122948, -2.0761826038360596, -0.9103403091430664, -0.3302728235721588, -0.43262872099876404, -2.616197347640991, 0.2404627799987793], [-0.650054395198822, -0.1389746516942978, -0.8706119060516357, 0.29845237731933594, 0.3974372446537018, -0.28312948346138, -1.6577826738357544, -0.30332082509994507], [0.4571327269077301, -0.11823254823684692, 0.5366701483726501, 1.181335687637329, -0.385999470949173, -0.10359341651201248, 1.3412989377975464, -0.06424234807491302], [-0.8769991993904114, -0.19548514485359192, -0.3805296719074249, -0.12001651525497437, 0.047195494174957275, 0.12678852677345276, -0.25977081060409546, 0.004521167371422052], [-0.046947456896305084, 0.47192150354385376, 0.5680830478668213, -2.587381362915039, 0.05099242553114891, 0.09520977735519409, -0.22361628711223602, -0.03490264713764191], [-0.023555878549814224, 1.1191163063049316, 0.10974716395139694, -1.241571307182312, -0.45148012042045593, -0.09055659919977188, -0.4785490930080414, -0.23121008276939392], [-0.03812485933303833, 0.08507398515939713, 0.3123306632041931, -2.1125354766845703, 0.4803421199321747, -0.2864595949649811, 0.043103285133838654, -0.08840087801218033], [-0.0643746554851532, 0.4011661410331726, 1.2248814105987549, -0.7063999772071838, -0.35400518774986267, 0.11491113901138306, 1.7210452556610107, 0.423864483833313], [-2.1682493686676025, 0.10849955677986145, 0.5951969027519226, 0.13885729014873505, -0.47873738408088684, -0.43959590792655945, 0.23330798745155334, -0.3644736111164093], [-0.45393386483192444, 0.009649783372879028, 0.4584057629108429, 2.2230188846588135, -0.227491557598114, 0.13817881047725677, -0.4430696666240692, 0.28981995582580566], [0.4808799922466278, -0.05701679736375809, 0.8259446024894714, 2.106266736984253, -0.043910909444093704, -0.335813969373703, 0.7485823035240173, 0.3224477171897888], [0.0642189309000969, 0.3275216817855835, 1.019690752029419, -1.6744078397750854, -0.31644773483276367, -0.4573764204978943, 1.3937867879867554, -0.25028058886528015], [-0.2589511573314667, -0.012621333822607994, 2.8054215908050537, 0.6035712361335754, 0.31315746903419495, 0.43973690271377563, 2.8363277912139893, -0.932156503200531], [-0.043908827006816864, 0.29401323199272156, 0.7218311429023743, -1.5343713760375977, -0.010813005268573761, -0.0319746732711792, 1.0451799631118774, 0.6910058259963989], [-0.31959471106529236, -0.050312139093875885, -1.4322460889816284, -1.811773419380188, -0.0578787624835968, -0.43334782123565674, -0.9436056017875671, -1.2830287218093872], [-1.6450351476669312, -0.06484701484441757, 0.44118449091911316, -0.23685909807682037, -0.05819564685225487, 0.3447624444961548, 0.1534769982099533, 0.260280042886734], [-0.10069482773542404, 0.7398262023925781, 0.5156558156013489, 1.2453618049621582, 0.15028148889541626, 0.22049997746944427, 0.6220266819000244, 0.8017479181289673], [-0.21480031311511993, -0.8409056663513184, 0.3008858859539032, -0.6596788763999939, 0.34644177556037903, 0.3418922424316406, 0.2965191602706909, 0.1444438099861145], [-2.9057183265686035, -0.039686091244220734, 0.5123528242111206, 0.061789076775312424, -0.09499721974134445, -0.026489965617656708, 0.504429817199707, 0.5923804044723511], [0.7752980589866638, 0.01343694981187582, 1.880375623703003, -0.4105284810066223, -0.2930890619754791, -0.31731775403022766, 2.418994903564453, 0.39329323172569275], [-0.005042353179305792, 0.7087267637252808, -0.5531514286994934, -1.1492140293121338, 0.16162754595279694, -0.3046374022960663, -0.635671079158783, -0.07607659697532654], [0.2407897412776947, 0.1868436485528946, -1.3048099279403687, 0.6558564305305481, 0.048155494034290314, 0.323820561170578, -1.192505955696106, 1.000018835067749], [-0.9438958168029785, -0.20281507074832916, -0.7077106833457947, -0.0043871900998055935, -0.337931752204895, 0.24968813359737396, -0.8991124629974365, -0.12612809240818024], [-0.03885244205594063, -0.23084613680839539, 0.270832896232605, 2.773118019104004, 0.10582520067691803, 0.2775515615940094, 0.11543679982423782, -0.13667698204517365], [-0.45302614569664, 0.01543296780437231, 0.9489268064498901, 0.30561649799346924, -0.20519347488880157, 0.02003946714103222, 1.4643386602401733, -0.07847175002098083], [0.17773282527923584, 0.5145724415779114, 0.221653550863266, -0.5006445050239563, -0.033026039600372314, -0.23694457113742828, 0.2689535915851593, -0.25647491216659546], [-0.6012726426124573, -0.05905473604798317, 0.0817023366689682, 1.7393882274627686, -0.23444820940494537, 0.1871766746044159, -0.17246685922145844, -0.7237173914909363], [0.061490755528211594, -1.0437020063400269, -0.12996499240398407, -0.40462785959243774, -0.4185694456100464, -0.27446645498275757, 0.48570263385772705, -0.028014447540044785], [-0.47576597332954407, -0.08198101073503494, -0.8940466046333313, -1.1660254001617432, 0.2095063030719757, 0.12264953553676605, -0.5197503566741943, -0.46333110332489014], [-0.4137597978115082, 0.05467522144317627, -2.0914320945739746, 0.44279104471206665, -0.13534767925739288, 0.28478989005088806, -1.4721170663833618, 0.8634926676750183], [0.0018451971700415015, 0.8422831296920776, 0.3318411707878113, -1.058052897453308, 0.42099037766456604, -0.47497275471687317, 0.41257381439208984, 0.3934192657470703], [0.10686099529266357, -0.47249671816825867, -0.46366629004478455, -2.6161749362945557, 0.0397644005715847, -0.03890884295105934, 0.19510264694690704, 0.07352548837661743], [0.7781782150268555, 0.05426056310534477, 1.054664134979248, -0.2841239273548126, -0.43569162487983704, -0.04416126385331154, 1.728211760520935, 0.6176952123641968], [0.43833789229393005, -0.04840041324496269, 0.24429133534431458, -2.7440762519836426, -0.18301072716712952, 0.007707425393164158, 0.2928599417209625, 0.08452331274747849], [-1.8280644416809082, 0.1214684247970581, -0.3051232695579529, -0.003205714514479041, -0.399700403213501, 0.2927834093570709, 0.08812420070171356, -0.3682876229286194], [-0.5501832962036133, 0.019181063398718834, 1.008415937423706, 0.4181636571884155, -0.2928244173526764, -0.02633940987288952, 0.7392025589942932, -0.5500062704086304], [0.18693864345550537, -0.3791068196296692, 0.5595755577087402, -1.4716291427612305, 0.24170775711536407, -0.06070743128657341, 0.9723473787307739, 0.18337412178516388], [-1.2746721506118774, 0.07599341869354248, -1.2988852262496948, 0.05915061756968498, -0.016359250992536545, -0.11547476053237915, -0.9616252779960632, -0.249518021941185], [-0.32726675271987915, 0.41922643780708313, -0.24055233597755432, 1.0197210311889648, -0.18193446099758148, -0.12380299717187881, -0.6314204335212708, -0.5803437232971191], [-2.019627571105957, -0.07067747414112091, 0.5264273285865784, 0.07255852222442627, -0.31898099184036255, 0.06026110053062439, 0.5947497487068176, 0.46816474199295044], [0.06918291002511978, -0.26339656114578247, 1.0521841049194336, 0.9106248021125793, -0.021993309259414673, -0.20732711255550385, 1.9151722192764282, -0.15523463487625122], [2.0949599742889404, -0.048414941877126694, -1.0439656972885132, -0.045138802379369736, -0.18812136352062225, -0.19829921424388885, -0.6341808438301086, -0.2841586172580719], [-0.003122879657894373, 0.8135340213775635, -0.34527817368507385, -0.8942927122116089, 0.2630751430988312, -0.048765115439891815, -1.2254445552825928, -0.29156550765037537], [-0.019221939146518707, -0.3558472990989685, -0.33783096075057983, 1.489441156387329, -0.12992583215236664, -0.02048063836991787, -0.4880945682525635, -0.062125902622938156]], "fc0.bias": [0.4334491193294525, -0.0729658454656601, -0.24513745307922363, -0.3606654107570648, -0.041237372905015945, -0.3912429213523865, 0.3552810251712799, -0.23456676304340363, -0.4659011960029602, 0.2514887750148773, 0.42641839385032654, 1.2046927213668823, 0.8609247803688049, 0.252808541059494, -0.2862564027309418, -0.14194372296333313, -0.19694028794765472, 0.4598139226436615, 0.11606629937887192, 0.09420334547758102, 0.26803717017173767, 0.4502637982368469, -0.5238246321678162, -0.2365654706954956, 0.12157832086086273, 0.27771642804145813, -0.3271630108356476, -0.6850295662879944, 0.18636715412139893, -0.6471745371818542, 0.5308565497398376, -1.1309136152267456, 0.04505787044763565, 0.24297620356082916, -0.4766501784324646, -0.180421844124794, 0.06770744919776917, 0.21346864104270935, -0.290828138589859, -0.05108138173818588, -0.08407560735940933, -0.4286910593509674, 0.25720876455307007, 1.3072497844696045, -0.119096539914608, 0.12017190456390381, 0.9842352867126465, 0.9488915801048279, -0.33443406224250793, 0.5522894263267517, -0.5577855706214905, 0.3584789037704468, 0.16759957373142242, 0.7832514047622681, -0.5342569351196289, 0.45974186062812805, 1.2611600160598755, -0.8759927153587341, -0.05480268597602844, 0.4066968560218811, 0.3563339114189148, 0.2607385516166687, -0.2102193683385849, 0.512434184551239], "fc1.weight": [[-0.26433926820755005, -0.2704583704471588, -0.4957844018936157, -0.04298534244298935, 0.9753744602203369, 0.6110734939575195, -0.8046907186508179, 0.16026368737220764, 0.035263679921627045, 0.5293183326721191, -0.4036388695240021, 0.16538386046886444, -0.13353155553340912, 0.8712056875228882, 0.08173172920942307, -1.3131059408187866, -0.44621819257736206, -0.43793797492980957, 0.5900188088417053, -0.1010197103023529, -0.2099904716014862, 0.20671944320201874, -0.3303081691265106, 0.45926210284233093, -1.9480531215667725, 0.45206519961357117, -1.9710749387741089, -0.8739489912986755, -0.20311227440834045, 1.1581757068634033, 0.5616792440414429, -0.044945552945137024, 0.4307100474834442, -0.32986176013946533, -0.7913468480110168, 0.13498680293560028, 0.255968302488327, -0.18144015967845917, 0.004104824271053076, -0.48222681879997253, -0.24173696339130402, -0.2702806293964386, 0.2523115575313568, 1.8190221786499023, -0.1112009584903717, 0.4690900444984436, 0.18227864801883698, -1.390092134475708, -0.6469243168830872, 0.2399742305278778, -0.17754948139190674, -0.844528317451477, 0.11742193251848221, -1.3286237716674805, -0.074135921895504, -0.12047773599624634, -0.2116037756204605, 0.054145343601703644, 0.4557077884674072, 0.19003388285636902, 0.038938116282224655, 0.004774551838636398, -0.2513418197631836, 1.2942087650299072], [1.3837547302246094, -0.11854595690965652, -0.02490099146962166, -0.8774762749671936, -0.0007464931113645434, 0.20074260234832764, -0.2300945371389389, -0.2421853244304657, -0.2873736321926117, 0.9328830242156982, 0.550814688205719, 0.18150655925273895, -0.127333864569664, 0.14573463797569275, -0.21836940944194794, -0.05633663386106491, 0.1747056096792221, 0.22718477249145508, -0.3239297866821289, -0.40895771980285645, 0.12908674776554108, -0.7700971364974976, -0.09633693844079971, -0.927692174911499, -0.07423616200685501, 0.38810354471206665, 0.11727537959814072, 0.8021396398544312, -1.1391775608062744, 0.4709450602531433, -0.053083907812833786, -0.15852351486682892, -0.5713011026382446, -0.30111631751060486, 0.06337816268205643, -1.567340612411499, 0.6991391777992249, -0.559575080871582, -0.9364503026008606, 1.0388634204864502, -0.0634034052491188, -1.314612627029419, -0.5546606779098511, 0.2560514211654663, 0.1774965524673462, 0.595890998840332, 0.14560435712337494, 0.24855680763721466, -1.1924209594726562, -0.3788626194000244, -0.6515615582466125, 0.04623468220233917, 0.3383180797100067, -0.031276073306798935, -0.9127451181411743, -0.07069694250822067, -0.27089807391166687, -1.0793429613113403, 0.4568556845188141, -0.6018500328063965, 1.3414726257324219, 1.2136125564575195, -0.8493306040763855, 0.9797213673591614], [1.8286848068237305, -0.6998487114906311, -0.057700976729393005, -0.2445264458656311, 0.3729282021522522, -0.18496881425380707, -0.14093081653118134, 0.2072565108537674, -0.927335798740387, 0.3159976601600647, -0.4260448217391968, 0.26364564895629883, 0.04082943871617317, 0.2951384484767914, 0.48962488770484924, -0.6084389090538025, 0.0034529047552496195, 0.18643204867839813, 0.2006802260875702, -0.10498607903718948, 0.6290523409843445, 0.7041549682617188, -0.5770877003669739, 0.04951542243361473, 0.6554643511772156, -0.5103699564933777, 0.7210770845413208, 0.3065206706523895, 0.7062596678733826, 0.3051120638847351, -1.3926174640655518, 0.44662320613861084, 1.0397392511367798, -0.6079763174057007, 0.5820075273513794, 0.2850956320762634, -0.466067910194397, 0.2406415492296219, 0.9104886054992676, -0.3528364300727844, -1.9317256212234497, 0.938193678855896, 0.38378942012786865, 0.18705026805400848, 0.40146464109420776, -0.13156543672084808, 0.41189587116241455, -0.17833945155143738, 0.7734594941139221, 0.6406298279762268, 0.5786377787590027, 0.17748624086380005, -0.9103610515594482, -0.3871539533138275, 0.29756346344947815, 1.1032288074493408, -0.5388208627700806, 0.3742293119430542, -0.49788084626197815, 1.0193240642547607, -0.48862284421920776, -0.5581526756286621, -0.7184880971908569, -0.0035906867124140263], [0.6921577453613281, 1.383538007736206, 0.2134048044681549, -0.8631141185760498, 0.2738555669784546, 0.17805781960487366, 0.06350234150886536, -0.7607612609863281, 0.15967972576618195, 0.5717661380767822, 0.2675664722919464, 0.012636431492865086, 0.6483609080314636, -0.9813358783721924, 1.0386929512023926, 0.3275447189807892, -1.0959141254425049, 0.5841512680053711, -0.41048166155815125, 0.486431747674942, -0.5423767566680908, -0.038651175796985626, 0.35523521900177, -0.3618183434009552, -0.6817715167999268, -0.3201635777950287, -0.6476075649261475, -0.009050712920725346, -0.5947867035865784, 0.7686605453491211, -0.2454926073551178, -0.5614755749702454, 0.8711832761764526, -0.638766348361969, 0.0872199609875679, 0.19098787009716034, 0.0603446401655674, 0.27287501096725464, -0.17990706861019135, 0.1093369796872139, -0.7350518703460693, -1.2125778198242188, -0.32724297046661377, 0.49234557151794434, 0.6191192865371704, 0.14872264862060547, 1.0766043663024902, 0.5903422236442566, -0.911327600479126, 0.32739484310150146, -1.19362211227417, -0.04873611032962799, -0.3373962938785553, -0.5724325180053711, -0.8225794434547424, -1.2985377311706543, 0.6373946666717529, -0.032714489847421646, -0.3053963780403137, -0.2202438861131668, 0.9129859209060669, 0.4788556694984436, -0.7377625703811646, 0.5134196877479553], [0.3802819550037384, -0.8749227523803711, 0.2451321929693222, 1.2399441003799438, 0.14297951757907867, 0.6860860586166382, -0.36882925033569336, 0.7539901733398438, 1.9061075448989868, 0.16735205054283142, -0.5901396870613098, -0.0822073444724083, -0.32053476572036743, 0.6877402663230896, 0.3670073449611664, -0.23986577987670898, -0.10313408076763153, 0.5950400233268738, 0.8315236568450928, 0.7538138628005981, 1.0937894582748413, 0.8985112309455872, -1.1409955024719238, 1.082674503326416, 0.7830290794372559, 0.32966145873069763, 0.8592655062675476, -0.1420721858739853, 0.4162379205226898, -0.48624253273010254, -0.7134072780609131, -0.9418990612030029, 0.5650056004524231, 0.1823882758617401, 0.09548073261976242, 0.1592177003622055, -0.5387766361236572, 0.8566568493843079, -0.10243266820907593, -1.0775457620620728, -0.3333844840526581, 1.0560715198516846, 0.584363579750061, -0.581874668598175, 0.9398320317268372, -0.05360691249370575, -0.4206991493701935, 0.4215475618839264, -0.011093257926404476, 0.8239651322364807, 0.279185950756073, 0.8033997416496277, -0.05915474891662598, 0.16576862335205078, 0.030385099351406097, 0.8694150447845459, -0.6240348815917969, 0.581351637840271, 0.24948380887508392, -0.11408374458551407, -0.41866523027420044, 0.5046238303184509, 0.2603839337825775, 0.04557926207780838], [-1.065557599067688, -0.4319502115249634, -0.9976677894592285, 0.41653716564178467, -0.10811027139425278, 0.6231342554092407, -0.03935523331165314, -0.2760343551635742, -0.5124663710594177, 1.3321363925933838, 0.0919370949268341, 0.35471203923225403, -0.47574207186698914, -0.17543721199035645, 0.08869196474552155, -0.052566591650247574, 0.6748185753822327, -1.1030579805374146, 0.5847993493080139, -0.7966564893722534, -0.4838154911994934, -0.9574559926986694, 1.622523546218872, 0.006061316002160311, 0.7717407941818237, 1.6312360763549805, -0.18460483849048615, 0.6054337620735168, -0.3670107424259186, 0.3937573730945587, 0.3065917193889618, -0.6506533026695251, 0.27114659547805786, -0.26217231154441833, 0.45559200644493103, 0.18969520926475525, 0.5976453423500061, -0.3817320466041565, 0.450621634721756, 0.31010720133781433, 0.3354299068450928, 0.042482249438762665, -0.7302709221839905, -0.5033119320869446, 0.014923269860446453, 0.6379112005233765, 0.7289735078811646, -0.3416832387447357, -0.24967142939567566, -0.746226966381073, 0.7510504126548767, -0.38937488198280334, -0.29282525181770325, 0.015658073127269745, 0.10629430413246155, 0.39551088213920593, -0.5740461945533752, 0.25401926040649414, 0.21302899718284607, 0.06185896322131157, 0.48704349994659424, 0.12487225234508514, 1.7733139991760254, 0.5942874550819397], [1.4710307121276855, 0.21848700940608978, 1.1255273818969727, -0.17054957151412964, -0.42658841609954834, -0.301971971988678, -0.2656491994857788, 0.07633773237466812, -0.1160939484834671, 0.01607498526573181, -0.192734032869339, 0.3233764171600342, 1.2004576921463013, -0.07838239520788193, 0.13688866794109344, -0.2604178786277771, -0.8121259808540344, 0.2388981431722641, -0.4514627158641815, 0.08216717839241028, -0.32051169872283936, 0.30017805099487305, -0.03997666761279106, -0.1616622656583786, -0.37485137581825256, -2.481994867324829, 0.03879532963037491, -0.24487777054309845, -0.11243785172700882, -0.4336879551410675, -0.1647995114326477, -0.2405126690864563, 0.12257576733827591, 0.45211586356163025, -0.2254384607076645, -0.19336512684822083, -0.2785894274711609, 0.008353712037205696, 0.05225905403494835, 0.22278358042240143, -0.370424747467041, -0.22945760190486908, -0.3684521019458771, 0.7397139668464661, 0.1559780091047287, -1.1189934015274048, -0.03489430993795395, 0.1366400271654129, -0.3112100064754486, 0.31818103790283203, -0.2846194803714752, 0.020145708695054054, -0.25654616951942444, 0.3194572925567627, 0.03760509192943573, 0.06377308070659637, 0.4087374210357666, -0.6550179719924927, -0.46726784110069275, -0.32836487889289856, 0.14107534289360046, -0.28994059562683105, -0.4862848222255707, 0.2569422125816345], [-0.7896384596824646, -0.04783983156085014, -0.8806012868881226, -0.20845012366771698, -0.0889790877699852, -0.4884467124938965, -0.09261095523834229, 0.34319913387298584, -0.11422451585531235, -0.4347212612628937, 0.1546432077884674, -0.5630010366439819, -0.15095700323581696, -0.2508455514907837, -0.28182992339134216, 0.5946031212806702, 0.8110272288322449, -0.28644174337387085, 0.32051539421081543, 0.010798855684697628, 0.07942847162485123, -0.10992015153169632, -0.22904501855373383, 0.6244583129882812, 1.8345221281051636, 0.6660922169685364, 0.6442686319351196, 0.3453023433685303, -0.05669853836297989, -0.7388078570365906, 0.1242869570851326, 0.05609707161784172, -0.07482530176639557, 0.8692945241928101, -0.2901812195777893, -0.2659941613674164, 0.018154218792915344, -0.12766635417938232, -0.392408162355423, -0.5022922158241272, 1.2834118604660034, -0.5693114399909973, -0.1625128537416458, -1.4947744607925415, -0.47893455624580383, 1.3251088857650757, -0.007892713882029057, -0.7529633045196533, 0.8355305194854736, -0.4508087635040283, 1.8017066717147827, 0.0018457412952557206, -0.5430620312690735, 0.0502052828669548, 0.2946433424949646, 0.20298856496810913, -0.008352064527571201, -0.03267841413617134, -0.13177326321601868, -0.6514186263084412, 0.23437558114528656, 0.20872202515602112, 1.2690060138702393, -1.067733645439148], [-0.9398308992385864, 0.400028795003891, -0.3253147304058075, -0.36458921432495117, -0.524411678314209, 0.009975974448025227, 0.9301761388778687, -0.6770719885826111, 0.09071609377861023, -0.005362779833376408, -0.024554166942834854, 0.9284212589263916, 0.40999656915664673, -0.783687949180603, 0.7194926738739014, 0.03310183063149452, -0.48143255710601807, -1.7178266048431396, -0.9361624121665955, 0.02844196930527687, -0.6000561118125916, -0.9712989330291748, 0.9472284317016602, -0.13216689229011536, -0.48083657026290894, 0.29551446437835693, 0.2521442770957947, 0.08706696331501007, -0.6279708743095398, -0.5288323760032654, 0.8343138694763184, 0.29655495285987854, 0.5291330814361572, 0.3087431490421295, 0.12887313961982727, 0.3819408416748047, -0.5049118995666504, 0.4021058976650238, -0.31864920258522034, 0.1577804684638977, 0.33183881640434265, -0.615259051322937, 0.22132810950279236, 0.45412585139274597, -0.2824838161468506, 0.6412556171417236, 0.13506700098514557, 0.04156767576932907, -0.096595898270607, -1.2916885614395142, -0.4592968821525574, 0.4015965163707733, 0.019644243642687798, 0.30685389041900635, -0.7266290783882141, -0.6318462491035461, 0.20771555602550507, -0.6563096046447754, -0.3114447593688965, 0.02191796340048313, 1.4876257181167603, 0.16973333060741425, -0.186123326420784, 0.3483903706073761], [-0.07493365556001663, -0.1852026730775833, -0.19967781007289886, 0.03217199817299843, -0.05531129986047745, -0.3700932264328003, -0.4010915756225586, -0.07642660290002823, -0.48764005303382874, -0.07706611603498459, -0.21174730360507965, -0.44637662172317505, 0.5033960938453674, 0.5972405076026917, 0.33783894777297974, -0.11035586893558502, -0.13324950635433197, 0.1920359581708908, -0.11844129115343094, -0.5976105332374573, 0.5069546103477478, 0.8951759934425354, -0.17024283111095428, 0.14424653351306915, 0.045573677867650986, 0.11299069970846176, -0.29223886132240295, -0.1473587304353714, 1.0956202745437622, 0.328420490026474, 0.23906277120113373, 0.09947293251752853, 0.37185731530189514, -0.14912739396095276, -0.13065971434116364, 1.364150047302246, 0.1836281567811966, 0.587347149848938, 1.7810330390930176, -0.2446477711200714, 0.08769173920154572, 0.7389237880706787, 0.20151272416114807, 0.1960645169019699, -0.15909387171268463, -0.1915619969367981, 0.03811941295862198, -0.010696480982005596, -0.3028566539287567, 0.2731091380119324, 0.2250766158103943, -0.02285544015467167, -0.2639084458351135, 0.2825118601322174, 1.007442831993103, -0.028202442452311516, 0.2700861394405365, 0.4125116169452667, -0.4219616949558258, 0.8388686776161194, -0.24257944524288177, -1.8349236249923706, 0.42338377237319946, 0.3186614513397217], [0.9366101622581482, -0.17884613573551178, 1.0435911417007446, -1.2302275896072388, -0.1595233529806137, -0.3721846640110016, -0.09561660140752792, -0.18097330629825592, -0.10651443898677826, 0.1860695332288742, 0.3544681966304779, 0.3915264308452606, 1.43898344039917, -0.3322262763977051, -0.04850064963102341, -1.1408095359802246, -0.029097741469740868, 0.1605367809534073, -0.1939314603805542, 0.23309271037578583, 0.4593190550804138, 0.044588349759578705, -0.022809267044067383, -0.03600361943244934, 0.07934865355491638, -1.2698980569839478, 0.29303404688835144, -0.3754863739013672, -0.16628819704055786, -0.38191208243370056, -0.2820099890232086, 0.2829006314277649, 0.09216167777776718, 0.08996788412332535, 0.23680822551250458, 0.04205528274178505, -0.37659046053886414, 0.05662098899483681, 0.13448414206504822, 0.27389511466026306, -1.214539885520935, 0.15765610337257385, -0.3681747615337372, 0.9790712594985962, -0.6365001201629639, -0.8163290023803711, -0.05540725961327553, 0.5970432162284851, 0.022074639797210693, 0.055285949259996414, -0.5267379283905029, 0.19456452131271362, -0.17902381718158722, 0.15156421065330505, -0.01799052767455578, -0.042968519032001495, 0.9810184240341187, 0.12251513451337814, -0.44899120926856995, -0.03599024564027786, 0.6200196743011475, 0.1422748565673828, -1.6419546604156494, -0.07842310518026352], [1.0311976671218872, 0.30690863728523254, -0.2137790471315384, -1.118509292602539, 0.35318484902381897, -0.22873301804065704, 0.2673603892326355, -0.09910807013511658, -0.006401438731700182, -0.04857836291193962, 0.7600113153457642, 1.6352287530899048, 0.39897382259368896, -1.0077438354492188, 0.4492860436439514, -1.2726911306381226, -0.6704778075218201, -0.6289172768592834, -0.5083211064338684, -0.6934665441513062, 0.36647093296051025, -0.9492981433868408, -0.5777261257171631, -0.6031558513641357, -0.43568167090415955, 0.024064697325229645, -0.12639109790325165, 0.4732293486595154, -0.6463848352432251, -0.977355420589447, 0.723997175693512, 1.458193063735962, -0.6119388937950134, -0.2790459394454956, -0.8657501339912415, -0.20168790221214294, 0.6169435381889343, -0.44918569922447205, -0.3808295726776123, 0.3577366769313812, -0.035786788910627365, -0.49966946244239807, -0.7249459624290466, 0.6200827360153198, -0.020806198939681053, 0.5028712749481201, -0.6643978953361511, 0.036487359553575516, -0.682497501373291, -0.3815108835697174, -0.335151731967926, 1.5953549146652222, 0.7741647362709045, 1.3692348003387451, -0.5214878916740417, -0.10532791167497635, 1.3839167356491089, -0.6816641688346863, 0.17310701310634613, -0.11721264570951462, 0.507460355758667, 0.5396109819412231, -0.5793836116790771, 0.8254064917564392], [1.5904135704040527, 1.1349544525146484, -0.2875388562679291, 0.31830331683158875, 1.0237804651260376, 0.25265055894851685, -0.5840354561805725, 0.6398932337760925, -0.33463943004608154, 0.35399967432022095, -0.35326331853866577, -0.21304094791412354, -0.21733203530311584, 0.7683870196342468, -2.242479085922241, 0.5082224011421204, 0.3825492560863495, -0.97711580991745, 0.8853240609169006, 0.416912704706192, 0.3099990487098694, 0.12252850830554962, 0.27642321586608887, -0.6018896698951721, -0.19115856289863586, -0.23447026312351227, -0.3629227578639984, 0.33840298652648926, -0.029162459075450897, -0.0396215058863163, 0.46314769983291626, 0.2983417212963104, -0.7246127724647522, -0.18653056025505066, -0.5128021240234375, 0.18224719166755676, 0.1209433376789093, 0.2879013121128082, 0.4850842356681824, -0.04260621964931488, -0.016222642734646797, 1.1597566604614258, 1.1561155319213867, -0.09340955317020416, -1.9819412231445312, -0.4023455083370209, 0.3153758943080902, -0.7016395330429077, -0.08214244991540909, 0.11348623782396317, 0.15667027235031128, -1.1068999767303467, 0.19136011600494385, -0.5180419683456421, 0.2937487065792084, -1.1602951288223267, -0.6350753307342529, 0.47568970918655396, 0.740239143371582, -0.06046735867857933, -0.5781803727149963, -0.48957520723342896, -0.3592015504837036, -0.5273939371109009], [0.9930425882339478, 0.5861051082611084, 0.7150617837905884, -0.2811132073402405, -0.9122259616851807, -0.16260738670825958, -0.7343289256095886, -0.6940248012542725, 0.345032662153244, 0.17668715119361877, 0.19105809926986694, -0.10149062424898148, 1.0973167419433594, 0.33175012469291687, -0.2919318675994873, -0.6766062378883362, -0.474161297082901, 0.44986170530319214, -0.17436443269252777, 0.12646012008190155, 0.6666218638420105, 0.47815030813217163, -0.5072130560874939, 0.3793230950832367, 1.0584568977355957, 0.04296264797449112, 0.834613025188446, 0.47111776471138, 0.2075197696685791, -1.1567970514297485, -0.7134114503860474, 0.9541371464729309, -0.25599896907806396, 0.9487250447273254, 0.6857631206512451, 0.1620812714099884, -0.322209894657135, 0.4077405035495758, 0.01885020174086094, 0.11077018827199936, 0.25186389684677124, -0.19763290882110596, -0.08249292522668839, -1.365477442741394, 0.9884629249572754, -0.9583474397659302, -1.3711949586868286, 0.7912509441375732, 0.10397177934646606, 0.7860429286956787, 0.5417852401733398, 2.1983108520507812, -0.8276922106742859, 1.3221187591552734, 0.3061574399471283, -0.5816888809204102, 0.915986180305481, 0.03706859052181244, -1.2114527225494385, 0.2643967866897583, 0.1908828318119049, 0.017364656552672386, -0.13312964141368866, 0.730511486530304], [2.3570568561553955, -0.9133301377296448, 0.43326467275619507, -1.33140230178833, 0.1751079261302948, 0.5041865706443787, -0.14059889316558838, -0.31275174021720886, -1.2432057857513428, 1.172736644744873, -0.378601998090744, -0.2323896735906601, 0.3358696401119232, 0.0013232359196990728, 0.1468208283185959, -0.621459424495697, -1.3511890172958374, 0.09439249336719513, 0.7916606068611145, 0.21473877131938934, -0.5500402450561523, -0.1546734720468521, -0.08427423238754272, -0.11414407938718796, -0.8303611278533936, -0.7566670775413513, -0.21236585080623627, -0.09775947034358978, 0.1125221848487854, 0.280591756105423, 0.3485233783721924, -0.7615877985954285, 0.3272949159145355, -0.7724323272705078, 0.3859096169471741, 0.5052549242973328, 0.11206574738025665, 0.7187317609786987, 0.16160939633846283, 0.4811772406101227, -0.8810985088348389, -0.9465735554695129, -0.054191313683986664, 1.7691069841384888, 0.9705670475959778, -0.18749640882015228, 0.7327979207038879, -0.2136775702238083, -0.5484042763710022, 0.10225699841976166, -0.25676509737968445, 0.08375415951013565, -0.21228687465190887, -0.0460980087518692, 0.37208816409111023, 0.30709490180015564, -0.15385422110557556, -0.33144277334213257, 0.0146254301071167, 0.38868245482444763, 1.5279642343521118, -0.26560941338539124, -1.4754316806793213, 1.491923213005066], [1.397718071937561, 0.20659835636615753, 1.2144520282745361, -0.33433207869529724, -0.12382018566131592, -0.37661314010620117, 0.28041011095046997, -0.44777196645736694, 0.5971252918243408, 0.04963189736008644, 0.31518155336380005, -0.01708068512380123, 0.697087287902832, -0.011464131996035576, -0.1551889181137085, -0.510733425617218, 0.15245650708675385, 0.5499156713485718, -0.47526904940605164, 0.30838459730148315, 0.0586557611823082, 0.32946616411209106, -0.10132982581853867, 0.3927263915538788, -0.16509434580802917, -2.112515926361084, 0.28760209679603577, -0.5556943416595459, -0.04317682236433029, 0.055275809019804, -0.3317921757698059, -0.3056901693344116, 0.09801672399044037, 0.018941137939691544, 0.5066583752632141, -0.18536333739757538, 0.07147524505853653, 0.7850397825241089, -0.18862196803092957, -0.05941653624176979, -0.6328932642936707, 0.3409278094768524, 0.19252024590969086, 0.9167131781578064, 0.11141737550497055, -0.690339207649231, -0.304720401763916, 0.518822193145752, 0.3515087366104126, -0.3666916787624359, -1.0874996185302734, 0.5073931217193604, 0.0838857889175415, 0.4739495813846588, 0.19185785949230194, 0.19766667485237122, 0.05075109377503395, 0.04197634384036064, -0.04324948415160179, -0.32791003584861755, 0.019020400941371918, 0.17171674966812134, -1.0988672971725464, 0.42154255509376526], [0.20242160558700562, -0.8231748938560486, 0.6614987850189209, 0.06342832744121552, 0.012359719723463058, 0.5683293342590332, -0.6021990180015564, 0.05861318111419678, -0.6794415712356567, 0.666029155254364, -0.04687769338488579, -0.026945168152451515, -0.45396989583969116, 0.8914531469345093, -0.03345916047692299, 0.6137930154800415, -0.32122454047203064, 1.026099443435669, 0.9435235261917114, 0.5212727189064026, 0.30186259746551514, 0.9474157691001892, -0.8225757479667664, 0.47231242060661316, 0.7837203145027161, -0.05342245101928711, -0.14513768255710602, 0.3607088625431061, 0.8888884782791138, 0.6248198747634888, 0.08283635228872299, -0.8181369304656982, 1.7075185775756836, -0.8497958183288574, 0.2619747519493103, 0.29129382967948914, -0.44661134481430054, 0.3411028981208801, -0.3241741955280304, -0.4457438588142395, 0.1880417913198471, 0.6186217665672302, -0.08137457817792892, 0.4076071083545685, 1.1471413373947144, -0.15419235825538635, 0.4242837429046631, 0.40104231238365173, 0.6132879257202148, 0.37947458028793335, -0.09517297148704529, -0.5325583815574646, -0.5602977871894836, -0.6604297757148743, 0.09203334152698517, 0.02916974388062954, -0.1578187197446823, 1.3670295476913452, 0.44378381967544556, -0.47273072600364685, -0.16428044438362122, -0.3925739824771881, 0.1969163864850998, 0.1319703459739685], [0.7546905875205994, -0.024182433262467384, 1.4764604568481445, -0.08263756334781647, -0.17152294516563416, -0.4554334282875061, 0.4627425968647003, -0.4385540187358856, 0.4702822268009186, 0.23260894417762756, -0.29361453652381897, 0.093136727809906, 0.6092349290847778, -0.4526805579662323, 0.06932035833597183, -0.2609879672527313, -0.3654305934906006, 0.3136928379535675, 0.12716828286647797, 0.06322349607944489, 0.22576281428337097, -0.31610995531082153, -0.15283751487731934, 0.1460113823413849, -0.241302952170372, -2.0615851879119873, -0.35304349660873413, -0.5225437879562378, 0.16744516789913177, -0.2594553530216217, -0.1480121612548828, -0.7304227948188782, -0.23983250558376312, -0.10861806571483612, -0.007533085998147726, -0.5018900036811829, -0.006272175814956427, 0.4161359667778015, 0.0018175331642851233, -0.06726748496294022, -0.2222803831100464, 0.1406501680612564, -0.07217676192522049, 0.7195876240730286, -0.31757986545562744, -0.7818842530250549, 0.12331990897655487, 0.42732271552085876, 0.25869035720825195, 0.22582858800888062, -0.47593867778778076, -0.03943103924393654, -0.14320914447307587, 0.395186185836792, -0.14696604013442993, -0.14305272698402405, 0.058152563869953156, -0.043412428349256516, -0.10657013952732086, -0.3752653896808624, -0.05305967852473259, 0.2295358031988144, -0.5278174877166748, 0.2022848278284073], [0.20472000539302826, 0.244953453540802, -0.3452659547328949, -0.31209421157836914, 0.6665934920310974, 1.2599132061004639, 0.29884961247444153, 0.5224672555923462, -0.405091792345047, 1.0212422609329224, -0.30690374970436096, 0.20390497148036957, -1.0303406715393066, 0.1975659877061844, -0.5360612273216248, -1.2344379425048828, 0.18397347629070282, -1.1438472270965576, 0.20435591042041779, -1.59627103805542, -0.1524067521095276, -0.24151840806007385, 0.5249934792518616, -0.4310852587223053, -1.3868145942687988, 0.1876736581325531, -2.124652147293091, 0.4052344858646393, 0.06746454536914825, 0.6403487920761108, 1.054295301437378, -1.3701790571212769, 0.49788084626197815, -0.768304705619812, -1.005737066268921, -0.14993345737457275, 0.649308443069458, -0.7967382669448853, -0.17575015127658844, -0.6368048787117004, -0.31378716230392456, 0.5159546732902527, -0.007047116290777922, 1.9128456115722656, 0.5855444669723511, 0.41359981894493103, 0.6541846394538879, -0.7742230296134949, -1.3046844005584717, -0.03085579164326191, -0.19018125534057617, -0.7913112640380859, -0.08925891667604446, -1.443593978881836, 0.2909407913684845, 0.3771628737449646, -0.8759359121322632, -0.18608161807060242, 0.6958468556404114, 0.13886862993240356, 0.9789349436759949, -0.1183687373995781, 0.5838524103164673, 0.7684672474861145], [0.061544355005025864, -0.18420815467834473, -0.16389186680316925, 1.0798466205596924, -0.7667862176895142, 0.34447625279426575, -0.2664032280445099, 0.3951467275619507, -0.3216454088687897, -0.09621740877628326, -0.532760739326477, -1.4571664333343506, 1.0981069803237915, 0.20154669880867004, -0.2904990613460541, 0.016299791634082794, 0.4973351061344147, -0.21732135117053986, 0.7107605338096619, 0.33067256212234497, 0.9637528657913208, 0.8424434065818787, -0.581358015537262, 0.6495950222015381, 0.20181825757026672, 0.19186842441558838, 0.3457709550857544, -0.00046078776358626783, 1.0015040636062622, -0.3092614412307739, -0.4371386170387268, 0.13021737337112427, -0.022112196311354637, 0.3408823311328888, 0.3247336745262146, 0.7287566065788269, -0.2898702323436737, 0.5113764405250549, 1.4172297716140747, -0.08882204443216324, -0.08703116327524185, -0.10837246477603912, 1.8619359731674194, -1.075721025466919, 0.47841379046440125, 0.12996073067188263, -0.22477872669696808, 0.30138272047042847, 0.6397481560707092, 0.5663728713989258, 0.13478794693946838, 0.5983760952949524, -0.2800290584564209, 1.2336859703063965, 1.2078033685684204, -0.08645997941493988, -0.29005125164985657, -0.12154985219240189, -0.258230060338974, 0.9556152820587158, 0.1476980298757553, -0.42416685819625854, 0.30386316776275635, -0.13456204533576965], [-0.6516508460044861, -0.1327962428331375, -1.010495901107788, 0.3322523832321167, -0.07018770277500153, 0.040084999054670334, -0.4460477828979492, 0.3896728456020355, 0.05300486460328102, -0.12794330716133118, -0.18956109881401062, 0.009131956845521927, -0.717595636844635, 0.3237878084182739, 0.27362605929374695, -0.09928581863641739, 0.12198378145694733, -0.3779918849468231, -0.042622994631528854, -0.5293979644775391, -0.20201177895069122, 0.042914554476737976, 0.2959745526313782, -0.08606847375631332, -0.03361082077026367, 2.5282394886016846, 0.3323267996311188, 0.6553565859794617, -0.07778912782669067, -0.0771738588809967, 0.20813874900341034, 0.07441110163927078, 0.1358521580696106, -0.0943245142698288, 0.16096124053001404, -0.048401545733213425, 0.24487866461277008, -0.2236480563879013, 0.4401140511035919, 0.2732594609260559, 0.056070826947689056, 0.3663013279438019, 0.44247832894325256, -0.9043192267417908, -0.22533933818340302, 0.9734620451927185, 0.12657837569713593, -0.25134262442588806, -0.009630652144551277, -0.04177265241742134, 0.5410832166671753, -0.27673831582069397, -0.33472341299057007, 0.1845959722995758, -0.24142001569271088, 0.23664060235023499, -0.07131306827068329, 0.14027917385101318, 0.5299562811851501, 0.32386961579322815, -0.0011490309843793511, -0.24719111621379852, 0.6017497181892395, -0.5118838548660278], [0.4659194052219391, -0.11676399409770966, 0.2838756740093231, 0.9700705409049988, -0.5885686278343201, 0.7809937000274658, -0.2751759886741638, 0.021848613396286964, -0.11267808824777603, -0.14135591685771942, -1.1715583801269531, 0.42411699891090393, -0.06127287447452545, -0.19119323790073395, -0.7782172560691833, 0.20427674055099487, -0.22945721447467804, 0.66921067237854, 0.13615769147872925, 0.8026934862136841, 0.8192758560180664, 1.1128333806991577, -0.876451849937439, 0.17946219444274902, -0.30529454350471497, -0.2942653298377991, 0.34226346015930176, 0.42594656348228455, 0.7691987752914429, -0.35823702812194824, -1.2592284679412842, -0.26267358660697937, 0.060299888253211975, 0.12303429841995239, 0.7451507449150085, -0.15853139758110046, -0.8905426859855652, 0.6926906108856201, 1.027138113975525, 0.3793065845966339, 0.10766935348510742, 0.39950209856033325, 0.7228825688362122, -1.46418297290802, 0.1854119449853897, -0.8542170524597168, -0.11709771305322647, 0.717427670955658, 1.0971680879592896, 0.8074129819869995, 0.4132953882217407, 0.31455978751182556, -0.23662689328193665, 0.2957659661769867, 0.34062397480010986, -0.049754753708839417, 0.34014034271240234, -0.161233052611351, -0.38046127557754517, 1.0541205406188965, -0.3641141653060913, -0.48495998978614807, -0.47974300384521484, -0.42251986265182495], [0.3746364712715149, 1.1037111282348633, 1.2614672183990479, -0.5536525249481201, -0.11425479501485825, -0.5609787106513977, 0.35917991399765015, -0.6844202876091003, 0.9979053735733032, -0.4081505239009857, 0.07112772017717361, 0.6533761620521545, 0.017833594232797623, -1.1633973121643066, 0.18923822045326233, -0.04791923612356186, -0.38993188738822937, 0.2706160843372345, -1.0041474103927612, 0.45371270179748535, -0.19988758862018585, -0.39700087904930115, 0.5416901707649231, 0.16124214231967926, 0.23826688528060913, -1.200639247894287, 0.1858554184436798, 0.4992786943912506, -0.05221082270145416, -0.7975630164146423, -0.09045081585645676, 0.4488144814968109, -0.6192995309829712, 0.4372655153274536, -0.1753050684928894, -0.6441869735717773, -0.3086552917957306, -0.11882749199867249, -0.2626108229160309, 0.1050175353884697, -0.04068639501929283, -0.8274768590927124, -0.03433215245604515, 0.5221527218818665, -0.13762833178043365, -0.6447172164916992, -0.8374590277671814, -0.1772984266281128, -0.4240926206111908, -0.22022710740566254, 0.1781846284866333, 0.5285952091217041, 0.21092921495437622, 0.21893028914928436, -1.0429478883743286, -0.903602123260498, 0.2505960464477539, -0.8469083309173584, -0.17989394068717957, 0.016774337738752365, -0.12597863376140594, 0.7527223825454712, 0.1069633886218071, -0.19945064187049866], [-0.024259626865386963, 0.38317686319351196, 0.08030203729867935, 0.7311594486236572, 0.10400737076997757, 0.4120180308818817, -0.7990871667861938, 1.0778064727783203, -0.0678398460149765, -1.0027819871902466, -0.5633350014686584, -0.5677711367607117, -0.7430626153945923, 0.46441906690597534, -1.207124948501587, -0.1540037989616394, 0.749451220035553, 0.8987100720405579, 0.6965276002883911, -0.030294496566057205, 1.6252782344818115, 0.801544189453125, -0.7723013758659363, -0.05022202432155609, -0.5153278112411499, -0.2958792448043823, -0.18082299828529358, -0.3637133836746216, 0.1935058981180191, 0.1620139479637146, -0.31632280349731445, -0.6906582713127136, -1.6720982789993286, 0.21702076494693756, -0.3710313141345978, -0.05649401992559433, -0.23807740211486816, 0.33386993408203125, 0.11554071307182312, -1.0909234285354614, -0.02489985153079033, 1.307525634765625, -0.3965386748313904, 0.24882912635803223, -0.7598225474357605, -0.4661557972431183, -0.24014542996883392, -0.1772453486919403, 0.5619529485702515, 1.285738468170166, 0.20258405804634094, -0.4304887354373932, -0.87400221824646, -0.44912657141685486, 0.2765837609767914, 0.03374066948890686, -0.918968141078949, 0.46641018986701965, -0.05267740786075592, -0.22697563469409943, -1.1828078031539917, -0.5649005174636841, -0.21496564149856567, 0.37037181854248047], [0.36551353335380554, 0.13826999068260193, 0.39431989192962646, 0.08125495910644531, 0.11531644314527512, 0.5151403546333313, -0.19852782785892487, -0.09464403241872787, 0.618488073348999, -0.04465659335255623, 0.11177316308021545, 0.337978333234787, 0.41325920820236206, 0.10766205191612244, -0.3792073726654053, 0.21429403126239777, -0.19339844584465027, -0.029044652357697487, -0.3193967938423157, 0.47913846373558044, -0.08358149230480194, -0.49175187945365906, 0.029376329854130745, -0.25057855248451233, 0.1338202953338623, -0.38516566157341003, -0.5111686587333679, -0.2642548978328705, -0.5611516833305359, -0.255196213722229, 0.31696438789367676, -0.6920164227485657, 0.04419831931591034, -0.12295183539390564, -0.06406788527965546, -0.9782032370567322, -0.1758493334054947, 0.10282128304243088, -1.9665406942367554, 0.220925971865654, 0.09730936586856842, 0.11064234375953674, -0.3143461346626282, 0.4265623986721039, 0.036560945212841034, -0.3044116795063019, -0.2440507411956787, -0.14821960031986237, 0.1643615961074829, -0.413328617811203, -0.45988941192626953, -0.25557658076286316, -0.18361420929431915, -0.34261348843574524, -0.7533268332481384, -0.3314826190471649, 0.3462320864200592, -0.296578049659729, 0.15646502375602722, -1.7542662620544434, 0.2779619097709656, 1.3538334369659424, 0.20997628569602966, 0.014067544601857662], [-0.3987169563770294, 0.0071049346588552, 0.009620324708521366, 0.29737618565559387, -0.13089314103126526, -0.17527702450752258, -0.2813882529735565, 0.35430842638015747, -0.15541565418243408, -0.155197873711586, 0.04686495289206505, -0.01710343360900879, 0.2510908246040344, -0.046899013221263885, 0.28579187393188477, 0.3394867777824402, -0.14987754821777344, -0.20202279090881348, 0.3539888858795166, -0.12149481475353241, 0.2205537110567093, 0.5428518652915955, -0.20674104988574982, -0.07528439164161682, 0.023700609803199768, 0.34240177273750305, -0.13925759494304657, 0.05731579288840294, 0.7618793845176697, 0.30173259973526, 0.3393164277076721, -0.09854980558156967, -0.19066287577152252, -0.0007984830881468952, 0.26721662282943726, 0.8807470202445984, 0.14127963781356812, 0.1351865530014038, 2.2188971042633057, -0.21709537506103516, -0.261560320854187, -0.23712573945522308, 0.44913026690483093, 0.1949675977230072, 0.2314438670873642, -0.3965066075325012, -0.3057035207748413, -0.16758763790130615, 0.5135197043418884, 0.1552569568157196, -0.2661341726779938, -0.27713897824287415, -0.16434654593467712, -0.29245641827583313, 1.027082085609436, -0.5338075757026672, 0.1761029064655304, 0.16701167821884155, 0.24894122779369354, 1.7101293802261353, -0.0769675225019455, -0.876573383808136, -0.15362876653671265, -0.14521950483322144], [0.47431617975234985, -0.8906603455543518, -0.43305283784866333, 0.13514940440654755, -0.04900789633393288, 0.2135077863931656, 0.7772161364555359, -0.05463755130767822, -2.084143877029419, 0.10025190562009811, 0.2500385642051697, 0.26199570298194885, 0.46903252601623535, 0.7841149568557739, 0.43858909606933594, -0.3277888894081116, -1.2846708297729492, 0.32644936442375183, 0.578240156173706, 0.06867615133523941, -0.32068702578544617, 0.1392185091972351, 0.4539278447628021, -0.0860004797577858, 0.48617613315582275, -0.15801921486854553, 0.00801808387041092, 0.8218268156051636, 1.0257446765899658, 0.055858492851257324, -0.1384783238172531, -0.014599728398025036, 1.1924002170562744, -0.7517344355583191, 0.5619149208068848, 0.965187668800354, 0.10474090278148651, -0.1684228628873825, 0.9783662557601929, -0.0902070552110672, 0.4178988039493561, -0.17432045936584473, -0.046392980962991714, -0.602965772151947, 0.95323646068573, -0.09686432033777237, 0.2820364832878113, -0.0996255874633789, 0.3446730971336365, 0.356621652841568, 0.14201998710632324, 0.06877128034830093, -0.6973713636398315, -0.1872752606868744, 0.2922441065311432, 0.9782810211181641, 1.2253950834274292, 0.2253418266773224, 0.1736479103565216, 0.5572528839111328, -0.123158298432827, -1.4510464668273926, -0.13478384912014008, -0.6600695252418518], [-0.7215611338615417, -0.8005195260047913, -0.48230016231536865, 0.4129801392555237, -0.31417661905288696, 0.5958500504493713, -1.2308021783828735, -0.19924360513687134, 0.4147574007511139, 0.2828260660171509, -1.0151039361953735, -1.2095890045166016, -0.25833436846733093, -0.07295037806034088, -0.5984174609184265, 1.0833534002304077, 0.20159626007080078, -0.35430818796157837, 0.25969651341438293, 0.7473753690719604, 1.6375336647033691, 0.44195419549942017, -0.5990780591964722, 0.7896159887313843, -1.3504639863967896, 0.4920870065689087, 0.10682517290115356, -0.35311073064804077, 0.6825510859489441, 0.016385450959205627, -0.23803389072418213, -0.3152422308921814, -1.155008316040039, -0.07858529686927795, 0.38516852259635925, 0.37851691246032715, -0.8628719449043274, -0.19675202667713165, 0.6385408043861389, 0.07764915376901627, -0.1901194006204605, 0.34918665885925293, 1.1813088655471802, -0.2703164219856262, 0.5999628305435181, 0.5998790264129639, 0.023020822554826736, 0.5821348428726196, 0.24182921648025513, 0.27546536922454834, 0.19606685638427734, 0.019030442461371422, -0.843464195728302, 0.03316095098853111, 0.8547764420509338, 0.9312376976013184, -0.11430513858795166, 0.6762900948524475, 0.5055458545684814, 0.3154970109462738, -0.1937313824892044, -0.6837437748908997, 0.06255103647708893, -0.0965643972158432], [-0.19481106102466583, 1.0206072330474854, -0.01204925961792469, 0.828059196472168, -0.24475811421871185, 0.7224833965301514, -1.269240140914917, 0.6355479955673218, 1.6735538244247437, 0.06989406049251556, -0.4655919075012207, -0.8137410283088684, 0.12361464649438858, 0.5932197570800781, -2.6527323722839355, 0.40786463022232056, 0.488962322473526, -0.08341086655855179, 0.39351728558540344, 0.4570082724094391, 1.1959147453308105, 0.25823694467544556, -0.6564120650291443, 0.02941332943737507, -0.2518693208694458, 0.15545623004436493, -0.14853598177433014, -0.48075342178344727, 0.3947034478187561, 0.026187270879745483, -0.48932766914367676, -0.14286422729492188, -1.4856231212615967, -0.12470988929271698, 0.4350520968437195, 0.15238061547279358, -0.26331430673599243, 0.21596243977546692, 0.08528715372085571, -1.2052942514419556, 0.745591402053833, 0.5076726078987122, 0.26964548230171204, 0.005166488233953714, -0.4312819540500641, -0.21660053730010986, -0.027965335175395012, -0.19508887827396393, 0.2493537962436676, 0.7595073580741882, 0.12140550464391708, -0.09374093264341354, -0.3795977234840393, -0.5383104681968689, 0.7603480815887451, -0.00801038183271885, -1.0082452297210693, 0.3977659344673157, 0.13852199912071228, -0.14560110867023468, -0.8705713152885437, -0.23453834652900696, 0.3177504241466522, 0.05405787006020546], [-0.2659901976585388, -0.06799472868442535, 0.14591585099697113, 0.4598124027252197, 0.17724253237247467, 0.11760754883289337, -0.7636755704879761, 0.612062931060791, -0.5684167742729187, 0.32138460874557495, -0.001418632222339511, -0.06312590837478638, 0.3305790424346924, 0.08978957682847977, 0.7957032322883606, -0.158037468791008, 0.4215506613254547, 0.121846042573452, 0.837181031703949, 0.12646187841892242, 0.41002750396728516, 0.12369935214519501, 0.03432556614279747, 0.06478220969438553, -0.0007930222782306373, 0.22408537566661835, -0.10493632405996323, -0.24152252078056335, 1.1615333557128906, -0.16559331119060516, 0.2884044647216797, 0.7372018694877625, 0.711769700050354, -0.049842383712530136, -0.27408331632614136, 0.9034326672554016, 0.17104046046733856, -0.01944352686405182, 2.0275497436523438, -0.7206434011459351, -0.8474048376083374, 0.23415443301200867, 0.1102537140250206, -0.011473343707621098, -0.6245245337486267, 0.21159502863883972, -0.142988920211792, -0.7754175662994385, 0.21974767744541168, 0.43658098578453064, 0.48184826970100403, -0.16439612209796906, -0.8948231339454651, 0.3745969533920288, 0.915545642375946, -0.33451342582702637, 0.25555235147476196, 0.6955460906028748, -0.03984450921416283, 1.3216774463653564, -0.025112971663475037, -0.6996883153915405, 0.5350979566574097, -0.4653783440589905], [0.8740999102592468, -0.2188047617673874, 0.9610685110092163, -0.575840175151825, -0.9636532664299011, -0.33546021580696106, 0.15583647787570953, -0.29856836795806885, 0.28793981671333313, -0.42689764499664307, 0.3774121403694153, 0.23922117054462433, 0.6633015871047974, -0.35939106345176697, -0.41296324133872986, -0.9125381708145142, -0.4371175765991211, 1.3172687292099, 0.1751096546649933, 0.4233512878417969, 0.4563707709312439, -0.18203945457935333, -0.4263254404067993, 0.22249987721443176, 1.0876544713974, -0.8572827577590942, 0.5176913142204285, -0.33028146624565125, -0.621141791343689, -0.312966912984848, 0.21025966107845306, -0.060024335980415344, 0.25946134328842163, -0.5253676176071167, 0.8802047371864319, -0.24603979289531708, -1.9124114513397217, 0.8821987509727478, -0.3744948208332062, -0.07836350053548813, -1.132697343826294, -0.38422930240631104, 0.10004623979330063, 0.32487714290618896, 0.560546875, -0.4951731860637665, -0.042151737958192825, 1.1135752201080322, 0.01302270032465458, 0.10844395309686661, -0.5383800864219666, 0.22119329869747162, 0.2609604597091675, 0.8592386245727539, -0.22845067083835602, -0.41932412981987, 0.8059881925582886, 0.06518339365720749, -0.07203761488199234, -0.22314223647117615, 0.8379579782485962, -0.36180901527404785, -1.269945740699768, 0.6474982500076294], [0.5432824492454529, -0.657818078994751, 0.5550787448883057, 0.3635931611061096, -0.6508147716522217, 0.251018226146698, -0.0012385271256789565, -0.3271593749523163, -0.5371122360229492, 0.44606536626815796, -0.16960039734840393, -0.025004297494888306, 0.31949684023857117, -0.8796232342720032, 0.6970493793487549, -0.8085729479789734, -0.7673593759536743, -0.017823122441768646, 0.5937661528587341, -0.032930247485637665, 0.5232253074645996, -0.9169887900352478, 0.07203498482704163, 0.12000344693660736, -0.15757451951503754, -0.2393559366464615, 0.1503482311964035, -0.24932491779327393, 0.2914181649684906, -0.33344951272010803, -0.15098538994789124, 0.2705024778842926, 0.2672853171825409, -0.4108315110206604, 0.0632588192820549, -0.666236937046051, 0.40726616978645325, 0.18326561152935028, 0.2783273458480835, 1.0938491821289062, -0.33495834469795227, -0.11771054565906525, -0.1121523454785347, 1.730495572090149, 0.39753520488739014, 0.298904687166214, -0.3270251452922821, 0.49195051193237305, 0.00599054666236043, 0.43404167890548706, -2.130825996398926, 0.20828963816165924, -0.24365009367465973, 0.5840169787406921, -0.1780785173177719, 0.24243685603141785, 0.8544955849647522, -0.5564057230949402, 0.2915799021720886, -0.2998412847518921, 0.846870481967926, -0.13085098564624786, -1.6740518808364868, 1.7971423864364624]], "fc1.bias": [1.2908668518066406, -0.15784698724746704, -1.9364612102508545, 0.1360776722431183, -1.107814908027649, 0.3744257986545563, -0.2714466154575348, -0.41509824991226196, 0.14717835187911987, -0.29396334290504456, -0.16444514691829681, -0.2994101047515869, 0.030912751331925392, 0.5372714996337891, -0.7094794511795044, -0.2880902588367462, -0.7747565507888794, -0.004210367798805237, 1.8235810995101929, -1.9282060861587524, 0.164358451962471, -0.18726937472820282, -0.21830986440181732, -0.12196137756109238, 0.07922808080911636, 0.13785392045974731, 1.1065864562988281, 1.1549453735351562, -0.052800972014665604, -0.4058837890625, -0.6866891980171204, -0.5314291715621948], "fc2.weight": [[0.26480555534362793, -0.008608943782746792, 0.047867301851511, 0.12653641402721405, -0.07944221049547195, -0.06148096174001694, 0.12536142766475677, -0.0784006267786026, 0.06052638217806816, 0.23047040402889252, 0.06843121349811554, -0.07827956974506378, -0.13618120551109314, -0.27129241824150085, -0.07646895945072174, 0.29534852504730225, 0.06926175206899643, 0.23492036759853363, 0.5620481967926025, -0.1547892540693283, -0.4062952995300293, 0.0996478870511055, 0.013892857357859612, -0.1032373309135437, -0.6242707967758179, 0.44117677211761475, 0.2012212574481964, 0.13362714648246765, -1.1150797605514526, 0.06747476756572723, -0.16458137333393097, 0.15622541308403015], [0.30954402685165405, 0.03781886398792267, -0.1119694709777832, 0.1605595499277115, -0.009297505021095276, -0.11641323566436768, 0.05338200554251671, -0.04790974408388138, -0.11564967781305313, -0.12916964292526245, -0.03982900083065033, -0.07631420344114304, 0.03569745272397995, -0.14056654274463654, -0.09484773129224777, 0.3510695695877075, -0.062372174113988876, 0.5047551393508911, 0.7736213803291321, -0.12508772313594818, -0.30358290672302246, 0.12847450375556946, -0.09379434585571289, 0.17423197627067566, 0.6946297287940979, -0.3859582841396332, -0.1905515193939209, 0.1605527251958847, 0.9641239047050476, -0.2731555700302124, -0.1887740194797516, 0.22008806467056274]], "fc2.bias": [0.2730939984321594, 0.2113192081451416]}