{"fc0.weight": [[1.619941234588623, 0.1845523715019226, 4.035624027252197, 6.77900505065918, 0.06404770910739899, 0.12425822019577026, 6.092705249786377, 2.289107084274292], [-2.886944055557251, 0.036049943417310715, 3.080449342727661, -2.843726396560669, 0.38609778881073, 0.042327750474214554, 3.3310961723327637, -2.113001823425293], [1.3438677787780762, -0.020081084221601486, 0.9604405760765076, -4.263050079345703, -0.2756270468235016, 0.46044620871543884, -0.7110262513160706, 0.6558194756507874], [-0.2513180375099182, -1.8684883117675781, -2.3966755867004395, -1.7376837730407715, 0.42725223302841187, -0.3655841052532196, -1.623510718345642, -1.623247742652893], [0.6460513472557068, 1.8858321905136108, 0.5345025658607483, 0.5620672702789307, -0.33699721097946167, -0.25130996108055115, 0.09722378849983215, 3.2514021396636963], [-0.4058689773082733, -2.7698755264282227, -0.771540105342865, 0.66838139295578, 0.11410324275493622, 0.3914637565612793, -0.7616755962371826, 0.9272230267524719], [2.863654613494873, -0.835961103439331, 1.0486201047897339, 2.5010604858398438, -0.4338553547859192, -0.22991341352462769, 0.5306985974311829, 2.0254909992218018], [0.6072351932525635, -0.09766111522912979, 3.2764554023742676, -8.869678497314453, 0.30498382449150085, -0.16121700406074524, 5.043136119842529, 2.168356418609619], [-0.12674419581890106, -2.003113031387329, 0.7487094402313232, -2.736842155456543, 0.38888946175575256, -0.32865384221076965, 1.842252254486084, 0.11127075552940369], [-1.5211738348007202, -0.28470179438591003, -9.871228218078613, -4.813100814819336, 0.017287880182266235, -0.05095302313566208, -10.05331802368164, -1.6207371950149536], [-0.038428276777267456, -2.1622097492218018, 1.0155353546142578, 8.52334976196289, 0.2795323133468628, -0.1857122927904129, 3.0071051120758057, 0.6584495902061462], [0.3373655378818512, -1.2294882535934448, -3.635639190673828, 5.971793174743652, 0.47026532888412476, -0.42069190740585327, -3.649773120880127, 0.9538605809211731], [0.36380037665367126, 2.3543686866760254, -0.6101410984992981, -2.918537139892578, -0.275030255317688, -0.3548571467399597, -2.989548683166504, 2.49027943611145], [-0.4847034513950348, 1.6766325235366821, 3.8097023963928223, -4.132329940795898, 0.4729054570198059, -0.23216676712036133, 3.089794158935547, -1.5883036851882935], [2.187502145767212, -0.3059650659561157, 2.774096727371216, 2.9629387855529785, 0.1953289955854416, -0.04699675738811493, 1.868736743927002, 1.861118197441101], [-16.97954559326172, -0.10257434099912643, 0.5239500999450684, 0.48938077688217163, 0.1700725555419922, 0.14990323781967163, -1.1426007747650146, -2.5514442920684814], [-8.258700370788574, -0.14695154130458832, 0.808824896812439, -1.3646799325942993, 0.35402360558509827, -0.01604030281305313, -2.1231229305267334, -0.935073971748352], [-2.410365343093872, 0.5606198310852051, -1.1409273147583008, 1.2760722637176514, 0.0995914414525032, -0.38469335436820984, 0.7798341512680054, -3.5487751960754395], [-1.3863322734832764, 0.6838686466217041, 7.63661003112793, -4.530646324157715, 0.4725629389286041, -0.3260350227355957, 7.5221099853515625, -0.5642883777618408], [-19.11505699157715, -0.07985543459653854, 0.19368959963321686, -0.2775183916091919, -0.11784643679857254, 0.12006892263889313, -0.98285973072052, -2.2128493785858154], [0.18549740314483643, -1.4471855163574219, 2.032787561416626, -6.595907211303711, -0.21688073873519897, -0.08213447779417038, 2.2745256423950195, 2.3483612537384033], [-1.781159520149231, -0.4274968206882477, 0.7705712914466858, 4.781766891479492, -0.42924198508262634, 0.320128470659256, 3.2276439666748047, -2.301149845123291], [-0.00041633445653133094, 2.9973695278167725, 0.4440777897834778, -6.183880805969238, 0.05058486387133598, -0.2036353200674057, 1.344736099243164, -2.4711837768554688], [-0.23841352760791779, -2.1184451580047607, -1.6200321912765503, 2.861320972442627, -0.3791069984436035, 0.22512614727020264, -1.590408444404602, -0.05927235633134842], [-1.8746209144592285, 0.09357228875160217, -5.776565074920654, 0.14370989799499512, -0.10580839216709137, -0.446391761302948, -7.305294513702393, -2.8224036693573], [0.9959059357643127, 0.10999688506126404, 3.4102799892425537, -3.082411289215088, 0.05763879045844078, 0.035168349742889404, 2.9796974658966064, 1.868840217590332], [-0.5572651028633118, -0.8347545266151428, 0.8395231366157532, 3.1487531661987305, -0.38508960604667664, -0.4463745951652527, 0.7025201916694641, 1.1875114440917969], [0.5497031211853027, 3.835876941680908, 0.5211870074272156, -3.3753445148468018, -0.19503706693649292, -0.465058833360672, 0.5041670203208923, 0.3743744492530823], [0.9444085359573364, 1.4965343475341797, 1.9659429788589478, 2.949816942214966, -0.35285237431526184, -0.13413067162036896, 2.6995315551757812, 2.8387932777404785], [-2.7852516174316406, 0.13222230970859528, -6.4241461753845215, -3.3288419246673584, -0.017736107110977173, -0.13297003507614136, -5.609982013702393, -4.369057655334473], [0.024717682972550392, -3.6248226165771484, 0.031183497980237007, 3.59740948677063, 0.19459302723407745, 0.08859312534332275, 0.38437938690185547, -0.24914968013763428], [8.203425407409668, 0.01698686182498932, -7.400722980499268, 0.020758172497153282, 0.026002967730164528, -0.059112343937158585, -4.117292881011963, 1.798744559288025], [2.9801738262176514, -0.45112505555152893, -0.13825732469558716, -6.15120267868042, -0.20451399683952332, -0.022189173847436905, 0.7728790044784546, 1.0811537504196167], [-8.462763786315918, -0.018184393644332886, -1.4613498449325562, 1.376065969467163, -0.3760349750518799, 0.3927597999572754, -2.129704475402832, -2.999396324157715], [1.3883614540100098, -0.32112687826156616, 5.993434429168701, 4.0546441078186035, -0.4056384861469269, 0.32058513164520264, 7.065677642822266, 2.3280141353607178], [-4.058762073516846, 0.05138256773352623, 0.03486870601773262, -0.5947221517562866, -0.325493186712265, 0.017512710765004158, 0.9371975660324097, -2.9195244312286377], [-1.1366382837295532, -1.4667695760726929, -2.016937017440796, -5.509270668029785, -0.44322559237480164, -0.3991210162639618, -2.7129428386688232, -3.1484436988830566], [-2.4481394290924072, 0.04185362160205841, 8.67282772064209, 2.5285561084747314, 0.302760511636734, -0.2239494025707245, 8.885197639465332, -1.8363724946975708], [-0.028455033898353577, 3.912897825241089, 0.04353506118059158, -5.991952419281006, 0.008718587458133698, 0.038263145834207535, -0.1010063886642456, -1.14089834690094], [2.880918025970459, 0.23040492832660675, 4.3062214851379395, -3.205559253692627, 0.4220896363258362, -0.4477492868900299, 4.651255130767822, -0.1745200753211975], [-7.161146640777588, 0.012017923407256603, 6.1605353355407715, 0.006132889073342085, -0.40949663519859314, 0.1816474050283432, 4.89041805267334, -2.117677927017212], [3.953939199447632, 0.2592618465423584, -3.844536781311035, -1.8487528562545776, 0.4244862496852875, -0.4436132609844208, -4.2422661781311035, 3.748023271560669], [0.021640144288539886, -0.17498788237571716, -2.6886117458343506, 6.651802062988281, 0.4720619022846222, -0.2884970009326935, -6.859959125518799, 0.957148015499115], [-0.324557900428772, -3.1047775745391846, 3.013812303543091, 4.705817222595215, -0.4124254882335663, 0.20089147984981537, 3.9447021484375, -1.5783175230026245], [0.029609039425849915, -4.054750919342041, 0.009784221649169922, 4.392523765563965, 0.38393643498420715, 0.03495590761303902, 0.3602149784564972, 1.307608962059021], [-1.1569762229919434, 0.04470643773674965, 3.9744253158569336, 3.123030185699463, 0.4532756209373474, -0.15332604944705963, 4.285790920257568, -0.8399447202682495], [-4.681697845458984, -0.794177770614624, 2.0918986797332764, 0.6407237648963928, 0.25597357749938965, -0.4265574514865875, 1.3631967306137085, -2.7197999954223633], [1.1265788078308105, 2.6141388416290283, -0.17593950033187866, 0.13433006405830383, 0.0675785169005394, -0.11190914362668991, -1.0700331926345825, 2.757533073425293], [0.006537483073771, -3.7624192237854004, -0.24003799259662628, 3.9096763134002686, -0.04711829125881195, -0.12104406952857971, -0.3865160644054413, -0.4207199215888977], [0.1691502034664154, 0.27606746554374695, -3.9238057136535645, -6.372422218322754, -0.29200923442840576, 0.3604053258895874, -5.189838409423828, 2.023447275161743], [-9.904013633728027, 0.19293424487113953, 3.1225006580352783, -0.7341400384902954, 0.09278029203414917, -0.07714027166366577, 2.0958011150360107, -4.865576267242432], [0.00028049538377672434, -3.96244478225708, 0.3717760145664215, 3.9743523597717285, -0.35752907395362854, -0.22594402730464935, -0.6747176051139832, 0.2990188002586365], [-0.6907657980918884, 2.1914761066436768, 0.6347591876983643, -3.534872055053711, 0.24095594882965088, -0.1914467215538025, 2.8048479557037354, -0.9270241856575012], [-4.231295108795166, 0.21047832071781158, 2.727860689163208, -2.320589542388916, 0.16107723116874695, -0.25440332293510437, 3.205749273300171, -4.880566596984863], [-3.817073106765747, 0.18090353906154633, -6.173797607421875, -1.1972670555114746, 0.300070583820343, 0.4147951602935791, -6.917294025421143, -3.230870485305786], [-2.2248473167419434, 0.1456352025270462, -5.616541862487793, 1.9137206077575684, 0.46322038769721985, 0.12998272478580475, -4.322073936462402, -1.9372098445892334], [-4.534948825836182, 0.37481921911239624, -0.4494059681892395, 4.472218990325928, 0.3507518172264099, 0.4435630142688751, -1.4892252683639526, -0.7114488482475281], [18.9981632232666, 0.02449341118335724, 0.230840802192688, -0.016947608441114426, 0.4786550998687744, -0.1869736909866333, 1.181998372077942, 3.1551125049591064], [-0.04554909095168114, 9.143152236938477, -0.17999237775802612, 2.6746275424957275, -0.11600615084171295, -0.04540184140205383, -0.24164527654647827, -0.5990453362464905], [-0.0028428127989172935, 0.05906665325164795, -27.109050750732422, -0.33414795994758606, 0.2253051996231079, -0.2589006721973419, -29.39223289489746, 1.8018078804016113], [0.16989010572433472, -3.7355196475982666, -0.5526756644248962, 0.8545418381690979, -0.04045965522527695, 0.3976649045944214, -0.4274882674217224, -0.7429945468902588], [-0.2865794003009796, -1.9052647352218628, 1.653726577758789, 3.368056297302246, 0.3519670367240906, 0.38284823298454285, 1.8682820796966553, -2.766995906829834], [5.726625442504883, 0.05357465147972107, -0.08435269445180893, 0.44440796971321106, -0.10189548879861832, -0.07512132823467255, 1.1350319385528564, 4.1947832107543945], [-1.4976738691329956, -1.3711167573928833, -0.30448734760284424, 3.7187581062316895, 0.4627378582954407, 0.02154640108346939, -0.3862523138523102, -1.7065216302871704]], "fc0.bias": [-0.6354367136955261, -5.150550365447998, -9.65756893157959, 8.907665252685547, -3.633197069168091, 4.472016334533691, 5.212602138519287, 1.322141170501709, 2.062546730041504, -2.8879287242889404, 2.826761484146118, 3.741917371749878, -12.197684288024902, -8.594961166381836, 5.122718334197998, 0.005496658850461245, -1.104234218597412, -6.451672077178955, -4.268686771392822, 0.840631365776062, 2.2029528617858887, 10.290826797485352, -9.227262496948242, 8.356731414794922, 7.305729866027832, -8.110149383544922, 15.98560905456543, -0.7282480597496033, 0.4931367337703705, -10.292250633239746, -0.06066573038697243, 0.2080475240945816, -6.265679359436035, 0.8507067561149597, 5.387363910675049, 3.648933172225952, 1.7306644916534424, -0.545583963394165, -8.216572761535645, 2.4107532501220703, 1.2713292837142944, -0.9098154902458191, 14.52973461151123, 3.5695126056671143, 1.479745626449585, 11.802176475524902, 1.6898175477981567, 1.5369876623153687, 2.4605588912963867, -12.46306037902832, -1.5162028074264526, 3.1080942153930664, -2.5649800300598145, 1.0579438209533691, -5.5888566970825195, -0.5203257203102112, 4.877620697021484, -1.0969367027282715, 4.960451602935791, -0.30317145586013794, -2.712904691696167, 10.433969497680664, 2.4479668140411377, 5.2011260986328125], "fc1.weight": [[-0.459663063287735, 0.3404323160648346, -1.7506533861160278, 7.2456374168396, -6.491826057434082, 3.0216119289398193, 0.20579597353935242, 0.09566452354192734, 0.31210535764694214, -0.34328094124794006, 2.3251259326934814, -0.12024355679750443, -4.7828288078308105, 0.5892826914787292, -0.6977276802062988, 0.7910674810409546, -0.03765400871634483, -1.7191907167434692, -0.19630487263202667, 0.8355705142021179, 1.2564932107925415, 4.566522598266602, -1.6687268018722534, 1.5900299549102783, 0.37525901198387146, -0.834663450717926, 2.6040492057800293, -2.283661127090454, 2.0918710231781006, -0.2680477499961853, 2.0075597763061523, -0.6066468954086304, -3.444859743118286, 2.4708657264709473, 1.52634859085083, 0.4707740843296051, -0.1510210931301117, 1.4987117052078247, -2.6072490215301514, -0.823651134967804, 0.2940447926521301, -0.089682437479496, -1.3792853355407715, 2.708061933517456, 3.7409300804138184, -0.4411534368991852, 0.41519615054130554, -0.47626981139183044, 3.4264328479766846, 5.092955112457275, 1.5863335132598877, 6.002933502197266, -4.008188724517822, 0.8416088819503784, 1.0883859395980835, 3.373547077178955, 1.1589998006820679, -0.6412253379821777, 0.04944627359509468, 0.9439442753791809, 1.4542988538742065, 2.7879936695098877, -0.1253206431865692, 6.384849548339844], [0.16665633022785187, -0.022450819611549377, 0.14003966748714447, -0.07587956637144089, 0.5837921500205994, -0.905113935470581, -0.22349008917808533, -0.21093812584877014, -0.36478668451309204, 0.6506333351135254, -0.7528329491615295, 0.8498457074165344, 0.26585134863853455, 0.5215618014335632, -0.4805489182472229, 0.3667878806591034, -0.013280056416988373, 1.189340591430664, -0.09538131207227707, 0.5367299914360046, -0.028749819844961166, 0.07521720230579376, 0.29694461822509766, -0.7439923286437988, -0.13933710753917694, -0.018245477229356766, 0.18511150777339935, 3.965222120285034, 2.005373477935791, 0.8111532330513, -3.784234046936035, -0.6385108828544617, -0.4568447470664978, -0.06379115581512451, 0.3925149440765381, 0.14417950809001923, -1.003590703010559, 0.22239340841770172, 0.3794502913951874, -0.20213422179222107, 0.12134740501642227, -0.4592738151550293, -0.7511181831359863, -0.7762790322303772, -4.237902641296387, -0.4525284767150879, 0.1565541923046112, 0.9446219801902771, -2.8994674682617188, 0.25437718629837036, 0.026769056916236877, -2.0964767932891846, 0.41729772090911865, 0.3020571768283844, 0.5827469229698181, 0.1609157770872116, 0.2831234931945801, -0.36029306054115295, 4.879907608032227, -0.22724421322345734, -1.6317490339279175, -0.053895503282547, -0.5480368137359619, -0.29955458641052246], [0.3406364321708679, 0.36660802364349365, 0.3108034133911133, -0.43862876296043396, 0.2701723873615265, 0.10565914213657379, -0.7891277074813843, 0.5325697064399719, 0.09691588580608368, -0.7942838668823242, 0.2542306184768677, -0.15862491726875305, -0.06064900383353233, -0.3726102113723755, -0.596044659614563, -0.029781455174088478, 0.46964961290359497, 0.09125310182571411, 0.9722954630851746, -0.13669101893901825, 0.5019954442977905, 0.5901375412940979, -0.1222762018442154, -0.05549965426325798, -0.44043123722076416, 0.6274296045303345, -0.13737566769123077, -0.20232754945755005, -0.03582305833697319, -0.592908501625061, -0.5318626761436462, -0.4166070818901062, 0.6325885057449341, -0.2801007628440857, -0.2807144820690155, 0.2144051194190979, 0.016887927427887917, 0.6713716387748718, -0.20357416570186615, 0.6028059124946594, 0.5868411064147949, -1.2554231882095337, -0.5696864724159241, 0.7833511233329773, 0.9924452900886536, 0.1702958345413208, 0.3953644931316376, -0.0767911896109581, 0.6125167608261108, -0.9717310667037964, 0.28886649012565613, 0.36853092908859253, -0.015737932175397873, 0.17005391418933868, -1.2324925661087036, -1.0237516164779663, 0.08425780385732651, 0.19369566440582275, 1.4953144788742065, -5.906696319580078, -0.31577616930007935, -0.22432392835617065, 0.2262573540210724, 0.1878831833600998], [3.177586555480957, -2.0589613914489746, 0.0729396864771843, 0.9859963655471802, -1.6881506443023682, 1.336880087852478, -0.7231837511062622, -6.776909351348877, -3.060720920562744, -2.2573955059051514, 4.924267768859863, 0.47771939635276794, -5.215694904327393, -2.0951173305511475, 0.13301055133342743, -1.624414324760437, -0.9613684415817261, -0.6335768699645996, -0.7652892470359802, -0.8279153108596802, -4.733676910400391, -0.03129954636096954, -2.6748104095458984, 3.8599472045898438, 0.19453994929790497, 0.546139121055603, 8.291301727294922, -0.898274302482605, 2.8315987586975098, -2.8197758197784424, -1.1085827350616455, 1.0049515962600708, -5.421245098114014, -1.8972208499908447, 3.4878950119018555, 0.9662604331970215, -2.2276458740234375, -0.14798909425735474, -5.388272285461426, 2.019517183303833, -2.0912249088287354, 2.7183947563171387, 4.741411209106445, 2.9544677734375, 0.9619298577308655, 1.80263090133667, -1.2340893745422363, 1.6688001155853271, 1.2264994382858276, -5.070164203643799, -2.582186460494995, 3.457242250442505, -1.3493865728378296, -0.1378190666437149, -0.6082139611244202, 2.935842275619507, 2.286447525024414, 0.48334234952926636, 1.5023996829986572, -0.23726201057434082, -3.407614231109619, 1.1316534280776978, 0.35723263025283813, 3.789173126220703], [2.768240451812744, -1.2427153587341309, 3.178927421569824, -2.6206281185150146, 1.0637059211730957, -2.45202898979187, -0.786807119846344, -4.646960258483887, -4.231733322143555, -1.1028859615325928, 3.3786399364471436, -0.8206767439842224, 0.5459946990013123, -1.9587228298187256, 0.9296742081642151, 1.3771939277648926, 0.5419626832008362, 1.0892280340194702, -1.4690302610397339, -0.934799075126648, -3.424732208251953, -1.6874312162399292, 1.8449985980987549, -0.7825945615768433, -1.3955659866333008, 1.5549863576889038, 0.09438568353652954, 1.095152735710144, 2.141339063644409, 1.2258692979812622, 0.20809133350849152, -1.3002581596374512, -3.529522180557251, 2.6591124534606934, -0.7889389991760254, -1.2524394989013672, -1.5082075595855713, -4.366560935974121, -0.24044831097126007, 0.3263402283191681, 1.280379295349121, -0.4694472849369049, 5.666343688964844, -1.6949461698532104, -0.9950091242790222, -2.65152645111084, 0.4353959262371063, 2.063859224319458, -0.26945212483406067, -2.4176573753356934, 0.5270763635635376, -1.7444102764129639, 2.1042823791503906, -2.362647771835327, 0.2790201008319855, 2.960374355316162, -1.814050316810608, 0.03722630813717842, 1.499985933303833, -0.5296316742897034, -0.5362642407417297, -0.7979300618171692, 1.0299679040908813, -1.6110862493515015], [-0.6177030205726624, -0.09153541922569275, -0.2844555079936981, 0.36210349202156067, -0.7705386281013489, 0.35464513301849365, -0.07547499239444733, 0.5010303258895874, 1.2687220573425293, -0.22813613712787628, 0.6804606318473816, -0.5342277884483337, -0.6285396218299866, -0.3547089993953705, 1.3086429834365845, 0.28755924105644226, -0.3903590440750122, -0.9646689891815186, 0.37294676899909973, -0.12982158362865448, 0.5790029168128967, -0.12201149016618729, -0.9477028250694275, 0.7686161398887634, 0.8629278540611267, -0.3480338156223297, 0.738703727722168, -3.6160693168640137, -2.627370595932007, -0.49733492732048035, 4.019984722137451, 0.181592658162117, 0.5755544304847717, 0.5447524785995483, -0.9138240218162537, -0.7044079303741455, 0.2323644757270813, 0.13574333488941193, -1.2474130392074585, 0.48453712463378906, -0.17710883915424347, 1.0455700159072876, 0.24093186855316162, 0.013158217072486877, 4.3801751136779785, 0.12470632046461105, -0.5701847076416016, 0.22694295644760132, 3.17940616607666, -0.0782245323061943, -0.43999525904655457, 2.181574821472168, -0.13168178498744965, -0.3698657751083374, -0.09852371364831924, -0.024534916505217552, -0.029527945443987846, -0.059948790818452835, -1.599054217338562, 0.5036450624465942, 1.235603928565979, 0.6165334582328796, 0.9190873503684998, 0.4307796061038971], [0.06167026609182358, 0.446191668510437, 0.7916989326477051, -0.32835614681243896, 0.23296590149402618, -0.3303436040878296, -0.5169656276702881, 0.6230261325836182, -0.13257655501365662, 1.16098153591156, -0.6859612464904785, 0.09742538630962372, 0.21920552849769592, -0.4786071479320526, -1.1006104946136475, 2.1234986782073975, 1.419599175453186, 0.38076820969581604, 0.5580852031707764, 4.656064510345459, 0.040097035467624664, -0.2853691279888153, 1.359755516052246, -0.14951424300670624, -0.3152638077735901, 0.7880639433860779, -1.1135077476501465, -0.19394820928573608, 0.32184508442878723, 0.8767175674438477, 0.28701096773147583, -0.23562780022621155, -0.3411920666694641, 1.1946125030517578, -1.5353087186813354, -0.5079935789108276, 0.24943935871124268, 0.49295851588249207, 1.6190630197525024, -0.6623947620391846, 0.35930752754211426, 0.22833897173404694, -0.4531858563423157, -0.28611478209495544, -0.2825753688812256, -0.8142250776290894, 0.42790335416793823, 0.5388354659080505, 0.07661452889442444, 1.6370335817337036, 1.0009270906448364, -0.6311140656471252, -0.04839077964425087, 0.4551950693130493, 0.6044581532478333, 0.09093281626701355, -1.4240784645080566, -4.739754676818848, 0.05882137268781662, 4.1750807762146, 0.13721317052841187, 0.29311028122901917, -0.0055238669738173485, -0.050860919058322906], [2.893620252609253, -1.450589895248413, -2.0591013431549072, -1.1173620223999023, 0.31368884444236755, -0.9113225936889648, 0.5821568965911865, -2.81476092338562, -2.2518439292907715, -1.6913461685180664, 1.1985057592391968, 1.16511869430542, -0.6313546299934387, -0.8078008890151978, 0.3298509120941162, -1.3143084049224854, -1.259235143661499, 0.04744592681527138, -0.14900869131088257, -2.8289120197296143, -1.2618576288223267, 1.640424132347107, -1.7592551708221436, 0.2843742072582245, 1.013344168663025, -1.3604103326797485, 1.8829984664916992, 1.912756085395813, 1.2333604097366333, -1.3877763748168945, -2.0402050018310547, 2.1067824363708496, -0.22271668910980225, 0.8132578730583191, 1.212242603302002, -0.40660765767097473, -1.6585962772369385, 0.31261757016181946, -3.138267755508423, -0.6582466959953308, -0.17409998178482056, -0.31597840785980225, 3.8277909755706787, 0.8683820366859436, -1.1538317203521729, 1.194009780883789, -0.600730836391449, 1.6463234424591064, -0.8866137862205505, -4.319089889526367, -1.9572794437408447, -0.33253583312034607, 0.174449160695076, -1.1715248823165894, -0.7558708786964417, 0.3578236997127533, -0.09248372912406921, 2.666743278503418, 10.513209342956543, 6.610597610473633, -2.4390149116516113, 1.0550438165664673, 0.7530359625816345, 1.0625492334365845], [-2.199406623840332, 0.19889698922634125, 0.7903187274932861, 0.5077470541000366, 1.120495080947876, -2.230900526046753, -4.749859809875488, -2.4358725547790527, -2.6942105293273926, 4.849442958831787, -0.6192916631698608, 1.7611998319625854, 3.544740915298462, -3.0440409183502197, 1.2463436126708984, 1.785967230796814, 0.15973356366157532, 0.5872295498847961, -2.8057243824005127, 0.7063108682632446, -1.3523740768432617, -2.6540489196777344, 1.7443556785583496, 2.0994362831115723, 0.963280439376831, -1.0083189010620117, -1.6186957359313965, -0.0847422257065773, -0.1389394849538803, 2.1420505046844482, 1.0700994729995728, 1.3629937171936035, -3.498338222503662, 1.5742501020431519, -2.9251396656036377, -0.09317227452993393, 2.5541064739227295, -4.676235675811768, -1.4950772523880005, -1.376946210861206, -0.7882205247879028, 2.501920461654663, 5.185696601867676, -1.8513563871383667, -0.5561094284057617, -3.1447339057922363, 0.9624061584472656, -0.7060791254043579, 0.26028209924697876, 0.5515471696853638, -0.2305946797132492, -2.978320360183716, 2.1045989990234375, 0.8405911922454834, 2.209652900695801, 2.411156177520752, 1.818375825881958, -1.7846510410308838, -3.5167007446289062, 9.869730949401855, 1.7453444004058838, -1.6243377923965454, -0.16914021968841553, -1.05262291431427], [5.680501937866211, 0.987703800201416, 0.860755205154419, -2.7955784797668457, 0.738400399684906, -1.3322992324829102, 0.7993314862251282, 0.43933624029159546, 1.020406723022461, -4.689543724060059, 2.17777681350708, -0.7283486723899841, 2.3562612533569336, 1.2148507833480835, 2.5246620178222656, -2.212066173553467, 1.0113643407821655, 1.1568489074707031, 0.212202250957489, -2.7788548469543457, 0.12139255553483963, -1.1300561428070068, -0.4524131417274475, 1.5552910566329956, -5.493800163269043, 4.82957124710083, 4.292399883270264, 0.932980477809906, -0.3736000061035156, -0.668657660484314, -1.5031204223632812, -0.6342498660087585, 3.3344035148620605, -0.958372175693512, 0.683056652545929, 0.7055891156196594, -3.620511293411255, 3.156822443008423, -0.4461977183818817, 0.9524126052856445, -0.0395449697971344, -2.5023229122161865, 1.4951050281524658, 0.5837395191192627, -2.4527223110198975, 1.7577080726623535, -0.3112364709377289, 0.19178469479084015, 1.1862236261367798, -3.0680716037750244, -0.07513947784900665, -2.670210361480713, -1.0730366706848145, -0.35917848348617554, -0.9798573851585388, -3.6744632720947266, -1.0876628160476685, 1.2752691507339478, -3.78267502784729, -10.99293327331543, -2.102125406265259, 0.42793008685112, -0.23451624810695648, -0.3066791892051697], [1.0495193004608154, -4.225775718688965, -1.151219129562378, -1.5507029294967651, 3.115192413330078, -1.4939299821853638, 0.9541166424751282, -0.19423839449882507, 3.077474594116211, 0.8220432996749878, -1.1535383462905884, -3.7163431644439697, -2.5475690364837646, 1.9208875894546509, -0.007290458772331476, -0.3787301182746887, 0.08792978525161743, -0.4452943801879883, -1.5682525634765625, -0.991488516330719, 1.147361159324646, 1.8150044679641724, 2.510362386703491, -2.2945404052734375, 0.7106959819793701, -1.0205498933792114, -1.5484766960144043, 1.6092777252197266, 1.3937045335769653, 0.1903296858072281, -1.5002648830413818, -0.7613041400909424, -3.210866689682007, -0.7324315905570984, 1.333242416381836, -0.9783484935760498, -1.2640577554702759, 1.4263590574264526, 1.5785199403762817, 2.893615484237671, 0.11839167773723602, 2.548809051513672, -5.652653694152832, -0.5570254921913147, 1.3666468858718872, 4.220544338226318, -3.4336299896240234, 1.3005448579788208, 0.5716063380241394, 4.098330497741699, 0.48970314860343933, -5.4661736488342285, 1.4415488243103027, -0.08537717163562775, 1.1692920923233032, 0.6985722780227661, 2.169080972671509, 0.16570696234703064, 2.644854784011841, 10.61811637878418, -1.5814335346221924, -0.3671252429485321, -1.421494722366333, -0.5533981323242188], [0.40244221687316895, 0.575404942035675, -0.9206516146659851, 0.6147254705429077, 0.7706120014190674, 0.2761695384979248, 0.39426398277282715, -0.15688136219978333, -2.2895240783691406, 1.4740304946899414, 0.5275042653083801, -0.3528501093387604, 0.15922479331493378, -1.368323564529419, -0.5814357995986938, 4.661024570465088, 0.868524432182312, -1.2895647287368774, -0.45148375630378723, 4.703702926635742, -0.21978285908699036, 0.26437142491340637, 1.0151082277297974, 0.2742355763912201, -0.6615229249000549, -0.34252557158470154, -0.8794181942939758, 0.07097235321998596, 0.355212539434433, 1.2378039360046387, 0.16299882531166077, -1.995855450630188, -2.368455171585083, 2.0822792053222656, -0.08196887373924255, 0.6960818767547607, 0.23127023875713348, -0.19871294498443604, 0.6909070014953613, -0.5257608294487, 1.470309853553772, 0.7121099233627319, -0.40480509400367737, -0.13862937688827515, -1.4993400573730469, -1.0225045680999756, 1.215421438217163, 1.0885734558105469, 0.1039508730173111, 1.1791647672653198, 1.85865318775177, 1.405913233757019, -0.47967568039894104, -1.1556795835494995, 1.434112548828125, -0.32253021001815796, 1.0617564916610718, -5.786866664886475, -0.13800844550132751, 3.7417099475860596, -0.06356783211231232, -0.7496347427368164, -2.030494451522827, -0.38468578457832336], [-2.4938125610351562, 0.8301529884338379, -0.17484410107135773, -2.448798418045044, 2.948077440261841, -2.6074416637420654, -1.252974510192871, 0.7911096215248108, -2.6298985481262207, -1.8824057579040527, -0.0904737040400505, -1.3677023649215698, 4.743941783905029, 2.252222776412964, 0.6359264254570007, -0.5754449367523193, -0.6844774484634399, -3.702934503555298, 3.033881187438965, -0.6732292175292969, 1.186583161354065, -1.0132172107696533, 0.15383242070674896, -3.214629888534546, 3.2887330055236816, -4.018596649169922, -1.1849514245986938, 0.010846705175936222, 3.3744425773620605, -1.575201153755188, -1.456146001815796, -0.2285076230764389, -0.25137126445770264, -0.7910872101783752, -0.6202955842018127, 0.9544793963432312, -2.815675973892212, 3.2150039672851562, 0.9666720032691956, 1.4665184020996094, -0.6234527230262756, 0.43077459931373596, -10.260883331298828, -1.3173134326934814, 1.24237859249115, 2.3008346557617188, -1.5049833059310913, 1.8299391269683838, 0.5630225539207458, -2.0945959091186523, -1.1976667642593384, 1.0921059846878052, 0.9215689301490784, -3.396099805831909, -1.855137586593628, -0.5026246309280396, -0.29247915744781494, 0.14709177613258362, 3.822895050048828, -8.402875900268555, -0.08763237297534943, -0.7954138517379761, -1.2337003946304321, -2.447993278503418], [-1.8676632642745972, 3.5282907485961914, -3.1886324882507324, 2.220412015914917, -0.7927526831626892, 0.8621755838394165, -1.6492522954940796, 5.832143783569336, 0.9885928630828857, 2.038479804992676, -2.653043508529663, -1.8582202196121216, -1.9706941843032837, -0.703680157661438, 1.4538458585739136, -0.2159440517425537, 0.19375832378864288, -2.1638245582580566, 1.3133620023727417, -0.002948966808617115, 4.165382385253906, 0.1367565393447876, 2.9886457920074463, -1.7996413707733154, -0.8660187721252441, 2.356099843978882, -3.1269588470458984, -1.4457963705062866, -2.5476455688476562, -0.3105762302875519, 0.2899802625179291, 0.7645949721336365, 4.1385498046875, 1.310875415802002, -0.7141045331954956, 0.38487473130226135, 5.5810956954956055, 2.3999667167663574, 3.6512396335601807, -0.21996143460273743, -0.286106139421463, -2.016021490097046, -7.3894829750061035, -0.02477404475212097, -0.6594640612602234, -0.041470639407634735, 0.8188217878341675, -1.3035305738449097, -2.9593265056610107, 4.1475300788879395, 0.19112884998321533, -2.334088087081909, -0.38694122433662415, 2.7344913482666016, 0.00747095188125968, -4.331037521362305, -2.8932318687438965, -0.6204528212547302, 0.12621112167835236, -8.342623710632324, 1.431716799736023, -0.5298733711242676, 0.1695202738046646, 1.4526948928833008], [-3.6137359142303467, -0.425007700920105, 1.4021273851394653, -2.313021183013916, -0.17434073984622955, -2.3473241329193115, -0.3724486231803894, 4.854027271270752, 1.916727900505066, 3.5139782428741455, -4.830902576446533, -1.1278157234191895, 5.896121025085449, 1.8616139888763428, 1.9578906297683716, 1.2533421516418457, 1.1412535905838013, -0.666138768196106, 1.6292122602462769, 1.229627251625061, 2.547992706298828, 0.7185336947441101, 1.6828786134719849, -2.538088798522949, -0.7490473985671997, 0.8473612070083618, -3.5787599086761475, 0.162089541554451, -1.282893180847168, 0.4868357479572296, -1.0829983949661255, -0.4163377583026886, 1.1027295589447021, 0.5115308165550232, -1.84953773021698, -5.284237861633301, 0.9117076396942139, -0.753570556640625, 4.306523323059082, -1.2300398349761963, 0.08127307891845703, 0.6650741100311279, -6.3176140785217285, -3.175818920135498, -2.720576047897339, -2.6506545543670654, 0.2798147201538086, 1.9253206253051758, -1.2764605283737183, 6.406620502471924, 0.731655478477478, 2.8142707347869873, -2.8875815868377686, 0.9136881828308105, 2.64726185798645, 0.006656560581177473, -0.40104424953460693, -1.490312933921814, -4.228816986083984, 6.8415679931640625, 1.0090810060501099, -0.9679237604141235, -0.861234724521637, -2.2355191707611084], [0.6971231698989868, 0.21817342936992645, -0.3787318766117096, 0.08736582845449448, -0.19656693935394287, 1.2126340866088867, 0.5773107409477234, 1.0630879402160645, 1.2796390056610107, -0.41364187002182007, 0.6721165776252747, -2.124234437942505, -0.7821739912033081, -0.03710377961397171, 0.6068935990333557, -0.8093772530555725, -0.29836252331733704, -0.9828812479972839, 0.24359747767448425, -0.16581697762012482, 0.9909790754318237, 0.3900870084762573, -0.8146091103553772, 0.8049903512001038, 0.2520555257797241, -0.10865017026662827, 0.07836762070655823, -3.7600457668304443, -1.9333105087280273, -1.4121496677398682, 3.43463397026062, 0.20279762148857117, 0.7190738916397095, 0.03271377459168434, 0.7287247776985168, -0.017441950738430023, 0.9521973133087158, 0.37607160210609436, -1.3945071697235107, 0.669116735458374, -1.0011869668960571, 0.5310721397399902, -1.4763308763504028, 1.0610530376434326, 4.028261661529541, 0.7443406581878662, -0.5876805186271667, -1.1300890445709229, 3.1298904418945312, -0.6621501445770264, -0.8711870312690735, 2.7211427688598633, -0.2701760530471802, -0.4598313271999359, -0.941024899482727, -0.7383439540863037, -0.8069553375244141, 0.707188606262207, -1.1292084455490112, 0.2557140588760376, 0.4067784547805786, -0.37890732288360596, 1.1918859481811523, 0.6874366402626038], [0.7466835975646973, 0.8003412485122681, -0.29068323969841003, 0.2590869069099426, -1.1203259229660034, 0.08431591838598251, 0.21626532077789307, 1.0014727115631104, 0.13813631236553192, -0.4114704728126526, 0.07219209522008896, -0.9887044429779053, -0.9902752637863159, 0.2649533748626709, 1.3435029983520508, -0.7413465976715088, -0.1487511694431305, -0.9067251682281494, -0.3014337122440338, -0.13074104487895966, 1.5427266359329224, -0.8182483315467834, -1.1870137453079224, 0.32049834728240967, 0.7867918610572815, -0.0662488043308258, -0.3130888044834137, -4.901474952697754, -2.612272262573242, -1.5573971271514893, 3.0399162769317627, 0.7971147894859314, 0.6037390828132629, 0.4703761339187622, -0.5191249251365662, -0.5909830331802368, 1.0947329998016357, -0.8404603004455566, -1.7509814500808716, 0.11034852266311646, -1.0408602952957153, 0.8276270627975464, -0.7430680990219116, 1.8454186916351318, 3.8966612815856934, 0.357220858335495, -1.3476991653442383, -0.6566847562789917, 3.0710456371307373, -1.2033437490463257, -1.0722150802612305, 2.6347360610961914, -1.8248732089996338, -0.20361113548278809, -0.7288491725921631, -0.742534875869751, -0.6760715246200562, 0.7503984570503235, -0.05213446170091629, -0.18876907229423523, 0.5166021585464478, -0.05390370637178421, 1.8626552820205688, 0.2588874399662018], [3.42419171333313, -0.4232558012008667, -1.8813133239746094, -2.9587769508361816, 1.9264341592788696, -1.66982901096344, -0.5313782691955566, -0.9983364939689636, -0.8009166121482849, 0.17171724140644073, 1.351393461227417, 1.4603410959243774, 1.083153247833252, 0.01623545214533806, -1.2142282724380493, 1.0226284265518188, 0.0842261090874672, 0.8154849410057068, 2.5994648933410645, 2.2223033905029297, -0.5661709904670715, 0.9438393712043762, 0.21519775688648224, 0.8392203450202942, 2.545384645462036, -1.0675544738769531, 4.934127330780029, -4.6833391189575195, -1.6198781728744507, 1.070735216140747, 4.590970516204834, 1.125076413154602, 0.7487137913703918, -0.4564710855484009, -0.8937116265296936, 0.33446407318115234, -1.517646074295044, -0.4732285141944885, -2.244537830352783, 0.8800374865531921, -1.7692441940307617, 0.9076048135757446, 4.614594459533691, 0.8718953728675842, 4.671356201171875, -0.49132922291755676, -0.17209622263908386, 1.0894643068313599, 1.5788856744766235, -6.290942668914795, -1.3788174390792847, 1.581185221672058, -0.5842403173446655, -1.8548030853271484, -1.6809718608856201, 0.11225602775812149, -0.8787163496017456, -2.2841429710388184, 1.7710739374160767, 12.997147560119629, 0.304457426071167, -0.2054368108510971, 0.8871445059776306, -0.48475396633148193], [-0.4887736737728119, -0.627017617225647, 0.38090211153030396, -0.2986445724964142, 0.4812154769897461, -0.1762295812368393, 0.2684415876865387, 0.21392495930194855, 0.27188703417778015, 1.270203948020935, -0.13019892573356628, -0.033701132982969284, 0.12843795120716095, -0.22153477370738983, 0.051428403705358505, 0.2152334451675415, -0.6536742448806763, -0.013841629028320312, -1.0237057209014893, -0.4595807194709778, 1.0294086933135986, -0.5133905410766602, -0.975037693977356, -0.1102181151509285, 0.0771777406334877, -0.2858717441558838, -0.11073217540979385, -0.17091745138168335, -0.6134710311889648, -0.21354717016220093, -0.2633442282676697, 5.603504180908203, 0.9012652039527893, -0.19132618606090546, -0.1826840341091156, -0.605620265007019, 0.03198951482772827, -0.9220192432403564, -0.02145165205001831, -0.6024957299232483, -3.5965240001678467, 0.9410812854766846, 0.4568144381046295, -0.7534533739089966, 0.1860683113336563, -0.029118815436959267, -1.228750467300415, 0.021080853417515755, -0.14502666890621185, 0.7615600228309631, -1.7769190073013306, 0.10153140872716904, 0.26933497190475464, -0.5375277400016785, -0.12820708751678467, 0.23019006848335266, -1.3178178071975708, 0.3597974479198456, -0.8073639869689941, 0.045471515506505966, 0.07153178006410599, -0.4460480511188507, 0.936059832572937, 0.33937349915504456], [-0.6566111445426941, -3.3248324394226074, -0.44679272174835205, 0.6556134223937988, -3.968590259552002, 1.492287516593933, 0.6069748997688293, -0.24701133370399475, 1.5755925178527832, 1.0739439725875854, 0.6951199173927307, 0.8795926570892334, -1.883138656616211, -1.0114790201187134, 4.676805019378662, -1.006896734237671, -0.05698738619685173, -6.5039448738098145, 0.0350000262260437, -0.7971541285514832, -1.338340401649475, 2.589571475982666, -0.8649958968162537, 0.5763591527938843, -0.5468244552612305, -1.518945336341858, 1.8845466375350952, -3.768350124359131, -1.392518401145935, 1.1022745370864868, 3.2538394927978516, 0.7399761080741882, 0.1395702064037323, 0.9982685446739197, 0.3852710425853729, -1.2513405084609985, 0.36308807134628296, -0.8291376233100891, -2.3286194801330566, 0.3595743477344513, 0.6753531694412231, 1.3494479656219482, 1.1402987241744995, 1.9209717512130737, 4.257917404174805, -3.0994253158569336, -0.8644797205924988, -0.05984281003475189, 2.339423418045044, 2.3347766399383545, 0.35202810168266296, 3.00659441947937, -3.8672683238983154, -1.596720814704895, 0.404076486825943, 1.0465940237045288, -0.44310256838798523, -0.042278602719306946, -2.944963216781616, 3.3514606952667236, 0.6703281998634338, 2.222653865814209, -0.0017801796784624457, 0.8671123385429382], [-0.8721963763237, -0.26751282811164856, -0.38634175062179565, 1.1842589378356934, 0.07176683843135834, 1.4114924669265747, -0.15597783029079437, 0.807843804359436, 0.8676403760910034, 0.1231430247426033, 0.6696155071258545, -0.30893591046333313, -0.21567070484161377, -1.1167240142822266, 0.6918129324913025, 0.05518148094415665, 0.03134451434016228, -1.2111783027648926, -0.27841758728027344, 0.03903218358755112, -0.1585899442434311, 0.38735413551330566, -1.57195246219635, 0.7292428016662598, 1.123207926750183, -0.4562987983226776, 0.28511324524879456, -2.9983673095703125, -2.7881226539611816, -0.12466556578874588, 3.184264898300171, -0.4428817629814148, -0.2046666294336319, 0.3675597906112671, -0.33479830622673035, 0.39011242985725403, 0.5127211809158325, -0.14936646819114685, -1.3179237842559814, -0.20931656658649445, -0.14013569056987762, 0.40702497959136963, 1.1184378862380981, 0.4825378656387329, 4.574535369873047, 0.4155341684818268, -0.09897885471582413, -0.3406049311161041, 3.699524164199829, 0.778335690498352, -0.14925596117973328, 2.557868242263794, -1.1304949522018433, 0.47153255343437195, 0.4252297580242157, 0.15474605560302734, 0.22026890516281128, -0.3911122679710388, -0.07635309547185898, 0.5396514534950256, 1.3106598854064941, 1.106074333190918, 0.3139132559299469, 0.8708691000938416], [0.3827325403690338, 0.21773681044578552, 0.24413101375102997, -0.20092365145683289, 1.0270806550979614, -1.1092042922973633, -0.5659782886505127, 0.5572662353515625, -0.03329520300030708, -0.12307819724082947, 0.44325003027915955, 0.5522989630699158, 0.7427535057067871, 0.14771513640880585, -0.6749926805496216, 4.809577465057373, 1.1187939643859863, -0.4445243775844574, -0.48831307888031006, 4.142177581787109, -0.7656017541885376, -0.9180729389190674, 0.49891233444213867, 0.7306700944900513, 0.5555718541145325, -0.13989438116550446, -0.04529627040028572, 0.19232168793678284, 0.36379554867744446, 0.5720924139022827, -0.03200089558959007, -3.1059131622314453, -0.875074565410614, 1.7476869821548462, -0.28508031368255615, 0.8127717971801758, -0.6879820227622986, 0.23592302203178406, -0.47165021300315857, -0.7335526943206787, 0.6537312269210815, -0.5350860953330994, 0.8516101241111755, -0.7394534349441528, -0.6000564694404602, -0.3041851222515106, 0.7564085721969604, 0.6712741255760193, -0.7138275504112244, -0.3997443914413452, 1.430378794670105, -0.45456576347351074, 0.5694270133972168, -0.016059063374996185, 0.12880001962184906, 1.2216731309890747, 1.3106112480163574, -3.684267044067383, 1.3634326457977295, 1.0911747217178345, 0.5307081937789917, 0.08806939423084259, -0.453309029340744, -0.8945860266685486], [0.5168469548225403, 1.619231939315796, 0.43608835339546204, 0.31654101610183716, -0.01137690432369709, -1.0325535535812378, -1.342702865600586, -0.9318591356277466, -1.6117967367172241, 0.9234856367111206, -0.5387993454933167, 0.40963175892829895, 0.2108631134033203, 0.35079020261764526, -0.19877229630947113, 0.24648746848106384, 0.16611412167549133, 0.38711437582969666, -0.2949596047401428, 0.3562988340854645, -1.4100408554077148, -0.1662694811820984, 0.2691366374492645, -0.08291193097829819, -1.7295039892196655, -0.5259463787078857, 0.46658164262771606, 4.787158489227295, 1.6602354049682617, 0.9559651613235474, -3.9968602657318115, -0.6848996877670288, -1.2615587711334229, 1.0459436178207397, 1.3876405954360962, 0.892545223236084, -0.8920100331306458, -0.7758031487464905, 1.0432087182998657, -0.04471280425786972, 0.08685490489006042, -0.8251349329948425, -0.09481123834848404, -0.869367241859436, -5.581033706665039, -2.237387180328369, -0.11008802801370621, 1.5296710729599, -4.0257391929626465, -0.27616092562675476, -0.07334023714065552, -2.7650701999664307, 0.2064831256866455, -0.48153549432754517, 0.696066677570343, -1.0091558694839478, 0.6797620058059692, -0.38157880306243896, 3.72343373298645, 1.1947013139724731, -2.0631988048553467, -1.4773982763290405, -0.23812349140644073, -0.10204113274812698], [-3.6958470344543457, -1.4438762664794922, 3.0929934978485107, 2.9561538696289062, -0.9124588370323181, -0.6261056661605835, 1.0865049362182617, 2.7872986793518066, -3.5955166816711426, -0.4732586145401001, -1.6078931093215942, -1.5409705638885498, 3.8763630390167236, -1.980021595954895, 0.737524688243866, -2.1859395503997803, -3.326357841491699, 0.36304712295532227, 0.11110571771860123, -1.976345181465149, 1.506407618522644, -1.7555129528045654, -0.11770884692668915, -1.6427996158599854, 1.5316623449325562, -2.519190788269043, 0.4487394690513611, 0.9349758625030518, -4.506808757781982, -2.1054792404174805, -1.4724935293197632, 1.4680289030075073, 1.6445965766906738, -2.550335168838501, 2.5381295680999756, -1.903325080871582, 5.617618083953857, 0.7472888827323914, 3.545117139816284, 1.0166341066360474, -1.590612530708313, 0.6026198863983154, -5.174534797668457, -5.119847297668457, -4.30855655670166, 1.1635218858718872, -0.48136013746261597, -3.055091381072998, -4.809572219848633, 8.185208320617676, -1.3300118446350098, -3.5442755222320557, 2.116142749786377, 0.9865919351577759, -3.195852279663086, -1.3231853246688843, -2.820322036743164, 2.4549901485443115, -2.8093910217285156, 1.7402029037475586, 2.191892147064209, -1.393694519996643, 4.063644886016846, -0.353219211101532], [0.6051552295684814, 1.420078992843628, 2.237166404724121, -0.11539028584957123, 0.37038177251815796, -0.3424338400363922, -2.6691854000091553, 0.32924944162368774, 1.192811131477356, -0.10272117704153061, -0.8881242275238037, -1.2425999641418457, 1.522884488105774, 1.0204589366912842, -1.776924967765808, 0.41317349672317505, 0.4899728298187256, 0.8451431393623352, 0.7728209495544434, -0.6751692891120911, 0.8187427520751953, -1.556218147277832, 3.4317476749420166, -1.2225996255874634, 2.265747547149658, -1.154404878616333, -1.0520625114440918, -2.168808698654175, 0.727613091468811, 0.6255806684494019, 1.3758379220962524, -1.3598698377609253, -1.5785984992980957, 1.8518669605255127, -2.35316801071167, 1.1328580379486084, -1.503738522529602, -0.0014315553708001971, 3.302562952041626, -0.8935778737068176, 2.4687094688415527, 0.07001206278800964, -4.722350120544434, -1.0172971487045288, 0.7951017618179321, 2.172861099243164, 0.6107308864593506, 0.4527086019515991, -1.0464590787887573, 3.3341379165649414, 0.906574547290802, -0.5261222720146179, 1.5760974884033203, -0.4895842373371124, 0.44088852405548096, 1.6768956184387207, 1.0050616264343262, 0.07815432548522949, -8.059652328491211, 3.3309388160705566, 2.5288028717041016, -2.791341543197632, -0.8206407427787781, -1.719224214553833], [-0.5853779315948486, -0.04515852779150009, 0.3624987304210663, -0.19153571128845215, -0.12105893343687057, -0.066989466547966, -0.3021892309188843, 0.8668608069419861, 0.6029119491577148, 0.3478255271911621, -0.3128644526004791, 0.6547366380691528, -0.04964950680732727, -0.3586174249649048, -0.9291680455207825, 4.374272346496582, 1.4840123653411865, -0.6018683314323425, -0.03387201204895973, 4.3659281730651855, 0.24977301061153412, 0.18247850239276886, 0.3433653712272644, 0.5181275606155396, 0.34758052229881287, -0.04723775014281273, -0.5659767389297485, -0.6699956655502319, -0.33925071358680725, -0.7365956902503967, 0.5638560056686401, -1.5946370363235474, -0.7326169610023499, 1.7375051975250244, -0.3597797751426697, 0.6638888120651245, 0.42146116495132446, -0.23174713551998138, 0.5288675427436829, -0.07124485075473785, 0.9654848575592041, 0.008282497525215149, 0.024225937202572823, -0.13765347003936768, -0.0424635075032711, -0.08723669499158859, 0.5584021210670471, -0.0004551578313112259, 0.23083999752998352, -0.11111156642436981, 2.3773882389068604, 0.4101558029651642, -0.29339390993118286, 0.5479909777641296, -0.07506869733333588, 0.377978652715683, 1.4442486763000488, -3.747582197189331, -0.6243540644645691, 1.6578675508499146, 0.22956117987632751, 0.34761905670166016, -0.9297467470169067, -0.03741712495684624], [-6.277553081512451, 1.7483962774276733, 3.004429817199707, 1.8048832416534424, -0.9844001531600952, 1.736661672592163, -0.5135098695755005, 5.290495872497559, 4.388498306274414, 2.488361120223999, -2.157470703125, -3.3341827392578125, 2.827606678009033, 0.855574905872345, -1.78557550907135, -0.41443049907684326, 0.9288817644119263, -2.9536468982696533, 1.4232251644134521, 0.6157308220863342, 4.888399124145508, -2.428643226623535, 5.331738471984863, -0.9362225532531738, -0.6478543877601624, 2.610840082168579, -5.590024471282959, 0.1230534240603447, -3.2173702716827393, 2.1678273677825928, -0.5918640494346619, -0.5619156360626221, 1.8197405338287354, 0.21594078838825226, -3.5792324542999268, -0.5376972556114197, 3.1717402935028076, 0.5188067555427551, 3.1120781898498535, 0.44072574377059937, -0.5915132761001587, 0.8117457628250122, -5.6502685546875, 0.6592466235160828, -0.8902184963226318, -2.107041358947754, -0.18554334342479706, -2.0167653560638428, 2.3419954776763916, 7.4333343505859375, -0.69818514585495, 0.699049711227417, -2.410112142562866, 1.273141860961914, 0.7709030508995056, -0.9292967915534973, -2.972996234893799, 0.7554976344108582, -5.331414222717285, -0.0030774737242609262, 1.9011783599853516, -2.1865715980529785, 0.24929435551166534, -1.995027780532837], [-0.07978598773479462, 0.6345409154891968, -0.2379721999168396, 0.335043728351593, -0.8384382724761963, 0.39993420243263245, -0.21275973320007324, 0.6038209795951843, 0.6565305590629578, -0.7282386422157288, -0.1215047538280487, -0.334380179643631, -0.6173301339149475, -0.37661686539649963, -0.31160274147987366, 0.3993534445762634, 0.5331395268440247, -0.3475268483161926, 1.1826722621917725, -0.5204552412033081, 0.2863529920578003, 0.8295034766197205, 0.46990442276000977, -0.1191353052854538, 0.5775768160820007, -0.5063115954399109, 0.2858019471168518, -0.04174003005027771, -0.5234230756759644, -0.4438990354537964, 0.23807527124881744, -5.852824687957764, -0.5670732259750366, 0.0700296089053154, -0.02902965433895588, 0.8408785462379456, 0.39671823382377625, 1.3288464546203613, -0.20382274687290192, 0.35942187905311584, 4.239495277404785, -1.2418630123138428, -0.20918364822864532, 0.9604548811912537, 0.20910024642944336, 0.31689926981925964, 1.2284464836120605, -0.309089332818985, 0.4837234318256378, 0.3781653940677643, 2.011054754257202, 0.19922980666160583, -0.01415228471159935, 1.2499630451202393, -0.3304925560951233, 0.04504092037677765, 1.3674216270446777, -0.4306422472000122, -0.20647978782653809, -0.1935528814792633, 0.8587005138397217, 0.8857893943786621, -0.010062753222882748, 0.24294854700565338], [-2.44856595993042, -0.5084792375564575, 0.22827233374118805, -0.8593960404396057, -2.0899295806884766, 0.44909632205963135, 0.21257847547531128, -1.360837459564209, -0.09588611125946045, 1.3585327863693237, -0.2396499514579773, 1.6571990251541138, 0.8425949811935425, -1.9830323457717896, 1.7599146366119385, 0.7753185629844666, 1.5288238525390625, -1.1752134561538696, -2.690156936645508, 0.7188225984573364, -0.434809148311615, -0.10709775239229202, -0.13017427921295166, 0.28452080488204956, 1.7583831548690796, -1.514763593673706, -0.32099252939224243, -0.01547321304678917, -1.7308614253997803, -0.1542872041463852, 0.36591705679893494, 0.7868982553482056, -2.3992197513580322, 0.017877986654639244, -2.5297038555145264, -1.056819200515747, 0.4796844720840454, -3.6560890674591064, 0.3969167470932007, -1.5974501371383667, -1.2705029249191284, 1.085404634475708, 7.001662254333496, -3.9428040981292725, 2.352468252182007, -1.5685694217681885, 1.0478298664093018, -1.8647068738937378, 0.4245491027832031, -0.2656530439853668, -0.8472392559051514, 0.4401436150074005, -0.21171370148658752, -0.10045874863862991, 0.8258453011512756, 1.7094383239746094, 0.968116044998169, -1.3371490240097046, -1.5736662149429321, 13.901927947998047, 1.0712542533874512, -1.1556015014648438, 0.317580908536911, 0.12875331938266754], [0.37505269050598145, -0.3917071521282196, 0.21002009510993958, -0.6237388849258423, 0.823374330997467, -0.10755740851163864, 0.6572267413139343, -0.3095831274986267, -0.4998694658279419, -0.36434870958328247, 0.1509801298379898, 0.08492151647806168, -0.5155386924743652, 0.34227296710014343, -0.13116802275180817, -3.182471990585327, -1.1862608194351196, 0.7303276062011719, 0.28017204999923706, -4.589748859405518, 0.5474322438240051, -0.5125271081924438, -0.8932154178619385, -0.7767560482025146, -0.81379634141922, -0.24507027864456177, 0.1592111587524414, -0.08650004863739014, -0.04220261797308922, 0.00022627976431977004, 0.3119114339351654, 0.03176205977797508, 0.6916868686676025, -0.695834755897522, 0.5396082401275635, -1.4205093383789062, 0.2670727074146271, 0.05672052502632141, -1.4751601219177246, -0.11601241677999496, -1.002644419670105, -0.6077256798744202, 0.8904992341995239, 0.6790401935577393, 0.031369201838970184, 0.3894687294960022, -0.4238570034503937, -0.3255566954612732, 0.27117910981178284, -1.8962565660476685, -1.470165729522705, -0.3252224028110504, 0.0861126109957695, -1.6090775728225708, -0.31295523047447205, -0.16691066324710846, -0.6853706240653992, 4.097724437713623, -0.2109558880329132, -2.9887914657592773, -0.06992708891630173, -0.5536753535270691, 0.5187509655952454, 0.09104858338832855], [-2.201305866241455, -0.5696219205856323, 2.054227352142334, -3.748903512954712, 2.0624608993530273, -2.930649757385254, 0.24383066594600677, -3.049886703491211, -1.5483050346374512, 4.733837604522705, 1.0305060148239136, 2.365638256072998, 2.0932018756866455, -1.1671442985534668, -0.8509804606437683, -0.6942508220672607, -1.125617265701294, 1.4899262189865112, -1.7769769430160522, -1.480891227722168, -4.147378444671631, -2.200188636779785, -0.3470912575721741, 0.17836494743824005, 3.01900053024292, -2.5933852195739746, -0.8172222971916199, 2.362952947616577, -0.6217966675758362, 2.164590835571289, -1.7582682371139526, 1.6021217107772827, -4.740983963012695, -0.5935295820236206, -3.015390396118164, -0.9118792414665222, -0.5916202664375305, -6.473928451538086, 1.7091331481933594, -1.2898236513137817, -0.332923948764801, 1.8572417497634888, 2.689412832260132, -0.9331398010253906, 1.6073462963104248, 1.4716823101043701, 0.9079413414001465, -0.4391895532608032, -0.40687674283981323, -3.5383894443511963, -1.0780776739120483, -1.4504138231277466, 2.0902421474456787, 0.39453646540641785, 2.4870331287384033, 3.2951362133026123, 1.2764309644699097, 1.083459734916687, 4.836318016052246, 3.5965542793273926, -2.3426849842071533, -0.6079909801483154, 1.2246896028518677, -0.8299594521522522], [1.5616556406021118, 0.22074119746685028, -0.6937253475189209, 0.1729508340358734, -0.3013787865638733, 0.19346323609352112, 0.9761371612548828, -3.8521242141723633, -1.14141047000885, -3.3447036743164062, 0.21857187151908875, -0.6949236392974854, -0.22548756003379822, 0.83310866355896, 1.6695711612701416, -2.666489362716675, -0.7386773824691772, 0.6977581977844238, -1.4961931705474854, -5.406383991241455, -2.1236813068389893, -0.9297029376029968, -1.1698665618896484, 0.07302325963973999, 0.27446991205215454, -0.29468581080436707, 0.6646331548690796, -6.866474628448486, -0.53993821144104, -1.7644622325897217, 6.456346035003662, -0.778409481048584, -1.4105230569839478, -0.6328883767127991, 2.9238953590393066, 0.7302250266075134, 0.945708692073822, 0.6430326104164124, -0.55658358335495, 2.0467207431793213, 0.21527104079723358, 0.641706645488739, 4.435501575469971, 0.19787374138832092, 5.410058498382568, 1.2238044738769531, -0.5461447238922119, -0.7212823033332825, 1.5413943529129028, -4.049683570861816, -0.3600582182407379, 2.118734359741211, 0.7305347919464111, -0.04839769005775452, -1.1357356309890747, 0.10515855997800827, 1.0681037902832031, 5.18577241897583, 5.0851240158081055, -8.80652904510498, 0.635751485824585, 0.6247212886810303, -0.6353597640991211, 0.6660141944885254]], "fc1.bias": [0.6148064732551575, 1.3328299522399902, 0.26603278517723083, 7.345917224884033, -6.221458911895752, -2.3830251693725586, -2.9529545307159424, 6.530479907989502, -5.005770683288574, -3.854020357131958, 5.791514873504639, -3.359747886657715, 2.98421049118042, -4.383028030395508, -4.603403091430664, -1.5891674757003784, -1.1497234106063843, 7.218916893005371, -0.45136430859565735, -3.4169933795928955, -1.39083993434906, -0.11481446027755737, 2.234706401824951, -7.644099712371826, -1.576076626777649, 1.5518102645874023, -8.545126914978027, -0.8750677704811096, 6.264153480529785, -1.9138904809951782, 2.1198818683624268, 7.271125793457031], "fc2.weight": [[-0.03559646010398865, -0.16025055944919586, 0.9991551637649536, 0.025938453152775764, 0.04788699746131897, 0.2709585726261139, 1.1339417695999146, 0.37990838289260864, -0.3220076560974121, 0.07255590707063675, 0.04268050938844681, 0.6602345108985901, -0.01122719794511795, -0.10565315932035446, -0.01189326960593462, 0.29801979660987854, 0.34448307752609253, 0.08772820979356766, -0.2801021635532379, 0.22049210965633392, 0.282581627368927, 0.5234495997428894, -0.09507618099451065, -0.14842893183231354, -0.1742960810661316, 0.1187916174530983, -0.11652681976556778, 0.15815436840057373, -0.1439513862133026, -0.5460771322250366, 0.6732462644577026, 1.6189745664596558], [0.011116711422801018, -1.5008314847946167, -0.7202164530754089, 0.02871975116431713, 0.11685909330844879, 0.2248302847146988, -0.44861337542533875, 2.2031490802764893, 0.10834407806396484, -0.45428869128227234, 0.08126812428236008, -0.10273367911577225, -0.008881541900336742, -0.1722542941570282, 0.0478980727493763, 0.18404364585876465, 0.2334524691104889, 0.14018796384334564, 0.16995997726917267, 0.22900886833667755, 0.2973760962486267, -0.35332566499710083, -0.48572060465812683, -0.21371015906333923, -0.2010766565799713, -0.21170532703399658, -0.05159812420606613, -0.25272560119628906, 0.14436377584934235, 0.10277511924505234, 0.36483046412467957, 0.46098482608795166]], "fc2.bias": [0.2868845760822296, 0.34389373660087585]}