{"fc0.weight": [[-0.02925006113946438, 0.3024798035621643, 0.016907937824726105, -1.7922122478485107, 0.2018807828426361, 0.40338900685310364, -0.327632337808609, -0.15130969882011414], [0.002042239299044013, -0.9021379947662354, 0.042896561324596405, -0.7687840461730957, 0.48022332787513733, 0.2733227610588074, 0.5179000496864319, -0.2886814773082733], [0.6806094646453857, 0.053397100418806076, 1.031065583229065, 0.1377871185541153, -0.021685944870114326, 0.3370688855648041, 0.7354544997215271, -0.30715465545654297], [-0.5685024261474609, 0.07622134685516357, -1.4867668151855469, -0.16896604001522064, -0.0478137731552124, 0.2156396359205246, -1.5910918712615967, 0.355393648147583], [-0.7840142846107483, 0.006245531141757965, -0.15384967625141144, -0.4074072241783142, -0.3263969421386719, 0.10249277949333191, 0.010653064586222172, -0.5774140357971191], [0.09469318389892578, 0.30599886178970337, -0.06747803092002869, 1.8201390504837036, -0.25286558270454407, -0.4660974144935608, -0.13769111037254333, -0.5411743521690369], [0.16435016691684723, 0.5347534418106079, -0.5345353484153748, -0.19629967212677002, -0.46611857414245605, -0.19880646467208862, 0.0637260377407074, -0.27054399251937866], [-0.8254408836364746, -0.01479470543563366, 1.2376434803009033, -0.16537654399871826, -0.0711195319890976, 0.3163674473762512, 1.244920015335083, 0.3914320468902588], [1.4534226655960083, -0.07206842303276062, -0.13062091171741486, -0.0854596197605133, -0.3896547555923462, -0.03036811202764511, 0.4954506754875183, 0.38490673899650574], [-0.5354710221290588, -0.033310238271951675, -1.6650609970092773, -0.13254456222057343, 0.13208070397377014, 0.21097269654273987, -1.3463903665542603, -0.6704232096672058], [-0.2034052461385727, 0.07240254431962967, 0.24801594018936157, 1.521622896194458, 0.16720275580883026, 0.1566694676876068, -0.10110463201999664, 0.36046451330184937], [0.30766570568084717, 0.015524432994425297, 0.46204859018325806, -1.3441781997680664, -0.26671096682548523, 0.20957541465759277, 0.5005969405174255, 0.9105327129364014], [-0.13318616151809692, 0.4544346332550049, -0.9679884314537048, 1.1777514219284058, 0.04102052375674248, -0.31067076325416565, -0.8634905219078064, -0.680934727191925], [-0.06877253204584122, 0.5369408130645752, 0.2734261751174927, 0.7221432328224182, 0.16362102329730988, -0.4694731831550598, 0.03377988561987877, -0.31854042410850525], [-0.7394106388092041, 0.03212255612015724, -0.9862828850746155, 0.1719515323638916, 0.20348280668258667, 0.03357761725783348, -0.6979572772979736, 0.4295594096183777], [-0.23000317811965942, 0.02679445594549179, 0.011059734039008617, -1.147773265838623, -0.22492024302482605, -0.04152478650212288, 0.09469103813171387, -0.3391415774822235], [0.10491383075714111, -0.4841359555721283, 0.5948486924171448, 0.7317325472831726, 0.007735357154160738, 0.32876166701316833, 0.10070127993822098, 0.5792762041091919], [-0.07137009501457214, 0.570729672908783, 0.06455285102128983, 0.4461246430873871, 0.07536164671182632, -0.18994873762130737, 0.3063947260379791, 0.31392791867256165], [0.5914120674133301, -0.042343586683273315, 1.063210368156433, -0.7008900046348572, 0.1565999537706375, 0.10755696147680283, 1.6152886152267456, 0.5922331809997559], [-0.30070653557777405, -0.03719756007194519, -0.37073156237602234, 1.6317213773727417, 0.33582139015197754, 0.10470913350582123, 0.13504618406295776, -0.04505707323551178], [-0.7518396377563477, -0.06269459426403046, -0.37711066007614136, -0.06309075653553009, -0.24422626197338104, 0.38127878308296204, 0.1796562671661377, -0.16590116918087006], [-0.08192796260118484, 0.39173755049705505, -0.7651829123497009, 1.3797659873962402, -0.13529685139656067, 0.31550219655036926, -0.5134479403495789, -0.3040418326854706], [-0.0013465237570926547, -0.7980866432189941, 0.2564783990383148, 0.87990802526474, -0.41281360387802124, 0.18656004965305328, 0.3691021203994751, 0.2258860319852829], [-0.20608262717723846, 0.6131409406661987, -0.07058916240930557, 0.8758572340011597, -0.3133120536804199, -0.28093457221984863, 0.33951660990715027, -0.22487978637218475], [0.49680203199386597, -0.34104934334754944, 0.4329349398612976, -0.6513466238975525, -0.2979956269264221, 0.13965167105197906, -0.3584033250808716, -0.3117656409740448], [-1.1517106294631958, -0.025322087109088898, 0.9784411191940308, -0.1353500634431839, 0.224763885140419, -0.3657611608505249, 0.9172093272209167, 0.8401979207992554], [-0.04314273223280907, -0.8654699325561523, 0.3675723671913147, 0.6474299430847168, 0.003156739752739668, 0.21447275578975677, -0.4903929829597473, 0.034345440566539764], [-0.022914983332157135, -0.7118400931358337, 0.13494008779525757, 0.19873058795928955, -0.16150406002998352, 0.14325004816055298, 0.12913252413272858, -0.2839813530445099], [0.04977867379784584, -0.7971372604370117, 0.308612197637558, -0.06966831535100937, -0.14521948993206024, 0.12703733146190643, -0.31246650218963623, -0.02349841222167015], [0.26033827662467957, -0.4323594868183136, 0.1862824261188507, 0.5589419007301331, 0.2765299081802368, -0.06792785972356796, 0.6172892451286316, 0.4269872009754181], [-0.011781202629208565, -0.25057634711265564, -0.6031489968299866, -1.1060398817062378, 0.19768282771110535, 0.1018231064081192, -0.4826149046421051, -0.16227009892463684], [0.15201058983802795, 0.18665871024131775, 0.11653086543083191, 1.5838451385498047, 0.2666275203227997, 0.4128461480140686, -0.387315034866333, -0.09098237007856369], [0.011404456570744514, 0.5149669647216797, -0.15006327629089355, 0.9251013398170471, 0.012314892373979092, 0.19791029393672943, 0.2650252878665924, -0.33947405219078064], [0.7788609862327576, 0.03482108190655708, -0.15639348328113556, 0.8685057759284973, 0.12674345076084137, -0.4019143581390381, -0.23626574873924255, -0.1333720088005066], [0.6455678343772888, 0.04635518789291382, 1.0421576499938965, -0.04956238344311714, 0.31943753361701965, -0.09136421233415604, 1.0369797945022583, 0.5868983268737793], [0.015057254582643509, 0.44139528274536133, 0.48613864183425903, -0.9190998673439026, -0.4041900634765625, 0.20151515305042267, 0.17218634486198425, -0.18547846376895905], [0.1837398111820221, -0.03288966044783592, 1.4250149726867676, 0.051203999668359756, -0.07266604155302048, 0.14487095177173615, 1.9421273469924927, 0.7022422552108765], [0.1711927056312561, -0.46347466111183167, 0.32495149970054626, -0.8536707162857056, -0.38829749822616577, -0.15251407027244568, 0.3923504054546356, -0.3549792170524597], [-0.8378690481185913, -0.011755971238017082, -0.15968376398086548, 0.2916814088821411, 0.055198464542627335, -0.38368672132492065, -0.7117928862571716, -0.3341050446033478], [0.8466019630432129, -0.015532673336565495, 1.2907592058181763, 0.3765759766101837, 0.2648508548736572, 0.22706066071987152, 1.0430104732513428, -0.1360718309879303], [0.5508561134338379, 0.0031365484464913607, 0.8597815036773682, 0.5641353726387024, 0.4397740066051483, 0.3020605146884918, 0.8126732110977173, 0.20257611572742462], [0.0008295535808429122, -0.7567373514175415, -0.2963109612464905, 0.9027383923530579, 0.35754117369651794, 0.4016445577144623, 0.3615866005420685, -0.3651506304740906], [0.5195662975311279, 0.12430418282747269, 1.1451270580291748, -0.022461192682385445, 0.24513842165470123, -0.23967574536800385, 0.6731390357017517, -0.3246995806694031], [1.0182229280471802, 0.12014571577310562, -1.0031484365463257, -0.31449753046035767, 0.4289437234401703, -0.3371429443359375, -0.2898971438407898, -0.9927322864532471], [0.06772688031196594, 0.27554449439048767, -0.20874297618865967, -0.034121762961149216, -0.10188481956720352, -0.4217461943626404, -0.046768270432949066, 0.42514923214912415], [0.6021487712860107, 0.02200150303542614, -0.06468172371387482, -0.6304757595062256, 0.3818865120410919, 0.1898995190858841, 0.6695241332054138, 0.21039026975631714], [-0.5518479347229004, -0.05716430023312569, -0.7216797471046448, 0.7814419269561768, 0.2849409580230713, 0.0048956735990941525, -0.8666173815727234, -0.7995193004608154], [-1.3075635433197021, 0.014179130084812641, 0.3966994285583496, 0.12315965443849564, 0.41240811347961426, -0.2527754306793213, 0.5623188614845276, 0.3269078731536865], [-1.1282780170440674, 0.016299812123179436, 0.49607914686203003, -0.20232661068439484, -0.26067399978637695, -0.05985921621322632, 0.48913195729255676, -0.45008835196495056], [-0.03936724737286568, 0.24629166722297668, 0.15938352048397064, 0.5102915167808533, -0.04690786078572273, -0.44284889101982117, 0.13860230147838593, -0.5008631944656372], [-0.26660096645355225, -0.5372489094734192, 0.21624627709388733, -0.018224693834781647, -0.017190949991345406, 0.01663845404982567, -0.5530062913894653, 0.2526318430900574], [-0.26403188705444336, 0.18372541666030884, -0.09524553269147873, -0.8965901136398315, -0.37368056178092957, -0.3559969961643219, -0.8626425862312317, -0.41426149010658264], [1.0166356563568115, -0.031554993242025375, 0.11003397405147552, -0.49371182918548584, 0.19900675117969513, -0.23857201635837555, -0.000836420280393213, 0.6281436085700989], [-0.09431363642215729, 0.4218754470348358, -0.4844592809677124, -0.14116959273815155, -0.43028852343559265, -0.4521494507789612, -0.42689162492752075, -0.1895224153995514], [-0.23592700064182281, 0.32047492265701294, -0.403825968503952, 0.9220804572105408, -0.4308556616306305, -0.11973901838064194, -0.5697522163391113, 0.439679890871048], [0.07077953219413757, 0.7258537411689758, 0.22496433556079865, -0.7987386584281921, 0.47223860025405884, 0.13501186668872833, -0.014898915775120258, 0.2515428364276886], [0.09609465301036835, -0.47247788310050964, 0.9204381108283997, -0.5932186841964722, -0.2521936595439911, 0.4752998352050781, 0.7029805183410645, 0.4094425141811371], [0.44580793380737305, -0.4504725933074951, 0.09548720717430115, -0.8562268018722534, -0.41981592774391174, 0.29826638102531433, -0.07626074552536011, 0.2654781639575958], [0.017198551446199417, 0.20960402488708496, 0.5606675148010254, 1.5867552757263184, -0.14131909608840942, -0.016010593622922897, 0.3140436112880707, 0.2692297399044037], [-0.5325298309326172, -0.018253758549690247, -0.7365903854370117, 0.42355605959892273, -0.1695259064435959, 0.0840967521071434, -0.28227880597114563, -0.18022406101226807], [0.010887493379414082, 0.6089854836463928, -0.1876518279314041, -0.5876779556274414, -0.1449979841709137, -0.23390471935272217, 0.11600200086832047, 0.10195402801036835], [-0.023057030513882637, 0.5607216358184814, 0.23771041631698608, 1.1484395265579224, -0.16659049689769745, -0.34266504645347595, 0.30020594596862793, -0.21109937131404877], [0.009501710534095764, -0.7503159642219543, -0.03496039658784866, -0.41682901978492737, -0.17273341119289398, 0.22799502313137054, 0.3373429775238037, -0.1955920159816742], [0.12613938748836517, 0.1852954924106598, -0.20638085901737213, -1.924371600151062, 0.042545583099126816, 0.34182536602020264, -0.4428268373012543, 0.0848357081413269]], "fc0.bias": [-0.39366385340690613, -0.09033394604921341, 0.48367175459861755, -0.19281445443630219, -0.016578437760472298, -0.29899832606315613, 0.018221382051706314, 0.21966399252414703, -0.6181110143661499, -0.20137326419353485, 0.88611900806427, -0.10077539086341858, 0.0002413772017462179, -0.06750575453042984, -0.07778190076351166, 0.09325992316007614, -0.3255517780780792, -0.37511011958122253, -0.10453400760889053, 0.5462276339530945, -0.57833331823349, -0.21213455498218536, -0.002559810411185026, -0.6140566468238831, -0.1376866102218628, -0.22573070228099823, -0.1273185908794403, 0.09896137565374374, 0.04102399945259094, -0.007005797699093819, -0.07779450714588165, -0.2791300117969513, 0.04150580242276192, 0.43975159525871277, 0.24944278597831726, -0.1358177810907364, -0.1524023711681366, -0.09143223613500595, -0.4188244938850403, -0.2760971784591675, -0.6627445816993713, 0.02024274878203869, -0.019284408539533615, 0.649719774723053, 0.15699781477451324, -0.3920743763446808, 0.2710375487804413, 0.2178495079278946, 0.45989465713500977, 0.07146216183900833, -0.27608728408813477, -0.058532699942588806, -0.13780422508716583, -0.0017886621644720435, -0.08801432698965073, -0.3511960208415985, -0.4121662676334381, 0.41551151871681213, 0.07777635753154755, -0.10289876908063889, 0.9858222603797913, 0.07512399554252625, 0.7133952379226685, -0.02201671339571476], "fc1.weight": [[-0.2516326308250427, 0.5835167169570923, 0.26959583163261414, -0.30268165469169617, -0.10535403341054916, -0.4107968211174011, 0.0780092403292656, 0.3886449933052063, 0.17736798524856567, -0.8422319889068604, -0.5886958241462708, 0.11213641613721848, -0.2666774094104767, -0.4995138943195343, -0.5501967072486877, 0.17857539653778076, 0.7974334955215454, -0.30188530683517456, 0.6727896332740784, -0.11264922469854355, 0.2427569180727005, -0.9795488119125366, 0.8940007090568542, -0.8538249135017395, 0.6981467604637146, -0.2786302864551544, 0.4269024729728699, 0.401030957698822, 0.1708413064479828, 0.6012701392173767, 0.13603582978248596, 0.3300870954990387, -0.38929858803749084, -0.6101155877113342, 0.015024345368146896, -0.12147941440343857, -0.0004617875092662871, 0.5427046418190002, -0.6630600094795227, 0.09470608085393906, 0.21525585651397705, 0.6282021403312683, 0.5161086320877075, 0.1450357288122177, -0.47557154297828674, 0.050375863909721375, -0.7118480205535889, -0.0390915609896183, -0.012970278970897198, 0.42973029613494873, -0.13472601771354675, 0.6372213959693909, -0.09042564034461975, -0.5265424847602844, -0.23599873483181, -0.44692808389663696, 0.10504502058029175, -0.10521525889635086, -0.394331157207489, -0.3036808669567108, -0.8823785781860352, -0.32475823163986206, 0.3970402479171753, 0.7391003966331482], [-0.6832931041717529, -0.13237853348255157, -0.2835626006126404, -0.13297268748283386, -0.3314967155456543, 0.1499655544757843, -0.27843278646469116, -0.28786417841911316, 0.4232870042324066, 0.33874306082725525, 0.26528096199035645, -0.8766211867332458, -0.2969122529029846, -0.03181741014122963, -0.2708231508731842, 0.4541949927806854, 0.619060754776001, -0.6894094944000244, 0.2527850568294525, -0.02820112556219101, 0.16790787875652313, -0.464018315076828, 0.700307309627533, 0.22347380220890045, 0.6831469535827637, -0.2877155840396881, 0.7867013812065125, 0.6589685082435608, 0.1434239000082016, 0.3465166389942169, -0.02030920796096325, 0.3497766852378845, -0.5574463605880737, -0.4332010746002197, -0.27414700388908386, -0.644563615322113, -0.46807485818862915, -0.26659485697746277, -0.2593066394329071, -0.006679061334580183, 0.2666964828968048, 1.4859387874603271, -0.5178297162055969, 0.10344069451093674, 0.09968641400337219, 0.13895440101623535, 0.6017332077026367, -0.020505229011178017, 0.38611865043640137, -0.011850234121084213, -0.17499186098575592, -0.04911508411169052, 0.22668731212615967, -0.14132358133792877, 0.3450435698032379, -0.8379353284835815, 0.22035807371139526, 0.37254008650779724, 0.41541802883148193, 0.04553884267807007, -0.47735801339149475, 0.5580639839172363, -0.21272563934326172, 0.22852273285388947], [0.2821959853172302, 0.7914320826530457, -0.35170337557792664, -0.21664376556873322, 0.13691124320030212, -0.2803874909877777, -0.9469083547592163, -0.20885397493839264, -0.13358667492866516, 0.475109338760376, -0.1850731372833252, -0.4895702600479126, 0.028152866289019585, -0.12432797253131866, 0.229319229722023, 0.565451443195343, 0.418622225522995, 0.10646386444568634, -0.4149937629699707, -0.3046271800994873, -0.4342914819717407, 0.1860598474740982, 0.5877074003219604, 0.09104534238576889, -0.08040224760770798, -0.3641630709171295, 0.6986753940582275, 0.7691155672073364, 0.08463238924741745, 0.19069626927375793, 0.5289534330368042, -0.10160788148641586, -0.7691640257835388, -0.8447985053062439, -0.7059068083763123, -0.8084814548492432, -0.20367640256881714, -0.30085039138793945, -0.043966107070446014, -0.18844406306743622, -0.22894881665706635, 0.12067296355962753, -0.13416144251823425, 0.5451889634132385, -0.17406156659126282, -0.2292667180299759, 0.10926546156406403, -0.5286314487457275, 0.30741918087005615, 0.1670534461736679, 0.9126478433609009, 0.8377559185028076, -0.3044065535068512, -1.2084561586380005, -0.08456423878669739, -0.06555602699518204, -0.3843597173690796, -0.13727599382400513, -1.0232555866241455, 0.21211494505405426, -0.40366560220718384, -0.5716965198516846, 0.07144128531217575, -0.04947097972035408], [-1.0519014596939087, -0.49212345480918884, 0.6728646755218506, -0.3416506052017212, 0.06558475643396378, -0.2470560371875763, 0.3084784746170044, -0.7132624387741089, 0.5647766590118408, -0.2661614418029785, 0.01633272133767605, -0.356130987405777, -0.07205307483673096, 0.6682686805725098, -0.3209877610206604, -0.0068885753862559795, 0.06990859657526016, -0.3310914933681488, -0.33028414845466614, 0.1319180279970169, -0.6796978116035461, -0.3453839123249054, -0.30630406737327576, -0.19592316448688507, 0.267551988363266, -0.36243006587028503, -0.5584847927093506, 0.1950097531080246, -0.46521416306495667, 0.3403036594390869, -0.7952491641044617, 0.3927370011806488, 0.43104422092437744, 0.8172975778579712, 0.09507568925619125, -0.30664971470832825, 0.686729907989502, -0.016274068504571915, -0.9468859434127808, 1.432913899421692, 0.5259599089622498, 0.265834778547287, 0.5234681963920593, 0.5245001912117004, -0.7476197481155396, -0.226525217294693, 0.09127121418714523, -0.6486791968345642, -0.3254104554653168, 0.5645499229431152, -0.5956671833992004, -1.2504087686538696, 0.21653547883033752, 0.6628748178482056, 0.236749529838562, 0.14612431824207306, -0.10098835080862045, 0.20508506894111633, 0.08570495992898941, -0.3848406672477722, 0.3447816073894501, -0.365273654460907, -0.4497690796852112, -0.4631763696670532], [0.6447844505310059, -0.047801367938518524, 0.5968736410140991, -0.48746901750564575, -0.3188764750957489, -0.3178485333919525, -0.1957537978887558, 0.12035562843084335, 0.2656536400318146, 0.08049815893173218, -0.05790993571281433, 0.3236059248447418, -0.7278481125831604, 0.1793958842754364, -0.2573147118091583, 0.5269085764884949, 0.21458005905151367, -0.24326422810554504, 0.5214702486991882, -0.1613721251487732, -0.47538432478904724, -0.36014655232429504, -0.038263119757175446, -0.3494598865509033, 1.0009982585906982, 0.19783277809619904, 0.31992629170417786, -0.2250055968761444, -0.23553875088691711, 0.6950736045837402, -0.34356868267059326, -0.4422244429588318, 0.18750569224357605, 0.002739619230851531, 0.7204521298408508, 0.3147517144680023, 0.03864319249987602, 1.181010127067566, -0.35702982544898987, 0.5476524829864502, 0.7846145033836365, 0.03976588323712349, 0.4380050003528595, 0.3553301990032196, -1.0591621398925781, 0.3326803743839264, -0.2928714454174042, -0.1218535304069519, 0.05652189254760742, 0.600711464881897, -0.4279279112815857, -0.32287856936454773, 0.02520553208887577, 0.5492238402366638, -0.5387623310089111, 0.5477043986320496, 0.963442325592041, 0.6010677218437195, -0.18230976164340973, -0.9191805124282837, 0.19571132957935333, 0.049242403358221054, -0.03709173947572708, 0.3049938380718231], [1.7853479385375977, -0.05958738178014755, -0.5991432666778564, -0.23594197630882263, 0.6920833587646484, -1.0306679010391235, 0.06882350146770477, 0.3370065987110138, -0.30958354473114014, 0.4223470687866211, -0.7890467643737793, 1.6711114645004272, -0.601321816444397, -0.4607599675655365, 0.1246429979801178, 1.2076908349990845, -0.0836041048169136, -0.05739587917923927, 0.17476481199264526, -1.072272539138794, 0.16288737952709198, -0.31916680932044983, -0.6015610098838806, 0.21560949087142944, -0.3639293313026428, -0.20401161909103394, 0.33861178159713745, 0.23796729743480682, -0.040095046162605286, -0.19252829253673553, 0.9403142929077148, -0.6210671067237854, -0.37547993659973145, -0.531885027885437, -0.22390379011631012, 0.9994421005249023, 0.15704499185085297, -0.04401228576898575, -0.26318222284317017, 0.02668236941099167, -0.9030800461769104, -0.09533242881298065, 0.4761201739311218, -0.10690850019454956, 0.22200186550617218, 0.009492720477283001, 0.19933266937732697, -0.33582672476768494, 0.14762704074382782, -0.7260239720344543, -0.11236989498138428, 1.1807409524917603, 0.16778473556041718, -0.1660052090883255, 0.09119004011154175, 0.11874648928642273, 0.2366453856229782, -0.43812286853790283, -0.319716215133667, 0.18876421451568604, 0.059444576501846313, -0.6682096719741821, 0.3362542688846588, 1.3572256565093994], [-0.24665682017803192, 0.4035058915615082, 0.22110122442245483, 0.03743726387619972, -0.33823487162590027, -0.4598015546798706, 0.14194966852664948, -0.229847714304924, 0.3161686658859253, -0.03470728173851967, -0.2828194200992584, -0.3255313038825989, 0.2146390676498413, -0.4696681797504425, -0.050706423819065094, -0.14320698380470276, 0.7700026035308838, 0.04545441269874573, 0.3778858482837677, 0.07790154963731766, -0.13436181843280792, -0.2852059602737427, 0.42316457629203796, -0.27778664231300354, 0.5665367245674133, 0.06820522993803024, 0.17927071452140808, 0.5307102203369141, 0.06751617044210434, 0.7182320356369019, 0.6363723278045654, -0.5276634097099304, -0.5244326591491699, 0.03655387461185455, 0.07816801220178604, -1.3028892278671265, 0.05395388603210449, -0.006857584696263075, 0.13856972754001617, -0.13040459156036377, -0.327639102935791, 0.7608211636543274, -0.27244675159454346, -0.11578606814146042, -0.324273943901062, 0.16825878620147705, -0.6738886833190918, 0.44794031977653503, 0.20785945653915405, -0.043547265231609344, 0.43731939792633057, -0.2716177999973297, -0.3498114347457886, -0.3928704559803009, -0.44742637872695923, -0.6652923822402954, 0.9668962955474854, 0.5729235410690308, -0.5244657397270203, 0.04083586111664772, -1.1519204378128052, -0.9711109399795532, 0.26620161533355713, 0.3583952784538269], [0.17173506319522858, 0.12699231505393982, 0.39398449659347534, -0.022513926029205322, -0.11823771893978119, -0.5191524028778076, -0.4035247266292572, -0.015580203384160995, 0.2974432706832886, 0.14001397788524628, 0.6566182374954224, 0.09987607598304749, 0.27617979049682617, 0.43449658155441284, 0.20113173127174377, -0.10616743564605713, -0.3866061866283417, -0.2898024320602417, -0.4173646867275238, 0.16314665973186493, 0.07034729421138763, -0.1857340782880783, -0.8838207125663757, -0.3011727035045624, -0.20532268285751343, -0.1085750088095665, -0.711422860622406, -0.33050769567489624, -0.05462177097797394, -0.9597036838531494, -0.16726192831993103, -0.0014555798843502998, 0.2586936354637146, -0.37003523111343384, -0.3412873446941376, 0.8806390166282654, -0.3173392117023468, -0.24710538983345032, -0.16677643358707428, 0.3716586232185364, -0.3769650459289551, -1.293454647064209, -0.04815654084086418, -0.2950914204120636, -0.35332849621772766, 0.09160176664590836, 0.14311356842517853, -0.07293380796909332, 0.12730824947357178, 0.32196044921875, -0.4253683090209961, -0.3945600390434265, -0.12953656911849976, 0.2538047134876251, -0.21139317750930786, 1.062711238861084, -0.3056607246398926, 0.3588768243789673, 0.009754017926752567, -0.3721693456172943, 0.42903855443000793, 0.04302551969885826, -0.11738892644643784, 5.732836143579334e-05], [0.8322126865386963, 0.7545119524002075, 0.19473329186439514, -0.2999401092529297, -0.5379775166511536, -0.5626003742218018, -0.09221392869949341, 0.044655945152044296, 0.8421452045440674, -0.46609827876091003, -0.34099021553993225, 1.6607171297073364, -0.2322797030210495, 0.2463175654411316, -0.29333433508872986, 0.7511053681373596, 0.17933572828769684, -0.3282327651977539, 0.15934711694717407, -0.24116018414497375, -0.3792359530925751, -1.082388162612915, -0.2713960111141205, -0.5881258249282837, 0.2588362991809845, -0.03561967611312866, -0.28923842310905457, 0.15382403135299683, 0.5783401131629944, 0.09342175722122192, 0.8012014627456665, -0.12554986774921417, -0.6104924082756042, -0.7024908065795898, 0.4820082485675812, 0.17031735181808472, 0.9644841551780701, 0.37220919132232666, -0.0988369807600975, 0.3837275803089142, 0.14249955117702484, 0.36752745509147644, -0.0695594847202301, 0.4623333215713501, 0.27477866411209106, 0.2207919806241989, -0.2622615396976471, -0.7502676844596863, -0.2341780811548233, 0.1706518679857254, -0.15323282778263092, 0.3931849002838135, 0.27098575234413147, -0.4494048058986664, -0.434527724981308, 0.48896098136901855, 0.1540810465812683, -0.1597713977098465, -0.7321964502334595, -0.2714623808860779, 0.7110987305641174, 0.556484043598175, 0.17958828806877136, 1.0732909440994263], [0.04001413658261299, 0.49033036828041077, 0.4596516489982605, -0.2644472122192383, 0.17853933572769165, -0.0966654121875763, -0.8225812315940857, 0.15034465491771698, -0.10968255251646042, 1.1191174983978271, -0.9342861771583557, 0.32736796140670776, -0.26221850514411926, -0.5290076732635498, 0.2575051784515381, -0.461277574300766, 0.7112594246864319, -0.0676485151052475, -0.21349242329597473, -0.5400099158287048, 0.4807749390602112, -0.3588157296180725, 0.23318804800510406, -0.40248429775238037, 0.5215316414833069, 0.6210694313049316, 0.1728583723306656, 0.0784592404961586, 0.3575915992259979, 0.32319989800453186, 0.7553166151046753, 0.433249294757843, -0.9571915864944458, -0.5708485245704651, -0.5005389451980591, 0.25844472646713257, -0.5662951469421387, 0.5182994604110718, 0.09649418294429779, 0.0634593516588211, -0.4665764272212982, 0.1623859703540802, -0.5555033087730408, -0.6851685643196106, -0.1108502522110939, 0.6383599042892456, -0.3930755853652954, 0.3798779547214508, -0.0058593288995325565, -0.6135340332984924, 0.2526020407676697, 1.2063246965408325, 0.0930989533662796, -0.31840550899505615, -0.5811372995376587, -0.19154275953769684, 0.5160496830940247, 0.1225564256310463, -0.44364041090011597, -0.08274868130683899, -0.1516960859298706, -0.14962422847747803, 0.8159400224685669, 0.11575490236282349], [-0.1661130040884018, 0.08106236904859543, -0.14560328423976898, -0.18560084700584412, -0.37296944856643677, -0.0941510796546936, -0.18614166975021362, -1.05831778049469, 0.5833535194396973, -0.28448814153671265, -0.012307743541896343, -0.2048148363828659, 0.16919228434562683, -0.09668329358100891, -0.7549740076065063, -0.27988576889038086, 0.5472272634506226, 0.1706085354089737, 0.4279952049255371, -0.17299270629882812, -0.5310900807380676, -0.003719963598996401, 0.521111011505127, 0.37108874320983887, 0.09822505712509155, -1.3035526275634766, 0.3576616644859314, 0.28781652450561523, -0.17402362823486328, 0.017839984968304634, -0.2099347859621048, 0.1703653484582901, -0.118785060942173, 0.28661859035491943, 0.6483392119407654, -0.4538538157939911, -0.319715291261673, 0.3692489564418793, 0.032189033925533295, 0.49355125427246094, 0.4581153392791748, 0.6252665519714355, 0.09775929898023605, 1.1124212741851807, -0.29211658239364624, -0.13763536512851715, -0.055149879306554794, -0.687092661857605, -0.4890804588794708, -0.10191928595304489, -0.36123597621917725, -0.7573734521865845, 0.4591943919658661, 0.27061548829078674, 0.43011969327926636, -0.02731310762465, 0.014141193591058254, 0.4362466037273407, 0.20754818618297577, 0.3606641888618469, -0.34606456756591797, -0.25520649552345276, 0.20861132442951202, -0.3484339416027069], [0.6859368085861206, -0.07962030917406082, -0.20613212883472443, 1.4369299411773682, -0.14792977273464203, 0.12570062279701233, -0.26256248354911804, -0.08958930522203445, 0.031072046607732773, 0.515811562538147, 0.37991371750831604, 0.40307509899139404, 0.39205431938171387, 0.13496118783950806, 0.5461335182189941, 0.1680169552564621, -0.13965076208114624, 0.6052504181861877, -0.6937179565429688, -0.20106488466262817, 0.0976681038737297, 0.10770318657159805, -0.11275486648082733, 0.517306923866272, -0.07023976743221283, -0.30567455291748047, 0.05893697962164879, -0.5757476091384888, -0.21595366299152374, -0.34111377596855164, 0.5129373669624329, 0.11985155194997787, -0.2972959876060486, 0.42459535598754883, -0.44516029953956604, 0.5950665473937988, -1.6280477046966553, -0.20731553435325623, 0.445111483335495, -0.306356281042099, -0.9558596014976501, -0.3422243893146515, -1.470162034034729, 0.27658775448799133, 0.4386259615421295, -0.04071705415844917, 0.14562837779521942, -0.23347164690494537, -0.2006402462720871, 0.1308828741312027, -0.03152923658490181, 0.24773819744586945, -0.3710060715675354, 0.3856804072856903, 0.2689533531665802, -0.05652432143688202, -0.26241859793663025, -0.09891173243522644, -0.3002479672431946, 0.17484061419963837, 0.08813317120075226, 0.40955013036727905, 0.2005121409893036, 0.7561357617378235], [0.8315210342407227, 0.870776891708374, -0.10478087514638901, 0.44457030296325684, 0.4741675555706024, 0.19848906993865967, -0.17710915207862854, 0.6704917550086975, 0.16057536005973816, 2.0660712718963623, -0.4284187853336334, -0.48751574754714966, 0.25902068614959717, 0.11633357405662537, 0.14877264201641083, -0.15964767336845398, -0.048761822283267975, -0.21519118547439575, -0.6895269751548767, 0.020445404574275017, 0.1707030087709427, 0.04188716411590576, 0.44224119186401367, 0.13890127837657928, -0.04192905128002167, 0.6198368668556213, 0.24596188962459564, -0.10387125611305237, -0.15462873876094818, 0.07931844145059586, 0.9296699166297913, 0.1407821774482727, -0.6164277791976929, -0.08576598763465881, -0.8822466135025024, -0.21997509896755219, -0.577303409576416, 0.2468382865190506, 0.2891559600830078, -0.7189534902572632, -0.5488963723182678, -0.49548375606536865, -0.5301114916801453, -0.27480271458625793, 0.16063983738422394, 0.1881353259086609, -0.4832858443260193, 0.13554233312606812, 0.6791769862174988, -0.41860002279281616, 0.11235959082841873, 0.7157557010650635, -0.44362199306488037, -0.09289588779211044, 0.22891992330551147, -0.316638708114624, 0.48444706201553345, -0.21627506613731384, -0.12167682498693466, 0.2873677909374237, -0.29884132742881775, 0.1270873248577118, 0.1576099991798401, -0.011834468692541122], [0.6929109692573547, 0.10140888392925262, -0.11305081099271774, 0.1702796071767807, 0.012544828467071056, 0.3162398934364319, 0.013228440657258034, 1.029751181602478, -0.4915795624256134, 0.1126873716711998, -0.41998574137687683, -0.2659522593021393, 0.009398996829986572, 0.2940293848514557, 0.5366251468658447, -0.4017102122306824, 0.15615977346897125, 0.11575350910425186, -0.5980288982391357, -0.23274433612823486, 0.5847995281219482, 0.41636618971824646, 0.09549397230148315, 0.5430918335914612, -0.6470286250114441, 1.5821549892425537, 0.21756236255168915, -0.020295193418860435, -0.0829169824719429, 0.18619851768016815, 0.0917055606842041, -0.08310243487358093, -0.4003984332084656, -0.22798657417297363, -0.4022531509399414, -0.5524505376815796, 0.011993181891739368, -0.3013659417629242, 0.3357425928115845, -0.4721204936504364, 0.17977532744407654, -0.49386894702911377, -0.49656620621681213, -0.6252301931381226, 0.4610767662525177, -0.030012257397174835, 0.15851515531539917, 0.33392447233200073, 0.43671876192092896, 0.016498330980539322, -0.11499118059873581, 0.7264257669448853, -0.27046874165534973, -0.047767285257577896, 0.1789098083972931, -0.06091936305165291, -0.4056544005870819, -0.6734268665313721, 0.11961513012647629, 0.16449759900569916, -0.6878081560134888, 0.023408764973282814, 0.03081393428146839, 0.3728928864002228], [1.0134438276290894, 0.10412831604480743, 0.11741070449352264, 0.009504464454948902, -0.44932979345321655, 0.052900299429893494, 0.2629849314689636, -0.5493454337120056, 0.5123545527458191, -0.5121304392814636, -1.3103660345077515, 0.8176916837692261, -0.6323968768119812, -0.12335757166147232, -0.3035975396633148, 0.2892092168331146, 0.5078455805778503, 0.06919407844543457, 0.1242828518152237, 0.08702412247657776, 0.029651744291186333, -0.8240000605583191, 0.5659903287887573, -0.3700481355190277, 0.6767241358757019, 0.09627531468868256, 0.2986505925655365, 0.17315076291561127, -0.3597857654094696, 0.5491706132888794, 0.2350611835718155, -0.4862293004989624, -0.009219536557793617, 0.10284072160720825, 0.5699411630630493, -0.02810271829366684, 0.535056471824646, 0.07698366791009903, -0.4874127209186554, 0.5388737320899963, 0.04023703187704086, 0.17867372930049896, 0.3639494776725769, -0.17292658984661102, -0.19256791472434998, 0.44936397671699524, -0.4981585741043091, -0.34519562125205994, -0.5453495979309082, 0.4865936040878296, 0.535931408405304, -0.42984163761138916, 0.38405513763427734, -0.8862219452857971, -1.0225739479064941, 0.014520697295665741, 0.124876007437706, 0.26972705125808716, -0.1396695226430893, -0.50779128074646, -0.7486838698387146, -0.009188367053866386, -0.26857370138168335, 0.2400793880224228], [0.5094709992408752, 0.007641986012458801, -0.1996024250984192, 0.022625481709837914, -0.22709298133850098, -0.3154682517051697, -0.06014275550842285, 0.04665568843483925, 0.14867369830608368, 0.4037739634513855, 0.6336725950241089, 0.18971171975135803, 0.2827994227409363, -0.07829077541828156, 0.30299827456474304, -0.013795045204460621, -0.4408636689186096, -0.18804025650024414, -0.14583782851696014, -0.08153343945741653, 0.362313836812973, -0.35609689354896545, -1.3405754566192627, -0.008955302648246288, -0.0887967050075531, -0.29888901114463806, -0.3688495457172394, -0.48133227229118347, -0.4211004674434662, -0.3646312952041626, -0.20239828526973724, 0.18371650576591492, 0.24165058135986328, -0.3268834352493286, 0.21633020043373108, 0.3754926323890686, -0.058286797255277634, 0.16745932400226593, -0.507422685623169, -0.276088684797287, -0.17649298906326294, -1.4458644390106201, 0.21808645129203796, -0.2752215266227722, 0.016085997223854065, 0.14783339202404022, 0.27139371633529663, 0.2960825264453888, -0.23174621164798737, 0.06181352958083153, -0.08962204307317734, 0.35909226536750793, 0.07267094403505325, 0.16714543104171753, 0.13032683730125427, 0.9843578338623047, -0.31007862091064453, 0.057972632348537445, -0.35985761880874634, -0.08325677365064621, 0.10019869357347488, -0.0069464389234781265, 0.017370406538248062, 0.47572264075279236], [-0.5038857460021973, 0.31181997060775757, 0.12244708091020584, -0.3132317066192627, 0.13555121421813965, -0.055551573634147644, -0.09448330849409103, 0.008645339868962765, 0.0947110578417778, -0.024127710610628128, 0.057674359530210495, -0.5035393834114075, -0.45341917872428894, -0.48181504011154175, -0.03914228081703186, -0.18428239226341248, 0.7607452273368835, -0.12922842800617218, 0.16478823125362396, -0.22347888350486755, 0.19252370297908783, 0.07500458508729935, 1.261515736579895, 0.17618915438652039, 0.2530919015407562, -0.17583255469799042, 0.07699104398488998, 0.620643675327301, 0.4827536940574646, 0.6679174900054932, 0.3086603879928589, 0.11112625896930695, -0.23859292268753052, 0.1832827478647232, -0.0750885084271431, -0.6219565272331238, -0.1292232871055603, 0.22684167325496674, 0.11130313575267792, -0.009673142805695534, 0.5181998610496521, 0.8490849137306213, -0.449650377035141, 0.5616635084152222, 0.34160372614860535, 0.1152711808681488, 0.31141772866249084, -0.18228097259998322, 0.13100731372833252, 0.11270634084939957, 0.14316299557685852, 0.2075657695531845, 0.1359238177537918, -0.1753840148448944, 0.36671197414398193, -1.3560775518417358, -0.09444122761487961, 0.5148944854736328, 0.1572817862033844, -0.35942140221595764, -1.1094056367874146, 0.26493194699287415, 0.4286017417907715, -0.27336227893829346], [1.0378392934799194, 0.5067994594573975, -0.054950982332229614, -0.3515419661998749, -0.3710755705833435, -0.272573858499527, -0.3652270436286926, -0.5202528238296509, 0.14755399525165558, -0.16300523281097412, 0.05702687054872513, 0.8617683053016663, 0.21178989112377167, -0.4920341670513153, -0.2248688042163849, 0.8534045815467834, -0.06636203825473785, -0.3238286077976227, 0.2727310061454773, -0.5490669012069702, -0.1563538908958435, -0.6629928350448608, -0.3548487722873688, 0.022388195618987083, -0.06807255744934082, -0.6031721830368042, -0.26799023151397705, 0.48278552293777466, -0.17356719076633453, -0.2115049511194229, 0.8840028047561646, -1.666322112083435, -0.17909123003482819, 0.3852382004261017, 0.08515945076942444, 0.13188721239566803, -0.31996265053749084, -0.06314319372177124, -0.5894656181335449, 0.1421639770269394, 0.05231305956840515, -0.27151036262512207, 0.19771423935890198, 0.03463338315486908, 0.4441448748111725, 0.756274938583374, -0.30125826597213745, -0.7957231998443604, -0.05483919754624367, 0.13392947614192963, -0.36008185148239136, 0.36200863122940063, 0.2615100145339966, 0.40187785029411316, -0.10616280883550644, -0.10795308649539948, -0.11125832051038742, 0.2290668934583664, -0.4590829610824585, -0.4296211004257202, 0.7291086912155151, 0.10286302119493484, 0.4526640474796295, 1.6362403631210327], [-0.5498560070991516, 0.2378673404455185, -0.009624696336686611, 0.2485790103673935, -0.253876268863678, 0.4215868413448334, 0.23852723836898804, -1.204935073852539, 0.14602552354335785, 0.4531080722808838, -0.3964782953262329, -0.01810843124985695, 0.12350421398878098, -0.27528488636016846, -0.2667274475097656, -0.010530717670917511, 0.2781355381011963, 0.07581254839897156, 0.4606081545352936, 0.06381279975175858, -0.08908426016569138, -0.09749726206064224, 0.0016140255611389875, -0.21349146962165833, 0.48689451813697815, -1.3638046979904175, -0.19775959849357605, -0.2224317342042923, 0.09245740622282028, -0.2223203182220459, 0.19658957421779633, 0.18230652809143066, -0.20659419894218445, 0.1780664324760437, 0.19392147660255432, -0.22244501113891602, -0.6745746731758118, 0.09550495445728302, -0.3633934259414673, -0.014484344981610775, -0.2805787920951843, 0.0012609845725819468, 0.08087892830371857, 1.0775688886642456, -0.19688871502876282, -0.04320358484983444, 0.42633816599845886, -0.9073356986045837, -0.24306714534759521, 0.14121225476264954, 0.2067728042602539, 0.16275706887245178, 0.07784338295459747, 0.024561110883951187, -0.1302356868982315, 0.06518162786960602, 0.42446479201316833, 0.2489178627729416, -0.23194043338298798, -0.43810197710990906, -0.33513808250427246, 0.2646477222442627, -0.16632381081581116, -0.42359355092048645], [1.4988592863082886, -0.06330957263708115, 0.2776432931423187, -0.13183525204658508, 0.051104068756103516, 0.01874447986483574, 0.2529882490634918, 0.4257025122642517, -0.11586613208055496, 0.2632644772529602, -0.6171008348464966, 0.7122911810874939, 0.26952576637268066, 0.552302360534668, -0.20984940230846405, 1.1885608434677124, -1.0419485569000244, 0.15277479588985443, 0.3556300699710846, -0.10017403215169907, 0.3273455798625946, -0.09826446324586868, -0.6759262681007385, 0.08551542460918427, 0.3438751697540283, 0.08019418269395828, -0.576111376285553, -1.0140961408615112, -0.3219214677810669, -0.12536680698394775, 0.08041677623987198, -0.3461570739746094, 0.08221635967493057, -0.42199718952178955, 0.3072391152381897, 0.8645639419555664, -0.42745518684387207, 0.5338957905769348, 0.2769532799720764, -0.3718646764755249, 0.1486472487449646, -1.1173008680343628, -0.2300165593624115, -0.013902182690799236, 0.4667910039424896, 0.353681355714798, -0.6207166910171509, 0.41282323002815247, 0.3498729467391968, -0.025603052228689194, -0.09070049971342087, 0.6379024386405945, 0.1534959375858307, 0.6214362382888794, -0.01696101762354374, 0.6298934817314148, 0.327066570520401, 0.009792477823793888, -0.2750360071659088, -0.41994738578796387, 0.5024452209472656, -0.25798314809799194, -0.6829226613044739, 0.8044600486755371], [-0.01750226877629757, -0.19409993290901184, -0.4003922939300537, 0.6449806094169617, 0.5282009840011597, -0.06571366637945175, -0.0646531730890274, 0.40160733461380005, -0.1345975250005722, 0.08959449827671051, 0.5237773656845093, -0.19058595597743988, 0.6970529556274414, 0.2828332781791687, 0.4974059760570526, -0.20097240805625916, -0.17643114924430847, -0.05702567100524902, -0.6507335901260376, -0.19245977699756622, 0.9101420044898987, 0.3984657824039459, -0.31643134355545044, 1.0863171815872192, -0.8645215630531311, -0.03606421872973442, -0.04742284119129181, -0.32750463485717773, -0.18299168348312378, -1.0853029489517212, -0.06596078723669052, 0.38551926612854004, 0.12773717939853668, -0.17701441049575806, -0.3694351613521576, 0.1344163417816162, 0.281688392162323, -1.0248233079910278, 0.2026468962430954, -0.41038480401039124, 0.019095322117209435, -0.7231746315956116, -0.5920660495758057, 0.41405513882637024, -0.021990520879626274, -0.2820035517215729, 0.31442514061927795, -0.08069409430027008, 0.06964761018753052, -0.20743270218372345, 0.07188737392425537, 0.22340886294841766, -0.5043153166770935, -0.02992001175880432, 0.46277016401290894, 0.3212130665779114, -1.057439923286438, -0.8236495852470398, 0.3808954358100891, 1.077333927154541, 0.4694291651248932, 0.14265388250350952, 0.044071707874536514, 0.268593430519104], [0.31362131237983704, 0.01755824312567711, -0.977489173412323, 0.7901837229728699, -0.005604703910648823, -0.276140958070755, -0.10105923563241959, 0.22827263176441193, -0.1587696075439453, 1.8742042779922485, -0.40158554911613464, 0.017161430791020393, -0.11468270421028137, -0.16009536385536194, 0.2180265188217163, 0.5190101265907288, -0.2530677616596222, -0.07655763626098633, -0.0533977672457695, -0.7590855956077576, 0.7912138104438782, -0.4361894130706787, -0.07298891991376877, -0.19519691169261932, -0.346772700548172, 0.15033522248268127, 0.38429608941078186, -0.03525298461318016, -0.0379219725728035, -0.13424621522426605, 0.0738181546330452, -0.6270901560783386, -0.14936333894729614, -0.19301410019397736, -1.396000623703003, 0.36725983023643494, -0.8445644378662109, 0.16322502493858337, 0.2576054632663727, -1.1514230966567993, -1.1495665311813354, -0.39968445897102356, -0.30850112438201904, -0.3609197735786438, 0.023424528539180756, -0.017129598185420036, 0.5001876950263977, 0.48701292276382446, 0.03407298028469086, -0.18626414239406586, 0.40843358635902405, 0.2441374957561493, -0.20128405094146729, -0.06450912356376648, -0.08179497718811035, -0.2988417446613312, -0.1278117299079895, -0.06872793287038803, 0.0540456548333168, 0.2114095687866211, 0.2464183270931244, 0.2575939893722534, -0.11374694108963013, 0.254254013299942], [-0.10337270796298981, 0.04213062673807144, -0.2210014909505844, 0.3731936514377594, -0.13791316747665405, -0.5186402797698975, -0.7938956022262573, 0.21972228586673737, -0.30118459463119507, 0.378368616104126, -0.27287977933883667, -1.4824870824813843, -0.04392657428979874, -0.39820194244384766, 0.9685890078544617, 0.806335985660553, 0.3750162124633789, 0.4949152171611786, -0.7016084790229797, -0.516444206237793, 0.6907117962837219, 0.3600659966468811, -0.1340426504611969, 0.434061199426651, -0.509988009929657, 0.07094161957502365, 0.44110164046287537, 0.2129988968372345, 0.29738181829452515, 0.11130466312170029, 0.7772617340087891, -1.2163642644882202, -0.06224757432937622, -0.5322489142417908, -1.237884283065796, 0.23883800208568573, -0.3229217827320099, -0.03138555958867073, 0.49109503626823425, -0.6189805865287781, -0.5266185402870178, 0.5050765872001648, -0.8655163049697876, -0.1877276599407196, -0.12110438942909241, -0.040289755910634995, 0.4046388268470764, 0.6127517223358154, -0.10912997275590897, -0.4078080654144287, 0.45654308795928955, 0.6406962871551514, -0.2613154351711273, -0.44682633876800537, -0.18498626351356506, -0.27646276354789734, 0.2789468765258789, -0.5929043292999268, -0.13858364522457123, -0.1169024184346199, -0.7563477754592896, 0.22042199969291687, 0.26264798641204834, 0.04001690819859505], [0.059236690402030945, 0.3036525845527649, 0.16974614560604095, -0.056836407631635666, 0.20246748626232147, -0.4349047839641571, -0.12579698860645294, -0.49088889360427856, -0.008577398024499416, 0.13465474545955658, -0.3237147331237793, 0.151113361120224, -0.966346800327301, -0.15107779204845428, 0.06642927974462509, 0.44275665283203125, -0.0034475962165743113, -0.17489886283874512, -0.008830173872411251, -1.0230234861373901, 0.18112041056156158, -0.10258777439594269, 0.25659915804862976, -0.637104868888855, 0.8441314697265625, -0.4213966429233551, 0.8438629508018494, -0.19652710855007172, 0.48991337418556213, 0.5037824511528015, 0.10198911279439926, -0.3986137807369232, -0.16052256524562836, 0.3861849308013916, -0.18821902573108673, -0.5186821222305298, -0.3750586211681366, 0.7701829671859741, -0.5817268490791321, 0.21980403363704681, -0.20328202843666077, 0.7492985725402832, 0.04697619006037712, 0.46617379784584045, -0.7230406403541565, -0.020382829010486603, -0.26587533950805664, -0.6530815958976746, -0.5595017671585083, 0.269870400428772, -0.23676137626171112, -0.2587023675441742, 0.4255615174770355, -0.059553150087594986, -0.8203936815261841, -0.5680859088897705, 0.5850884318351746, 0.3434745967388153, -0.7331051230430603, -0.6014535427093506, -0.6609297394752502, -0.4928402006626129, 0.6399367451667786, 0.2547658085823059], [-1.0337389707565308, 0.2706601619720459, -0.41101565957069397, -0.0928984209895134, 0.27052995562553406, -0.6303714513778687, -0.726713240146637, 0.22878693044185638, 0.0012583461357280612, 1.037239670753479, 0.03083532117307186, -1.1879690885543823, 0.1498398333787918, -0.3793792426586151, 0.5507864952087402, -0.5867387652397156, 0.20754823088645935, -0.12985530495643616, -0.7363084554672241, -0.3134097456932068, 0.87641441822052, 0.24285778403282166, -0.2588379383087158, 0.1077154129743576, -0.3189036548137665, 0.7494338154792786, 0.3417142629623413, 0.19108018279075623, 0.21820271015167236, 0.13423119485378265, 0.21128354966640472, -0.48761796951293945, 0.43980035185813904, -0.7305797934532166, -1.2347689867019653, -0.44520261883735657, -1.410481333732605, -0.05402209982275963, 0.9807797074317932, -0.4686567187309265, -0.3288825750350952, -0.3765157163143158, -0.42961210012435913, -0.43794184923171997, 0.3510172367095947, 0.02748623676598072, 0.17206639051437378, 0.42269253730773926, 0.6114908456802368, -0.4839700162410736, 0.6482505798339844, 0.21115891635417938, -0.25588130950927734, -0.35318368673324585, 0.1752406805753708, -0.3372669816017151, 0.13626372814178467, -0.43898215889930725, -0.08172021061182022, -0.21895156800746918, -0.2145630270242691, 0.4804653823375702, -0.1704998016357422, -0.07308095693588257], [-0.043922584503889084, -0.29521894454956055, -0.116800457239151, 0.3638269901275635, -0.12204159796237946, 0.3979856073856354, 0.4720138907432556, -0.3638093173503876, 0.04479169845581055, -0.5089530944824219, -0.40184715390205383, -0.2605079710483551, 0.38278883695602417, 0.011146041564643383, -0.03900201618671417, -0.14746932685375214, 0.18424856662750244, -0.2359974980354309, 0.1175529733300209, 0.09198149293661118, -0.10594157129526138, 0.11196940392255783, -0.2675628066062927, -0.2855709195137024, -0.3239748775959015, -1.623304843902588, -0.297433078289032, -0.03807317465543747, -0.1472589522600174, -0.08579140901565552, -0.37263941764831543, 0.08805083483457565, 0.4990829825401306, -0.20149658620357513, -0.12801864743232727, 0.3046455979347229, -0.608123779296875, -0.05126062035560608, -0.5143997669219971, -0.21694839000701904, -0.06731792539358139, -0.003385468851774931, 0.1795421838760376, 1.530510663986206, 0.24698369204998016, -0.3864220976829529, 0.22025945782661438, -0.9829522967338562, -0.7027406096458435, -0.046915747225284576, -0.1406255066394806, -0.22623704373836517, 0.4085487425327301, -0.2388492077589035, -0.2590174376964569, 0.16817863285541534, -0.26268813014030457, 0.45795249938964844, -0.048798397183418274, -0.016444165259599686, -0.27708899974823, -0.08832946419715881, 0.22171400487422943, -0.0966503769159317], [0.33096447587013245, -0.11404907703399658, -0.0326700285077095, 0.14890871942043304, 0.250069797039032, 0.04446623474359512, 0.46794694662094116, 0.13224749267101288, -0.1785593330860138, 0.24521802365779877, -0.005689457058906555, 0.26835817098617554, 0.16316865384578705, -0.2121918797492981, -0.19943800568580627, 0.17715086042881012, -1.2480034828186035, -0.1839829981327057, 0.20902742445468903, -0.372511088848114, 0.18052418529987335, 0.24448026716709137, -1.1365200281143188, -0.13546790182590485, 0.2825486660003662, 0.2386752814054489, -0.4793074429035187, -0.35426366329193115, -0.040569134056568146, -0.6419091820716858, 0.2908574938774109, -0.38922837376594543, 0.0009307913132943213, -0.2540963590145111, 0.010277006775140762, 0.3805675208568573, -0.016978375613689423, 0.14128610491752625, -0.06812085211277008, 0.24997995793819427, 0.08965888619422913, -1.053483247756958, 0.21193432807922363, -0.21618114411830902, 0.10688576847314835, 0.00042000433313660324, -0.2501751482486725, 0.20173534750938416, 0.3656846880912781, -0.06064554303884506, 0.1125025525689125, -0.019245916977524757, 0.2551274001598358, 0.361562579870224, 0.056703150272369385, 1.1363856792449951, -0.5094277858734131, 0.2664344310760498, -0.15645205974578857, 0.16174596548080444, 0.36891263723373413, -0.021323295310139656, -0.13209927082061768, -0.018528783693909645], [0.7470519542694092, -0.1020979955792427, 0.9441633820533752, -0.8279143571853638, -0.6607698202133179, 0.33346331119537354, -0.26467257738113403, -0.4463411271572113, 0.49336370825767517, -0.6494044661521912, -0.28547996282577515, -0.16139830648899078, -0.11454320698976517, 0.03759140893816948, -0.3076716363430023, -0.07399909198284149, 0.36953824758529663, 0.07006562501192093, 1.5450987815856934, 0.41092583537101746, -0.39321979880332947, 0.08066749572753906, 0.12285470217466354, -0.23104552924633026, 0.021364273503422737, -0.420388400554657, 0.0822465717792511, -0.1442384421825409, -0.5064905881881714, 0.3265573978424072, -0.005947336088865995, 0.32922112941741943, 0.2394360899925232, 0.03883034735918045, 0.020071567967534065, -0.11332913488149643, 0.8326095938682556, 0.517631471157074, -0.9259588718414307, 1.3275490999221802, 1.1711361408233643, -0.12945899367332458, 0.27402400970458984, 0.42002272605895996, -0.4618968367576599, -0.379036009311676, -0.3942265212535858, -0.42128926515579224, -0.7237781286239624, 0.2838551104068756, -0.5649223923683167, -0.12568697333335876, 0.2293490767478943, 0.13833938539028168, 0.14912265539169312, -0.22072669863700867, 0.2741435468196869, 0.40522029995918274, -0.17566217482089996, -0.36107683181762695, -0.501084566116333, 0.14422187209129333, -0.26427844166755676, 0.21581488847732544], [-1.3592525720596313, -0.2934952676296234, 0.4750211536884308, -0.47868648171424866, -0.11869126558303833, 1.0420966148376465, 0.045497484505176544, 0.0833456739783287, 0.01654716767370701, -0.5447390079498291, -0.19604657590389252, -0.5234624147415161, 0.09456264972686768, 0.8174704313278198, -0.0998038724064827, -1.0455865859985352, -0.21842114627361298, 0.35972973704338074, 0.10426361858844757, 0.2874022424221039, 0.221893772482872, 0.7836586236953735, 0.045175790786743164, -0.0001334502740064636, 0.31196337938308716, 0.20565497875213623, -0.12288716435432434, -0.1530836522579193, -0.44099366664886475, -0.16436433792114258, -0.15948088467121124, 0.43848228454589844, 0.22206418216228485, 0.7116062045097351, 0.18478861451148987, -0.683992326259613, 0.02222365327179432, -0.032946791499853134, -0.14247210323810577, -0.06512001156806946, 0.7049713730812073, 0.30466392636299133, 0.33299046754837036, 0.020340463146567345, -0.2132014036178589, -0.6545014977455139, 0.3210180997848511, -0.1352251023054123, -0.24092723429203033, 0.30697983503341675, -0.5528676509857178, -0.13274309039115906, -0.2378535121679306, -0.36895596981048584, 0.2612511217594147, 0.11457130312919617, -0.735576868057251, -0.127202570438385, 1.071088433265686, 0.3370450437068939, -0.19866466522216797, 0.0017977094976231456, -0.15444640815258026, -1.0947061777114868], [-0.0491490364074707, -0.18525095283985138, -0.49936121702194214, 0.07887221872806549, 0.22663845121860504, -0.25987690687179565, -0.10234678536653519, 1.0126817226409912, -0.4441734254360199, -0.08322061598300934, -0.065220408141613, -0.049873098731040955, 0.206423819065094, 0.16348519921302795, 0.4575183093547821, -0.1795937716960907, -0.2635822296142578, -0.1287921518087387, -0.34320810437202454, 0.20760349929332733, 0.355975478887558, 0.3265807330608368, -0.16201618313789368, 0.015113475732505322, 0.030252767726778984, 1.285640835762024, -0.2807423174381256, 0.44287368655204773, -0.09163496643304825, 0.12377798557281494, 0.6178627014160156, -0.12871848046779633, -0.04492871090769768, -0.19627916812896729, -0.7171379327774048, -0.314875066280365, -0.03305545076727867, -0.302881121635437, 0.6277507543563843, -0.40405237674713135, -0.38770535588264465, 0.3105151951313019, 0.07808329910039902, -1.1189067363739014, -0.1380419284105301, -0.16081279516220093, 0.39675572514533997, 0.9768470525741577, 0.5846428275108337, -0.3798478841781616, 0.047954097390174866, -0.2431364357471466, -0.4638528525829315, 0.2541850209236145, 0.07542569190263748, 0.0031433086842298508, 0.10359644144773483, 0.2001543492078781, -0.46956613659858704, 0.2322022169828415, -0.459613174200058, 0.2721964418888092, 0.529694139957428, -0.0639110654592514], [-0.5928241014480591, 0.7367671132087708, -0.09581657499074936, -0.48169299960136414, 0.23178695142269135, 0.5047459602355957, 0.13642103970050812, -0.07131034880876541, -0.5027108192443848, 0.06469733268022537, -0.14580757915973663, -0.6920410990715027, 0.14406758546829224, -0.1963401883840561, 0.014126510359346867, -0.16214893758296967, 0.720873236656189, -0.1455978900194168, -0.5251579880714417, 0.5240775346755981, 0.07255375385284424, -0.2826474905014038, 1.4009898900985718, 0.6169960498809814, -0.2677213251590729, 0.3634883761405945, 0.7155082821846008, 0.2465401142835617, -0.2585763931274414, 0.758188009262085, -0.2772030234336853, -0.01869489997625351, -0.3637329041957855, -0.048850320279598236, -0.14951783418655396, -1.0902916193008423, 0.6153077483177185, 0.376047283411026, -0.21634119749069214, 0.8271346092224121, 0.3741151690483093, 0.9786869287490845, 0.5659700036048889, 0.2199939340353012, -0.013020599260926247, -0.07820212841033936, 0.37281304597854614, 0.36672770977020264, 0.22730301320552826, 0.02057996578514576, 0.0022808534558862448, -0.4953013062477112, -0.36629706621170044, -0.8501888513565063, -0.2582853436470032, -0.7693498730659485, 0.08697175979614258, 0.041044220328330994, 0.522375762462616, -0.5158469676971436, -0.6107994318008423, -0.19989527761936188, 0.3560357987880707, -0.42391178011894226], [0.04241354763507843, -0.23004552721977234, 0.01702338084578514, 0.10384660214185715, -0.06365600973367691, -0.13139833509922028, 0.31098538637161255, 0.007470047567039728, -0.15397031605243683, -0.26032212376594543, 0.11856092512607574, 0.18551811575889587, 0.33228275179862976, 0.4839175045490265, 0.21929343044757843, -0.12773868441581726, -0.8857656121253967, 0.07344280928373337, -0.23156972229480743, -0.02019088715314865, 0.3575318157672882, 0.024378353729844093, -0.9231523871421814, 0.09613387286663055, -0.03951926901936531, 0.25362101197242737, -0.6162527203559875, -0.7902927994728088, 0.05726668983697891, -0.4997323751449585, 0.0234507005661726, -0.32863765954971313, -0.18600459396839142, 0.40427276492118835, -0.37589624524116516, 0.38352686166763306, -0.45406562089920044, -0.18860585987567902, -0.3441382348537445, 0.24978989362716675, 0.05212217569351196, -0.9681507349014282, 0.2927270531654358, 0.214239701628685, 0.1346910446882248, -0.07213150709867477, -0.050835128873586655, 0.24522514641284943, -0.30324313044548035, 0.13985547423362732, -0.32045382261276245, -0.260244220495224, -0.030562492087483406, 0.5655450224876404, -0.24914593994617462, 1.1354289054870605, -0.12170349806547165, -0.28104153275489807, -0.6454136967658997, 0.4056864380836487, 0.41455337405204773, -0.415056973695755, -0.4775332510471344, 0.32072797417640686]], "fc1.bias": [1.0165525674819946, -0.6474179625511169, 0.6173917651176453, 0.3400883078575134, 0.7344723343849182, -1.3439311981201172, -1.0186645984649658, -0.03749501332640648, -0.32983049750328064, 0.35046643018722534, -0.012658736668527126, -0.42457136511802673, 0.27181196212768555, -0.3078356981277466, 1.7441225051879883, 0.15372134745121002, -0.7169866561889648, 0.18246740102767944, 0.4831025004386902, -0.4491274058818817, -1.504520297050476, 0.08174989372491837, 1.4018272161483765, -0.3530941903591156, 0.12823568284511566, -0.20415328443050385, -0.20332352817058563, -0.6181188225746155, 1.2523248195648193, 0.25384196639060974, -0.4009535312652588, 0.28176242113113403], "fc2.weight": [[0.08981870859861374, 0.28458690643310547, -0.12471184879541397, 0.14996547996997833, -0.17116427421569824, -0.5918465256690979, -0.1494726538658142, 0.14329476654529572, 0.011011658236384392, -0.1569652110338211, -0.05020373687148094, -0.33734849095344543, -0.16251890361309052, 0.17488707602024078, 0.029828082770109177, -0.25926730036735535, 0.2641664743423462, -0.42573803663253784, -0.3579711616039276, -0.04562460631132126, -0.18125450611114502, -0.29939398169517517, -0.010054911486804485, -0.04845394939184189, 0.02460273914039135, -0.5206073522567749, -0.4123889207839966, 0.2706259787082672, -0.04471103847026825, 0.2822599411010742, 0.3114437162876129, -0.3473264276981354], [-0.018356138840317726, 0.17836278676986694, -0.05547840893268585, 0.09475371241569519, -0.08714842051267624, -0.5916812419891357, 0.10322653502225876, -0.43771377205848694, -0.3280998766422272, -0.0003511028771754354, 0.22998905181884766, 0.1823814958333969, 0.10366040468215942, -0.14482428133487701, -0.06170182302594185, -0.26578959822654724, 0.4161415100097656, -0.13992100954055786, 0.78093421459198, -0.10607587546110153, 0.07692781835794449, 0.22688452899456024, -0.04571481794118881, 0.040488019585609436, 0.11253303289413452, 0.5020192861557007, 0.02620222233235836, -0.15379832684993744, 0.5665644407272339, -0.23738817870616913, 0.17919136583805084, 0.03058558702468872]], "fc2.bias": [0.46241000294685364, 0.4518465995788574]}