{"fc0.weight": [[-0.05434610694646835, 0.4292329251766205, -0.18742871284484863, 0.7326446175575256, -0.39455702900886536, -0.3178235590457916, -0.517755389213562, 0.27046287059783936], [-0.6683055758476257, 0.011897009797394276, -0.611541748046875, -0.2890152633190155, -0.25434836745262146, 0.1537076234817505, -0.3562346398830414, -0.3465203642845154], [-0.2528282701969147, 0.5943593978881836, 0.23823195695877075, 0.5191114544868469, -0.3497452437877655, -0.2665339708328247, 0.15613248944282532, 0.1990118771791458], [-0.00397433340549469, -0.3856644332408905, 0.310692697763443, 0.6984734535217285, -0.20090730488300323, 0.4714791178703308, -0.33563998341560364, 0.018109304830431938], [-0.3453201949596405, 0.0764443576335907, -0.23146046698093414, -0.48486828804016113, -0.11759166419506073, 0.2619730234146118, -0.8584790825843811, -0.45544812083244324], [-0.3302307724952698, -0.4065234661102295, 0.16019415855407715, -0.11141404509544373, 0.07046195864677429, 0.21586205065250397, 0.12275085598230362, -0.5052362084388733], [-0.10641145706176758, -0.3728906512260437, 0.1752345860004425, -0.2972264289855957, 0.4718210697174072, -0.3939788341522217, -0.2885538637638092, -0.08813300728797913], [-0.05889095366001129, -0.5398836731910706, 0.09005128592252731, -0.8002576231956482, -0.05326922982931137, -0.17451220750808716, 0.6688365340232849, -0.12279226630926132], [0.9136187434196472, 0.013474094681441784, -0.0105595663189888, 0.35884156823158264, -0.07080201059579849, -0.4578098952770233, 0.09747432917356491, 0.13701799511909485], [-0.06192174181342125, 0.2699912488460541, 0.5962684750556946, 0.6964276432991028, 0.45987603068351746, 0.1174849271774292, 0.09215816110372543, 0.5724262595176697], [-0.5458745360374451, 0.08451972901821136, 0.6140342354774475, -0.12007082998752594, -0.16772732138633728, 0.132126122713089, 0.31996509432792664, 0.5901124477386475], [-0.03589504584670067, 0.24839888513088226, -0.1916390359401703, 0.9180954098701477, -0.40090054273605347, 0.2755231559276581, -0.1453622430562973, -0.005732863210141659], [-0.4362277686595917, 0.09787841886281967, -0.6970060467720032, -0.033665623515844345, 0.28390398621559143, 0.0269406009465456, -0.8902449607849121, -0.10798388719558716], [-0.08120699226856232, 0.46751832962036133, 0.290374219417572, 0.2774093747138977, -0.041541073471307755, 0.28205716609954834, 0.4059599041938782, 0.47135043144226074], [0.04339928179979324, -0.38303816318511963, 0.2671615481376648, -0.7536045908927917, -0.2752313017845154, -0.2509865164756775, 0.0552826002240181, -0.26278606057167053], [-0.3774806261062622, 0.11459796875715256, -0.47886449098587036, -0.3215702474117279, 0.21473848819732666, 0.06981832534074783, -0.716675877571106, 0.2234315723180771], [0.29631179571151733, -0.3665008544921875, 0.5821240544319153, -0.4760722815990448, 0.25989118218421936, -0.20600968599319458, 0.18382368981838226, -0.10148000717163086], [-0.6269564628601074, -0.035375457257032394, -0.15362627804279327, -0.21679364144802094, -0.24461115896701813, -0.33925411105155945, -0.3440563380718231, 0.17607606947422028], [0.013497271575033665, 0.5187565684318542, -0.29205891489982605, -0.6462656855583191, -0.2928487956523895, -0.13359887897968292, 0.02334841527044773, -0.24817946553230286], [0.06936594098806381, -0.39744019508361816, 0.39908361434936523, -0.6255554556846619, -0.4241245687007904, 0.2872944474220276, 0.5830651521682739, -0.23214009404182434], [0.4537952244281769, 0.06250979006290436, 0.8286991715431213, 0.3298242688179016, -0.3094121217727661, -0.36785513162612915, 0.802033543586731, 0.19797995686531067], [0.3173341453075409, 0.19669999182224274, 0.457728773355484, 0.4866865277290344, -0.3368018567562103, -0.44287407398223877, 0.12577423453330994, -0.0392332561314106], [0.2532186806201935, -0.27848902344703674, 0.1337268054485321, 0.03861010819673538, -0.4675142467021942, -0.4627150893211365, 0.37621405720710754, 0.42244890332221985], [-0.0782669261097908, 0.07662700116634369, 0.23503994941711426, -1.1214818954467773, 0.40869665145874023, 0.20924712717533112, -0.08987099677324295, -0.018099572509527206], [-0.5403827428817749, -0.09013622999191284, -0.9851469397544861, -0.2630752623081207, -0.33922576904296875, -0.19947396218776703, -0.9694370627403259, 0.0346791036427021], [0.5729637742042542, -0.07028471678495407, -0.012321307323873043, -0.28503942489624023, -0.4127046465873718, -0.27125540375709534, -0.42319753766059875, 0.3458235263824463], [-0.1747746616601944, -0.41573566198349, -0.0431518480181694, 0.10975626111030579, 0.15314847230911255, 0.3908192217350006, -0.5205383896827698, 0.058309368789196014], [0.46952563524246216, -0.29362839460372925, -0.557675302028656, -0.4106763005256653, -0.13784776628017426, -0.4314119219779968, -0.7019175291061401, 0.31672826409339905], [-0.007039758842438459, 0.5372241139411926, -0.06833164393901825, -0.5397466421127319, 0.2270537167787552, -0.41117677092552185, 0.18304239213466644, 0.13930568099021912], [-0.05990312248468399, 0.3552747666835785, 0.43181881308555603, -0.24803677201271057, 0.20942428708076477, -0.4631701409816742, 0.09247947484254837, 0.20075690746307373], [-0.4642999470233917, -0.07086150348186493, -0.15893492102622986, 0.7848483324050903, 0.20910654962062836, -0.22084049880504608, -1.1677254438400269, 0.3056288957595825], [-0.7627077698707581, 0.0059017762541770935, 0.3101033866405487, 0.08971381187438965, 0.23126566410064697, -0.3008311092853546, 0.7330281734466553, -0.07513481378555298], [0.5877148509025574, 0.011378415860235691, -0.6558587551116943, -0.21740885078907013, 0.25557851791381836, 0.24457107484340668, -0.6155924201011658, -0.6268730759620667], [0.2623819410800934, -0.020639199763536453, -0.7040777206420898, 0.4230577349662781, 0.35105016827583313, 0.3204936981201172, -0.2603099048137665, -0.06144222617149353], [-0.0029251237865537405, -0.4820442795753479, 0.1911824345588684, 0.49812406301498413, -0.14761851727962494, -0.3128594160079956, 0.1763542890548706, 0.437080055475235], [0.6881176829338074, 0.022826483473181725, -0.24475008249282837, -0.3239125609397888, -0.13772353529930115, 0.005897830706089735, -0.41774696111679077, 0.303682804107666], [0.43216991424560547, 0.2472047209739685, 0.40369367599487305, 0.48555830121040344, 0.4618871808052063, -0.23218385875225067, 0.6289692521095276, 0.6583302617073059], [-0.1168999895453453, 0.6199069619178772, 0.3099904954433441, -0.4380665719509125, -0.04949673265218735, 0.12071548402309418, 0.511841356754303, -0.01160028949379921], [-0.5532754063606262, 0.00949399545788765, 0.8643069863319397, -0.29293814301490784, -0.299301415681839, 0.4580947160720825, 0.6523712873458862, 0.12248335033655167], [0.027794821187853813, -0.40009599924087524, 0.04699340835213661, -0.8003404140472412, 0.054205141961574554, 0.14731258153915405, -0.25417011976242065, -0.4863777160644531], [0.039514992386102676, -0.1365707814693451, 0.06834331154823303, 0.9623275399208069, 0.09708929061889648, 0.12843117117881775, 0.4763793349266052, -0.10703256726264954], [0.5785706043243408, -0.1433570832014084, 0.07724535465240479, -0.21546809375286102, -0.4602930247783661, -0.20164568722248077, 0.26853206753730774, 0.0529346838593483], [0.3649265766143799, 0.06973088532686234, 0.9479907751083374, -0.48502328991889954, -0.2530319094657898, -0.3142957389354706, 1.0541322231292725, 0.4927475154399872], [-0.4159032106399536, 0.2751428186893463, 0.24736908078193665, 0.17958082258701324, -0.44530752301216125, 0.10675967484712601, 0.3591620624065399, 0.23436339199543], [-0.5527009963989258, -0.12766018509864807, -0.15909424424171448, -0.14557169377803802, 0.41713982820510864, -0.0539974607527256, -0.25017988681793213, 0.0074274735525250435], [0.024241184815764427, -0.4451601803302765, 0.1968938410282135, -0.5225619077682495, -0.23547451198101044, 0.40457868576049805, -0.515399158000946, -0.13592305779457092], [0.5497052073478699, -0.11534647643566132, -0.11103694885969162, -0.34581324458122253, 0.23066630959510803, 0.2897017300128937, 0.0324864462018013, 0.19011914730072021], [0.05318421497941017, 0.43894171714782715, -0.34366080164909363, -0.4735608696937561, 0.41288724541664124, 0.007395416498184204, 0.29802653193473816, -0.6116962432861328], [-0.01391205657273531, -0.4612359404563904, -0.1963360756635666, -0.6609014868736267, 0.328095942735672, -0.051280345767736435, 0.1278010606765747, 0.6037421226501465], [0.056225311011075974, -0.1466817855834961, -0.4746232330799103, -0.17394816875457764, -0.4600803554058075, -0.3672608733177185, -0.44561493396759033, 0.31209611892700195], [0.05356457456946373, -0.2666185200214386, 0.35465943813323975, -0.06727012246847153, -0.4539254605770111, 0.07096191495656967, 0.21159715950489044, -0.2542669475078583], [-0.656295657157898, -0.08477579057216644, -0.3659611940383911, -0.34644877910614014, 0.3570046126842499, 0.47019097208976746, -0.8502984046936035, 0.1369543969631195], [-0.25498339533805847, -0.05556159093976021, -0.9883639812469482, 0.16440244019031525, 0.012945162132382393, -0.03190842643380165, -0.15480822324752808, 0.14861145615577698], [0.5297929048538208, -0.032903894782066345, 0.7138873338699341, -0.09749122709035873, -0.3288319706916809, 0.3924791216850281, 1.2190040349960327, 0.024882983416318893], [0.016540326178073883, 0.5035465955734253, -0.3110450804233551, -0.6165550351142883, 0.18044553697109222, -0.2667723000049591, -0.4271402657032013, -0.06816422939300537], [0.2042839229106903, 0.42639830708503723, -0.14217689633369446, 0.49765700101852417, -0.4211750626564026, 0.41744086146354675, 0.1341370791196823, -0.511120080947876], [0.035621047019958496, -0.3334450125694275, -0.0760662704706192, -0.27623251080513, 0.1562608778476715, 0.42090559005737305, 0.21903656423091888, -0.1890120953321457], [0.015206435695290565, 0.7933019399642944, 0.4379236698150635, 0.4331919550895691, 0.27535539865493774, 0.1028909906744957, 0.13204441964626312, -0.2947825789451599], [-0.0386718288064003, 0.23023809492588043, 0.26186785101890564, 1.3165301084518433, -0.1371830850839615, -0.45132818818092346, 0.10041613131761551, 0.011079808697104454], [0.49279361963272095, 0.15369756519794464, 0.21468502283096313, 0.49888184666633606, -0.43341389298439026, -0.14374874532222748, 0.9802864193916321, -0.07274824380874634], [0.14067146182060242, -0.49536553025245667, -0.2832872271537781, -0.20865246653556824, 0.2241748571395874, -0.3610839545726776, -0.45315003395080566, 0.021558493375778198], [0.048823125660419464, -0.2475995570421219, 0.7001456022262573, 0.038761962205171585, 0.18528534471988678, -0.0421886071562767, 0.8087680339813232, -0.20400583744049072], [0.28325143456459045, 0.30824989080429077, 0.534813642501831, -0.07072561234235764, 0.15774033963680267, -0.43475961685180664, -0.20692743360996246, 0.13948014378547668], [-0.19580048322677612, -0.30411452054977417, 0.00226370757445693, 0.03109613060951233, -0.22646726667881012, -0.014550459571182728, -0.40009862184524536, 0.2605845332145691]], "fc0.bias": [0.15872196853160858, -0.15934349596500397, -0.36598363518714905, -0.14138561487197876, -0.05272757634520531, 0.2121172547340393, 0.11288293451070786, 0.24793307483196259, -0.23143978416919708, 0.5123378038406372, 0.012259234674274921, -0.3120330572128296, 0.10711861401796341, -0.0767645388841629, -0.2221032977104187, 0.10642387717962265, 0.08280740678310394, 0.17550241947174072, 0.30619385838508606, 0.18454620242118835, 0.01695789024233818, -0.28049224615097046, 0.1851787567138672, -0.46644094586372375, 0.0693361759185791, 0.18091323971748352, -0.4147092401981354, -0.19449977576732635, -0.007542551960796118, 0.21267905831336975, -0.04828961566090584, -0.20349104702472687, 0.016391459852457047, 0.2859090268611908, -0.017576487734913826, 0.1477600783109665, -0.1343042105436325, 0.20836898684501648, 0.009946047328412533, 0.3988136649131775, -0.18369677662849426, 0.061438582837581635, -0.23687104880809784, -0.09551693499088287, 0.2096867710351944, 0.14132648706436157, 0.40354132652282715, -0.013791028410196304, 0.2394019365310669, -0.28627339005470276, 0.06681375950574875, -0.47006234526634216, -0.22389262914657593, 0.045333221554756165, 0.35088327527046204, -0.06982342898845673, -0.051643356680870056, 0.179307222366333, -0.15162581205368042, -0.526009738445282, -0.3477841317653656, -0.020805222913622856, 0.1679122895002365, -0.2017110139131546], "fc1.weight": [[-0.054402027279138565, -0.38360661268234253, -0.16313473880290985, -0.12537583708763123, 0.08809997141361237, 0.10535585135221481, 0.324591726064682, -0.2836798429489136, 0.1168203204870224, 0.10466395318508148, -0.9565500617027283, 0.03803948312997818, 0.0023627006448805332, 0.3124999701976776, -0.4254675805568695, -0.49517473578453064, 0.011397508904337883, -0.889528751373291, 0.00019936429453082383, -0.08420079201459885, 0.006563055329024792, -0.14288680255413055, 0.17966584861278534, 0.19372279942035675, -0.06269287317991257, 0.39638984203338623, -0.26139241456985474, 0.2996826469898224, 0.3021259307861328, 0.41235658526420593, 0.019912056624889374, -0.6738922595977783, 0.35942304134368896, 0.8230435848236084, 0.34277838468551636, 0.4449821412563324, 0.3588646948337555, -0.3124888837337494, -0.6947788000106812, -0.19440588355064392, 0.7525654435157776, -0.12046810239553452, -0.34489989280700684, 0.03973617032170296, -0.3785744607448578, -0.14855273067951202, 0.1167854592204094, -0.31768372654914856, 0.3459807336330414, -0.2061740905046463, 0.06632036715745926, -0.2703821063041687, -0.30304181575775146, 0.2344447672367096, -0.06236482784152031, -0.08374016731977463, 0.42587611079216003, -0.17522938549518585, -0.2602081000804901, 0.4243893027305603, 0.31794002652168274, 0.09206712245941162, -0.004650346003472805, 0.18044425547122955], [0.779167652130127, 0.11265843361616135, -0.19723249971866608, -0.004960807040333748, -0.15175475180149078, -0.375862717628479, -0.3913317620754242, -0.46809282898902893, -0.15736351907253265, 0.7631852030754089, -0.07220825552940369, 0.6949034929275513, 0.46417665481567383, -0.2090073823928833, -0.5791804790496826, 0.32079505920410156, 0.029583197087049484, 0.30589887499809265, -0.07284054160118103, -0.2357650101184845, -0.2390732318162918, 0.10756132751703262, 0.10125207901000977, -0.39000606536865234, -0.10528021305799484, 0.2695360481739044, -0.5578611493110657, 0.08720863610506058, 0.3044128715991974, 0.18457366526126862, 0.053332842886447906, -0.1956159919500351, 0.013963568955659866, 0.24278055131435394, 0.22793322801589966, -0.214729443192482, 0.11049987375736237, 0.30625998973846436, 0.46988680958747864, -0.9349271655082703, 0.16877134144306183, -0.3121867775917053, 0.02712862938642502, 0.09279189258813858, 0.18147294223308563, -0.3638985753059387, 0.3090898394584656, 0.348150372505188, -0.48262038826942444, 0.09990694373846054, -0.012890227138996124, 0.3023295998573303, -0.2210763841867447, -0.3440689444541931, -0.4913346469402313, 0.004945431835949421, -0.12671734392642975, 0.006588164716959, 0.6916404962539673, -0.04945726692676544, 0.2924152910709381, -0.08921541273593903, 0.25406408309936523, -0.23891931772232056], [-0.45364144444465637, -0.5098586082458496, -0.5230165123939514, -0.001171800890006125, -0.08386392891407013, -0.11162564158439636, 0.29283571243286133, -0.25183120369911194, 0.5511506199836731, 0.40067005157470703, -0.07467865198850632, -0.1603083312511444, -0.38218948245048523, -0.31844034790992737, -0.201387420296669, -0.5948047041893005, 0.9854952692985535, -0.01837320066988468, 0.14538244903087616, 0.6529639363288879, 0.24657590687274933, 0.6216424703598022, 0.803864598274231, 0.5564818382263184, -0.08721023797988892, 0.8160262703895569, 0.5228085517883301, 0.4128440022468567, -0.18477323651313782, 0.21871091425418854, -0.06875426322221756, -0.41627538204193115, 0.17986777424812317, 0.08293874561786652, 0.11202594637870789, 0.1617605984210968, -0.0298989899456501, -0.12750785052776337, -0.31343621015548706, 0.07669323682785034, 0.19548086822032928, 0.405908465385437, 0.08958844840526581, -0.29712092876434326, 0.0791468396782875, -0.3030986487865448, 0.06986092031002045, 0.010961700230836868, 0.19875650107860565, -0.5878143906593323, 0.32670536637306213, -0.08799777179956436, -0.05384352058172226, 0.48921167850494385, -0.5283387899398804, 0.2230970710515976, 0.5285518765449524, -0.500874936580658, -0.13612253963947296, 0.09736058115959167, 0.5425242185592651, -0.0035106977447867393, 0.2612263262271881, -0.13580599427223206], [-0.03862418606877327, -0.2104693353176117, 0.3236905038356781, 0.9166545271873474, 0.005206592381000519, 0.6114122867584229, 0.07093636691570282, -0.015143858268857002, 0.07756111025810242, 0.1377004086971283, 0.003313401946797967, -0.3012600243091583, 0.06467912346124649, -0.22726158797740936, -0.1676831692457199, 0.25829702615737915, -0.27097639441490173, 0.5771939754486084, -0.7621860504150391, 0.014307819306850433, -0.24714113771915436, -0.042709700763225555, -0.3977833092212677, -0.31218385696411133, -0.17610278725624084, -0.0513247475028038, 0.5254464745521545, 0.12546852231025696, -0.5931326150894165, -0.14613045752048492, 0.20382727682590485, -0.38531529903411865, 0.512910783290863, 0.20428167283535004, 0.5942884683609009, 0.050819236785173416, -0.22741913795471191, -0.5463982224464417, 0.07264938950538635, 0.26037073135375977, 0.3151122033596039, 0.03133402764797211, 0.0343182310461998, -0.3503546118736267, -0.08957032114267349, 0.37255653738975525, -0.06762650609016418, -0.364357590675354, 0.5416755080223083, 0.16885796189308167, 0.1629326045513153, -0.17519144713878632, -0.09007660299539566, -0.005457255523651838, -0.6882629990577698, -0.43734800815582275, 0.04162077605724335, -0.18964485824108124, 0.09645989537239075, -0.4779020845890045, 0.1418103724718094, -0.1729101985692978, 0.09734712541103363, 0.44794151186943054], [0.10788393765687943, 0.11063230037689209, -0.2232712209224701, 0.44047579169273376, 0.29174157977104187, 0.0757482573390007, 0.43481868505477905, -0.12459798157215118, -0.27943941950798035, -0.09195815026760101, 0.8581801652908325, -0.4701833724975586, 0.33781957626342773, 0.09255167096853256, -0.2242565006017685, 0.1511678397655487, -0.11966270953416824, 0.19545608758926392, -0.12005003541707993, -0.1312178522348404, 0.06566955149173737, -0.0036175637505948544, 0.14117872714996338, 0.06652810424566269, 0.26443982124328613, -0.47907066345214844, -0.11372476071119308, -0.2720838189125061, 0.3244537115097046, -0.35572436451911926, 0.7331618666648865, 1.0035278797149658, -0.8261578679084778, -0.4533783495426178, 0.1897720843553543, -0.5704411864280701, -0.011760505847632885, 0.05975938215851784, 0.3362528085708618, -0.038559526205062866, -0.10378322005271912, 0.1053447499871254, -0.29458847641944885, -0.2929900884628296, 0.0573379322886467, 0.24686485528945923, -0.20149914920330048, 0.19215986132621765, 0.03433886915445328, 0.021540332585573196, -0.07865477353334427, -0.2073059231042862, 0.12323047965765, 0.19106900691986084, -0.16499964892864227, -0.021911107003688812, -0.01677621714770794, -0.06898268312215805, 0.2555280923843384, 0.17741312086582184, -0.30026116967201233, -0.10135980695486069, -0.3080320954322815, 0.4285086691379547], [-0.13089877367019653, -0.19772504270076752, -0.17755815386772156, 0.030654290691018105, 0.16870269179344177, -0.3261006474494934, -0.34861478209495544, 0.15510497987270355, 0.02312060259282589, 0.29728734493255615, 0.10808774828910828, 0.09199521690607071, -0.6601666808128357, -0.07439916580915451, -0.30973824858665466, -0.7333803176879883, -0.39766281843185425, 0.25735217332839966, 0.08509249985218048, -0.22638878226280212, 0.13624899089336395, 0.5543227791786194, 0.20988644659519196, 0.4313485324382782, -0.38584089279174805, 0.1380120813846588, -0.30640771985054016, -0.21724294126033783, 0.2779114544391632, -0.10567320883274078, -0.44563499093055725, 0.06063264608383179, 0.1311090737581253, -0.26325055956840515, 0.08711688965559006, -0.310299813747406, 0.5399139523506165, 0.5625479817390442, -0.28187867999076843, -0.12806296348571777, 0.1823824793100357, 0.05707569420337677, 0.8065428137779236, 0.24548934400081635, 0.0508526973426342, -0.11565951257944107, -0.48767730593681335, -0.001859439304098487, -0.5134971141815186, -0.47346827387809753, 0.22080662846565247, -0.4432843029499054, -0.7393835783004761, 0.10284038633108139, 0.26663607358932495, 0.12103158235549927, -0.426566481590271, 0.29292985796928406, 0.1864546239376068, 0.215860053896904, -0.23003333806991577, 0.346149206161499, 0.2559111416339874, -0.47883686423301697], [0.737834632396698, -0.0357629768550396, -0.04862113296985626, 0.19064079225063324, -0.017382213845849037, -0.11041808128356934, -0.32572299242019653, -0.0003685579576995224, 0.27383288741111755, 0.41600871086120605, 0.027075594291090965, 0.988818347454071, 0.24739982187747955, -0.37574502825737, -0.27129942178726196, -0.04055386781692505, 0.12096083164215088, 0.09005606174468994, -0.3714422285556793, -0.3065035939216614, -0.07824313640594482, -0.15220722556114197, 0.14224615693092346, -0.3795373737812042, 0.3034144341945648, -0.47455084323883057, -0.5111571550369263, 0.3230297565460205, 0.4070245325565338, 0.21905046701431274, 0.3929067850112915, 0.12757477164268494, 0.15934686362743378, -0.03558236360549927, 0.02080954797565937, -0.005864358972758055, 0.49473410844802856, -0.272356241941452, -0.10544116795063019, -0.7025121450424194, 0.7800033092498779, 0.05278841033577919, -0.691733181476593, 0.523036003112793, -0.2578012943267822, -0.42428794503211975, 0.06882055103778839, 0.19301927089691162, -0.7387337684631348, -0.0733027383685112, -0.42554187774658203, 0.4468960464000702, 0.6516396999359131, -0.24298541247844696, -0.3292563557624817, 0.33421558141708374, -0.5329068303108215, 0.46093955636024475, 0.8456506729125977, 0.26069456338882446, 0.17351336777210236, -0.41653943061828613, -0.2942468822002411, -0.12580078840255737], [-0.24051401019096375, -0.09857069700956345, -0.2241453230381012, -0.6582072973251343, -0.3296125531196594, 0.19473649561405182, -0.1283615678548813, -0.15944205224514008, 0.31821462512016296, -0.3386276066303253, 0.04440278559923172, -0.7647439241409302, -0.35249876976013184, -0.7168570160865784, -0.11806408315896988, -0.22989676892757416, 0.1030716598033905, 0.3404935300350189, 0.7868390083312988, 0.5601255297660828, -0.3646107614040375, -0.4686722755432129, -0.10328256338834763, 0.9847579598426819, 0.37016549706459045, 0.15781965851783752, -0.27188780903816223, 0.5682899355888367, 0.4069637060165405, 0.41311123967170715, 0.1914595067501068, -0.36875271797180176, 0.2323102504014969, -0.05229063332080841, -0.5053007006645203, -0.16353069245815277, 0.09968457370996475, 0.09676574915647507, 0.46993106603622437, 0.18936675786972046, -0.46131524443626404, -0.10215651243925095, 0.11580309271812439, 0.20199532806873322, 0.40414872765541077, 0.1233978196978569, -0.2136656790971756, 0.28950074315071106, -0.2080668807029724, -0.06895381957292557, 0.32823023200035095, 0.4175328016281128, 0.08815401047468185, 0.021130738779902458, 0.607322096824646, -0.3384987413883209, -0.3731437921524048, -0.45745936036109924, -1.0027883052825928, -0.2904292941093445, 0.5655435919761658, -0.17679746448993683, 0.08392523229122162, 0.22574058175086975], [0.19901035726070404, 0.4827827215194702, 0.043229568749666214, 0.4074627161026001, 0.42832106351852417, -0.2788674235343933, 0.25741711258888245, -0.42201894521713257, -0.5790989995002747, -0.1424207091331482, 0.3262050747871399, -0.07787995040416718, 0.3313542604446411, 0.09133736044168472, 0.038844913244247437, 0.8446801900863647, -0.7542256116867065, 0.3900874853134155, -0.20886731147766113, 0.05286382511258125, 0.15537066757678986, 0.31088656187057495, -0.6142200827598572, -0.5385834574699402, 0.5199291110038757, -0.5144533514976501, -0.03712689131498337, -0.5672650933265686, 0.1761963665485382, 0.11589547991752625, 0.22889509797096252, 0.2984822988510132, 0.10971888154745102, 0.009430225007236004, 0.13568565249443054, -0.0854567214846611, 0.14322589337825775, 0.6567434072494507, -0.2407296895980835, 0.14973515272140503, 0.018057238310575485, -0.34196755290031433, -0.7148593068122864, 0.5045672655105591, 0.3988538086414337, -0.29966697096824646, -0.4988884925842285, 0.46568793058395386, 0.17701758444309235, -0.4757469594478607, -0.2992169260978699, 0.27226516604423523, 0.09859500080347061, -0.22550955414772034, 0.3186897039413452, 0.3238990008831024, -0.5215981006622314, -0.12442938983440399, 0.5468862056732178, -0.5229189395904541, -0.009951452724635601, -0.3870800733566284, -0.5292847156524658, -0.3077840507030487], [0.0018156816950067878, -0.253546804189682, -0.4984999895095825, 0.40328842401504517, 0.6652483940124512, 0.6844820380210876, -0.008004656992852688, -0.17862583696842194, 0.22706930339336395, 0.23095367848873138, 0.2795686423778534, -0.2658790349960327, 0.35840725898742676, -0.12382665276527405, -0.2065444439649582, 0.055473972111940384, 0.3442344069480896, 0.24485093355178833, -0.7907668352127075, -0.1006963923573494, -0.33451294898986816, 0.0028368562925606966, 0.06749287992715836, -0.31885242462158203, 0.04517567157745361, 0.2795361578464508, 0.02171286940574646, 0.0728478878736496, -0.6988174319267273, -0.42673513293266296, -0.020028479397296906, 0.013272136449813843, -0.405651330947876, -0.413135826587677, 0.2910730242729187, -0.3474121391773224, -0.39282670617103577, -0.5116610527038574, -0.2314879447221756, 0.1301044374704361, 0.23348060250282288, 0.008813672699034214, -0.11153911054134369, -0.5603891015052795, -0.006143160164356232, 0.5475932359695435, 0.5729319453239441, -0.6961998343467712, 0.26210615038871765, -0.11313436925411224, -0.3910784125328064, 0.09830465167760849, -0.1416657269001007, -0.4335162043571472, -0.9901719689369202, -0.23291873931884766, 0.2651691734790802, -0.22761063277721405, -0.24689355492591858, -0.30218058824539185, 0.5370979309082031, 0.17940478026866913, 0.09897454082965851, 0.16529935598373413], [0.134212464094162, -0.35089319944381714, -0.38029471039772034, 0.6895146369934082, -0.00802791491150856, 0.32473650574684143, 0.4054613411426544, -0.17405515909194946, -0.3438243269920349, 0.1752588301897049, 0.05841207131743431, -0.14015798270702362, 0.19184356927871704, -0.22435525059700012, -0.05396716296672821, -0.14467142522335052, -0.1537216156721115, 0.162994384765625, -0.8934819102287292, 0.03611798956990242, -0.1665310114622116, -0.32575762271881104, 0.11421739310026169, -0.2917391061782837, -0.1295831799507141, -0.33405929803848267, -0.026873204857110977, -0.1932123750448227, -1.0633255243301392, -0.45974698662757874, 0.015080681070685387, 0.10698141902685165, 0.07701002061367035, -0.04717336595058441, 0.7498600482940674, 0.36938557028770447, 0.16884832084178925, -0.306368350982666, -0.4035389721393585, 0.2243444323539734, 0.19043326377868652, 0.0021722072269767523, -0.38843855261802673, -0.24792009592056274, 0.38893064856529236, -0.007702982518821955, 0.029305266216397285, -0.4155605435371399, 0.1302586793899536, -0.308197945356369, 0.210265651345253, -0.2506547272205353, 0.0115282591432333, -0.2957160770893097, -0.24848173558712006, -0.40371575951576233, 0.030977198854088783, -0.40596723556518555, 0.29415997862815857, -0.23470954596996307, 0.04581725224852562, -0.2606102526187897, 0.1549631655216217, 0.38442477583885193], [0.12139889597892761, 0.04562167823314667, -0.5841138958930969, -0.6829848289489746, 0.36850273609161377, 0.5284794569015503, 0.4757554829120636, 0.28440940380096436, -0.0005463594570755959, -0.008184044621884823, -0.05667116492986679, -0.19288241863250732, 0.2102806121110916, -0.10760138183832169, 0.2503822147846222, 0.7349708080291748, 0.05165183171629906, -0.06468561291694641, 0.7496389150619507, -0.44182053208351135, -0.7793196439743042, -0.48465362191200256, -0.08795598894357681, 0.019678566604852676, 0.48906612396240234, 0.07456258684396744, -0.2202257364988327, -0.48261207342147827, 0.2122921347618103, 0.3620603382587433, 0.18798688054084778, -0.1259348839521408, -0.0024120814632624388, -0.7961136102676392, -0.3315771222114563, 0.0469287745654583, -0.16190269589424133, 0.5170184969902039, 0.46105310320854187, 0.4589466154575348, -0.507831871509552, 0.24502091109752655, -0.3108781576156616, -0.5538194179534912, 0.7000666260719299, -0.06570898741483688, 0.08467879891395569, 0.5000408887863159, 0.587822675704956, 0.7337061166763306, 0.06903854012489319, 0.6271604299545288, 0.4589703381061554, -0.38066962361335754, 0.10468516498804092, -0.412083238363266, 0.45202893018722534, 0.17672882974147797, -0.20747028291225433, -0.1868240386247635, -0.18554668128490448, 0.07561900466680527, -0.40138429403305054, -0.09056689590215683], [0.31017953157424927, -0.06489018350839615, 0.021990196779370308, -0.06358478963375092, -0.027433566749095917, 0.21734170615673065, 0.266917884349823, -0.4522464871406555, -0.17092008888721466, 0.08488380163908005, 0.8692270517349243, 0.1965322047472, -0.1450720727443695, 0.48469024896621704, 0.34069257974624634, 0.2669273614883423, 0.25006529688835144, 0.2145659178495407, 0.1943356990814209, 0.2732849717140198, -0.321082204580307, -0.5201208591461182, -0.1721261888742447, -0.09505174309015274, -0.3473810851573944, -0.6843857765197754, -0.1589229702949524, -0.5107765197753906, 0.4732765853404999, 0.40946057438850403, 0.26855263113975525, 0.5678436160087585, -1.0531837940216064, -0.1863328069448471, -0.1762920767068863, -0.35255104303359985, -0.07075432687997818, 0.1754431426525116, 1.0140540599822998, -0.013693410903215408, 0.5247332453727722, 0.007478564511984587, -0.08011273294687271, 0.022761259227991104, -0.07367810606956482, 0.0676032155752182, 0.18141742050647736, 0.0017866191919893026, 0.2700061798095703, 0.4762614369392395, -0.20197661221027374, -0.25312551856040955, -0.4545377194881439, -0.36490878462791443, 0.3347061574459076, -0.08984077721834183, 0.10216432064771652, -0.22363914549350739, 0.0768444612622261, 0.3160558044910431, -0.22291353344917297, 0.08825023472309113, 0.09892566502094269, 0.3492543697357178], [0.20164822041988373, 0.33646970987319946, -0.2781546115875244, -0.8401892185211182, -0.10549812763929367, -0.2484419196844101, -0.0202927328646183, 0.20876038074493408, 0.2909264862537384, -0.21494677662849426, 0.29146909713745117, -0.01650000736117363, 0.08408182114362717, 0.2152254730463028, -0.3707911968231201, 0.07316835224628448, 0.13605056703090668, 0.22310344874858856, 0.45452526211738586, 0.14899182319641113, -0.30895334482192993, 0.34578803181648254, -0.2987889349460602, -0.015179179608821869, 0.058274246752262115, -0.15726564824581146, -0.4900127649307251, -0.19162502884864807, 0.7818387746810913, 0.7575371265411377, -0.34355562925338745, -0.2855176329612732, 0.27325087785720825, -0.2742547392845154, -0.3858475685119629, -0.2213817536830902, -0.018547315150499344, 0.2822875678539276, -0.17391973733901978, -0.36706554889678955, -0.18108636140823364, 0.16649504005908966, -0.34308922290802, -0.01609647274017334, -0.4997108578681946, -0.5936316847801208, -0.05172024667263031, 0.5444234013557434, 0.08429419994354248, -0.04089484363794327, 0.3602752089500427, -0.2262200266122818, 0.11471259593963623, 0.41547253727912903, 0.557518482208252, 0.37249529361724854, -0.07927091419696808, -0.1719026416540146, 0.15201357007026672, -0.12216178327798843, -0.06727218627929688, 0.17052285373210907, 0.3598898947238922, -0.12576806545257568], [0.11176764219999313, 0.449935644865036, -0.19367051124572754, 0.3810878396034241, 0.3327532410621643, 0.14638635516166687, 0.45200470089912415, 0.41822922229766846, 0.09219415485858917, -0.3204106390476227, 0.18889734148979187, -0.23933394253253937, 0.20332226157188416, -0.2610214948654175, 0.03513212874531746, -0.2456183284521103, -0.12980660796165466, -0.3112085461616516, -0.8502500653266907, -0.03671175241470337, 0.005167157389223576, 0.11347904056310654, 0.3542080521583557, -0.28692692518234253, 0.19984978437423706, 0.18538127839565277, 0.14427633583545685, -0.19325464963912964, -0.3554114103317261, -0.10904505103826523, -0.2138635665178299, 0.4078451097011566, -0.38064873218536377, 0.05957784503698349, 0.8407363891601562, 0.2769853472709656, -0.14563091099262238, 0.034202639013528824, 0.1391574889421463, -0.12099865078926086, 0.2538093328475952, -0.1849786937236786, 0.2050987035036087, 0.03972676023840904, 0.18818530440330505, -0.038822900503873825, -0.12566690146923065, -0.4619106352329254, 0.6352509260177612, 0.3449327051639557, 0.35761961340904236, -0.07341136783361435, -0.24564655125141144, 0.028304751962423325, -0.6684855222702026, -0.05417386814951897, 0.5313301682472229, -0.17151059210300446, -0.41134679317474365, -0.42872169613838196, 0.3507579267024994, 1.2273166179656982, -0.363242506980896, 0.3177962601184845], [0.6899353265762329, -0.44747263193130493, 0.4040985405445099, -0.696524441242218, -0.6029002666473389, -0.022766238078475, -0.33724141120910645, -0.3811045289039612, 0.28118571639060974, 0.7861940264701843, 0.2609961926937103, 0.2924313545227051, -0.2869768738746643, 0.0019682596903294325, -0.4560277462005615, 0.09542923420667648, -0.10017185658216476, -0.07771767675876617, -0.17481043934822083, -0.20439550280570984, 0.39000436663627625, 0.33721256256103516, 0.16887371242046356, 0.2572673559188843, -0.4350633919239044, 0.01826905831694603, -0.11801022291183472, 0.1306203156709671, 0.0872076079249382, 0.13735732436180115, -0.21710649132728577, 0.2025345414876938, -0.3670289218425751, -0.5614743232727051, -0.21080940961837769, 0.23758020997047424, 0.1489240825176239, 0.6172472238540649, -0.34520187973976135, -0.7548761367797852, 0.6506051421165466, -0.14724931120872498, -0.12281585484743118, 0.28189560770988464, -0.5150777697563171, -0.6059808135032654, -0.6392963528633118, -0.18846739828586578, -0.19004561007022858, -0.4857938289642334, -0.3731515109539032, 0.1645062267780304, 0.3228883743286133, 0.8265079259872437, 0.29417917132377625, 0.376653790473938, -0.36196574568748474, 0.1219925582408905, 0.11240733414888382, 0.2677375376224518, -0.5754508376121521, 0.3791504204273224, 0.7099027633666992, 0.09019289165735245], [-0.06614755839109421, 0.10779396444559097, 0.37612226605415344, 0.15429501235485077, 0.1711176037788391, -0.08484012633562088, -0.18777327239513397, -0.40881800651550293, -0.33146238327026367, 0.39586514234542847, 0.8240410089492798, -0.22664743661880493, 0.03458215668797493, 0.18882407248020172, 0.15253539383411407, 0.05192771926522255, -0.1031314954161644, 0.12813112139701843, -0.10007894039154053, 0.14840586483478546, -0.41629305481910706, -0.4148964285850525, -0.5406724214553833, 0.1603182852268219, 0.04269404336810112, -0.27003905177116394, 0.1852799355983734, -0.12194190174341202, -0.04329215735197067, 0.26347997784614563, 0.5415245294570923, 0.6851623058319092, -1.1718664169311523, -0.027223333716392517, 0.25526753067970276, -0.6335499286651611, -0.2952355742454529, 0.3561347723007202, 0.29492610692977905, 0.1470467746257782, -0.2448493093252182, 0.13951657712459564, 0.057540908455848694, 0.026229819282889366, 0.14721065759658813, 0.07854216545820236, -0.42457184195518494, 0.46506133675575256, 0.10332299768924713, 0.4197726249694824, -0.17705784738063812, 0.2176482230424881, -0.3001607060432434, -0.4955664873123169, 0.3214307129383087, 0.08941744267940521, -0.5326215624809265, -0.13624222576618195, 0.5054028630256653, -0.2239723950624466, -0.22284859418869019, -0.024253372102975845, -0.2659141421318054, 0.32115665078163147], [0.5049259066581726, -0.7344462871551514, -0.28661853075027466, 0.11130443960428238, -0.40278470516204834, -0.4514707922935486, -0.39333847165107727, -0.43712306022644043, 0.057349711656570435, 0.010992135852575302, -0.17162024974822998, -0.011438431218266487, -0.30132806301116943, -0.19372257590293884, -0.3944968283176422, 0.11051465570926666, -0.20767244696617126, -0.33873414993286133, 0.16060684621334076, 0.258811354637146, 0.9483566284179688, 0.707237958908081, 0.40272706747055054, 0.34777843952178955, -1.2063044309616089, 0.9047380685806274, -0.16810676455497742, -0.05177920684218407, -0.04609449952840805, -0.11780168861150742, -0.021599629893898964, -0.15308541059494019, 0.21510174870491028, 0.1895635426044464, -0.11227932572364807, 0.45183831453323364, 0.5283567905426025, 0.2478838711977005, -0.4711493253707886, 0.25925010442733765, -0.12009121477603912, -0.09643188118934631, 0.511090874671936, 0.04451596364378929, -0.31241244077682495, -0.5265954732894897, 0.35607680678367615, 0.2085278034210205, 0.049798205494880676, -0.713185727596283, 0.2942173480987549, 0.02519005350768566, -0.1678297221660614, 0.8152143359184265, 0.5949960947036743, -0.018737729638814926, -0.15681318938732147, 0.3930605947971344, -0.07860499620437622, 0.36109134554862976, 0.3068992495536804, 0.14610087871551514, 0.6477429866790771, 0.11176987737417221], [-0.3004741966724396, 0.3234519958496094, 0.3191959261894226, -0.29902952909469604, 0.4937398433685303, 0.4847468435764313, 0.3369150161743164, -0.17770512402057648, -0.4841383099555969, -0.39092013239860535, -0.31075143814086914, -0.1372412145137787, 0.16256387531757355, 0.18004333972930908, 0.39661455154418945, 0.5523282289505005, -0.012913579121232033, 0.17334261536598206, -0.40479332208633423, -0.3927793502807617, -1.0931752920150757, -0.4114844799041748, 0.12389880418777466, 0.18158350884914398, 0.23812133073806763, -0.4876171350479126, 0.4042736887931824, -0.34064948558807373, -0.405585914850235, -0.27782613039016724, 0.29116091132164, 0.07513732463121414, -0.11127562075853348, -0.1787390261888504, 0.32537153363227844, -0.6387876272201538, -0.06176873669028282, 0.08276443928480148, 0.08694877475500107, 0.3056054413318634, -0.7273245453834534, -0.3496220111846924, -0.7664074301719666, -0.13055796921253204, 0.12996511161327362, 0.47426557540893555, -0.18372391164302826, -0.14689719676971436, -0.08649664372205734, 0.2349981963634491, 0.19979439675807953, 0.6466450691223145, 0.5653661489486694, -1.0265789031982422, 0.06659216433763504, 0.10510578751564026, -0.17492137849330902, 0.34088996052742004, -0.09458933770656586, -0.7714160084724426, 0.18974004685878754, -0.09745684266090393, -0.5186972618103027, 0.31812170147895813], [-0.12820886075496674, -0.10219444334506989, -0.15500764548778534, -0.22078126668930054, 0.831777811050415, 0.066430002450943, 0.08055131882429123, 0.07189065963029861, 0.02927158959209919, -0.07206372916698456, -0.027584748342633247, -0.2877146005630493, 0.34267789125442505, 0.0092091653496027, 0.24116286635398865, 0.45801419019699097, -0.6474055051803589, 0.2772587537765503, 0.5939487814903259, 0.539085328578949, 0.08970724791288376, -0.04527386277914047, -0.3838512897491455, 0.6057826280593872, -0.06462229043245316, 0.19733506441116333, -0.5675615668296814, -0.08702469617128372, 0.4366201162338257, 0.22003965079784393, -0.32675567269325256, 0.0076910932548344135, 0.24688605964183807, -0.16683915257453918, 0.028508415445685387, -0.4206361472606659, -0.4269258975982666, 0.3781988024711609, -0.3565877377986908, -0.19198696315288544, -1.5031794309616089, -0.0053156837821006775, -0.4268913269042969, 0.36594265699386597, -0.2703496217727661, -0.1338687688112259, 0.28044480085372925, 0.6024364233016968, 0.2538386583328247, -0.07700973749160767, -0.6290960907936096, 0.26137426495552063, -0.3033839762210846, -0.06786741316318512, 0.8064238429069519, -0.47087562084198, 0.1838008016347885, 0.14092496037483215, 0.14223714172840118, -0.4412827789783478, -0.2905139625072479, 0.04763897508382797, 0.4163164496421814, -0.2507866322994232], [0.044529568403959274, -0.4873635470867157, 0.15270096063613892, -0.20561954379081726, -0.5996819734573364, -0.44530266523361206, -0.20725949108600616, -0.26502951979637146, 0.33693844079971313, 0.40150097012519836, 0.07937248796224594, 0.32790514826774597, 0.1719871163368225, 0.3175561726093292, 0.03405065834522247, 0.09196921437978745, 0.18112361431121826, 0.3923468291759491, 0.1187756359577179, -0.06346795707941055, 0.787943422794342, 0.6319212913513184, 0.39463621377944946, 0.5051629543304443, -0.6809346079826355, 0.27133992314338684, -0.3317837715148926, 0.3999738097190857, -0.1659809648990631, -0.27029740810394287, -0.2770407795906067, -0.06912357360124588, 0.27576494216918945, -0.0521593876183033, -0.5033572316169739, 0.3577650785446167, 0.6744238138198853, 0.34221968054771423, 0.01746828481554985, -0.36478522419929504, 0.40515202283859253, 0.4801258444786072, 0.33843523263931274, -0.20412394404411316, 0.131325364112854, -0.49115684628486633, 0.12218792736530304, -0.15987946093082428, -0.27646589279174805, -0.919198751449585, -0.18714050948619843, -0.08807072788476944, -0.2623024582862854, 0.24331669509410858, 0.4065313935279846, 0.688530683517456, 0.05040153115987778, 0.1787278652191162, 0.2265455275774002, 0.636106550693512, 0.3492845594882965, 0.5083447098731995, 0.5725603103637695, -0.633842408657074], [-0.49076658487319946, 0.29907557368278503, -0.18024364113807678, -0.28677913546562195, 0.009590591304004192, -0.02937317080795765, -0.01911637745797634, 0.3066087067127228, -0.10215040296316147, -0.5320664644241333, -0.07481172680854797, 0.1841692328453064, -0.21449628472328186, -0.11604246497154236, 0.49938035011291504, 0.007704935036599636, -0.17191438376903534, 0.5373192429542542, 0.4511174261569977, 0.0030044219456613064, -0.44818708300590515, 0.2361927330493927, 0.42651423811912537, 0.7373255491256714, -0.1398736536502838, -0.4723302721977234, -0.3570876717567444, 0.34366220235824585, -0.15943841636180878, -0.07529900223016739, 0.17057467997074127, -0.027073465287685394, 0.1862206906080246, -0.030811166390776634, -0.37556564807891846, 0.028863457962870598, -0.25978511571884155, -0.044259797781705856, 0.006286588963121176, 0.23620550334453583, -1.6579129695892334, -0.2545883357524872, 0.010170519351959229, -0.2445600926876068, 0.21949748694896698, 0.06102316826581955, -0.32165297865867615, 0.33162564039230347, 0.3607400357723236, 0.41041234135627747, -0.11178664118051529, -0.5242676734924316, 0.3371114432811737, -0.052965179085731506, 0.33862489461898804, -0.21089835464954376, -0.1997203230857849, 0.29679346084594727, -0.3288035988807678, -0.3966916501522064, 0.5469909310340881, -0.07519979774951935, -0.06527842581272125, 0.40853992104530334], [0.059977803379297256, -0.25448131561279297, 0.02311168983578682, -0.13872802257537842, -0.29101261496543884, -0.31512027978897095, -0.17819789052009583, -0.5040154457092285, 0.7321130633354187, -0.20031824707984924, -0.6810292601585388, -0.026886815205216408, -0.45492225885391235, -0.19407038390636444, 0.08171014487743378, -0.2173231542110443, 0.19663533568382263, 0.008800610899925232, -0.3464285433292389, -0.15286995470523834, 0.15324214100837708, -0.2414608895778656, 0.5131321549415588, -0.4642806053161621, -0.09227552264928818, 0.09827940165996552, -0.33332544565200806, 0.26722702383995056, -0.39213675260543823, 0.043510109186172485, -0.22388842701911926, -0.4553471803665161, 0.6276254653930664, 0.2972058951854706, -0.21690431237220764, 0.5787416100502014, 0.5217738747596741, 0.24083389341831207, -0.6762592196464539, -0.28902992606163025, 0.544158935546875, -0.006863126065582037, -0.03658287972211838, 0.2413385808467865, -0.19472263753414154, 0.06078371778130531, -0.07828041911125183, 0.01941407285630703, 0.38405641913414, 0.05548425763845444, 0.2100113481283188, 0.2068241685628891, -0.3721095025539398, 0.1687697172164917, -0.1115880012512207, -0.14691263437271118, 0.314405232667923, -0.32484304904937744, -0.1659274399280548, 0.22037148475646973, 0.05003449320793152, 0.5077494382858276, 0.30713406205177307, 0.3928758203983307], [0.5260273814201355, -0.010132642462849617, -0.17953160405158997, 0.6013085246086121, -0.5199398398399353, -0.022489020600914955, 0.0598788745701313, -0.6066596508026123, 0.6737284064292908, 0.2577801048755646, -0.055438339710235596, 0.14692272245883942, -0.5078290700912476, 0.0714583769440651, 0.10869234800338745, -0.2950235903263092, 0.13758701086044312, -0.5236099362373352, -0.5240577459335327, 0.06825119256973267, 0.29207155108451843, 0.310475617647171, -0.008453967049717903, -1.1807482242584229, -0.2205076515674591, 0.09334121644496918, 0.1491452306509018, 0.16002507507801056, -0.18913112580776215, 0.1528005748987198, -0.7605680823326111, -0.5230624675750732, 0.6416301131248474, 0.35835105180740356, 0.381092369556427, 0.45087525248527527, 0.1175919771194458, 0.042831335216760635, -0.022789351642131805, 0.18020041286945343, 0.7207326292991638, -0.0987897515296936, 0.22072912752628326, -0.178465336561203, -0.5678493976593018, 0.12085209041833878, -0.40199849009513855, 0.22356028854846954, -0.6675896644592285, -0.18127186596393585, 0.18979516625404358, -0.12456764280796051, -0.1351703554391861, 0.05725332722067833, -0.2955968677997589, -0.11033067852258682, 0.18971982598304749, 0.15698587894439697, 0.6130571365356445, 0.1192929744720459, 0.3906131684780121, -0.41363292932510376, 0.33696937561035156, -0.5489581823348999], [0.04864497855305672, -0.21452385187149048, -0.15493032336235046, 0.20873214304447174, 0.09289462864398956, -0.6155881285667419, -0.4407169222831726, -0.6677825450897217, 0.2410670965909958, 0.4688015282154083, -0.2552791237831116, 0.5272207856178284, 0.15628781914710999, 0.5617403984069824, -0.11017592996358871, -0.16495876014232635, -0.3492489457130432, 0.5003978610038757, -0.360733300447464, -0.3581143319606781, 0.1858435571193695, 0.13942912220954895, -0.4447682499885559, -0.40355560183525085, -0.2457510232925415, 0.15178228914737701, -0.46933940052986145, -0.1267111450433731, 0.3506993055343628, -0.3751296401023865, 0.1988079696893692, -0.041885972023010254, 0.5335307717323303, 0.6806889772415161, -0.18811871111392975, 0.38575464487075806, -0.14055557548999786, 0.04115857928991318, -0.1125042736530304, -0.0013051789719611406, 1.1748453378677368, -0.37282833456993103, -0.36798033118247986, 0.5016895532608032, 0.024232303723692894, -0.5409471988677979, -0.17592060565948486, 0.07570257782936096, -0.3900217115879059, -0.08149336278438568, -0.2865639328956604, -0.05771022289991379, 0.38158053159713745, 0.02278539538383484, 0.231149822473526, 0.06501217931509018, -0.6619307398796082, 0.11325054615736008, 0.32527706027030945, 0.18715670704841614, 0.3602283298969269, -0.8469791412353516, 0.35615241527557373, -0.29177871346473694], [0.12404201179742813, -0.5363200306892395, 0.09515596926212311, 0.08832336962223053, -0.12441568076610565, 0.03649599477648735, -0.431289404630661, 0.12085043638944626, 0.15160521864891052, -0.06792384386062622, -0.5368289351463318, 0.37824758887290955, 0.03195669874548912, 0.14188218116760254, -0.37686723470687866, -0.010329646989703178, -0.08363977819681168, 0.10757512599229813, 0.2351306527853012, -0.3876132667064667, -0.30388665199279785, 0.47220557928085327, 0.36181384325027466, 0.08494170010089874, 0.1582530289888382, 0.55428546667099, 0.2707003653049469, 0.33373039960861206, -0.04991760849952698, -0.10097502171993256, 0.3415374755859375, -0.7268651127815247, 0.9102184176445007, 0.5540218949317932, -0.4386405944824219, 0.6434749364852905, -0.40713968873023987, -0.22572743892669678, -0.9037410020828247, -0.10333339869976044, 0.008031981997191906, 0.14939013123512268, 0.25156643986701965, -0.029724139720201492, 0.06089327856898308, 0.4063354432582855, 0.07276664674282074, -0.15812861919403076, 0.5536697506904602, 0.305250346660614, 0.3069734275341034, 0.33201950788497925, 0.24772000312805176, 0.21345919370651245, 0.25674906373023987, -0.38494226336479187, 0.36130282282829285, -0.30819395184516907, 0.07094742357730865, 0.3330370783805847, 0.14108116924762726, -0.31643590331077576, 0.30492955446243286, -0.06237412244081497], [0.4837702214717865, 0.3891129791736603, 0.02092122845351696, -0.6917868852615356, -0.3362687826156616, -0.0857270210981369, 0.029870523139834404, -0.1425771713256836, -0.03235263749957085, 0.027848366647958755, 0.4569377899169922, 0.8002222180366516, -0.19937923550605774, 0.736781120300293, -0.39656710624694824, -0.033994581550359726, -0.05007007718086243, -0.06544166803359985, 0.24402381479740143, -0.347303569316864, -0.18662019073963165, -0.012639660388231277, -0.5725396871566772, 0.21808360517024994, -0.37359270453453064, -0.3528601825237274, -0.07437137514352798, -0.07263941317796707, 0.32716748118400574, 0.4449961185455322, -0.07226716727018356, -0.13567526638507843, -0.06786405295133591, -0.4188075363636017, -0.3502276539802551, 0.17422166466712952, 0.3561526834964752, 0.189020574092865, 0.4440554678440094, -0.20714281499385834, -0.3203867971897125, -0.015918798744678497, -0.05185917764902115, 0.1611146479845047, 0.17653779685497284, 0.04748494178056717, -0.4363654553890228, 0.0815371721982956, -0.23698382079601288, -0.6374825835227966, 0.26852232217788696, 0.1428549587726593, 0.480777770280838, 0.41348588466644287, 0.21121066808700562, 0.47434258460998535, 0.07766065746545792, 0.4621191918849945, 0.25058239698410034, 0.09135483205318451, -0.4891696870326996, 0.10896582156419754, 0.04666699469089508, 0.23682469129562378], [-1.0246405601501465, -0.295009970664978, -0.5230231881141663, 0.12188125401735306, 0.23668703436851501, 0.21238282322883606, -0.2699371874332428, 0.16590818762779236, -0.4423193037509918, -0.014834453351795673, 0.06824607402086258, -0.9643381237983704, 0.14835123717784882, -0.33016541600227356, 0.23189154267311096, -0.19003178179264069, 0.10928811877965927, -0.2632354497909546, -0.025896359235048294, 0.3505858778953552, 0.0014309287071228027, 0.24385416507720947, 0.49420443177223206, 0.7525953650474548, -0.3526154160499573, -0.001074882922694087, 0.5904825925827026, 0.21774457395076752, 0.05536652356386185, -0.41973844170570374, -0.37996673583984375, -0.5493078231811523, -0.22906960546970367, 0.21769042313098907, 0.18396005034446716, -0.11098571866750717, -0.3935317397117615, -0.5265026092529297, -0.329642117023468, 0.5911852717399597, -0.37663722038269043, 0.1139645129442215, 0.5459635257720947, -0.3756970167160034, 0.34985053539276123, 0.5181125402450562, 0.4477352499961853, -0.14758285880088806, 0.4773225486278534, 0.09885217994451523, -0.06069562956690788, -0.22690409421920776, -0.4152325987815857, 0.44377362728118896, 0.23238274455070496, -0.2681306302547455, 0.23672474920749664, -0.029584668576717377, -0.40714454650878906, -0.2529112696647644, 0.14833086729049683, 0.29813361167907715, -0.29651328921318054, -0.07450524717569351], [-0.11860787123441696, -0.16886624693870544, -0.18587757647037506, -1.0201575756072998, 0.14747531712055206, -0.2165049910545349, -0.2908414900302887, -0.05304007977247238, 0.037727199494838715, -0.31903377175331116, 0.005765983834862709, 0.045621782541275024, -0.26612433791160583, 0.3037165403366089, 0.30124956369400024, 0.05511177331209183, -0.0234269667416811, 0.09203551709651947, 0.6678672432899475, -0.01640564762055874, 0.04769749566912651, 0.35771799087524414, 0.27573809027671814, 0.10902649909257889, 0.06673222035169601, 0.09166290611028671, -0.242677241563797, 0.32999029755592346, 0.9669346213340759, 0.2619432210922241, -0.4036695659160614, 0.32716748118400574, -0.3964366912841797, -0.0949619859457016, -0.5179702639579773, -0.07985330373048782, 0.2149459421634674, 0.31407082080841064, 0.38145366311073303, 0.13184356689453125, -0.15790842473506927, -0.3304039537906647, 0.2676764130592346, 0.1710536777973175, -0.02579827792942524, -0.16629357635974884, -0.09408551454544067, 0.17144109308719635, 0.01624836027622223, -0.44482409954071045, 0.1518867313861847, 0.4044618308544159, 0.2726803123950958, -0.2914220690727234, 0.43572017550468445, -0.2574305534362793, -0.07886096835136414, 0.10358714312314987, -0.44575923681259155, -0.14277935028076172, -0.15430286526679993, -0.06219169497489929, 0.032783716917037964, -0.16518762707710266], [-0.19445401430130005, -0.5190696120262146, 0.2030414342880249, -0.6429256200790405, -0.08788610249757767, -0.035149846225976944, -0.47396180033683777, 0.13605813682079315, 0.31274765729904175, 0.3091859221458435, 0.19134287536144257, 0.22520644962787628, -0.10319079458713531, 0.6446206569671631, -0.15219102799892426, 0.25220900774002075, -0.24418015778064728, -0.34160226583480835, 0.3604138195514679, -0.055778127163648605, -0.20198795199394226, 0.2821989357471466, 0.16492263972759247, -0.3928917944431305, 0.014417912811040878, 0.09434514492750168, -0.29314565658569336, -0.45301535725593567, 0.39512813091278076, 0.0821499302983284, -0.11991920322179794, -0.0016915358137339354, 0.5167810320854187, -0.49296337366104126, -0.2470226287841797, 0.3088201582431793, -0.006484795827418566, 0.7954609990119934, 0.303881973028183, -0.001191208022646606, -0.220036119222641, -0.14703957736492157, -0.20564891397953033, 0.3017323911190033, -0.4614642858505249, -0.3518267273902893, -0.5060060024261475, 0.21970021724700928, -0.1865554302930832, 0.057790033519268036, -0.12535803020000458, -0.28541621565818787, 0.2783828377723694, 0.14067722856998444, 0.5463614463806152, 0.15314342081546783, -1.0221192836761475, 0.16449978947639465, -0.2303946316242218, 0.39956557750701904, -0.6684720516204834, -0.5329135656356812, 0.6056516170501709, -0.11210960894823074], [0.5193342566490173, 0.39671826362609863, 0.18819129467010498, 0.934502363204956, 0.3392733633518219, -0.09656082093715668, 0.3622746169567108, -0.3847960829734802, 0.3516041934490204, 0.25288817286491394, -0.20052438974380493, -0.11603382974863052, -0.05800923332571983, -0.2639716565608978, 0.36158010363578796, 0.43189340829849243, 0.4072178602218628, -0.2529968023300171, -0.6698708534240723, -0.060947198420763016, -0.07498425990343094, -0.24314141273498535, -0.10423437505960464, -0.21275511384010315, 0.2643459141254425, -0.41279563307762146, 0.09629299491643906, -0.1096222922205925, -0.6062013506889343, -0.9568101763725281, -0.2346215546131134, 0.3719686269760132, -0.17101255059242249, -0.3091775178909302, 0.3870483636856079, 0.32035475969314575, 0.3335723876953125, -0.17408224940299988, -0.3845962882041931, -0.2876838147640228, 0.4584396779537201, 0.30607837438583374, -0.3816932141780853, 0.07953301817178726, 0.5170806646347046, 0.1889989674091339, 0.2691454291343689, -0.5827192664146423, 0.2791180908679962, 0.15593600273132324, -0.008810952305793762, 0.39569926261901855, 0.35642263293266296, 0.35553547739982605, -0.47336629033088684, -0.44790780544281006, 0.30452218651771545, -0.009349977597594261, 0.171884685754776, 0.2535132169723511, -0.1252530813217163, 0.2163282036781311, -0.3585590422153473, -0.21743179857730865], [0.245354562997818, 0.34663042426109314, 0.0773947611451149, -0.025619344785809517, 0.6956443190574646, -0.2761073708534241, 0.15203925967216492, -0.00973858404904604, -0.5137234330177307, -0.4998253881931305, 0.22755225002765656, 0.14243118464946747, 0.3705053925514221, -0.038252606987953186, -0.04141930863261223, 0.7777387499809265, -0.0388500839471817, 0.42667296528816223, -0.2518085241317749, -0.06164299696683884, -0.24941085278987885, -0.8830893039703369, 0.6724662780761719, -0.46565383672714233, 0.6931287050247192, -0.24030622839927673, 0.31410112977027893, -0.04399716109037399, 0.021146615967154503, -0.273988276720047, 0.832862138748169, 0.40930190682411194, -0.21577095985412598, 0.24902068078517914, -0.07890137284994125, -0.4174981415271759, -0.7712385654449463, -0.45277300477027893, 0.08134599030017853, 0.4274229407310486, -0.8156822919845581, 0.21037864685058594, -0.2784265875816345, -0.4711369276046753, 0.9245778322219849, -0.30790674686431885, 0.027521727606654167, -0.3928065598011017, -0.3456013798713684, 0.2973155081272125, 0.35537099838256836, -0.11324837058782578, 0.022986041381955147, -0.10840760916471481, -0.5789469480514526, 0.189921036362648, 0.4683310091495514, -0.47838911414146423, 0.12892979383468628, -0.46883249282836914, 0.35509300231933594, 0.040911417454481125, -0.807839035987854, -0.10579531639814377]], "fc1.bias": [0.2318049967288971, -0.06685689836740494, -0.2907896041870117, 0.014586102217435837, 0.04081154242157936, 0.5812035799026489, -0.28861409425735474, -0.812624990940094, 0.20289453864097595, 0.04634565860033035, -0.30682849884033203, -0.771373450756073, -0.21321843564510345, -0.08054784685373306, -0.3002142608165741, -0.29683318734169006, -0.12390736490488052, 0.18685796856880188, -0.20445431768894196, -0.0023460995871573687, -0.5172430276870728, -0.27664828300476074, 0.1840743124485016, 0.617243766784668, 0.11534734815359116, 0.2693074345588684, -0.7768454551696777, 0.32744643092155457, 0.21662355959415436, -0.3360873758792877, -0.22680112719535828, 0.14542663097381592], "fc2.weight": [[-0.14224578440189362, 0.22214187681674957, -0.05834997072815895, 0.11110198497772217, 0.6368614435195923, 0.3249717056751251, 0.22264140844345093, -0.2374003827571869, -0.10446665436029434, 0.15212412178516388, 0.5484409928321838, -0.15977375209331512, 0.36290931701660156, 0.2339508980512619, 0.25133848190307617, 0.23280926048755646, 0.33381569385528564, -0.15090875327587128, -0.050706975162029266, -0.16502784192562103, 0.09392831474542618, -0.3041188418865204, -0.1527867466211319, 0.36678144335746765, 0.21384482085704803, -0.42830196022987366, 0.03452793508768082, -0.10484036058187485, -0.6671910881996155, -0.03484306111931801, 0.2066127061843872, 0.04315474256873131], [0.21974457800388336, 0.10964404046535492, -0.17665386199951172, 0.36679917573928833, -0.1899873912334442, -0.260336309671402, 0.387908935546875, -0.15813028812408447, 0.45340994000434875, 0.14969402551651, 0.07293752580881119, -0.13477015495300293, -0.23886604607105255, -0.32188159227371216, 0.04418900981545448, -0.12280624359846115, -0.23497968912124634, -0.5002943873405457, 0.31375813484191895, -0.15181809663772583, -0.01183435507118702, -0.18736420571804047, 0.3747116029262543, 0.09480602294206619, 0.3182365894317627, 0.1821170598268509, -0.04362425208091736, -0.32704463601112366, -0.5254440307617188, -0.0489775575697422, 0.1957886815071106, 0.11993148177862167]], "fc2.bias": [0.547487735748291, 0.5934462547302246]}