{"fc0.weight": [[5.120551109313965, 0.09607629477977753, 0.08647776395082474, 0.09345117211341858, -0.3329125940799713, 0.3458188474178314, 0.6821637153625488, -0.13088463246822357], [0.11177435517311096, -0.6086022853851318, 4.439154148101807, 1.5282468795776367, 0.22256818413734436, 0.4553620219230652, 5.6236066818237305, -0.7146495580673218], [0.3542366921901703, 1.4988596439361572, 0.8082332015037537, 1.6890771389007568, -0.23375995457172394, 0.33254948258399963, 0.6059151887893677, 0.6712485551834106], [0.594785749912262, 0.06513645499944687, 0.7333621978759766, 2.666208505630493, 0.4477572441101074, -0.10861159861087799, 0.005591342691332102, 1.329168438911438], [-2.8620269298553467, 0.01796855591237545, 1.9026103019714355, 0.5020143985748291, -0.05722658336162567, -0.16717614233493805, 1.3369253873825073, -0.35535672307014465], [-1.2148082256317139, -0.03509856015443802, 2.099219560623169, -2.4298794269561768, -0.01722674071788788, 0.272568017244339, 3.8066205978393555, -1.8813995122909546], [1.1877659559249878, -0.04365462064743042, -4.196150779724121, 0.6819255948066711, 0.31781381368637085, 0.11877437680959702, -6.420456886291504, 2.1106698513031006], [-0.35347050428390503, -0.010748147033154964, 4.890244483947754, -2.7018816471099854, 0.017926178872585297, -0.15311257541179657, 6.035994529724121, -2.473792314529419], [-2.250495433807373, 0.006234500091522932, 1.8952791690826416, -1.1958165168762207, -0.04515263810753822, 0.2875092923641205, 3.5176029205322266, -3.054396629333496], [0.013020124286413193, -1.4635907411575317, -1.5663567781448364, 2.9264421463012695, 0.2010928988456726, -0.41439253091812134, -2.561552047729492, 0.2199944257736206], [-0.7367973923683167, -0.20919454097747803, 4.890249729156494, 0.7055395841598511, 0.1698901653289795, -0.21843962371349335, 7.332302570343018, -1.4694336652755737], [0.0017968772444874048, 0.6124005317687988, 2.677021026611328, -1.875901222229004, 0.3878694772720337, -0.429517924785614, 3.1801137924194336, -0.6781608462333679], [-0.0099536357447505, 1.1823978424072266, -1.1847292184829712, -3.3397390842437744, -0.08390805870294571, 0.02708926424384117, -2.1275203227996826, -0.6031585335731506], [-0.027661839500069618, -1.817670464515686, -0.36868396401405334, 1.624300241470337, 0.44946548342704773, -0.3567145764827728, -0.24632631242275238, 0.5707492828369141], [0.14988631010055542, 0.286469966173172, -4.573911190032959, -1.8305473327636719, 0.2104683220386505, 0.4642661511898041, -5.273991107940674, 1.0393309593200684], [1.2353932857513428, -0.07231149822473526, -4.931321144104004, -0.14932477474212646, 0.4133085310459137, -0.20646485686302185, -6.464588165283203, 0.5217530727386475], [-2.293583869934082, -0.098424531519413, -0.13759833574295044, -1.7297284603118896, 0.027422379702329636, 0.40470924973487854, 1.3449347019195557, -1.6909719705581665], [0.0689823254942894, 0.5084913969039917, -1.6906006336212158, -2.9450924396514893, 0.14576877653598785, 0.44319188594818115, -2.4326093196868896, -0.39084020256996155], [0.07387316972017288, -0.6432574391365051, 2.7797927856445312, 0.20705856382846832, 0.3705165982246399, -0.1903589963912964, 4.3702545166015625, 0.07821791619062424], [0.91164231300354, 0.07286234200000763, 4.6534743309021, -1.1565748453140259, 0.11328892409801483, -0.3099110424518585, 4.221171855926514, 0.21708618104457855], [0.3702000677585602, -1.2171869277954102, -0.29650744795799255, 0.7522481679916382, -0.30386126041412354, -0.3720197081565857, -0.29925811290740967, 0.9627870917320251], [-2.2336623668670654, 0.034556642174720764, 1.9309972524642944, -0.24411503970623016, -0.08960273861885071, -0.158828467130661, 2.3476037979125977, -1.5148561000823975], [-1.9802371263504028, -0.1240755170583725, 0.2840611934661865, 1.9430204629898071, 0.02503878064453602, 0.11046426743268967, 0.6481466889381409, -1.4146251678466797], [0.17920073866844177, 0.9886695742607117, 0.6642221808433533, -3.1399483680725098, 0.14007477462291718, 0.06605293601751328, 1.7916178703308105, -0.15210837125778198], [0.12773331999778748, 0.7215278148651123, 0.22924339771270752, 3.392467975616455, -0.07092142850160599, -0.4030616581439972, -0.08870295435190201, -0.0971183329820633], [0.5326157808303833, -0.21407584846019745, -2.7485110759735107, 2.4793660640716553, -0.0970986932516098, 0.4649454951286316, -4.199958801269531, 0.43102356791496277], [3.5162353515625, -0.022011123597621918, -2.5750620365142822, -0.1451861709356308, 0.18188266456127167, 0.463198721408844, -3.2299880981445312, 0.9708817601203918], [1.8811888694763184, -0.00837469007819891, 4.463682651519775, 0.6661161184310913, 0.30368271470069885, 0.08639828115701675, 5.232824325561523, 1.1549601554870605], [-0.5457283854484558, 0.0929953008890152, -3.9046261310577393, 1.3855500221252441, -0.31350991129875183, 0.005041755735874176, -4.773697376251221, 0.37235361337661743], [-1.290229320526123, 0.05693817883729935, 0.1832370012998581, -2.7455708980560303, 0.10944851487874985, -0.15674977004528046, 0.4488845467567444, -1.4925214052200317], [-0.007510917726904154, 1.1821942329406738, 2.4536406993865967, -3.1648550033569336, -0.18697312474250793, -0.23043034970760345, 3.7023093700408936, -0.3561848998069763], [1.0908271074295044, -0.027754316106438637, -6.064679145812988, -0.1359005719423294, -0.209834486246109, 0.12257296591997147, -7.4220757484436035, 1.753472089767456], [-0.041096851229667664, -2.10748028755188, -0.2802791893482208, 1.7370494604110718, 0.4344217777252197, -0.4183396100997925, 0.45785537362098694, -0.5299525856971741], [0.6696720719337463, -0.11606415361166, -4.506625652313232, -0.13015717267990112, -0.4270648658275604, 0.46251848340034485, -7.0561065673828125, 1.1395180225372314], [-1.1391268968582153, 0.24422138929367065, -5.771358013153076, 0.6247060894966125, -0.22227951884269714, 0.13679146766662598, -6.605321884155273, 0.5393154621124268], [-1.1705135107040405, -0.01902785524725914, 2.4236843585968018, 3.1599292755126953, 0.1674993485212326, 0.4084949791431427, 4.224593639373779, -1.7753148078918457], [-0.019130825996398926, -0.7832788228988647, 1.321006417274475, 2.899569511413574, 0.07127776741981506, 0.4663492441177368, 2.281316041946411, 0.860065758228302], [-1.691777229309082, -0.1535719782114029, -3.1815576553344727, -0.4885236322879791, 0.07308541238307953, -0.14976386725902557, -3.304563522338867, -0.17644159495830536], [-0.2997528612613678, -0.3133983016014099, -1.7457829713821411, -4.690923690795898, -0.3987065553665161, 0.14626535773277283, -2.550433874130249, 0.45234325528144836], [0.0895695835351944, 1.4200469255447388, -0.18984109163284302, -3.058042526245117, 0.1257072240114212, -0.03572772815823555, -1.1620049476623535, -0.27695930004119873], [-1.3191527128219604, 0.10744339227676392, 0.7905397415161133, 2.0984740257263184, 0.209518700838089, -0.247609943151474, 1.4846985340118408, -1.1905932426452637], [1.4522721767425537, 0.10236123204231262, -3.2093348503112793, 0.3414137661457062, 0.35055404901504517, -0.19401390850543976, -4.758678913116455, 1.4414509534835815], [0.29595184326171875, 0.026757029816508293, -5.637709617614746, -0.5345681309700012, -0.42049115896224976, 0.047204725444316864, -7.035871505737305, 1.5836200714111328], [-1.8705861568450928, 0.16235515475273132, 2.276447057723999, -0.8784065246582031, -0.22565266489982605, 0.23963260650634766, 4.66239595413208, -2.584303855895996], [-0.5084712505340576, -0.04543377086520195, 3.400832414627075, -2.673609495162964, -0.09527315944433212, -0.32202014327049255, 5.51772403717041, -1.5413962602615356], [-1.950722098350525, -0.010894258506596088, 2.785102605819702, -1.6738842725753784, -0.4615812599658966, -0.04196549952030182, 3.6650331020355225, -1.9801582098007202], [0.17329439520835876, 0.0202266164124012, -3.8137080669403076, -3.955950975418091, -0.20390671491622925, 0.234769806265831, -6.3734660148620605, 0.5591914653778076], [1.8114421367645264, -0.3670111298561096, -0.24756057560443878, -0.8301864266395569, -0.009656907990574837, -0.3655133843421936, -0.35348960757255554, 0.5959678888320923], [0.0070413402281701565, -1.5915045738220215, 0.11224044114351273, -1.019044280052185, 0.17579688131809235, -0.22690792381763458, 0.7486515045166016, -0.8037647604942322], [2.1253139972686768, -0.4263750910758972, 2.98111629486084, -0.22665055096149445, 0.3443204164505005, -0.007717405445873737, 4.476800441741943, -0.10511383414268494], [0.16232872009277344, -1.0378488302230835, 1.2289377450942993, 3.1566503047943115, -0.4598112404346466, -0.2515926659107208, 1.2081149816513062, 0.2070741057395935], [1.1686519384384155, 0.0396752767264843, -1.5368722677230835, 1.176414966583252, 0.4791935980319977, -0.43651729822158813, -2.4450786113739014, 1.0952812433242798], [9.27159309387207, 0.03893502056598663, -0.15184830129146576, -0.10728400200605392, 0.1600467413663864, -0.18665170669555664, -0.4416482448577881, -0.8796066045761108], [-0.9239025712013245, 0.05335291475057602, 2.650421619415283, -2.6316823959350586, 0.2947620153427124, 0.24968555569648743, 4.26342248916626, -2.2767298221588135], [-0.2865072786808014, 1.0081489086151123, -2.5742087364196777, -0.9752783179283142, 0.4599348306655884, 0.06069745123386383, -3.7877302169799805, -0.4584869146347046], [0.07392575591802597, 0.4991360902786255, 0.9617065191268921, -2.6306023597717285, -0.3250937759876251, -0.31314194202423096, 0.6111493110656738, 0.3750613033771515], [0.022609325125813484, -0.21977831423282623, -0.482646644115448, 4.839066505432129, 0.16926752030849457, -0.055244579911231995, -1.679500937461853, -0.2038803994655609], [2.212005615234375, 0.26850181818008423, 4.507928371429443, -0.20160219073295593, 0.09772919118404388, 0.2597249746322632, 5.006518363952637, -0.6855297684669495], [0.02090396359562874, 2.116734504699707, -0.09640055894851685, -2.3277387619018555, -0.3780929744243622, 0.20451989769935608, 0.02649288810789585, -0.4567124545574188], [-1.3881922960281372, 0.17326459288597107, 1.264411211013794, 1.581490159034729, 0.4228442907333374, 0.021001532673835754, 1.663493037223816, -1.8811602592468262], [-0.8390864133834839, 0.22093775868415833, -0.02320622093975544, 4.191817283630371, -0.3933069705963135, -0.4768761098384857, -0.6810873746871948, -0.47972530126571655], [-0.20686186850070953, 1.922823429107666, -0.18312440812587738, -2.016798496246338, -0.31150034070014954, -0.12179805338382721, -0.0478852316737175, -0.475071519613266], [-1.3391265869140625, 0.011273573152720928, -3.3368613719940186, -1.8457764387130737, -0.27112504839897156, -0.12274996191263199, -3.9790194034576416, -0.8232663869857788], [1.0938054323196411, 0.026958541944622993, -2.4477226734161377, -2.991997480392456, -0.040138065814971924, 0.3475235402584076, -3.5764219760894775, 1.9365626573562622]], "fc0.bias": [-0.06635088473558426, 1.272326111793518, -0.2793078124523163, 0.9155216217041016, -0.9294781684875488, -0.674013614654541, -0.1378617286682129, -0.560417890548706, -1.4958654642105103, 1.4609851837158203, 2.796884775161743, -1.2833694219589233, -1.2738181352615356, 0.6042568683624268, -1.5378817319869995, -2.0503482818603516, -1.1640998125076294, -0.7693915367126465, 1.29787278175354, -1.7170616388320923, 0.9073832035064697, 0.19952437281608582, 2.623028039932251, -1.6522098779678345, 2.1966164112091064, 1.4078320264816284, -0.28848952054977417, 0.363506555557251, 1.6319680213928223, -1.6702123880386353, -2.0021743774414062, -0.8652651309967041, -0.16389185190200806, 0.734624445438385, 0.48296481370925903, 1.6098895072937012, 0.7752233743667603, -1.1029382944107056, 0.13008801639080048, -2.192617654800415, 0.8395875692367554, 0.4297773540019989, 0.580181896686554, -1.4146134853363037, -2.16462779045105, -2.2030820846557617, -2.3655316829681396, 0.17718929052352905, -0.46622341871261597, -0.18131740391254425, 1.132189154624939, 0.31391823291778564, 0.07960133999586105, -2.731553077697754, -1.1300528049468994, -2.3600261211395264, -0.21930915117263794, 0.3432868719100952, -0.7749010324478149, 1.686769723892212, 0.6559172868728638, -1.4489201307296753, -0.8526582717895508, -2.9336459636688232], "fc1.weight": [[-0.4069053828716278, 0.36179980635643005, -0.8465158939361572, -0.9538546800613403, -0.11182506382465363, -0.6211841702461243, -0.3753383457660675, -0.49996739625930786, -0.7743130326271057, 1.1140977144241333, 0.32508584856987, 0.21018028259277344, -0.9870153069496155, 1.0120645761489868, -0.004928495269268751, -0.2751849889755249, 0.18457205593585968, -0.10156277567148209, -0.017573637887835503, -0.281238853931427, 0.7978497743606567, -0.5876016020774841, -0.46752166748046875, -0.0422324538230896, 0.11562006175518036, 0.15127156674861908, -0.4218566119670868, 0.38072070479393005, 2.0215253829956055, 0.4197801947593689, -0.2587021291255951, -0.23358626663684845, 2.030512809753418, -0.28601348400115967, 0.29341229796409607, 0.39452052116394043, 0.31317925453186035, -0.47013458609580994, 1.0677824020385742, -0.9158061742782593, 0.9589737057685852, 0.4933142364025116, -0.2556510865688324, 0.0369795598089695, 0.10944154858589172, -0.32513847947120667, -0.42528843879699707, 0.759253740310669, 2.401315450668335, 0.33684012293815613, 0.2614717483520508, 0.2967314124107361, -0.3223724365234375, -0.10104766488075256, -0.8887833952903748, 0.3540041446685791, 0.10605824738740921, 0.08434825390577316, -3.5021920204162598, -0.6954512596130371, -1.8390514850616455, -3.135878562927246, -0.17713284492492676, -0.10730461031198502], [0.6950439214706421, -0.16536195576190948, -0.6214520931243896, -0.029607046395540237, -2.2571332454681396, -0.24113303422927856, 1.412767767906189, 0.09369602799415588, -1.1161624193191528, -0.11764431744813919, -1.0161499977111816, -0.36590319871902466, -0.5356425046920776, 0.6269048452377319, -0.7891663908958435, 2.005957841873169, -1.5121445655822754, 0.09673380851745605, -0.27039873600006104, 0.6573376059532166, 0.3059123158454895, -1.9606269598007202, -1.0108612775802612, -0.23693494498729706, -0.02970385178923607, -0.15843796730041504, 2.1927645206451416, 0.7162643074989319, -0.3466305732727051, -1.0923668146133423, -0.38716232776641846, 1.6950477361679077, -0.09536277502775192, 0.435200959444046, -0.5135318040847778, -0.5659372806549072, -0.38531258702278137, 0.1024000272154808, 1.2360931634902954, 0.026922496035695076, -1.2223454713821411, 1.7974151372909546, 0.22635683417320251, -0.7981394529342651, -1.1436375379562378, -1.2118850946426392, 0.35653701424598694, 2.28458833694458, 0.23747925460338593, 0.6586316823959351, -0.1767117828130722, 0.6008638739585876, 0.9624283313751221, -0.2848067879676819, 0.49902230501174927, -0.09809257090091705, -0.430011510848999, -0.04288872331380844, -0.44118934869766235, -1.3397148847579956, 0.007696721237152815, -0.5482900142669678, -0.8945844769477844, 1.0295900106430054], [0.9273933172225952, -0.3574961721897125, 1.0496433973312378, 0.8253545165061951, 0.37521693110466003, -0.47856947779655457, -1.2526930570602417, -0.08485469967126846, -0.012031292542815208, 1.3454525470733643, -0.30539923906326294, -0.9023873209953308, -3.635312795639038, 0.41780638694763184, -0.9859665036201477, 1.026336669921875, 0.3852442800998688, -3.620410203933716, 1.1732654571533203, 1.330673098564148, -0.5629299879074097, -0.7835602760314941, 0.8688824772834778, -0.25573521852493286, 1.4534828662872314, 0.21831147372722626, 0.04845369979739189, 1.1274772882461548, -1.6474107503890991, -1.0955034494400024, -2.783440113067627, -0.8256210088729858, 0.4819261133670807, 0.29664328694343567, -0.01591964066028595, 1.115400791168213, 3.033552885055542, -1.506173849105835, -1.1825790405273438, -1.811272382736206, 0.8990364074707031, -1.89240562915802, 0.04897049069404602, 0.5519828200340271, 0.8314420580863953, -1.4644439220428467, -0.9522020816802979, 1.2465721368789673, -1.2894152402877808, 1.1227829456329346, 1.3973339796066284, -0.4827369451522827, 0.5806201696395874, -0.6111043095588684, -0.25985243916511536, -3.3280632495880127, 2.3939719200134277, 0.36212918162345886, 0.2350873202085495, 0.1454540491104126, 0.4063910245895386, 0.14661119878292084, -0.9359536170959473, -0.6097383499145508], [0.21052637696266174, 0.08471599221229553, -1.7200294733047485, -0.8553932905197144, -0.29748302698135376, -0.26776519417762756, 0.21831336617469788, 0.046511001884937286, 0.14811502397060394, 1.3270069360733032, 0.2016163021326065, 0.3604392409324646, -0.5011183619499207, 0.889853835105896, -0.12989631295204163, -0.2175835371017456, 0.14559879899024963, 0.2687540650367737, -0.10850445181131363, -0.16064339876174927, 0.8829724192619324, 0.050135187804698944, 0.12533985078334808, -0.919438362121582, 0.2027955949306488, 0.14878056943416595, -0.375988632440567, -0.1914931982755661, 0.984225332736969, -0.01117661502212286, -0.4822833240032196, -0.24511165916919708, 2.278877019882202, -0.03625549003481865, -0.13864581286907196, 0.09596767276525497, -0.07167264074087143, 0.5639001131057739, 0.883067786693573, -0.7458906173706055, 0.2940724790096283, 0.016712848097085953, 0.13160964846611023, -0.41328033804893494, -0.16103248298168182, -0.156586691737175, 0.03607254475355148, 0.2586837708950043, 1.729528784751892, -0.08021417260169983, 0.34413623809814453, 0.3948887884616852, -0.03841332346200943, -0.5134194493293762, -0.6640114784240723, 0.259787917137146, -0.05129897594451904, -0.06780686229467392, -3.7218215465545654, -0.35264304280281067, -0.7693645358085632, -2.9709553718566895, 0.3320806622505188, 0.07699955999851227], [2.960249423980713, 0.5159537196159363, 0.43433207273483276, 0.11048895865678787, -1.7562376260757446, -0.4769180119037628, -0.09126681834459305, 0.0016113535966724157, -0.6873223185539246, 0.3900730013847351, 0.011693369597196579, -0.3020336627960205, 0.19405999779701233, 0.6917372941970825, -1.1109007596969604, 0.3667243719100952, -0.34404826164245605, -0.3388079106807709, 0.4150070548057556, 1.3314155340194702, 0.16536261141300201, -0.28291159868240356, -0.4317741096019745, -0.35351529717445374, 0.5584507584571838, 0.6580208539962769, 2.1323723793029785, 1.3237831592559814, 0.2085925042629242, 0.011132066138088703, 0.11668570339679718, -0.26737165451049805, -0.2674643397331238, 0.2646157443523407, -0.782655656337738, -0.7667251825332642, 0.6571254730224609, -1.0466610193252563, -0.18833738565444946, 0.3329334855079651, -0.18905335664749146, 0.5782834887504578, -0.2412562072277069, 0.2443828284740448, 0.27207791805267334, -0.23392696678638458, -0.6772410869598389, 0.9072007536888123, 0.03479699790477753, 0.8278955221176147, -0.07677936553955078, 1.4377473592758179, 3.206545114517212, -0.033861152827739716, 1.4875234365463257, 0.21838703751564026, -0.2176639586687088, 0.8882629871368408, 0.5275599956512451, 0.1667306125164032, -0.05829337239265442, -0.5804190635681152, -1.2010741233825684, 0.3194650411605835], [-0.21959079802036285, 0.2507350444793701, -0.7415403127670288, -3.0685737133026123, 0.07900182157754898, 1.2338002920150757, 0.14812755584716797, 0.2077043056488037, 1.6182010173797607, -1.0583229064941406, -1.0766925811767578, 1.4343228340148926, 0.19643190503120422, -0.8410757184028625, 1.9051605463027954, 0.7705053687095642, 0.6760081052780151, 2.484835624694824, 1.4948358535766602, 0.04675327613949776, 0.9148012399673462, 0.3808741271495819, -0.2789689600467682, 1.770504355430603, -2.8295164108276367, -2.0282726287841797, 0.1740344762802124, -0.01605505682528019, -0.6078057289123535, 1.892194151878357, 2.836271286010742, -0.21746963262557983, -0.12363135069608688, -1.4252784252166748, -0.5491006970405579, -0.3743455708026886, -1.7174409627914429, 0.1221015676856041, 0.617067277431488, 1.2803243398666382, -0.9625542163848877, -0.030719837173819542, 0.2818765640258789, 0.23774616420269012, 0.9833347797393799, 0.030680332332849503, 0.5517799258232117, -0.18376347422599792, 2.8629958629608154, 0.7307828664779663, -0.841630220413208, -0.3118042051792145, -0.6892820596694946, 1.1404762268066406, -2.9029831886291504, 1.711600422859192, -3.4200987815856934, 0.3761468827724457, -1.2802108526229858, -1.2822951078414917, -4.448853015899658, 1.3120726346969604, 0.002342804567888379, 0.8907899260520935], [1.8083301782608032, 1.2521953582763672, -0.18260350823402405, 0.7634568214416504, -1.1644256114959717, -1.7123010158538818, 1.7784377336502075, -0.12331139296293259, -1.687096357345581, -1.9307740926742554, 0.18632711470127106, 1.048710823059082, -0.3786498010158539, -1.1312437057495117, -0.15001991391181946, 2.2739455699920654, -1.5223387479782104, -1.0889660120010376, -0.46665728092193604, -0.4416569471359253, -0.8545874357223511, -2.1012027263641357, -1.540424108505249, 0.23695436120033264, -0.489923357963562, -0.7799456119537354, 0.016134066507220268, -0.2930489778518677, -0.2376204878091812, -0.31333127617836, 1.3401113748550415, 1.374374508857727, -0.475592702627182, 1.6820950508117676, -1.18156898021698, -1.7435411214828491, -0.3578457236289978, -1.0512622594833374, 0.49298331141471863, 0.34635019302368164, -0.6519758105278015, 2.4148192405700684, -0.4994366466999054, -0.20286281406879425, 0.062352415174245834, -0.11978445947170258, -1.2203106880187988, 1.3085867166519165, -1.1932029724121094, -0.0896935686469078, -1.2372374534606934, 0.03052474930882454, 1.4849027395248413, -0.6260609030723572, -0.9421153664588928, 1.0143299102783203, -1.451602816581726, 0.18298988044261932, -0.7439761757850647, -1.658556342124939, -0.3160981833934784, 1.6057453155517578, -2.989814519882202, 1.2696421146392822], [1.1631208658218384, 2.5329949855804443, 1.2942720651626587, 0.890099823474884, -0.4384685158729553, 0.21829462051391602, 0.10125139355659485, 0.7857547402381897, -0.7884276509284973, 0.761216938495636, 1.386656403541565, -1.9225633144378662, -1.448461651802063, 1.9099011421203613, -3.528695583343506, -0.3999619781970978, -0.7298074960708618, -0.29319286346435547, 1.8105775117874146, 1.5424299240112305, 3.1996805667877197, -0.2691740095615387, -1.1368381977081299, -0.7851802110671997, -0.17988111078739166, -0.4506007134914398, 0.07248161733150482, 0.8562049865722656, 0.10159559547901154, 0.43867698311805725, -0.2594558894634247, -0.4084424376487732, 1.542004108428955, -0.8899003267288208, -1.955258846282959, 2.5185611248016357, 0.4275822639465332, -0.5145992636680603, -0.728758692741394, -1.0696948766708374, -0.039070386439561844, 0.6549392342567444, -1.4218961000442505, 0.3091980814933777, -0.014268098399043083, -0.731521725654602, -1.6013178825378418, 0.7624784708023071, 0.5397618412971497, 0.65468829870224, 0.9843615889549255, 0.4387649893760681, 1.2981010675430298, -0.3245845139026642, -1.408728003501892, -0.6592986583709717, 0.6329179406166077, 1.9259625673294067, 0.7978294491767883, 0.047475554049015045, -1.151532769203186, -0.3541712462902069, -1.645202875137329, -0.7390627264976501], [-0.7164794206619263, -1.301681399345398, 0.02548091672360897, -0.24594613909721375, -0.13785220682621002, 0.9453734755516052, 1.1871811151504517, -2.537463426589966, 0.09143751859664917, 0.4974137842655182, -0.20959052443504333, -0.5253936052322388, 0.012040956877171993, 1.5891512632369995, 1.6887986660003662, 2.0767178535461426, 0.03615550324320793, 0.18208764493465424, -0.7308639883995056, -1.2695707082748413, -0.040948715060949326, 0.5375064015388489, 1.2486757040023804, -1.511533498764038, 0.35953161120414734, 0.7632828950881958, 0.2799038290977478, -1.1352198123931885, 0.9345042109489441, 1.5320663452148438, -0.480457067489624, 0.41069337725639343, 0.048835448920726776, 0.29497623443603516, 0.3198759853839874, 2.1544322967529297, -0.673547089099884, 0.693111002445221, 0.36561012268066406, -2.149076461791992, 1.0631035566329956, 1.1413899660110474, 3.6434006690979004, 0.2352284938097, -1.2690362930297852, -0.38504600524902344, 1.0075421333312988, -0.2140698879957199, -1.8634265661239624, -2.6095595359802246, 2.1444311141967773, -0.08069932460784912, -1.2663443088531494, -0.2040777951478958, -0.6781203150749207, -2.746617317199707, 1.361375093460083, -1.761578917503357, 0.3510718047618866, 1.1754014492034912, 1.0735317468643188, 0.1022302582859993, 0.20682252943515778, -0.999636173248291], [-0.8301016688346863, -1.1284147500991821, -1.560634970664978, -1.573333740234375, 0.8619034886360168, 0.05810533091425896, 0.8259648680686951, -2.123297691345215, 0.630657970905304, -0.22869214415550232, -0.8161823749542236, -1.2874367237091064, 2.1827714443206787, 0.6387890577316284, 1.983405351638794, 1.1626887321472168, -0.1927264928817749, 0.7342344522476196, -0.4612325429916382, -1.7389816045761108, 0.28696882724761963, -1.1565710306167603, -0.4198724925518036, -0.28088831901550293, -2.0793020725250244, 0.7071530222892761, -0.15154367685317993, -2.343532085418701, 4.169387340545654, 1.216343879699707, -2.087207317352295, 2.015470266342163, -0.5311115384101868, 1.1984425783157349, 1.8512797355651855, -0.7308199405670166, -1.2541935443878174, 1.8315426111221313, 4.017205238342285, 0.7056189179420471, -0.7499786019325256, 1.086125135421753, 3.0394020080566406, 0.5775904059410095, -0.7961153388023376, 0.7662783861160278, 0.028211740776896477, -0.2927750051021576, 0.8882826566696167, -0.9368888139724731, -1.978236198425293, -0.8214694857597351, -1.1331537961959839, -0.06402723491191864, 1.092594027519226, -1.1495451927185059, -0.5195355415344238, -1.9902738332748413, -0.4111706018447876, -0.45370131731033325, -1.9789316654205322, -0.6688523292541504, 1.1213290691375732, 1.4251114130020142], [1.2504236698150635, 0.9277964234352112, -1.7609329223632812, -2.0634608268737793, 0.4338778853416443, 0.9800918102264404, -1.1252961158752441, -0.21824827790260315, 1.1366554498672485, 0.7936041355133057, 1.7251091003417969, -0.37823286652565, -0.47913801670074463, 0.745997965335846, 0.4887394607067108, -0.003848610445857048, 0.9505557417869568, -0.9518188238143921, 0.7162150144577026, -1.5617434978485107, 0.2807302474975586, 0.3420480191707611, 0.7402268648147583, -0.5144755244255066, -1.269534707069397, -1.010621190071106, 0.16129788756370544, 0.12259598076343536, -0.5729722380638123, 2.0526981353759766, -0.16208598017692566, -0.31075480580329895, 0.954280436038971, -0.7050430178642273, -1.1405017375946045, 0.9225500226020813, 1.181998372077942, 0.8242722749710083, 1.822428822517395, -0.793589174747467, -0.11698203533887863, -0.530460774898529, 0.47709739208221436, 0.4715847373008728, 1.339030146598816, 0.987774670124054, -0.3831232190132141, 0.507629930973053, 0.9787184000015259, 0.8403939604759216, 0.5644014477729797, 0.5508819818496704, 2.307847738265991, 0.8984339237213135, -0.7592645883560181, -0.8910472989082336, -0.12005486339330673, 0.3634316325187683, -0.4876953065395355, -0.3848806619644165, -1.511142373085022, -0.6013351678848267, 1.3170902729034424, -1.1548279523849487], [1.0658841133117676, 2.0731730461120605, -0.013600802980363369, 0.038277000188827515, 0.003672979539260268, -0.766207754611969, -1.1210309267044067, 1.276445984840393, -0.22782860696315765, 0.1200852021574974, 2.190683364868164, -0.1648198962211609, -0.765019416809082, -0.6552579402923584, -0.7632365226745605, -0.5991498827934265, -0.03261653333902359, -0.658926784992218, 0.7244744300842285, 0.9889732003211975, 0.6712376475334167, 0.8189674615859985, -0.8348753452301025, -0.45491722226142883, 0.4158138036727905, -0.5718634724617004, -0.3736703395843506, 1.4299670457839966, -0.8195334076881409, -1.396267056465149, 0.47684556245803833, -2.25260066986084, 0.5526787042617798, -2.152160882949829, -0.5260440111160278, 0.877162754535675, 0.48257726430892944, -1.6194127798080444, -1.0744965076446533, -0.8472662568092346, -0.03802625834941864, 0.46107789874076843, -3.4073104858398438, 0.6914315223693848, 0.8326284289360046, 0.32849156856536865, -2.746203899383545, -0.5877785086631775, -0.19728365540504456, 0.9917852878570557, 0.7699402570724487, 0.3216157853603363, 1.154162049293518, 1.6317609548568726, -1.381003499031067, -0.03403951972723007, -0.6814420819282532, 1.5226234197616577, -0.9322423934936523, 1.3489323854446411, 0.2016638219356537, -0.8306333422660828, -1.4440369606018066, -3.2621567249298096], [-2.235886573791504, -1.845131516456604, -2.434223175048828, -0.739487886428833, 1.4433543682098389, 0.8127679824829102, 1.4250619411468506, -0.14987964928150177, 0.27889275550842285, 1.4120169878005981, 0.8767518401145935, 0.5434463620185852, 0.20243652164936066, 1.2050615549087524, -0.4304717779159546, -0.15640166401863098, -0.01945974864065647, 1.6469857692718506, -2.053046226501465, -1.5615001916885376, 0.8021507263183594, -0.21855001151561737, 1.420253038406372, -1.919887900352478, -1.1402618885040283, -0.7644942998886108, -0.41086438298225403, -1.3567484617233276, 1.7584611177444458, 0.9248968958854675, -0.07039111107587814, -0.30442288517951965, 1.4979966878890991, 0.14983196556568146, 1.9431889057159424, -0.6279041767120361, -1.6382701396942139, 1.505616307258606, 2.9642088413238525, -0.8568852543830872, 0.5933751463890076, 0.12803936004638672, 0.5494049191474915, 0.039048511534929276, 1.2062658071517944, 0.33790719509124756, -0.9773010015487671, 0.2673424482345581, 1.9841711521148682, -2.109097957611084, -0.0115745784714818, 1.3471721410751343, -1.8817752599716187, 0.36304691433906555, 0.46750470995903015, 1.434773325920105, -0.6019375324249268, -1.62671959400177, -1.372192144393921, -0.23449577391147614, 0.5383289456367493, -1.3140912055969238, 1.1956005096435547, 0.06617703288793564], [1.3288177251815796, 1.6765649318695068, -0.014057440683245659, 1.655991792678833, -0.4220883548259735, 0.20276200771331787, -0.13915635645389557, 2.7358953952789307, 0.1744505763053894, 0.014120283536612988, 0.40240639448165894, 1.1800490617752075, -2.63655948638916, -0.10398250073194504, -1.312435507774353, -0.7124735713005066, -1.3117884397506714, -0.6010082960128784, 0.9654337167739868, 1.5376622676849365, -1.1653341054916382, 0.7284473180770874, 0.04993715137243271, 1.5583328008651733, -0.005586047191172838, 0.3685567378997803, -0.3620494306087494, 1.686537742614746, -3.4284937381744385, -0.7471588253974915, 0.5829171538352966, -1.9169450998306274, -0.7273738384246826, -2.1534886360168457, -1.8082798719406128, 0.13517999649047852, 0.8680723905563354, -1.18900728225708, -2.0991506576538086, -0.44464993476867676, 0.6989332437515259, -0.7612019181251526, -3.384294033050537, 1.4631550312042236, 1.4244270324707031, -0.9633981585502625, -1.763683795928955, 0.7325473427772522, -0.622715175151825, 1.2727404832839966, 1.452156901359558, -1.2666592597961426, 1.602276086807251, 0.36747634410858154, -1.4818811416625977, -0.18861745297908783, 0.739260196685791, 1.534021019935608, -0.5798431634902954, 0.3167378306388855, 2.57035756111145, -0.23313269019126892, -1.6928738355636597, -1.3249280452728271], [-0.6634380221366882, -3.098475933074951, -0.3382812440395355, 0.6436336040496826, 1.1364850997924805, -0.5581637620925903, 1.5085113048553467, -1.9940826892852783, -0.037775423377752304, 0.07428570091724396, -2.9016478061676025, -2.1521573066711426, -0.032348815351724625, 0.14100433886051178, 2.932807207107544, -0.2566955089569092, 0.3922440707683563, 1.4052300453186035, -2.007174015045166, 0.09585230052471161, -0.569068431854248, 2.0955183506011963, 1.5142202377319336, 0.08390607684850693, -1.427943468093872, 0.48421987891197205, -0.912516713142395, -1.529850959777832, 0.23264485597610474, 0.3372044265270233, -1.8633992671966553, 1.6541484594345093, 0.38018423318862915, 3.0153653621673584, 1.814156413078308, -0.13956207036972046, -1.2720001935958862, 0.8371047377586365, -0.17050641775131226, 0.5312195420265198, 1.5648024082183838, 0.15961214900016785, 2.9498608112335205, -1.1314008235931396, -0.9410829544067383, 0.3797786831855774, 2.67173171043396, -2.396282911300659, -0.8137388825416565, -1.3277137279510498, 0.07280673831701279, 0.3742050528526306, -1.4623361825942993, 0.20560623705387115, 0.3942769765853882, -0.7339782118797302, -0.8976871371269226, -1.0811293125152588, -0.6674330234527588, 0.7551896572113037, 0.6895900964736938, 1.296108603477478, 1.9940478801727295, -0.14102578163146973], [-0.14915582537651062, 0.8898440003395081, 0.9668501615524292, 0.2180575281381607, -0.5213315486907959, 0.7425097227096558, -1.4152178764343262, 1.7607922554016113, -0.6374844908714294, -1.24387526512146, 0.7282187342643738, 1.2704893350601196, 0.23214393854141235, -0.7073966860771179, -2.224796772003174, 1.5597010850906372, -1.8163663148880005, 0.08244021981954575, -0.26093679666519165, 0.8738514184951782, -1.044318437576294, -1.8080158233642578, -0.8961439728736877, -0.4055190682411194, 0.24535003304481506, 0.8299709558486938, 0.13025355339050293, 1.1292811632156372, -1.1099315881729126, -0.9504697322845459, 1.7241847515106201, -1.4486240148544312, -1.7974717617034912, -2.345001697540283, -0.1789647340774536, 1.1929165124893188, 1.001043438911438, -0.9224379062652588, -1.849811315536499, 1.1096975803375244, -1.0273756980895996, 0.26340413093566895, -2.5941152572631836, 0.3696886897087097, 1.1039950847625732, -0.08658842742443085, -2.5927159786224365, 1.792627215385437, -0.8643713593482971, 1.3779417276382446, -1.7784693241119385, -1.0010616779327393, 0.2749025225639343, 0.37686192989349365, 1.2780333757400513, 1.2809321880340576, 0.153323695063591, 1.0824124813079834, 0.4028981328010559, -0.8140004277229309, 0.1710086315870285, 1.2370468378067017, -2.4059689044952393, 0.9393203258514404], [-2.089428186416626, -0.2686029374599457, -0.017338261008262634, -0.02622232772409916, 1.350726842880249, 0.08517501503229141, -0.39760684967041016, -0.488297700881958, -0.026424404233694077, -0.08483320474624634, -0.025206418707966805, 0.2942439913749695, 0.04927549138665199, -0.2730678617954254, 0.3007172644138336, 0.15899711847305298, 0.5195279717445374, 0.5297388434410095, 0.022554969415068626, -0.09794780611991882, -0.0519486665725708, 0.10369917750358582, 0.4309218227863312, -0.3072429299354553, -0.06985051929950714, 0.5071642398834229, -1.5705363750457764, -1.1354366540908813, -0.07251758128404617, 0.5530304908752441, 0.12216180562973022, -0.5750330686569214, -0.14228054881095886, -0.4870780110359192, 0.42897969484329224, 0.20514090359210968, 0.05331195518374443, 0.7611198425292969, -0.19846288859844208, 0.5041794180870056, 0.9621079564094543, -0.3629847466945648, 0.5526739954948425, 0.3794497847557068, 0.6322256326675415, 0.5738877058029175, -0.2808610498905182, -0.29754212498664856, 0.030311966314911842, -1.4251017570495605, 0.19752804934978485, 0.4130100905895233, -3.791677951812744, 0.06672047823667526, 0.2206079065799713, -0.20463944971561432, -0.04727819934487343, -0.9090179204940796, 0.49211782217025757, 0.32066434621810913, 0.5261789560317993, 0.32320573925971985, 0.2760668396949768, -0.4010026454925537], [-1.5725970268249512, 0.22093679010868073, -0.0879829153418541, -0.05979738384485245, 2.675868511199951, 0.2917546033859253, -0.649034857749939, -0.3038308024406433, 1.1001299619674683, 0.10651136189699173, 0.7205643057823181, -0.16369087994098663, 0.3111029267311096, 0.5512200593948364, 0.3706807792186737, -1.0056720972061157, 0.8924946784973145, -0.3591051995754242, 0.043876755982637405, 0.07863348722457886, -0.050998006016016006, 1.2763744592666626, 0.9395376443862915, -0.4799109995365143, 0.1435113102197647, -0.6531556844711304, -2.7601840496063232, -0.22889398038387299, 0.02626531571149826, 0.33214113116264343, 0.10997147858142853, -0.8110377788543701, -0.23014001548290253, -1.368373990058899, -0.19800755381584167, 0.4305992126464844, 0.3447337746620178, 0.9249280691146851, 0.16792607307434082, 0.20123912394046783, 1.1911429166793823, -1.2734410762786865, -0.2600803077220917, 0.7778897285461426, 0.1474701464176178, 0.9247724413871765, -0.29450052976608276, -1.340995192527771, 0.3402020335197449, -0.3640800714492798, -0.12436148524284363, -0.18746218085289001, -0.6503070592880249, 0.2646789848804474, -0.26795294880867004, -0.1919422149658203, -0.012085099704563618, -0.2563239634037018, -0.4516880214214325, 0.6197417974472046, -0.4938046336174011, -0.3904730975627899, -0.1884114295244217, -0.31059738993644714], [-0.06568863987922668, 2.054551362991333, 1.8492802381515503, 1.101637363433838, -0.28648748993873596, -1.786052942276001, -0.2269393354654312, -1.7679429054260254, 0.29063475131988525, -0.029495395720005035, 1.6996656656265259, -1.1095956563949585, -1.528217077255249, -0.22339117527008057, 1.535508632659912, -1.2886005640029907, -1.5231314897537231, -0.20019547641277313, 0.031113091856241226, -0.3224668502807617, -0.9547256827354431, 0.5459001660346985, 1.1414210796356201, -2.654287338256836, 3.5255138874053955, 1.0047544240951538, -0.07071966677904129, -1.3207968473434448, 2.836710214614868, -2.579350233078003, -0.6706954836845398, -1.2228413820266724, 0.07551604509353638, -1.6461998224258423, 1.2528609037399292, 3.009772777557373, 1.5058594942092896, -1.0499290227890015, -1.9196869134902954, -0.36026445031166077, 2.119454860687256, 0.0985526368021965, 1.2450069189071655, -0.031834203749895096, 0.28120261430740356, 0.037211619317531586, -1.6819840669631958, -1.4069722890853882, 0.002745660487562418, 0.21334853768348694, 1.0601441860198975, -0.23344211280345917, 0.07516413182020187, -0.9544163942337036, 0.6878698468208313, -1.9552251100540161, 2.0710198879241943, 0.7808331847190857, 1.0762195587158203, 1.6355961561203003, 4.877171516418457, -0.09418164938688278, -1.3742702007293701, 0.7934381365776062], [1.3705286979675293, 2.747828722000122, 0.6722427010536194, 0.8681240677833557, 0.3224300146102905, 0.9471046328544617, -0.793369710445404, 2.447011947631836, -0.22137734293937683, -0.5414122939109802, 0.7183132171630859, 1.4603230953216553, 0.5233098268508911, -0.2946137487888336, -2.5081820487976074, -0.828996479511261, -1.131009578704834, -0.9869850873947144, 1.1092853546142578, 0.9417131543159485, 0.16840007901191711, -0.4878467619419098, -0.5981842279434204, 0.8007335662841797, -1.6682145595550537, -1.259159803390503, 0.29548943042755127, 1.9414525032043457, -2.0470645427703857, 1.2428653240203857, 1.8473072052001953, -1.7761038541793823, -1.2442859411239624, 0.1757098287343979, -2.5718119144439697, -0.7693126201629639, -0.49066033959388733, 0.1275414377450943, -0.7836597561836243, 0.7588317394256592, -1.0717878341674805, 0.3855493664741516, -2.7940242290496826, -0.9698475003242493, 1.6974338293075562, 0.515812873840332, -2.9582223892211914, 1.6365493535995483, -0.8180992603302002, 0.9097514748573303, -0.011812016367912292, 0.6851344704627991, 1.3962385654449463, -0.01269077230244875, -1.4047735929489136, 2.0087127685546875, -1.1112020015716553, 1.9586008787155151, 0.21947747468948364, -1.8450924158096313, -1.4669486284255981, 0.2412470132112503, -2.047895908355713, 1.0253826379776], [-1.3514386415481567, -0.7800818085670471, -1.8525490760803223, -2.868521213531494, 0.38927286863327026, -0.08536888659000397, -0.12899640202522278, -1.8523225784301758, 0.12652701139450073, 2.1012792587280273, 1.209597110748291, -0.7942169308662415, 0.9499287009239197, 1.3638584613800049, -0.45492973923683167, -0.45179134607315063, -0.17291179299354553, 1.369362473487854, 0.6036234498023987, -1.5166864395141602, 1.0068010091781616, -0.396917462348938, 0.45421624183654785, -0.42480093240737915, -0.4526801109313965, -1.7140213251113892, -0.6417449116706848, -1.0915672779083252, 1.5650060176849365, 0.2621036469936371, -0.5291357636451721, -0.9420756101608276, 2.103555202484131, -1.1942483186721802, 1.1123076677322388, 1.0868476629257202, -1.109420895576477, 0.8807636499404907, 4.091593265533447, -1.767685055732727, 0.5469916462898254, 0.20773658156394958, 2.4145350456237793, -1.099169373512268, -0.585927426815033, -0.6352917551994324, -0.7552857995033264, 0.6071715354919434, 1.6822960376739502, -1.818863034248352, 1.0603102445602417, 1.348560094833374, -1.3300215005874634, 1.0310171842575073, -0.9780308604240417, -2.6484618186950684, -0.2739490270614624, -0.8244672417640686, -0.7122791409492493, -0.6521801948547363, -0.40527886152267456, -1.827540397644043, 0.7360170483589172, -0.8048998117446899], [2.3294599056243896, 0.1912791132926941, 0.246365487575531, 0.19018329679965973, -0.7811209559440613, -0.00508672371506691, -0.055765144526958466, 0.358318954706192, -0.3930929899215698, -0.025007862597703934, 0.1906612366437912, -0.3314168453216553, 0.07276541739702225, -0.0002925463777501136, -0.2841404378414154, 0.44511130452156067, -0.9531197547912598, 0.15144707262516022, 0.09532322734594345, 0.11904865503311157, 0.2620047330856323, -0.1517258882522583, -0.23512445390224457, -0.052042409777641296, -0.2855939269065857, 0.03687088564038277, 0.5842263698577881, 1.035532832145691, -0.3688581585884094, 0.23016571998596191, -0.011333409696817398, 0.12318052351474762, -0.1777368038892746, -0.3362012207508087, -0.6261907815933228, 0.1503259688615799, -0.2343740612268448, -0.4916571080684662, -0.3221740424633026, 0.06924152374267578, -0.13239924609661102, -0.40966862440109253, -0.9642848372459412, -0.6999949216842651, 0.2732374370098114, -0.3572959303855896, -0.27411627769470215, 0.7006255984306335, 0.4129475951194763, 1.2691845893859863, -0.14711718261241913, -0.18977181613445282, 4.155771732330322, 0.1761748343706131, -0.30804166197776794, -0.024482864886522293, -0.49955594539642334, 0.8854243755340576, 0.024135446175932884, 0.560075044631958, 0.0031506363302469254, -0.15844185650348663, -0.34258171916007996, 0.14960238337516785], [-0.05855054408311844, -0.2525833249092102, 1.4903476238250732, 0.30848684906959534, -0.29778140783309937, 0.05579373240470886, -0.009834522381424904, -0.23003683984279633, 0.193080335855484, -1.2432070970535278, -0.0765770748257637, -0.4719708561897278, 0.7545350193977356, -1.0752828121185303, 0.11434713751077652, -0.425675630569458, -0.18874552845954895, 0.16484659910202026, -0.3902224898338318, 0.23498132824897766, -0.6254364848136902, -0.027148164808750153, -0.00627717562019825, 0.4381711184978485, 0.2215401530265808, -0.19570644199848175, 0.07914702594280243, -0.4625835120677948, -0.6268576383590698, 0.2868242859840393, 0.5721519589424133, 0.1192498579621315, -1.4918968677520752, 0.12459665536880493, -0.20337404310703278, -0.10076836496591568, -0.4035850465297699, 0.14397405087947845, -0.5714713335037231, 1.2554998397827148, -0.05843227356672287, 0.15954796969890594, 0.5574988722801208, 0.07306618243455887, 0.4157581329345703, 0.23270872235298157, -0.26356950402259827, 0.39163845777511597, -0.961917519569397, -0.1220412477850914, -0.9974954724311829, -0.24268470704555511, -0.06680328398942947, -0.09811268746852875, 0.8220843076705933, -0.3821321427822113, -0.12645937502384186, -0.5219366550445557, 3.6865289211273193, 0.17416296899318695, 0.23946340382099152, 2.3647825717926025, 0.2626194357872009, 0.23506605625152588], [1.3924416303634644, -0.11199837177991867, 0.24418030679225922, 0.49346792697906494, -0.8332083225250244, -0.15528835356235504, -0.21318671107292175, 0.5931747555732727, -0.05584637448191643, 0.15090928971767426, 0.3095477819442749, 0.17030896246433258, -0.19115690886974335, 0.0029981513507664204, -0.1761532872915268, 0.015019870363175869, -0.785447359085083, -0.289215624332428, -0.17443755269050598, 0.2997036576271057, -0.11131346225738525, -0.684006929397583, 0.0075320047326385975, -0.1557936668395996, -0.11528030037879944, -0.11485665291547775, 1.0587886571884155, 0.639819860458374, -0.3539438843727112, 0.2848993241786957, -0.04850371554493904, 0.4292823076248169, 0.04757896438241005, -0.1261042207479477, -0.4779417812824249, 0.27231207489967346, -0.5324827432632446, -0.6182867884635925, 0.0463758185505867, -0.0006794504588469863, -0.04185106232762337, 0.2881847620010376, -0.20427542924880981, -0.5339809060096741, -0.026121661067008972, -1.1005945205688477, -0.3784821331501007, 0.312652051448822, 0.10593628138303757, 0.8657417893409729, 0.1046019122004509, 0.01594105362892151, 4.471238613128662, -0.4135318696498871, 0.09002245217561722, 0.0656563937664032, 0.26668432354927063, 0.533353328704834, -0.03863576799631119, 0.1952492594718933, 0.01070778351277113, 0.29518404603004456, -0.3611248731613159, -0.35186800360679626], [0.42415091395378113, -0.5524803400039673, -1.7368876934051514, -2.1115293502807617, -0.24172312021255493, 1.073254108428955, -0.6258116960525513, 2.435527801513672, 1.2381540536880493, -0.4041695296764374, -0.8192861080169678, 0.6477348208427429, 1.1440894603729248, 0.8516629934310913, 0.937593400478363, 0.7689071297645569, 0.3748895227909088, 1.804893970489502, -0.030034903436899185, 0.9156888127326965, 1.8225816488265991, -0.061529479920864105, -0.8255824446678162, 1.3306145668029785, -3.6262805461883545, -1.690338373184204, -0.11895132064819336, -0.16902980208396912, -0.8527265787124634, 0.2564679682254791, 0.6927551031112671, 0.29271501302719116, 1.2174832820892334, 0.511437177658081, -0.17655932903289795, -2.0652737617492676, -1.8368299007415771, -0.02013426087796688, 2.6952245235443115, 0.5894162654876709, -0.6297515034675598, 0.08222944289445877, 0.3380601108074188, 0.3323046565055847, 1.1766889095306396, 0.39670678973197937, 3.268733501434326, 0.48783573508262634, 2.640976667404175, -0.07766284793615341, -0.8465698957443237, 0.48761773109436035, 0.10502021759748459, 1.974937915802002, -0.6461723446846008, 2.423008441925049, -3.495138645172119, 0.20285432040691376, -2.1947057247161865, -1.6054991483688354, -2.3408303260803223, -1.5875035524368286, 0.5810791850090027, 2.336615562438965], [-0.16672557592391968, -3.3038830757141113, 0.6930892467498779, 0.7640244364738464, 0.4388476014137268, -1.0532886981964111, -0.3237115442752838, -3.7485108375549316, 1.0272125005722046, -2.227123975753784, -0.5547043681144714, -0.6712007522583008, 0.2100423127412796, -2.634936809539795, 1.4374468326568604, 0.1713273972272873, 1.1487137079238892, -0.771917462348938, -2.29215407371521, 0.4545271098613739, -2.2277028560638428, 0.9848405718803406, -0.4645027220249176, 1.4565733671188354, 0.4823746681213379, 2.1725056171417236, -0.7347607016563416, -0.6081892848014832, 0.4366280138492584, -0.106976717710495, -0.035337843000888824, 0.03726520761847496, -1.3502159118652344, -0.1045648530125618, 1.0821164846420288, -0.31183305382728577, -0.30892735719680786, 0.29901203513145447, 0.00442335894331336, 1.3281244039535522, 0.12114183604717255, -0.11841427534818649, 0.5327247977256775, -0.08661161363124847, 0.6276245713233948, 0.041014641523361206, 1.3873088359832764, -0.1067858561873436, -1.1219511032104492, -0.7434197664260864, -2.038952112197876, -1.3211778402328491, -0.20867951214313507, -1.0867749452590942, 2.001427173614502, -0.03652224317193031, 1.6246198415756226, -0.4609696567058563, 0.8318616151809692, 0.08243664354085922, 2.443479061126709, 2.573418378829956, -0.10183540731668472, -0.004849175922572613], [-0.8031139969825745, -3.478516101837158, -0.5184000730514526, -0.28113725781440735, 1.3343820571899414, -0.6307687163352966, 0.48668143153190613, -2.5455105304718018, -0.3483761250972748, 1.7833770513534546, -2.2188966274261475, -1.6842527389526367, 0.7078111171722412, 0.44304144382476807, 2.03393816947937, 0.2430022656917572, 0.9610925912857056, 0.2998628616333008, -2.6442410945892334, -1.041284203529358, 0.8044643998146057, 0.6046496629714966, 1.02437162399292, -1.0812402963638306, 0.12287533283233643, 2.803527355194092, 0.07871420681476593, -2.0365896224975586, 2.835980176925659, -0.19768072664737701, -1.6467605829238892, 1.8623906373977661, 0.7120583057403564, 0.5100796222686768, 2.045626163482666, -0.17946606874465942, -0.8417140245437622, 2.1427700519561768, 1.4169903993606567, -0.012971295975148678, 0.7418437600135803, 0.4184313714504242, 3.202798843383789, -0.17180706560611725, 0.04797619953751564, -0.544575035572052, 1.0974458456039429, -0.27413246035575867, -1.1063637733459473, -1.4912148714065552, -0.6253736615180969, -0.5570385456085205, -1.1202194690704346, -1.0574357509613037, 1.9336658716201782, -1.4990315437316895, 2.251537799835205, -2.2708027362823486, -0.15696297585964203, 0.08575259894132614, 0.3195539712905884, -1.0470225811004639, 2.2493224143981934, -0.0694335475564003], [0.11249521374702454, -1.5348175764083862, -1.7595359086990356, -0.5551677346229553, 0.7722664475440979, 0.8763554692268372, 0.7634012699127197, -0.8861109018325806, -0.9414897561073303, -0.04485365375876427, 0.25804007053375244, -0.7192648649215698, -0.01165990810841322, 0.7398508787155151, -0.26393750309944153, -1.743981957435608, 0.24601449072360992, 0.7418848872184753, 1.2552324533462524, -1.4526532888412476, 0.8375732898712158, -1.43547785282135, -0.1585242748260498, -0.8935292959213257, -1.8789082765579224, 0.03831169009208679, -0.9865449070930481, 1.700498104095459, -0.5252609848976135, 0.9969540238380432, -1.2833832502365112, 0.5623792409896851, 1.4385851621627808, 0.13655926287174225, -0.8111894130706787, -1.3102973699569702, -2.5194451808929443, 0.9938223958015442, 1.7026883363723755, -0.4960479736328125, 0.32412189245224, -0.054336003959178925, 2.2760252952575684, -0.5815267562866211, -0.5672203302383423, 0.2966811954975128, 0.9067054986953735, 0.002767606871202588, 2.8277206420898438, -1.1113334894180298, 1.0365504026412964, 1.0170716047286987, 0.5544219613075256, -0.3861943781375885, -1.338289737701416, 0.009765838272869587, -0.743054211139679, 0.3472948968410492, -0.7028915286064148, -0.9747637510299683, -1.1308847665786743, -1.136763334274292, 1.7166458368301392, -1.8950024843215942], [-0.2697821855545044, -0.20178212225437164, 1.1583201885223389, 0.2484491616487503, -0.1344546526670456, 0.19949208199977875, -0.2422710657119751, -0.22444848716259003, 0.17259952425956726, -0.9926072955131531, -0.10486328601837158, 0.13727951049804688, 0.6937989592552185, -0.98527592420578, 0.08291393518447876, -0.28999602794647217, 0.10139495134353638, 0.5314823985099792, -0.39884403347969055, -0.2939710021018982, -0.8635245561599731, -0.2922512888908386, -0.09935996681451797, 0.3106377124786377, 0.41590946912765503, -0.22429364919662476, -0.09764638543128967, 0.2041453719139099, -0.8585693836212158, 0.4498653709888458, 0.14546078443527222, -0.20698460936546326, -1.3073374032974243, 0.2346765249967575, -0.13299833238124847, -0.11899169534444809, -0.3710463345050812, -0.11369781196117401, -0.20586614310741425, 1.4445915222167969, 0.34693771600723267, -0.21934837102890015, 0.5585853457450867, 0.1978044956922531, 0.29913803935050964, -0.0702340230345726, 0.19233117997646332, -0.13006536662578583, -1.3501508235931396, 0.16481947898864746, -0.9872334599494934, -0.4204193651676178, -0.4977755546569824, 0.2910183072090149, 0.64461350440979, -0.39117494225502014, -0.20769008994102478, 0.026076413691043854, 4.1592278480529785, 0.21828415989875793, 0.46722036600112915, 2.0462558269500732, -0.02442428469657898, 0.008211582899093628], [-0.251101553440094, -2.479935646057129, 0.22312195599079132, 0.9089399576187134, 0.11773167550563812, -1.4966120719909668, 1.7636994123458862, -4.019855976104736, -0.8036078810691833, 0.38021916151046753, -2.7230403423309326, -1.976237416267395, 1.0719283819198608, -0.03726228326559067, 1.3436133861541748, 1.7015577554702759, 0.05317353457212448, 0.7524813413619995, -1.3733714818954468, -1.2711796760559082, -0.554210901260376, -0.12604700028896332, 0.2937786877155304, -0.5330632925033569, 0.8777516484260559, 0.9355092644691467, 0.6083379983901978, -1.0529406070709229, 0.8934285044670105, 0.0885440856218338, -1.3445185422897339, 2.4704761505126953, -0.6645858883857727, 2.3995790481567383, 1.876891016960144, -0.8015464544296265, -1.1740071773529053, 0.8692893385887146, 0.2109287679195404, -0.5474153161048889, -0.042362652719020844, 0.5255768895149231, 1.9063299894332886, -0.9145747423171997, -1.1199060678482056, -0.5040597319602966, 1.5258872509002686, -0.553208589553833, -0.7471268773078918, -1.1371647119522095, -0.896186888217926, 1.3512754440307617, -0.10208640992641449, -0.8654985427856445, 1.548011064529419, -0.39985769987106323, 1.9962352514266968, -1.0660847425460815, -0.22998309135437012, 0.07866367697715759, 0.7879130244255066, -0.5421048402786255, 1.1308708190917969, 0.6523311138153076], [0.07477574050426483, 0.7176103591918945, -2.3077712059020996, -2.3423328399658203, 0.24930208921432495, 2.0869076251983643, 0.940105140209198, 1.20547616481781, 0.13704359531402588, 0.35676151514053345, -0.4176478385925293, 0.7116358280181885, 2.161597728729248, 0.9858185052871704, -0.19697639346122742, 0.11948104947805405, -0.4962924122810364, 1.4060900211334229, 0.9478086829185486, 0.4640054702758789, 1.2763090133666992, -1.241128921508789, -1.3673323392868042, 0.5001643896102905, -2.6277456283569336, -1.6322206258773804, 0.4458642601966858, -0.5051736831665039, 1.1616345643997192, 1.1984208822250366, 0.9167072176933289, -0.08759200572967529, 1.9325233697891235, -0.8828436732292175, 0.6267696619033813, -0.3870288133621216, -0.6751865744590759, -0.023978659883141518, 2.658275604248047, 0.9192396402359009, -1.1696182489395142, 0.5361283421516418, 0.7053052186965942, 0.9124763607978821, 1.7459617853164673, 0.8076372742652893, 2.594723701477051, 0.26324278116226196, 1.8687962293624878, -0.30175134539604187, -0.24255800247192383, 1.0844438076019287, 0.03780575469136238, 1.0167312622070312, -0.5209958553314209, 1.4364038705825806, -2.6432080268859863, 0.2144303023815155, -0.9618263840675354, -0.35354796051979065, -2.391348123550415, -1.4051271677017212, -0.19532087445259094, 2.085954427719116], [0.0076197972521185875, -0.05951996520161629, -0.8697820901870728, 0.07376201450824738, 0.3960408568382263, 0.25021642446517944, -0.2658692002296448, 0.015025258995592594, 0.25407931208610535, 0.7812328338623047, 0.22565200924873352, 0.125239759683609, -0.5369387865066528, 0.263513445854187, 0.22775258123874664, -0.22244104743003845, -0.0927780419588089, 0.23616495728492737, -0.03321593254804611, -0.14340533316135406, 0.5696833729743958, 0.47738489508628845, -0.1067630797624588, -0.6267363429069519, 0.1349477469921112, -0.042464062571525574, 0.2768824100494385, -0.09007462114095688, 0.7779355049133301, -0.0019304333254694939, -0.47090062499046326, -0.17744654417037964, 2.100036144256592, -0.06169566139578819, 0.3367666006088257, -0.14842066168785095, -0.30380502343177795, 0.1878805160522461, 0.09435583651065826, -0.48935744166374207, 0.3549303412437439, 0.037895530462265015, -0.08282725512981415, -0.1072692796587944, -0.0657251849770546, -0.3524262309074402, 0.15753543376922607, 0.15569862723350525, 0.8336653113365173, 0.36935240030288696, 0.13395115733146667, -0.18793748319149017, 0.11345352232456207, 0.11351051181554794, -0.5379030704498291, 0.32087498903274536, -0.10222398489713669, -0.24223771691322327, -3.9793295860290527, -0.0875646248459816, -0.5055868029594421, -2.0663414001464844, -0.2968633472919464, -0.20922882854938507]], "fc1.bias": [-0.10325588285923004, -0.3143460154533386, 4.698609352111816, -0.8227450847625732, 0.04490004852414131, -3.117004871368408, -1.1611181497573853, -0.16882315278053284, 2.639132022857666, -1.0748634338378906, 0.8346917629241943, 0.027218135073781013, 0.9366344213485718, 3.5670058727264404, -0.6280766129493713, -4.174150466918945, -0.26289913058280945, 0.10652627795934677, 3.473086357116699, -0.7095167636871338, -1.294433832168579, -0.5751705169677734, 0.45996084809303284, -0.4138730764389038, -3.9895734786987305, -1.8108882904052734, 0.40530577301979065, 0.7314602732658386, 0.2987736463546753, 2.191075563430786, -3.599273920059204, -0.03469482436776161], "fc2.weight": [[0.32403290271759033, -0.11697079241275787, 0.08527578413486481, 0.2510690689086914, -0.2355515956878662, -0.06238144263625145, -0.09775466471910477, 0.003956147003918886, -0.02993326261639595, -0.47364968061447144, -0.08831020444631577, 0.09111635386943817, -0.029292549937963486, 0.10467711091041565, -0.1052570715546608, 0.04011274501681328, 0.1855235993862152, 0.264599084854126, 0.02110290713608265, 0.15779754519462585, -0.030464882031083107, -0.4309525787830353, -0.28459370136260986, -0.3712330162525177, -0.4340643584728241, 0.13910046219825745, -0.38159364461898804, -0.28798744082450867, -0.13425882160663605, 0.03590316325426102, -0.36560237407684326, 0.2915027439594269], [0.3902021646499634, 0.10724499076604843, 0.1202467605471611, 0.2832142114639282, 0.2809469401836395, -0.00326859881170094, 0.02478910982608795, 0.062360476702451706, 0.44940701127052307, 0.35302603244781494, -0.02963884174823761, -0.03600204735994339, -0.05994461104273796, -0.15605008602142334, 0.08609506487846375, -0.04493289440870285, -0.2783709466457367, -0.24269743263721466, 0.23441050946712494, 0.05279967188835144, -0.15575848519802094, 0.36840540170669556, -0.39882323145866394, 0.34663689136505127, -0.37181776762008667, 0.07810908555984497, 0.4109973609447479, -0.18342196941375732, -0.16377054154872894, 0.023032814264297485, -0.6034019589424133, 0.382278710603714]], "fc2.bias": [0.2908727824687958, 0.2243059128522873]}