{"fc0.weight": [[0.03366337716579437, -0.6654650568962097, -0.10496224462985992, -1.8983910083770752, -0.004637233912944794, -0.4681087136268616, 0.8665406703948975, 0.44020339846611023], [-0.003280207049101591, -0.9291012287139893, 0.5006682872772217, -0.44257214665412903, -0.4494784474372864, -0.3565431833267212, 0.1472320556640625, 0.1554538607597351], [0.0024597335141152143, 0.9226750731468201, 0.11749021708965302, -1.061639666557312, -0.3502812087535858, -0.22492241859436035, -0.03431573510169983, 0.3456653654575348], [0.01763313263654709, -0.5310074687004089, 1.6898362636566162, 0.17827646434307098, -0.0432979017496109, -0.17137381434440613, 1.1067957878112793, 0.5431962013244629], [-0.20456072688102722, 0.296236515045166, -0.17924541234970093, 1.4106773138046265, -0.25762245059013367, 0.1740255504846573, -0.17614632844924927, -0.6087963581085205], [-0.2256985902786255, 0.3858362138271332, -0.3122802674770355, 0.31266507506370544, -0.20379230380058289, -0.2040330171585083, -0.6141002178192139, 0.42978405952453613], [0.07010122388601303, -0.22659388184547424, 1.7856885194778442, 0.5944754481315613, -0.47370418906211853, -0.06615124642848969, 2.0077860355377197, -0.13195598125457764], [-0.028035158291459084, -0.4234256446361542, -0.15806682407855988, 0.7964910864830017, -0.35987159609794617, -0.33608072996139526, 0.11946985125541687, -0.15117835998535156], [0.644334614276886, 0.013753565959632397, 1.7821999788284302, 0.6498051285743713, 0.30243515968322754, 0.22149457037448883, 1.5449601411819458, 0.06216218322515488], [-0.03791053220629692, -0.8501894474029541, -0.06926216930150986, 0.9106712937355042, -0.3000357747077942, -0.29662731289863586, 0.26035207509994507, 0.027727821841835976], [-0.6164284944534302, -0.022742165252566338, 1.6260486841201782, -0.46069204807281494, -0.20447568595409393, 0.19197455048561096, 2.2036352157592773, -0.5557823777198792], [0.1403077393770218, -0.47227606177330017, 0.5312602519989014, -1.9607622623443604, -0.3623603284358978, 0.27052438259124756, -0.04478731378912926, 0.07682409882545471], [0.003861795412376523, 0.5055381655693054, 0.09226873517036438, -1.549788475036621, 0.21505095064640045, 0.20876815915107727, 0.4911959171295166, 0.7655198574066162], [-0.39721012115478516, -0.04150328412652016, -1.3838486671447754, 0.5844365954399109, 0.05281199887394905, -0.006674870848655701, -1.8408762216567993, 0.5073062181472778], [0.09034604579210281, 0.34173381328582764, 0.5478969812393188, -1.4411448240280151, -0.23267275094985962, 0.2669494152069092, 0.7846783995628357, 0.1128808856010437], [0.02702326700091362, 0.4753521978855133, -0.019400451332330704, 1.2544630765914917, -0.006577597465366125, 0.43313491344451904, -0.26308372616767883, 0.3024079203605652], [-0.08054094761610031, 0.017081527039408684, -2.6576430797576904, -0.07409308850765228, -0.12837661802768707, -0.008929078467190266, -2.7813706398010254, 0.5096340775489807], [-0.8665977120399475, 0.04114525020122528, -1.3764417171478271, 0.6384375095367432, -0.03165222331881523, -0.07386692613363266, -1.4557620286941528, -0.5475575923919678], [1.0270792245864868, 0.17596963047981262, 0.828987181186676, 0.3519393801689148, -0.31745609641075134, -0.28896066546440125, 1.0396298170089722, -0.22418300807476044], [-0.1678447276353836, -0.5481976866722107, 0.8554651737213135, -0.8342052698135376, 0.24653099477291107, -0.08504723012447357, 0.04386395588517189, 0.6402547359466553], [-0.05864713713526726, 0.4350282847881317, -0.29483529925346375, -0.26414158940315247, 0.2437143623828888, -0.3432813286781311, 0.1740085780620575, 0.06533055752515793], [0.23332685232162476, 0.029020017012953758, 1.6573692560195923, 0.9156380295753479, 0.4420582056045532, 0.3489237427711487, 1.047710657119751, 0.05471116676926613], [-0.06093369796872139, -0.43669697642326355, -0.20997026562690735, -0.5827702879905701, -0.195557102560997, -0.2901654541492462, -0.4365876615047455, 0.26661139726638794], [-1.2547097206115723, 0.05681540071964264, 0.4025203585624695, -0.14974582195281982, -0.4138018488883972, 0.42838039994239807, 1.3084192276000977, 1.128122329711914], [0.04109944403171539, -0.31941157579421997, 0.0878063291311264, 1.8034491539001465, 0.4411350190639496, -0.1811523735523224, -0.5177381634712219, -0.44860196113586426], [-1.4872462749481201, -0.10605744272470474, 0.6602648496627808, 0.048740454018116, 0.2444608360528946, 0.3996960520744324, 0.376052588224411, 0.12359163910150528], [0.3411933183670044, -0.04866672679781914, 1.860550045967102, -0.673281729221344, -0.32699301838874817, 0.4327583909034729, 1.8997573852539062, -0.6760879755020142], [-0.02801697887480259, 0.8560747504234314, 1.0770583152770996, -0.39223530888557434, 0.47286635637283325, -0.21740810573101044, 0.5439828634262085, 0.4437658488750458], [-1.3703871965408325, -0.008917957544326782, -0.07863935083150864, 0.3804929256439209, -0.36690136790275574, 0.31191524863243103, 0.324150025844574, -0.20063211023807526], [0.6920663714408875, 0.022709602490067482, 1.2772011756896973, 0.23641586303710938, -0.12395773828029633, -0.30802270770072937, 1.4443304538726807, 0.703279972076416], [0.5611517429351807, 0.005267992615699768, -2.085489511489868, -0.3036159873008728, -0.43679603934288025, -0.1492684930562973, -1.9944815635681152, 0.6209402084350586], [-0.0037068775855004787, -0.09460306912660599, 0.5656737089157104, 2.4310245513916016, -0.4595491886138916, -0.09056790173053741, 0.09998568147420883, -0.06413393467664719], [1.1767711639404297, -0.051317889243364334, -1.1453531980514526, 0.10118422657251358, -0.33321696519851685, -0.1338367760181427, -1.079220175743103, -0.2583436369895935], [-0.00497980322688818, -0.4084208905696869, 0.0033589398954063654, 1.0242806673049927, -0.4577736556529999, 0.03718499466776848, -0.31050747632980347, -0.21924294531345367], [-0.670328676700592, -0.02735850401222706, -1.573957920074463, 0.3004709780216217, -0.20663978159427643, 0.16773144900798798, -1.6964994668960571, -0.3241840600967407], [1.0860592126846313, -0.04100050777196884, 0.24411062896251678, 0.8680192828178406, 0.2619015574455261, -0.38473525643348694, 0.28103530406951904, 0.27442264556884766], [0.03404255956411362, 0.3404306471347809, 0.33556532859802246, -1.0750700235366821, -0.21848511695861816, -0.059579554945230484, 0.7130641341209412, 0.14137746393680573], [0.16717319190502167, -0.13243533670902252, -0.3172335922718048, 1.7091985940933228, -0.45864859223365784, -0.4412185847759247, -0.22915968298912048, 0.2953557074069977], [1.4781941175460815, 0.11270837485790253, -0.30389639735221863, -0.14737951755523682, 0.2647537589073181, 0.4314146339893341, -1.3965283632278442, -0.19943495094776154], [-0.7902323603630066, 0.03919299319386482, -0.317829966545105, -0.3879612684249878, 0.012215669266879559, 0.04273341968655586, -0.2537974715232849, 0.3158845603466034], [-0.3464059829711914, 0.03333955258131027, -2.2734336853027344, 1.066733479499817, -0.21213991940021515, -0.46052616834640503, -2.366830348968506, -0.040660157799720764], [0.018162598833441734, -0.5080463886260986, 0.14239825308322906, 0.949420154094696, 0.3120850622653961, 0.18717804551124573, 0.5448688268661499, 0.2984439432621002], [0.07853568345308304, 0.277647465467453, 0.36525020003318787, 1.5923937559127808, -0.2382379174232483, 0.08711188286542892, 1.0568139553070068, 0.17087793350219727], [2.1288371086120605, 0.008668956346809864, -0.4023604094982147, -0.0017494517378509045, -0.4218002259731293, 0.09403183311223984, -0.6948893666267395, -1.0094735622406006], [0.10164423286914825, 0.5760539174079895, 0.3521798849105835, 0.8345772624015808, -0.14879848062992096, 0.060538582503795624, 0.2440161406993866, -0.041474830359220505], [0.36527910828590393, -0.08342888951301575, -1.194961428642273, -0.44232290983200073, 0.33707761764526367, -0.20074573159217834, -2.153144121170044, -0.4021410644054413], [-0.26676517724990845, -0.06825864315032959, 1.9339460134506226, 0.23648223280906677, -0.21793577075004578, -0.2702242434024811, 3.0334887504577637, -0.5490829348564148], [0.09814559668302536, -0.4885706305503845, 0.6063938736915588, 0.15933385491371155, 0.1056925356388092, 0.4381909668445587, 0.15106022357940674, 0.1620997041463852], [0.9496499300003052, -0.13102976977825165, -0.5890511870384216, 0.09584971517324448, -0.42720457911491394, -0.3955684006214142, -0.06169838830828667, -0.5213910341262817], [-0.3604119122028351, -0.03411933034658432, -1.1175729036331177, 0.47744807600975037, -0.10507196187973022, -0.3730370104312897, -1.2771215438842773, -0.7902746200561523], [1.4703136682510376, 0.017443545162677765, -1.002871036529541, 0.42378342151641846, -0.21693584322929382, -0.25617516040802, -0.8584067225456238, -0.7443211674690247], [0.10770944505929947, 0.050767071545124054, -2.7712182998657227, -0.3633827269077301, -0.4407848119735718, 0.10642724484205246, -2.846954822540283, -0.02788466587662697], [-0.05246023088693619, -0.4405900835990906, 0.4283166229724884, 1.1907490491867065, 0.190011128783226, -0.15560732781887054, 0.09923393279314041, 0.0199032723903656], [0.0871744155883789, -0.7311109304428101, 0.5013142824172974, -0.843607485294342, 0.16444618999958038, 0.0417289100587368, -0.014036986976861954, 0.2707587480545044], [0.5829794406890869, 0.12709158658981323, 1.4122576713562012, 1.025972843170166, -0.17467376589775085, 0.07954463362693787, 1.1501264572143555, -0.46365150809288025], [-0.5988725423812866, 0.03089228644967079, -1.975425124168396, -0.04699432849884033, 0.07400905340909958, -0.20442739129066467, -2.2582199573516846, 0.2971961200237274], [0.1752444952726364, 0.902947187423706, -0.4398323595523834, 0.723314642906189, 0.40449100732803345, -0.46092528104782104, -0.30719026923179626, 0.11958800256252289], [0.7942465543746948, -0.026292014867067337, 1.9500035047531128, 0.1758657693862915, 0.23170362412929535, -0.04100119695067406, 2.0457706451416016, -0.0797034204006195], [1.2324446439743042, 0.026280585676431656, -0.9486172199249268, -0.4409079849720001, -0.47438710927963257, 0.010395349003374577, -0.37894999980926514, -0.10837816447019577], [-0.27827638387680054, 0.1200341284275055, -1.0635093450546265, -0.7660012245178223, 0.1505742222070694, 0.17915529012680054, -1.7405816316604614, 0.21112748980522156], [0.671615719795227, 0.10088729113340378, 0.9023877382278442, 0.2024376094341278, -0.26981908082962036, -0.10513178259134293, 0.6535842418670654, 0.07975435256958008], [0.08876436203718185, -0.8188354969024658, -0.2063484489917755, -0.9606875777244568, 0.2886505424976349, 0.2706022560596466, -0.028258007019758224, -0.07020917534828186], [0.7614511847496033, 0.10175015032291412, 1.068493366241455, 0.1676960438489914, -0.12076607346534729, 0.33757665753364563, 1.4775586128234863, 0.23104488849639893], [-1.0641659498214722, 0.14306148886680603, -0.14371435344219208, 0.6643461585044861, 0.32916808128356934, 0.29329580068588257, -0.4974995255470276, -0.14290495216846466]], "fc0.bias": [-0.3165023624897003, 0.31212112307548523, 0.6523065567016602, 0.4224189519882202, -0.534463107585907, -0.00347362132743001, 0.5355492234230042, 0.6219924688339233, -0.13465435802936554, 0.28548499941825867, 0.10947105288505554, -0.12377499788999557, -0.5968953967094421, -0.655670702457428, -0.14345908164978027, -0.17634955048561096, 0.016666417941451073, -0.3493582606315613, -0.0054902876727283, 0.15161213278770447, -0.10347019881010056, -0.3258349597454071, -0.10066984593868256, -0.25850242376327515, 0.11985491216182709, -0.666236937046051, -0.03486078232526779, 0.17719826102256775, -0.0036619140300899744, -0.14034882187843323, -0.43629342317581177, 0.5173566341400146, 0.1686592698097229, -0.7591384649276733, -0.22620335221290588, -0.46388357877731323, 0.6540620923042297, -0.31323114037513733, 0.31335702538490295, -0.33004578948020935, -1.2344666719436646, -0.1752043217420578, 0.2795684039592743, -0.09591516852378845, 0.001185226021334529, -0.5894129276275635, 0.20132601261138916, -0.11978168785572052, 0.20621955394744873, 0.07991724461317062, 0.19628848135471344, -0.1428934633731842, -0.16459795832633972, 0.5217010974884033, 3.757586455321871e-05, 0.19444629549980164, -0.24163860082626343, -0.04360763356089592, -0.5440540313720703, -0.42769038677215576, 0.3288431167602539, 0.5965156555175781, 0.47197169065475464, 0.4582267701625824], "fc1.weight": [[-0.8965119123458862, -0.4311690926551819, 0.4975178837776184, 0.580387532711029, 0.9397139549255371, 0.3879423439502716, 0.5126564502716064, -0.5608147382736206, 0.3375583589076996, -0.6361760497093201, 0.9765029549598694, -0.5991427302360535, 0.12764491140842438, 0.5872436165809631, -0.056900497525930405, 0.2619790732860565, 0.33494678139686584, 0.15811163187026978, 0.13744758069515228, -0.2527678608894348, -0.18852141499519348, 1.696405291557312, -0.4493875503540039, -0.02421310916543007, -0.16724571585655212, 0.4339577555656433, 0.020458895713090897, 0.3547085225582123, -0.04924406483769417, -0.09020892530679703, -1.4655559062957764, -0.05942048504948616, -0.33973369002342224, 0.020479844883084297, -0.145657479763031, 0.21029511094093323, 0.4945562183856964, 0.4971008002758026, -0.0860048159956932, 0.06925758719444275, -0.025666890665888786, -0.24093008041381836, 1.0153982639312744, 0.4733685553073883, 0.6711621284484863, -0.8749821782112122, -0.2406075894832611, -0.3049870729446411, -0.19777514040470123, 0.4943206012248993, 0.1049652025103569, -0.6590806245803833, -0.15875157713890076, 0.12161479890346527, 0.5767471790313721, -0.13021180033683777, -0.030741913244128227, 0.43697208166122437, -0.18642579019069672, -1.9082657098770142, -0.4448387920856476, -0.6743451356887817, 0.2286120355129242, 0.10791018605232239], [0.5972915887832642, 0.17437826097011566, 1.038568377494812, -0.4662146270275116, -0.20953470468521118, -0.02029353938996792, -0.014782118611037731, -1.1097333431243896, 0.274478018283844, -0.7045589089393616, 0.07237023115158081, 0.4109691381454468, 2.629462718963623, -0.18859414756298065, 1.0364161729812622, -0.2620307207107544, -0.05906316265463829, -0.21816407144069672, -0.058597154915332794, -0.3705189526081085, 0.8986120223999023, -0.3904721438884735, -0.041935235261917114, 0.2191634178161621, -0.2954113185405731, -0.3954394459724426, 0.37547460198402405, 0.8777126669883728, 0.06285270303487778, -0.2009449303150177, 0.5537809133529663, -0.8327934741973877, -0.10095669329166412, -0.9746112823486328, -0.4345417618751526, -0.23720984160900116, 1.0320085287094116, -0.2028535008430481, 0.1040048748254776, 0.22638508677482605, -0.6153345108032227, -0.667949378490448, 0.7207127213478088, -0.41117358207702637, 0.28025954961776733, 0.4260167181491852, -0.09013570845127106, 0.12315434217453003, 0.46940645575523376, -0.02303295210003853, 0.09268155694007874, -0.16084104776382446, -0.6248739361763, 0.48875877261161804, 0.4491589665412903, -0.015238550491631031, 0.1224837377667427, 0.14501391351222992, 0.13856598734855652, -0.4949687719345093, -0.026193080469965935, -0.13917313516139984, 0.12298085540533066, -0.4277021586894989], [0.6472748517990112, 0.7527113556861877, -0.3549884259700775, 0.2589953541755676, -0.22495268285274506, -0.19285327196121216, -0.639514148235321, 0.18823681771755219, 0.48379382491111755, 0.12264921516180038, -0.9537758231163025, 0.5430004000663757, 0.016246212646365166, -0.7907076478004456, -0.1484193652868271, -0.4953683018684387, -0.12097650021314621, -0.37273138761520386, 0.21928200125694275, 0.1521681845188141, -0.14442136883735657, 0.5751705169677734, 0.18479284644126892, -0.2671031653881073, -0.5576772093772888, -0.41972658038139343, 0.33014702796936035, 0.22103725373744965, 0.05466295778751373, 0.3703714609146118, 0.4517875611782074, -0.8455403447151184, -0.6335857510566711, 0.3496103584766388, -0.5457350611686707, -0.23829768598079681, -0.42812541127204895, -0.11952533572912216, 0.4082353711128235, -0.9081389307975769, -0.8204293847084045, 0.3326995074748993, -1.438823938369751, -0.199667826294899, -0.30181318521499634, -0.3261936902999878, -0.8002981543540955, 0.3139403462409973, 0.06118236482143402, -0.2860952913761139, -0.7055056095123291, 0.2572723627090454, -0.5882241725921631, 0.5246636271476746, 0.21432211995124817, -0.6770675778388977, 0.10707738995552063, -0.01538332924246788, 0.2579061686992645, -0.2769118547439575, 0.4339652359485626, 0.3086645007133484, -0.017786312848329544, -0.4234331250190735], [0.4125522971153259, 0.5113688707351685, -0.23636743426322937, -0.46392130851745605, 0.20401117205619812, -0.5260298848152161, 0.502887487411499, 0.3389166295528412, -0.4056960344314575, -0.154954195022583, -0.3181261718273163, 0.04853319749236107, -0.15434937179088593, -0.8069404363632202, 0.07362450659275055, 0.20670583844184875, 0.8681334257125854, -0.3389788269996643, -0.12616698443889618, -0.4054112136363983, 0.40429067611694336, -0.06792321801185608, -0.3880791664123535, -1.0754687786102295, -0.42386946082115173, -0.7795656323432922, 0.5606146454811096, -0.13303616642951965, -0.32236626744270325, 0.33748307824134827, 0.7667226791381836, -0.39110299944877625, 0.9837627410888672, -0.22124779224395752, 0.2199014574289322, 0.17224401235580444, -0.9049327969551086, -0.3020084500312805, 0.5900983810424805, -0.7289697527885437, 0.7464874386787415, -0.13371415436267853, 0.10772881656885147, 0.9476611018180847, -0.06277032941579819, -0.11968623846769333, 0.3780214190483093, -0.08451423048973083, 0.555755078792572, -0.18265855312347412, 0.56352299451828, 0.10386860370635986, -0.10231102257966995, 0.23302392661571503, 0.2468111366033554, 0.04081607237458229, 0.22449031472206116, 0.4549376666545868, 0.6258044838905334, 0.36473944783210754, 0.11168241500854492, 0.2958102822303772, 0.0592726469039917, -1.0872459411621094], [-0.16190800070762634, -1.169702410697937, 0.16407115757465363, -1.0900434255599976, 0.8544227480888367, 0.8912838697433472, -0.1311747431755066, -0.15616929531097412, 0.27179577946662903, -0.9399378895759583, -0.6998296976089478, -0.4638637900352478, 0.7004581689834595, -0.23895953595638275, -0.4660649299621582, 1.104246735572815, 0.2526630759239197, 0.16519826650619507, 0.3490481972694397, -0.693770706653595, 0.6438040137290955, 0.2540931701660156, -0.5280690789222717, -0.9798659682273865, 0.05047997459769249, -0.220852330327034, 0.1406852751970291, -0.4262212812900543, -0.5184804201126099, 0.2605978846549988, 0.30168646574020386, 0.5673291683197021, 1.109197735786438, 0.10573039948940277, -0.09755020588636398, 0.06470181792974472, 0.6336551904678345, 0.7666322588920593, 0.1805502027273178, 0.015232804231345654, 0.0031294769141823053, -0.03304310515522957, 0.5311927199363708, 0.6437578201293945, 0.5282065272331238, 1.3301314115524292, 0.5929104089736938, -0.9466212391853333, 0.18637192249298096, 0.04751623794436455, 0.6318472027778625, 0.3707607686519623, -0.26334521174430847, -0.3630642294883728, -0.48244839906692505, -0.29747068881988525, 0.9154802560806274, -0.2561070919036865, 0.28279057145118713, 0.18138137459754944, -0.19392129778862, -0.6442961692810059, 0.2856478691101074, -0.0318220853805542], [-0.9547544121742249, -0.6308587193489075, -0.7153246402740479, -0.5598649382591248, 0.6369731426239014, 0.19245921075344086, -0.05556045472621918, 0.9444916248321533, 0.6109125018119812, -0.22790199518203735, -0.10281297564506531, -1.4715783596038818, -1.7626593112945557, 0.46246182918548584, -0.44942811131477356, 0.6177999377250671, -0.07421017438173294, 0.04265927895903587, 0.13309992849826813, -0.18583978712558746, -0.11904473602771759, 0.5492329001426697, -0.9594308733940125, -0.21824698150157928, 1.3801175355911255, 0.06325621902942657, -0.0475965179502964, 0.5227339863777161, 0.19384722411632538, 0.03488752618432045, -0.32442381978034973, 2.1204519271850586, 0.04178864136338234, 0.1990286111831665, -0.8062049746513367, 0.21930138766765594, -1.1968727111816406, 0.7233445644378662, -0.008566380478441715, -0.08112099766731262, 0.22885063290596008, 1.2967710494995117, 0.5675592422485352, 0.18017539381980896, 0.3073652684688568, -0.35294511914253235, -0.28169572353363037, -0.5007852911949158, -0.1340380609035492, 0.19464915990829468, -0.11901751160621643, -0.6545979976654053, 0.992237389087677, -0.7974921464920044, 0.7765035629272461, -0.2913794219493866, 0.8159077167510986, 0.2583887279033661, 0.04226462543010712, -0.031653620302677155, -0.2191614955663681, -0.48441749811172485, -0.0687476247549057, -0.10334211587905884], [-0.38625001907348633, -0.012002685107290745, 0.28504687547683716, 0.9987021088600159, 0.22852961719036102, 0.11544404923915863, 0.3968822956085205, 0.5123041868209839, -0.20268402993679047, 0.28036075830459595, 1.1376770734786987, 0.7076191306114197, 0.9461992979049683, -0.1687929481267929, 0.3330620527267456, 0.28503456711769104, -0.42217791080474854, 0.48451676964759827, 0.1703975945711136, -0.7359082102775574, -0.4187152087688446, 0.23256999254226685, -0.5423072576522827, 0.8590036630630493, 0.18781745433807373, 0.5886690616607666, 0.2150830775499344, -0.42385977506637573, 0.4935746490955353, -1.0086910724639893, -1.0398060083389282, 0.04531191289424896, -0.7095029950141907, 0.4529249668121338, -0.41998302936553955, 0.08283930271863937, 0.08831814676523209, -0.013512936420738697, -0.592697024345398, 0.14485949277877808, -0.4688241183757782, 0.04210478812456131, 0.2341241091489792, -0.8137244582176208, 0.17829930782318115, -1.2664361000061035, 0.9516381025314331, 0.027647478505969048, -0.46268463134765625, -0.11638391017913818, -1.1924701929092407, -0.7071061134338379, 0.393158882856369, 0.023212671279907227, 0.6617527604103088, -0.6141119599342346, -0.0015658920165151358, -0.3944176435470581, -1.3324189186096191, -0.3650139570236206, 0.005915194749832153, -0.2604052424430847, -0.6518519520759583, 0.21410304307937622], [-0.0373658612370491, 0.3010500371456146, 0.05376983433961868, 0.1414531022310257, 0.03767688199877739, 0.24871976673603058, -0.5257423520088196, -0.08245797455310822, 0.39400604367256165, 0.3361169099807739, -0.2453496903181076, -0.3672634959220886, -0.17774274945259094, 0.14905445277690887, -0.4160596430301666, -0.4571777582168579, 0.22167907655239105, -0.03115372732281685, -0.25473251938819885, 0.5672521591186523, 0.369412899017334, -0.016332395374774933, 0.07462110370397568, 0.7851263284683228, -0.2516377568244934, 1.0715253353118896, 0.17935656011104584, 0.39391613006591797, 1.0525405406951904, -0.352041631937027, -0.01624894328415394, 0.26157429814338684, -1.0338462591171265, 0.3880710303783417, 0.3486388921737671, -0.18943192064762115, -0.32678884267807007, -0.38892146944999695, -1.0203889608383179, 0.2538245618343353, 0.6032924652099609, -0.04073433205485344, -0.37631475925445557, -2.1798129081726074, 0.11222490668296814, -0.2987096309661865, -0.43979451060295105, -0.2962982952594757, -0.923974335193634, 0.16211451590061188, -0.3142054080963135, 0.28776586055755615, 0.1174013763666153, -0.16704308986663818, -0.11516738682985306, -0.10447230190038681, 0.08661074936389923, -0.33739328384399414, -0.43928012251853943, 0.10705837607383728, -0.6879924535751343, -0.5660746097564697, 0.03012472577393055, -0.13834208250045776], [-0.9663301110267639, -0.7953770160675049, 0.48341941833496094, -0.08631061762571335, -0.07484401017427444, -0.35692092776298523, -0.008403608575463295, 0.1833745688199997, -0.2089635282754898, 0.07025659084320068, 0.9530187845230103, -0.25175899267196655, -0.9484865069389343, 0.4356893002986908, -0.01395485457032919, 1.035324215888977, 0.011303544975817204, -0.003255158895626664, -0.3902495801448822, -0.9893102645874023, -1.412172794342041, -0.16250383853912354, -0.3781185448169708, 0.3213109076023102, 0.6366579532623291, 0.1496669203042984, -0.08725599944591522, -0.5088948011398315, 0.3077475130558014, -0.25711390376091003, -0.6745228171348572, 1.4058420658111572, -0.27126139402389526, 0.8104845285415649, 0.04857277870178223, -0.03463200479745865, -0.508316695690155, 0.3177301287651062, -0.09896942973136902, -0.16805922985076904, 0.2626994848251343, 0.5202329754829407, 0.46267807483673096, -0.35201209783554077, 0.32331159710884094, 0.1921108514070511, -0.04916088283061981, -0.6540757417678833, -0.05533280596137047, 0.6049779057502747, 0.039447180926799774, -0.0770752802491188, 1.4536685943603516, 0.04939867928624153, -0.23360686004161835, 0.40984275937080383, 0.85780930519104, 0.08078286796808243, -0.46071600914001465, -0.8727257251739502, -0.003667331300675869, 0.5560493469238281, -0.3439210057258606, -0.058762092143297195], [0.08639387041330338, 0.6816990971565247, -2.192288875579834, 0.30610916018486023, 0.2862083911895752, -0.35665711760520935, -0.12742984294891357, 0.12930800020694733, -0.4235903322696686, 1.007815957069397, 0.09673783928155899, 0.15058225393295288, -0.7670673131942749, -0.14117075502872467, 0.06262605637311935, -0.4175511598587036, -0.1818295568227768, -0.14270232617855072, -0.30575335025787354, 0.24609097838401794, -0.24676069617271423, -0.2787463068962097, 0.1214817687869072, 0.05274521932005882, 0.08254388719797134, 0.2589237689971924, -0.2099393755197525, -0.6276163458824158, 0.10380031168460846, -0.18391816318035126, 0.006752341985702515, 0.24981096386909485, 0.10303398966789246, 0.5837855339050293, 0.41347166895866394, 0.25660860538482666, -0.3230639696121216, 0.27005842328071594, -0.01939217373728752, -0.10369133204221725, -0.44190269708633423, 0.32427874207496643, 0.3287303149700165, 0.18700876832008362, -0.04726644232869148, -0.1012854129076004, -0.09426458179950714, 0.6743361949920654, 0.19155213236808777, -0.08016248047351837, -0.008242289535701275, 0.06688143312931061, 0.03818121924996376, 0.5573959946632385, 0.04219672083854675, 0.43751776218414307, 0.06157594919204712, -0.28234025835990906, 0.07741828262805939, -0.08611883223056793, -0.22573892772197723, 0.23782658576965332, -0.16008254885673523, -0.03549371659755707], [-0.3523704707622528, -0.04476750269532204, -0.6577041745185852, 0.9114473462104797, 0.4716258645057678, 0.1262577772140503, 0.6745530962944031, 1.789990782737732, 0.2984722852706909, 0.21479001641273499, -0.33939579129219055, -0.26920464634895325, -1.6575658321380615, -0.03418621048331261, -0.8353246450424194, 0.034918125718832016, 0.07628417015075684, 0.4432392418384552, -0.5750431418418884, -0.2535053789615631, -0.7625325322151184, 0.46903952956199646, 0.14193400740623474, 0.42359310388565063, 0.4081304967403412, 0.1676482856273651, -0.5294153094291687, -0.8499067425727844, 0.2164667844772339, -0.23996886610984802, 0.21824727952480316, 0.9102137088775635, 0.04848140850663185, 1.1744682788848877, 0.2268589437007904, 0.4353722631931305, -1.369084119796753, 0.6368876099586487, -0.37830567359924316, 0.20006808638572693, 0.24065078794956207, 0.7682378888130188, 0.6010367274284363, -0.3644580543041229, -0.7110795974731445, -0.04719385877251625, -0.4661867618560791, 0.45878610014915466, -0.1652272492647171, -0.18475288152694702, -0.25478288531303406, 0.782578706741333, 0.8727125525474548, 0.30857786536216736, -0.5941488146781921, 0.454198956489563, -0.3693534731864929, -0.5857362747192383, -0.3239690959453583, -1.2949978113174438, 0.16571854054927826, -0.1015872061252594, 0.09153368324041367, 0.35545092821121216], [0.03586384654045105, -0.3844675123691559, -0.025152506306767464, -0.24589109420776367, -0.46839389204978943, -0.39439019560813904, 1.39891517162323, -0.1538386195898056, -0.2620771825313568, -0.10263551771640778, 0.9541855454444885, 0.2718450725078583, 0.7818302512168884, -0.39308109879493713, 0.0514802448451519, 0.2692853510379791, -1.1442835330963135, 0.3954954147338867, -0.2551439702510834, -0.02309548854827881, 0.5251694917678833, -0.5195209980010986, 0.2526548206806183, 0.5073476433753967, 0.17581166326999664, 0.7400326728820801, -0.7989785671234131, 0.8841108679771423, 0.6661470532417297, -0.06716205179691315, -1.3554879426956177, 0.3058697581291199, -0.8568711280822754, -0.428665429353714, 0.49222615361213684, -0.11667162925004959, 0.21670131385326385, 0.17574141919612885, -0.7313328385353088, 0.61931312084198, -0.1789143681526184, 0.273592084646225, 0.4673525094985962, -1.1791515350341797, 0.29381927847862244, -1.3465970754623413, 0.9704537987709045, 0.21789072453975677, -0.5647002458572388, -0.16596592962741852, -0.8545570373535156, 0.42847496271133423, 0.4947713613510132, 0.03624424710869789, -0.0963699221611023, 0.37683579325675964, 0.34179484844207764, -0.4851672649383545, -0.7049389481544495, -0.6990079879760742, -0.21464914083480835, 0.5989795327186584, 0.018145039677619934, 0.406298965215683], [0.35281166434288025, -0.3409248888492584, -0.03041420504450798, -0.2648654282093048, -0.1054290235042572, 0.13529573380947113, -0.5226798057556152, 0.0686040148139, 0.012412268668413162, -0.10134707391262054, -0.30653896927833557, 0.10495026409626007, -0.05053117126226425, 0.34075069427490234, -0.05000375211238861, 0.2746123671531677, 0.2957414984703064, 0.18968035280704498, -0.5996403694152832, -0.043896954506635666, -0.18259316682815552, -0.06493042409420013, 0.4154249429702759, 1.1710466146469116, -0.2577817440032959, 0.5760422945022583, -0.5226715207099915, 0.05751988664269447, 0.6731110215187073, 0.4719610810279846, 0.24488572776317596, -0.33756622672080994, -0.7451900243759155, 0.08433994650840759, 0.14121465384960175, -0.4565274715423584, 0.42055079340934753, 0.3076685965061188, -0.9047974348068237, 0.09909368306398392, -0.10121278464794159, 0.2422185242176056, -0.2106635868549347, -1.7102899551391602, 0.3420413136482239, -0.17237570881843567, 0.04990537837147713, -0.4290957450866699, -0.5692538619041443, 0.012746552005410194, -0.8509389162063599, 0.13477841019630432, 0.024315055459737778, -0.42542752623558044, 0.010876087471842766, 0.3188217282295227, -0.2819516658782959, -0.7437624931335449, -0.5761100649833679, 0.15686999261379242, -0.31499922275543213, 0.3320719599723816, 0.2494516372680664, 0.34307798743247986], [-0.4209921956062317, -0.06927604228258133, 0.31579023599624634, -0.30623558163642883, -0.2551737129688263, -0.1476944088935852, -0.05657048895955086, -0.33719393610954285, -0.11740047484636307, 0.19649392366409302, -0.38150444626808167, -0.0746576339006424, 0.3384295105934143, -0.6372938752174377, -0.07026714086532593, 0.3042820394039154, 0.13502416014671326, -0.9522702097892761, 0.7359582781791687, -0.47808563709259033, -0.21483038365840912, 0.007285034749656916, 0.18004697561264038, -0.980720043182373, -0.011223875917494297, -0.8148355484008789, 0.28828415274620056, 0.10973431169986725, -0.4340633749961853, 0.04450766369700432, -0.3158104121685028, 0.15468768775463104, 0.46279874444007874, -0.16515125334262848, 0.15580438077449799, 0.20270390808582306, 0.08947286754846573, 0.18466868996620178, 1.0412380695343018, 0.28132185339927673, 0.1902036815881729, -0.158211350440979, 0.46265867352485657, 1.5827833414077759, -0.4389839172363281, 0.22383852303028107, -0.3253113031387329, 0.10308842360973358, 0.1929289549589157, -0.002839421620592475, 0.8878164291381836, -0.00835261307656765, -0.1824256330728531, 0.2642371356487274, 0.45895838737487793, 0.00047170949983410537, 0.002289453288540244, -0.02333492413163185, 0.6801000237464905, 0.03478169068694115, 0.34036684036254883, 0.21064816415309906, 0.5584925413131714, -0.588235080242157], [0.14154750108718872, 0.3946641683578491, -0.6288250088691711, 0.7173044681549072, -0.11799190938472748, -0.10942582041025162, 0.5887613296508789, 0.17003005743026733, 0.2252941131591797, 0.4076147973537445, 0.01519702561199665, 0.15976697206497192, -0.6364843249320984, -0.5036814212799072, -0.9481648802757263, 0.18094149231910706, -1.0361477136611938, -0.5886428356170654, 0.763948380947113, 0.0759182795882225, -0.5607988834381104, 0.640347957611084, -0.1357436180114746, -0.9282116293907166, -0.34863537549972534, -0.6220764517784119, 0.5036474466323853, -0.2751295566558838, -0.7229005694389343, 0.34797173738479614, -0.03235968202352524, -0.6541345715522766, 0.6378664970397949, 0.10166829824447632, 0.05892930552363396, 0.2133423537015915, -0.32812464237213135, 0.10772932320833206, 0.2956748902797699, -0.46672844886779785, -0.9814972877502441, 0.766986072063446, -0.28909236192703247, 0.7477681040763855, -0.2846212089061737, -0.5149134993553162, 0.042981069535017014, 0.6480827331542969, 0.4304632544517517, -0.3866092562675476, 0.5461066365242004, -0.4065755605697632, 0.5887395739555359, 0.46093544363975525, 0.3873499929904938, 0.09244389086961746, 0.003998966887593269, 1.6778396368026733, 0.05496884509921074, -0.12568449974060059, -0.3265437185764313, 0.7164671421051025, 0.003742475062608719, -0.4297436475753784], [0.34482014179229736, 0.3152903616428375, 0.47448083758354187, -0.7031145691871643, -0.19185489416122437, -0.0689127966761589, -0.5642160177230835, 1.6055290699005127, -0.22518931329250336, -0.8912513256072998, -0.6781421303749084, -0.06699635088443756, 0.7324692606925964, 0.7535558938980103, 0.4928775727748871, -0.550680935382843, 0.5659286379814148, 0.4694186747074127, 0.21754075586795807, 0.771929144859314, 0.1738949567079544, -0.6355411410331726, 0.7374581098556519, 0.26109495759010315, -1.5434446334838867, 0.27719128131866455, -0.6226240992546082, -1.0135340690612793, 0.18753032386302948, -0.6298690438270569, 0.2274768054485321, -1.5322905778884888, 0.3393535017967224, 0.2522250711917877, 0.08264506608247757, -0.2074490189552307, 0.29615336656570435, -0.8218458890914917, -0.030235353857278824, 0.3749213218688965, 1.2567204236984253, -0.22487032413482666, 0.19091488420963287, 0.39662277698516846, 0.07954297214746475, -0.09598717093467712, -0.11486147344112396, 0.1837005317211151, 0.43985188007354736, 0.17307732999324799, -0.05265997722744942, 0.8233456611633301, 0.07658006250858307, 0.12962016463279724, -0.14335206151008606, 0.6828632354736328, 0.13790494203567505, -0.1968635618686676, -0.6538842916488647, 0.41991719603538513, -0.28278976678848267, -0.43571680784225464, -0.846998929977417, 0.08621785044670105], [-0.18173030018806458, 0.2466159611940384, -0.4906577169895172, 0.17480216920375824, -0.45708563923835754, -0.11727679520845413, 0.22475911676883698, 0.1597663164138794, -0.034952983260154724, -0.08221382647752762, -0.020192069932818413, -0.19650337100028992, -0.2831968069076538, -0.1791737675666809, -0.06525252014398575, 0.49410757422447205, -0.5789415240287781, -0.13484400510787964, 0.1815134733915329, 0.030492687597870827, -0.2451520562171936, 0.6807506084442139, -0.41860172152519226, -0.5392123460769653, 0.04450324550271034, -0.6520076394081116, 0.6434123516082764, -0.2635571360588074, -0.6158633232116699, -0.1545170098543167, -0.3136412799358368, -0.20740047097206116, 1.6070802211761475, -0.0028411084786057472, -0.22539326548576355, 0.8279763460159302, -0.4344211220741272, -0.1742067039012909, 0.4209815561771393, -0.39001211524009705, 0.3525000512599945, 1.092971682548523, 0.299027681350708, 1.5313910245895386, 0.17741739749908447, 0.1515907645225525, -0.12227611243724823, 0.13818658888339996, 0.20297759771347046, 0.10803738981485367, 0.627458393573761, 0.04295703396201134, -0.46211546659469604, 0.21700866520404816, 0.49571308493614197, 0.051213983446359634, 0.3203441798686981, 0.6885488629341125, 0.35053277015686035, 0.17109060287475586, 0.06712992489337921, -0.07656297832727432, 0.4344869554042816, -0.37719905376434326], [0.04966191574931145, -0.6034970283508301, 1.6422722339630127, -0.18156349658966064, 0.35428568720817566, -0.056566767394542694, -0.27903878688812256, -0.6184976696968079, -0.26610612869262695, -1.955763339996338, -0.28015291690826416, 0.18269740045070648, 0.5037314295768738, -0.34463733434677124, -0.14441633224487305, 0.4950403869152069, -0.15830333530902863, 0.22109666466712952, -0.23212343454360962, -0.12697933614253998, -0.09575098752975464, -0.051724400371313095, -0.1136794239282608, 0.10082101076841354, -0.6667501330375671, -0.17168477177619934, -0.07713942229747772, 0.056898828595876694, -0.314447820186615, 0.016392216086387634, -0.17500275373458862, -0.2946711778640747, 0.16391213238239288, -0.5083665251731873, 0.25555673241615295, -0.2483873814344406, -0.011647742241621017, -0.2657732665538788, 0.06606566160917282, 0.23906046152114868, 0.07365953922271729, -0.3086744248867035, 0.10705328732728958, -0.0837286114692688, 0.03290463984012604, -0.1039896234869957, -0.40203481912612915, -0.8955764174461365, -0.34338507056236267, 0.5485630035400391, 0.27209585905075073, -0.22940033674240112, 0.2973635792732239, -0.5190297365188599, 0.0725841224193573, -0.21163539588451385, 0.29738810658454895, 0.10075506567955017, -0.014694481156766415, -0.2946522533893585, -0.12330940365791321, -0.4395278990268707, 0.2838948667049408, -0.37876471877098083], [0.5152941346168518, 0.18118230998516083, 0.2946310043334961, 0.77520352602005, -0.5275673270225525, -0.7399916648864746, 0.9299252033233643, 0.1615322083234787, 0.027420103549957275, 0.11420431733131409, 0.5230876803398132, 0.41037631034851074, 0.5702590346336365, -0.13089008629322052, 0.516946017742157, -0.8694886565208435, -0.5405879616737366, -0.030171886086463928, 0.0655311569571495, 0.5615233778953552, -0.38179105520248413, -0.4607902467250824, 0.6330567002296448, 0.3534906804561615, -1.4213550090789795, 0.34496065974235535, 0.020179584622383118, 0.6385098695755005, -0.698000967502594, -0.09349601715803146, -0.16720913350582123, -1.7022972106933594, -0.9065142273902893, -0.25269538164138794, -0.5263482928276062, 0.2517867386341095, -0.0009715575724840164, -0.6946401596069336, 0.13375677168369293, -0.13392464816570282, -0.4809025824069977, 0.10509994626045227, -0.16477513313293457, -0.13532263040542603, -0.6317752003669739, -0.3734842538833618, -0.30153653025627136, 0.1707892119884491, -0.3826894164085388, -0.5151246786117554, -0.4014371931552887, -0.17495551705360413, -0.8046447038650513, 1.1458356380462646, -0.30282342433929443, -0.07922153919935226, -0.8416938781738281, 0.5052480697631836, -0.3487485647201538, -0.36928412318229675, 0.13495537638664246, 0.19267864525318146, 0.04376586154103279, -0.08126435428857803], [-0.5923589468002319, -0.842288613319397, -0.8353259563446045, 0.23370017111301422, 0.8111312985420227, 0.6995819807052612, 1.4735504388809204, 1.1933568716049194, -0.04695235565304756, -0.4279801845550537, -0.5384917855262756, -0.7163479924201965, -1.5645122528076172, -0.27797624468803406, -1.358605980873108, -0.05340800806879997, -0.10551504045724869, 0.4669647812843323, 0.1428118199110031, -0.33682066202163696, -0.8821590542793274, 0.7779433131217957, -0.14066894352436066, -0.5474256277084351, 1.2033382654190063, -0.1484171450138092, 0.36113256216049194, 0.07038872689008713, -0.009624635800719261, 0.2465025782585144, -0.07828697562217712, 1.1750149726867676, 0.12249251455068588, 0.6420122385025024, 0.2838476002216339, 0.3321171700954437, -0.6647323369979858, 1.6585549116134644, 0.3289695084095001, -0.2316111922264099, -0.5561397671699524, 1.3317533731460571, 0.8828006982803345, 0.18689081072807312, 0.7262798547744751, -0.7455229759216309, 0.6424429416656494, -0.11850111931562424, 0.42662858963012695, 0.3969726264476776, 0.48436617851257324, -0.9279093742370605, 0.5917819142341614, -1.063714861869812, 0.2793472707271576, -0.04913315549492836, 0.6922829151153564, 0.6118886470794678, -0.24030280113220215, -0.8353029489517212, 0.1665525734424591, -0.42808911204338074, 0.40274879336357117, -0.06195182353258133], [0.23273684084415436, 0.11658293008804321, -0.1134011447429657, -0.3147619068622589, 0.21516069769859314, -0.15002559125423431, -0.09856308996677399, -0.4474351704120636, -0.303019255399704, -0.15460841357707977, 0.4942496120929718, 0.19877730309963226, -0.2666696012020111, 0.13299424946308136, -0.09466662257909775, 0.18630541861057281, 0.6649290919303894, 0.13995328545570374, -0.35026249289512634, -0.24839814007282257, 0.5679149031639099, -0.08951106667518616, 0.5309138298034668, 1.147447943687439, -0.1733906865119934, 1.0614850521087646, -0.652273416519165, -0.28660809993743896, 0.37087032198905945, -0.10464669018983841, -0.12713585793972015, -0.03066421113908291, -1.1536389589309692, -0.06029648706316948, 0.16917996108531952, -0.4997836947441101, -0.21832843124866486, 0.22792907059192657, -0.38475799560546875, -0.005648380145430565, -0.03952241688966751, 0.1493825912475586, -0.3358745276927948, -1.5298362970352173, 0.0945715457201004, -0.29512888193130493, 0.1430535465478897, -0.05055101588368416, -0.418124794960022, 0.1560814529657364, -1.0836255550384521, -0.039382997900247574, 0.4391934275627136, 0.09131944924592972, -0.1413121372461319, 0.5153201222419739, -0.17887111008167267, -0.15324173867702484, -0.3370130658149719, 0.2726035416126251, -0.0038853606674820185, -0.1094108521938324, -0.3534669280052185, 0.5900992751121521], [0.18111830949783325, 0.06895758956670761, -0.9413095712661743, 0.917411208152771, -0.3405919671058655, -0.48994365334510803, 0.16648145020008087, -0.25522580742836, -0.15945620834827423, 0.45186159014701843, 0.5495010018348694, -0.2776002287864685, -1.8856910467147827, -0.3656765818595886, -0.6885555386543274, 0.2178855538368225, -0.4391908347606659, 0.21466197073459625, -0.3089604079723358, -0.5430014133453369, -1.1044234037399292, 0.8097500205039978, 0.57441645860672, 0.05317072197794914, 0.3171917796134949, -0.5670027732849121, 0.07061871886253357, -0.04359804838895798, 0.19498924911022186, -0.03647780418395996, -0.8741843104362488, 0.5915229320526123, -0.1942855566740036, 1.2074869871139526, -0.5718797445297241, 0.1609698385000229, -0.6031378507614136, 0.6419144868850708, 0.4937559962272644, -0.2845088243484497, -0.11130323261022568, 1.0984286069869995, -0.9875878691673279, 0.4456058144569397, -0.18933796882629395, -0.9087821841239929, -0.3142105042934418, -0.2592461109161377, -0.3307366669178009, 0.04545484855771065, 0.41769835352897644, -0.7475519180297852, 0.8668695688247681, 0.11352338641881943, 0.3386383056640625, 0.018914753571152687, -0.09218550473451614, 0.2519558370113373, -0.12260840088129044, -0.4880773723125458, -0.06243295967578888, 0.4911758601665497, 0.22934773564338684, -0.20627905428409576], [-0.2716894745826721, 0.4137131869792938, 0.3523235619068146, 1.143741250038147, -0.060243505984544754, -0.2609676122665405, 0.23053334653377533, -0.344171941280365, 0.323299765586853, 0.05287884920835495, 0.9344990253448486, 0.44124835729599, 0.939254641532898, -0.41077351570129395, 0.27050718665122986, -0.2513848543167114, -0.8424298167228699, -1.1368495225906372, 0.10589843988418579, -0.6838865280151367, -0.02222231961786747, -0.2766266167163849, -0.2374478429555893, 0.2197074294090271, -0.8657581806182861, -0.08887329697608948, 0.9685739278793335, 0.47332772612571716, -0.0700443908572197, 0.05077124014496803, -0.957409143447876, -0.014232602901756763, -0.5973079800605774, 0.29039207100868225, -0.3059808015823364, 0.2880876362323761, -0.3717799186706543, 0.037065424025058746, -0.16573642194271088, 0.07000906765460968, -0.850857138633728, 0.30614173412323, 0.4144454598426819, -0.33731189370155334, -0.00829221773892641, -1.026630163192749, 1.2755236625671387, 0.20927844941616058, 0.2426203489303589, -0.880926787853241, -0.5102583765983582, -1.4799145460128784, -0.47257566452026367, 0.1326296478509903, 0.7078892588615417, -1.386200189590454, 0.17306923866271973, 0.8137827515602112, -0.3625090420246124, -0.5549478530883789, 0.6987877488136292, 0.7051147818565369, 0.4896339774131775, -0.36320334672927856], [-0.07184451073408127, -0.4059426784515381, -0.37669599056243896, -0.30066853761672974, 0.25744691491127014, -0.02127939648926258, -0.05668479576706886, 0.25976043939590454, 0.35594335198402405, 0.1612377017736435, -0.3260917663574219, 0.003529265057295561, -1.3523876667022705, 1.4332555532455444, -0.6479519009590149, 0.48430198431015015, 1.1880192756652832, 0.15158528089523315, -0.42775240540504456, 0.2777005434036255, -0.6374401450157166, -0.20692454278469086, -0.8049665093421936, 0.40115877985954285, 0.7716184854507446, -0.10533352196216583, -0.5278041958808899, -0.8383617401123047, 0.25006869435310364, -1.2751812934875488, 0.6396375298500061, 0.5345942378044128, 0.21698762476444244, 0.5281329154968262, -0.19393432140350342, 0.5080140233039856, 0.5203856825828552, 1.3745360374450684, -0.2917107343673706, 0.43514230847358704, 0.06859416514635086, 0.05954707786440849, 0.23622353374958038, 0.2234312742948532, 0.5626770853996277, -0.3194597661495209, -0.8843674063682556, -0.3005756139755249, -0.3847109079360962, 0.8998240232467651, 0.04958145692944527, 0.8434041738510132, 1.0477492809295654, -0.1847585141658783, 0.3934590220451355, 0.5378187894821167, 0.6607503890991211, -0.263896107673645, 0.15071386098861694, -0.3133733868598938, -0.5512598156929016, 0.21351532638072968, 0.029147649183869362, 0.8106715679168701], [0.7573636770248413, 0.6347932815551758, 0.5650947093963623, -0.477115273475647, 0.02722732536494732, -0.421024888753891, -0.7974950671195984, -0.13516150414943695, -0.6338316798210144, -0.16105346381664276, -0.9073969125747681, 0.4510328471660614, 0.03768516704440117, 0.06166034936904907, 0.2405937910079956, -0.036576081067323685, 0.24580256640911102, 0.3139374554157257, 0.38348132371902466, 0.16974784433841705, -0.3892938494682312, -0.5371406674385071, 0.6951038837432861, -0.8576780557632446, -0.15335828065872192, -0.6531482934951782, -0.32198411226272583, -0.7984272241592407, -0.7342430353164673, -0.6790801882743835, 1.1688263416290283, 0.2891632914543152, 1.3854340314865112, 0.13586930930614471, -0.4426110088825226, 0.7141493558883667, -0.5963587164878845, 0.4807133972644806, 0.5624218583106995, -0.31225454807281494, 0.18333233892917633, 0.004686621483415365, -1.194616436958313, 0.6316466331481934, 0.26784512400627136, 1.2242822647094727, -1.0564091205596924, -0.20754316449165344, 0.9803227782249451, -0.29379063844680786, 0.3198627233505249, 0.5910810232162476, -0.028363311663269997, 0.32903027534484863, -0.2541656792163849, -0.34540513157844543, -0.20577900111675262, -0.11080008745193481, 0.9192675352096558, 0.0840664952993393, 0.17545849084854126, 0.1370255947113037, 0.04680843651294708, -0.35545656085014343], [0.0017890812596306205, 0.37888002395629883, -1.3993149995803833, 0.6087610721588135, -0.6173132061958313, -0.22661855816841125, 0.5607646107673645, 1.1371245384216309, -0.06733381003141403, 1.3185739517211914, 0.060106705874204636, 0.061044737696647644, -0.34498459100723267, 0.21055419743061066, -0.10826655477285385, 0.0006539144669659436, -0.23481975495815277, -0.13214874267578125, -0.10079815238714218, 0.7716202735900879, 0.250684529542923, -0.2848091125488281, 0.013549569994211197, 0.22435596585273743, 0.27738967537879944, 0.17522139847278595, 0.12349237501621246, -0.9684146642684937, -0.13141630589962006, 0.4433811902999878, -0.35720768570899963, 0.41949453949928284, -0.041684385389089584, 0.41824042797088623, 0.5297807455062866, -0.18562228977680206, -0.6301799416542053, -0.20033730566501617, -0.023885441944003105, -0.412921279668808, 0.10964711755514145, 1.6629149913787842, 0.0756579041481018, 0.10454832017421722, -0.2664608657360077, -0.409032940864563, 0.03625649958848953, 1.0110353231430054, -0.5108594298362732, -0.4414004981517792, -0.31412097811698914, -0.20473609864711761, -0.23022505640983582, 0.3922049105167389, 0.21273966133594513, -0.1845974326133728, -0.5054261088371277, 0.08428169786930084, -0.4623931646347046, -0.6965985298156738, 0.05708472058176994, 0.2402985692024231, 0.1759452372789383, -0.24647416174411774], [0.24030911922454834, 0.06382838636636734, -0.34559574723243713, 0.27048632502555847, -0.06270727515220642, 0.027432361617684364, -0.019755417481064796, 0.34860700368881226, 0.13945738971233368, 0.06882967054843903, 0.36492493748664856, 0.6536399126052856, -0.3253086805343628, -0.5242738723754883, -0.00712592713534832, -0.29942214488983154, -0.7344346642494202, 0.01193038560450077, -0.08389094471931458, -0.2818722128868103, -1.2418737411499023, 0.4801143705844879, -0.07629287987947464, -0.4020233452320099, 0.12862743437290192, -0.5731810927391052, 0.8244970440864563, -0.3517559766769409, -0.4192523956298828, 0.4899388551712036, -0.7552242875099182, 0.018059978261590004, 0.4835910499095917, 0.35498934984207153, -0.45624279975891113, 0.08582565933465958, -0.7021207809448242, 0.16699187457561493, 0.10383935272693634, -0.573015570640564, -0.5190615057945251, -0.0014305671211332083, 0.39141592383384705, 0.9142841696739197, -0.3716166615486145, 0.1229565218091011, 0.5738028287887573, 0.3591442406177521, 0.1945699006319046, -0.14091281592845917, 0.34464341402053833, -1.3547734022140503, -0.3492898941040039, -0.17241573333740234, 0.37190568447113037, -0.7726550698280334, 0.18428416550159454, 0.8645730018615723, 0.26621580123901367, -0.7834435105323792, 0.12651769816875458, 0.12201707810163498, 0.10398516058921814, -0.42324912548065186], [0.20988096296787262, -0.7593585848808289, 1.7708393335342407, -0.14023873209953308, 0.31920233368873596, 0.18556053936481476, -0.046889133751392365, -0.7770113348960876, -0.25896891951560974, -1.0152959823608398, 0.013080599717795849, -0.16259410977363586, 0.5077619552612305, 0.05922431871294975, -0.10183912515640259, 0.03631673380732536, 0.30924293398857117, 0.1800043284893036, 0.18580299615859985, 0.10010933130979538, 0.36410918831825256, 0.204909086227417, -0.23715251684188843, -0.1136622354388237, -0.328001469373703, -0.3354133069515228, 0.23065198957920074, 0.7617499828338623, -0.14791622757911682, 0.22295761108398438, 0.10849841684103012, -0.3437775671482086, -0.4474019408226013, -0.6399322748184204, -0.5498228073120117, 0.24552299082279205, 1.3088558912277222, 0.10811824351549149, 0.09818580001592636, 0.15970581769943237, 0.14354175329208374, -0.22097262740135193, 0.4500878155231476, 0.29597634077072144, 0.09241513162851334, -0.4840852618217468, 0.1668839007616043, -0.7113427519798279, -0.16685694456100464, 0.14967291057109833, 0.20453444123268127, -0.2577153742313385, -0.28076618909835815, -0.5458288788795471, -0.12409457564353943, -0.4018770456314087, -0.10215411335229874, 0.3862123191356659, 0.054999422281980515, 0.45044928789138794, -0.18373359739780426, -0.45278361439704895, -0.13397406041622162, -0.2789795696735382], [-0.24492976069450378, 0.41840723156929016, -2.3182971477508545, 0.11486581712961197, -0.3522791862487793, -0.2525264620780945, 0.4306296408176422, 0.5262986421585083, 0.27398860454559326, 0.8518966436386108, 0.08882296085357666, 0.0353068932890892, -0.5540474653244019, -0.1056450828909874, -0.2695395052433014, -0.16928473114967346, -0.32414135336875916, -0.11080201715230942, 0.046418093144893646, 0.4321521520614624, -0.16440916061401367, -0.012117698788642883, 0.07654403895139694, -0.37670275568962097, 0.01399961020797491, 0.19272051751613617, 0.0029300686437636614, -0.4226219654083252, 0.227459117770195, 0.38279232382774353, 0.16839908063411713, 0.16022531688213348, 0.11538010835647583, 0.327501505613327, 0.12788553535938263, -0.3536456525325775, -0.7041587829589844, 0.01708819530904293, -0.3425888419151306, -0.1947179138660431, -0.19705353677272797, 0.052849847823381424, -0.13877612352371216, 0.31488093733787537, -0.26264268159866333, 0.22280187904834747, 0.2331562340259552, 0.7788404822349548, -0.2387579381465912, 0.1299310028553009, 0.10241056233644485, -0.05065065249800682, 0.31205496191978455, 0.47147664427757263, -0.16368824243545532, 0.3456900119781494, 0.25340956449508667, 0.07950858771800995, 0.3401336669921875, 0.20548003911972046, -0.0705169290304184, -0.05753524228930473, -0.11864860355854034, 0.2692086398601532], [-0.13152186572551727, 0.0006499994779005647, 0.13712650537490845, -0.3517792522907257, 0.01623212918639183, -0.2969500720500946, 0.11999806016683578, -0.2175401896238327, -0.3471960127353668, 0.02482091821730137, 0.16820089519023895, -0.15411314368247986, 0.22898077964782715, 0.6963355541229248, -0.25796428322792053, 0.11065495759248734, 0.2829415500164032, 0.1920679360628128, -0.24632158875465393, 0.594438910484314, 0.05946224927902222, -0.47484663128852844, -0.05562572926282883, 0.6086626648902893, -0.37739694118499756, 0.6769352555274963, -0.0675477385520935, 0.4594835638999939, 0.47328799962997437, -0.22163988649845123, 7.474093763448764e-06, 0.05095348507165909, -1.395245909690857, 0.4125101566314697, -0.29576265811920166, -0.46331775188446045, -0.005734466016292572, 0.09085536003112793, -0.9198924899101257, 0.5307736396789551, -0.5049049258232117, 0.20997852087020874, 0.38065773248672485, -0.9330700039863586, -0.0398755706846714, -0.1644093543291092, 0.1501496136188507, -0.015410820953547955, -0.35289639234542847, -0.17915232479572296, -1.4225294589996338, 0.07038801163434982, -0.1310756504535675, 0.08695341646671295, -0.3391682505607605, 0.6070118546485901, 0.3850013017654419, -0.4308483600616455, -0.6867839097976685, 0.048801809549331665, 0.020012469962239265, 0.11523149907588959, -0.4609784483909607, 0.0692179948091507], [-0.24289186298847198, -0.5018205046653748, 0.39962607622146606, -0.2691311836242676, 0.5208513736724854, 0.30358555912971497, -0.006743169389665127, -0.15565548837184906, 0.24616283178329468, -0.07664983719587326, -0.23221395909786224, 0.34782329201698303, -0.21095356345176697, -0.3243968188762665, -0.15948152542114258, 0.5734251737594604, -0.09722146391868591, -0.9835910797119141, 0.3278595507144928, -0.3582112491130829, 0.4660554528236389, -0.23973825573921204, -0.21017464995384216, -1.1846941709518433, 0.32975441217422485, -1.4017512798309326, 0.17016533017158508, -0.20681419968605042, -0.6753734350204468, 0.23736532032489777, -0.02805066853761673, 0.16163307428359985, 0.6879575252532959, 0.1520708203315735, -0.18730250000953674, 0.39037251472473145, -0.12295088171958923, 0.10513012111186981, 0.4064171314239502, -0.2547615170478821, -0.21588864922523499, 0.08572734892368317, 0.25470268726348877, 1.0148239135742188, 0.43831148743629456, 0.13037031888961792, -0.2979682683944702, 0.14595231413841248, 0.13261279463768005, 0.36891233921051025, 0.7832962274551392, -0.11052308976650238, 0.18048447370529175, 0.22131308913230896, -0.15259836614131927, 0.07164435088634491, -0.2057456374168396, 0.5307286381721497, 0.9225302338600159, 0.39566847681999207, -0.21854253113269806, 0.06464959681034088, 0.16289004683494568, -0.6955732703208923], [0.3236067295074463, -0.07040360569953918, 0.16795800626277924, 0.026015672832727432, -0.048621032387018204, 0.3128525912761688, -0.16137562692165375, -0.7608901858329773, -0.452083557844162, -0.2947213351726532, -1.3396105766296387, 0.2926844656467438, -0.1328466832637787, -0.22038647532463074, -0.3167099058628082, -0.269291490316391, 0.4698353409767151, 0.24445880949497223, -0.3938784897327423, 0.941875696182251, -0.07070299983024597, -0.22451554238796234, 0.7310609221458435, 0.37780532240867615, -0.32786786556243896, -0.5675649046897888, -0.9002955555915833, -0.42154738306999207, 0.18492242693901062, -0.1960248500108719, 1.5166984796524048, -0.5654293894767761, 0.47712549567222595, -0.1471913605928421, 0.2577219605445862, -0.002331466879695654, 0.5703367590904236, 0.02254343405365944, 0.012839318253099918, -0.31314152479171753, -0.12020666897296906, 0.16376426815986633, -0.8390052318572998, -0.26771074533462524, -0.485660582780838, 0.18910741806030273, -1.0304354429244995, 0.10551349073648453, -0.4008350670337677, -0.4215805232524872, -0.09520861506462097, 1.5996161699295044, 0.04982191324234009, 0.46198785305023193, -0.4273141324520111, 0.6105862855911255, -0.11234693229198456, 0.19118715822696686, -0.06113295629620552, -0.342450350522995, -0.11933233588933945, 0.009048143401741982, 0.5316225290298462, 0.36952316761016846]], "fc1.bias": [-0.33053675293922424, 0.7663419842720032, 1.1172860860824585, -0.20467938482761383, -0.010053926147520542, 1.2606408596038818, -1.840282678604126, 0.3715464770793915, -0.15732602775096893, -0.24041098356246948, 1.6579351425170898, 0.31444695591926575, -0.019247598946094513, -0.19633863866329193, 0.07277695089578629, 1.2520874738693237, 0.6824727058410645, -0.10615504533052444, -0.7585357427597046, 0.9655829668045044, 0.048518575727939606, -1.2376421689987183, -0.5135844945907593, 0.40935227274894714, -0.38347625732421875, 0.588735818862915, 0.5726220011711121, 0.5375650525093079, -0.5121263265609741, -0.061671603471040726, -0.2208101600408554, 0.28086790442466736], "fc2.weight": [[0.13270792365074158, -0.018082106485962868, -0.19779591262340546, 0.012011472135782242, 0.06333586573600769, 0.4276926517486572, 0.007480782922357321, 0.08994642645120621, 0.20190057158470154, 0.3338393568992615, -0.3086595833301544, 0.04139873385429382, 0.12869694828987122, -0.20113065838813782, 0.2038467973470688, -0.2230934202671051, -0.0535116121172905, -0.2583647072315216, -0.16157200932502747, 0.25395524501800537, 0.2319229543209076, -0.13242459297180176, 0.4681454002857208, -0.08508509397506714, -0.03562386333942413, 0.14516004920005798, 0.12857744097709656, -0.28732264041900635, 0.2334972769021988, 0.20939894020557404, -0.4340793490409851, -0.2396402508020401], [0.13568617403507233, 0.01955779269337654, -0.09392664581537247, 0.105152927339077, 0.2142016440629959, 0.3329874277114868, -0.1849382072687149, -0.06428328156471252, 0.22749701142311096, 0.296577125787735, 0.129481703042984, -0.14009886980056763, -0.40454718470573425, 0.032122716307640076, -0.13661417365074158, -0.11744885891675949, 0.1897381842136383, -0.28690236806869507, -0.456062912940979, 0.062327150255441666, -0.16512365639209747, -0.2343948483467102, -0.6169586777687073, 0.3587082624435425, 0.17071494460105896, 0.19247519969940186, -0.024545064195990562, -0.15935972332954407, 0.2867223620414734, -0.17652232944965363, 0.11804723739624023, -0.0016323678428307176]], "fc2.bias": [0.5614879131317139, 0.49914196133613586]}