{"fc0.weight": [[-0.07935970276594162, 0.3678998053073883, -0.2771588861942291, 0.04484282806515694, 0.008610416203737259, -0.11554376035928726, 0.1989722102880478, 0.01564052328467369], [-0.2957402169704437, -0.04146070033311844, -0.3872125744819641, -1.534157156944275, 0.28519412875175476, -0.06395094841718674, -0.22192636132240295, -0.3749704957008362], [-0.334104061126709, 0.5234529376029968, 0.5689569711685181, 0.14096538722515106, 0.2145477831363678, -0.2539549767971039, 0.37879765033721924, 0.12757447361946106], [0.0883077085018158, 0.5091845393180847, 0.5218071937561035, -0.07590950280427933, -0.21882975101470947, 0.2641419470310211, 0.8340086340904236, 0.32377779483795166], [0.02058269828557968, -0.7240661382675171, 0.14289048314094543, 0.7845286726951599, -0.14546996355056763, -0.3736637234687805, -0.3760652244091034, -0.439730167388916], [-0.05817211791872978, -0.3414080739021301, -0.09120839089155197, 0.5647867321968079, -0.044287096709012985, 0.3718603551387787, 0.07377510517835617, -0.48208823800086975], [-0.5256669521331787, 0.03897053375840187, -0.33267614245414734, -0.8000298738479614, 0.20181167125701904, -0.008468578569591045, -0.7765355706214905, -0.6215227842330933], [-0.0387134775519371, 0.08068772405385971, -1.7290605306625366, -0.39356547594070435, 0.3573876917362213, -0.28013426065444946, -1.2003246545791626, 0.3180616796016693], [-0.5529654622077942, -0.18295584619045258, 0.1136130765080452, -0.7715451717376709, -0.037880703806877136, 0.30217355489730835, 0.18754245340824127, -0.48838692903518677], [-0.026118934154510498, 0.6905918717384338, -0.4684389531612396, 0.3506799340248108, 0.03667740523815155, -0.06875617802143097, -0.641798198223114, 0.040485404431819916], [-0.12287390232086182, 0.16053859889507294, -0.6153351068496704, -0.6280249357223511, -0.10872367024421692, -0.1960330754518509, -0.33823949098587036, -0.24582098424434662], [-0.018997004255652428, 0.5497483015060425, -0.22982369363307953, -0.6642088890075684, 0.18138030171394348, 0.1880500614643097, 0.04999459534883499, 0.11169236898422241], [-0.3508465886116028, 0.011463092640042305, 0.8965156078338623, -0.09413255751132965, 0.40475982427597046, 0.24773991107940674, 0.9868687987327576, -0.22964784502983093], [0.003065661061555147, 0.27287545800209045, 0.2631453275680542, -1.15105402469635, 0.04970257729291916, 0.3272990584373474, -0.18747787177562714, -0.26932892203330994], [0.1772110015153885, 0.01792706362903118, -1.4859813451766968, -0.22877342998981476, 0.3886027932167053, 0.3586875796318054, -1.571450114250183, 0.5014005303382874], [1.3915457725524902, 0.014000286348164082, -0.09907989948987961, -0.07052858918905258, -0.20448140799999237, 0.17384718358516693, -0.18831582367420197, -0.18661309778690338], [0.7460731863975525, -0.01922895759344101, 1.0537437200546265, -0.3036815822124481, -0.10973241925239563, -0.06762216240167618, 1.148228645324707, 0.2860376238822937], [-0.24245381355285645, 0.44962194561958313, -0.677125096321106, 0.06114300340414047, 0.4176502227783203, 0.3401106297969818, -0.4617956280708313, -0.17994198203086853], [0.5114051103591919, -0.10925371944904327, 0.25522223114967346, 0.22178731858730316, -0.3445327877998352, 0.3137803375720978, 0.6600039601325989, 0.3966509997844696], [0.1456306278705597, -0.04418601468205452, 0.11978161334991455, 1.8331719636917114, 0.3500942885875702, -0.15481095016002655, -0.4883671998977661, 0.13284733891487122], [-0.5574500560760498, 0.08705664426088333, -0.6182029843330383, 0.10696490108966827, -0.39700284600257874, -0.4161008894443512, -0.3993139863014221, -0.5051076412200928], [0.3085046112537384, -0.2629452347755432, 0.7319926619529724, -0.8327721953392029, 0.06377217918634415, -0.29501616954803467, 0.7602012157440186, 0.26714810729026794], [0.005033630877733231, -0.6971681118011475, -0.14820930361747742, -0.7720533609390259, -0.04677806422114372, -0.39290744066238403, -0.325171560049057, 0.3809676170349121], [0.027345450595021248, -0.4904294013977051, 0.03224184736609459, 0.5538065433502197, 0.17344185709953308, 0.13975709676742554, -0.09156978875398636, -0.04141085222363472], [0.4895177483558655, -0.03518776223063469, 1.0674337148666382, 0.18395644426345825, -0.40866538882255554, 0.15823084115982056, 1.313920259475708, 0.15669842064380646], [0.3421395719051361, -0.07622475922107697, 0.9935867786407471, 0.03326890245079994, -0.0009729634039103985, 0.4730042815208435, 1.6057274341583252, 0.04778870567679405], [0.7387456297874451, 0.03354758024215698, 1.3923145532608032, -0.01622914709150791, -0.223752960562706, 0.1326291859149933, 1.5698623657226562, -0.3085859417915344], [0.5498573780059814, -0.08426610380411148, 1.0648484230041504, 0.26221969723701477, 0.41863030195236206, -0.1324767917394638, 1.4985181093215942, -0.04264074191451073], [-0.3004641532897949, -0.09281803667545319, -1.727669596672058, 0.28132301568984985, -0.30754396319389343, -0.3668109178543091, -1.27713942527771, 0.22204652428627014], [-0.4557950794696808, 0.08026807010173798, -1.389712929725647, -0.5696418881416321, 0.0743882805109024, -0.2010859102010727, -1.5626810789108276, -0.08826705813407898], [0.001156036276370287, -0.5908870100975037, 0.3237916827201843, 0.28342172503471375, 0.33436107635498047, -0.06842856854200363, 0.08665934950113297, 0.5283748507499695], [-0.669073760509491, -0.09669941663742065, 0.10450204461812973, -0.3029925227165222, 0.16753582656383514, 0.21427953243255615, -0.3092780113220215, -0.553253710269928], [0.8617827296257019, 0.01421470008790493, -0.04889613762497902, 0.26617738604545593, -0.3377319872379303, 0.1420840322971344, 0.7397934794425964, -0.17075088620185852], [0.06724435836076736, 0.47928205132484436, 0.302108496427536, 0.7131137251853943, 0.24149325489997864, 0.370632529258728, 0.3676040470600128, 0.41106584668159485], [-1.3105199337005615, -0.0016103871166706085, 0.6126130223274231, -0.4125003218650818, -0.3876666724681854, 0.40639007091522217, 0.46430641412734985, 0.23762376606464386], [0.0015240658540278673, 0.23338066041469574, 0.12780608236789703, -1.4547617435455322, -0.38786521553993225, -0.20529252290725708, -0.44815701246261597, 0.1485408991575241], [0.3472324013710022, -0.0720994621515274, 1.7903622388839722, -0.11080493032932281, -0.11552741378545761, 0.45485517382621765, 1.2391473054885864, -0.5767226815223694], [-0.010242856107652187, -0.5487219095230103, -0.4802091121673584, -1.3112976551055908, 0.3421686887741089, 0.11226703971624374, 0.025326794013381004, 0.12477321922779083], [-0.1039760410785675, -0.09716067463159561, 0.1783665418624878, 1.5389554500579834, 0.24271869659423828, -0.4439856708049774, 0.21659868955612183, 0.04929526522755623], [-0.020767686888575554, 0.28910279273986816, 0.6090124845504761, -0.7441935539245605, 0.37012121081352234, 0.11978065967559814, 0.4256252944469452, 0.14805251359939575], [-0.7954705357551575, 0.03764611855149269, 0.7196181416511536, 0.38034072518348694, -0.3896836042404175, -0.3115885555744171, 0.8930338025093079, 0.3056836426258087], [1.03155517578125, -0.01290049683302641, -0.7468632459640503, 0.0967225432395935, 0.1629914492368698, -0.43405190110206604, -0.8634382486343384, -0.6757736802101135], [0.1564597338438034, -0.6330199241638184, 0.0906926691532135, -0.24071405827999115, -0.40183645486831665, 0.24341273307800293, -0.04122757539153099, 0.22303436696529388], [-0.07103660702705383, -0.4026257395744324, 0.4459213316440582, -0.44188085198402405, 0.2832437753677368, -0.027939144521951675, 0.6405161023139954, 0.472157746553421], [-0.5605206489562988, 0.01655654050409794, -0.9113793969154358, 0.39083510637283325, 0.2921516001224518, -0.4063084125518799, -1.1352462768554688, -0.2021811604499817], [-0.73920738697052, 0.02815941348671913, -0.22019249200820923, 0.8286120891571045, 0.07314586639404297, 0.1444939523935318, -1.127423882484436, -0.44890478253364563], [-0.03774695470929146, -0.49836692214012146, -0.3492419123649597, -0.0027508835773915052, -0.2507408857345581, 0.21104203164577484, -0.2318522334098816, -0.3242220878601074], [-0.09913235157728195, -0.03810946270823479, 1.0867724418640137, 1.0669015645980835, 0.4627826511859894, -0.02162727154791355, 1.4610252380371094, -0.39885956048965454], [-0.11849287152290344, 0.39634695649147034, -0.443092405796051, 0.6637669205665588, -0.37150976061820984, 0.338360458612442, 0.31760329008102417, 0.026226677000522614], [0.10407714545726776, -0.3001176118850708, 0.002232399769127369, -1.1250826120376587, -0.06928085535764694, -0.32400208711624146, 0.003577200695872307, 0.4226031005382538], [0.8804280161857605, -0.014853192493319511, 0.04435478895902634, -0.02300242893397808, -0.013518535532057285, 0.39510634541511536, 0.32858702540397644, -0.077198825776577], [-0.08975986391305923, 0.038256749510765076, -0.39335936307907104, -1.3339042663574219, 0.20824335515499115, 0.19598089158535004, 0.18702517449855804, -0.6858854293823242], [-0.5837782025337219, -0.05084312707185745, -0.9575933814048767, 0.29134219884872437, -0.1512354165315628, 0.18448753654956818, -1.3747848272323608, -0.4075506925582886], [-1.2099581956863403, -0.009083731099963188, 0.6356298327445984, 0.301621675491333, 0.017814109101891518, -0.33216288685798645, 0.29979920387268066, 0.7568969130516052], [0.09708639979362488, -0.025206556543707848, 1.0554227828979492, 0.06557252258062363, 0.47382646799087524, -0.12821924686431885, 1.1008714437484741, -0.15409700572490692], [0.5437541604042053, -0.28238967061042786, 0.5268599987030029, 0.453025221824646, 0.359981894493103, -0.09246031194925308, 0.16049082577228546, -0.5336671471595764], [0.2728845477104187, 0.12619724869728088, 0.40385887026786804, -0.621597409248352, -0.19406278431415558, -0.15853412449359894, 0.7779982686042786, -0.3102225065231323], [0.3713643550872803, 0.00199206848628819, 0.26301875710487366, 0.3657898008823395, -0.4604346752166748, -0.4003171920776367, 0.2926867604255676, 0.5129817128181458], [0.17776422202587128, -0.016196411103010178, 2.070312976837158, 0.6795909404754639, 0.05455838888883591, 0.4406675398349762, 2.3483402729034424, -0.41830554604530334], [0.2342458963394165, 0.02915952168405056, 1.37306809425354, -0.48972412943840027, -0.3072892427444458, 0.11286811530590057, 1.3932230472564697, 0.08833557367324829], [-0.057962656021118164, 0.0823492482304573, -1.2645288705825806, 0.001598732196725905, 0.262032687664032, 0.10941439121961594, -1.116154432296753, -0.2695445418357849], [-0.06084194779396057, 0.03848123177886009, 2.1186134815216064, 0.16808782517910004, 0.39810049533843994, 0.0040592714212834835, 1.9440847635269165, -0.6475470066070557], [-0.18337342143058777, -0.6074747443199158, -0.8537152409553528, -0.25238052010536194, -0.06699452549219131, -0.05362413823604584, -0.25532299280166626, -0.40957918763160706], [-0.6256937384605408, -0.17195962369441986, -0.09663984924554825, 0.20877768099308014, 0.10530579090118408, 0.2848961651325226, -0.36937645077705383, -0.6220203042030334]], "fc0.bias": [-0.1837085485458374, 0.21404731273651123, 0.18615685403347015, -0.8097206354141235, -0.416786789894104, 0.0629139319062233, 0.49662426114082336, -0.22302430868148804, 0.014832104556262493, -0.3162062466144562, 0.2551281750202179, 0.33345961570739746, -0.36002570390701294, -0.05809665471315384, 0.5389970541000366, 0.16065192222595215, 0.31914955377578735, 0.3039475679397583, -0.3066413402557373, 0.020684581249952316, 0.0753222405910492, 0.8003131747245789, 0.26391851902008057, -0.14431791007518768, -0.3281992971897125, 0.14699627459049225, 0.1548517346382141, 0.35392260551452637, 0.2958148419857025, 0.1057342067360878, 0.11615971475839615, 0.12347430735826492, -0.0971289798617363, -0.7935758829116821, 0.038166292011737823, -0.4756625294685364, 0.3786253035068512, 0.5328626036643982, -0.35424038767814636, 0.267545223236084, -0.5123781561851501, 0.254801869392395, -0.48615679144859314, 0.34394562244415283, 0.12323419749736786, -0.16479095816612244, -0.1127048060297966, -0.4549310505390167, 0.0529576875269413, 0.188603013753891, -0.006502978038042784, -0.417106032371521, 0.5884422063827515, -0.07740668207406998, 0.02659948356449604, 0.1155664399266243, 0.1689070463180542, 0.187248095870018, -0.13668975234031677, -0.28941676020622253, -0.4846895635128021, -0.3682157099246979, 0.4277491271495819, -0.1441195011138916], "fc1.weight": [[-0.29890409111976624, -0.13472934067249298, -0.029787037521600723, 0.048978667706251144, 0.2289399802684784, 0.3751937448978424, 0.5720406174659729, -0.31647011637687683, -0.005569915287196636, 0.2339860498905182, 0.5959731340408325, -0.23971892893314362, 0.6697732210159302, 0.5443702936172485, -1.1558741331100464, -0.18339017033576965, 0.6344838738441467, -0.14825062453746796, 0.07888303697109222, 0.2922007143497467, -0.6493808031082153, 0.47354426980018616, -0.32347822189331055, 0.10360542684793472, 0.5725853443145752, -0.11750158667564392, 0.7528849840164185, 0.4377591609954834, -0.0053734369575977325, -0.5224156975746155, -0.15793322026729584, -0.18864592909812927, 0.020928669720888138, -0.21188047528266907, -0.3094494044780731, 0.6666474938392639, 0.7880446314811707, 0.297529399394989, -0.42319008708000183, 0.4663766622543335, -0.175576314330101, 0.0581941083073616, -0.13221004605293274, 0.07519987225532532, -0.06584656983613968, -0.14732596278190613, 0.014742279425263405, 0.6551002860069275, -0.016868822276592255, -0.4310425817966461, -0.22372382879257202, 0.8010786175727844, 0.13159605860710144, -0.2682253122329712, 0.34267139434814453, 0.6470206379890442, 0.39111244678497314, -0.03707769513130188, 0.6313087344169617, 0.671660840511322, -0.40229806303977966, 0.19130033254623413, 0.0023974652867764235, -0.18922720849514008], [-0.28068169951438904, -0.18763136863708496, 0.14987102150917053, 0.30805090069770813, 0.007105877157300711, -0.30228468775749207, -0.07038049399852753, 0.29093506932258606, 0.19542278349399567, -0.24809175729751587, -0.04189980402588844, -0.19041895866394043, -0.34476619958877563, 0.051832061260938644, 0.06644773483276367, -1.026030421257019, 0.23504915833473206, -0.042782243341207504, -0.5876358151435852, -0.33303317427635193, 0.5022649168968201, -0.1932481974363327, 0.22332608699798584, 0.02095392718911171, -0.23042185604572296, 0.3174179494380951, -0.5449446439743042, 0.20491670072078705, -0.25882333517074585, 0.5715763568878174, 0.12205027043819427, -0.31834715604782104, -0.6729559302330017, 0.05790675804018974, 0.8542574048042297, -0.23093052208423615, 0.07614073902368546, -0.28873515129089355, 0.3995031714439392, 0.049141496419906616, 0.9020659327507019, -1.1614574193954468, 0.18416152894496918, -0.24308931827545166, 0.07878648489713669, 0.5572599768638611, 0.2044639140367508, -0.5564637780189514, 0.3742218017578125, 0.017889635637402534, 0.1372136026620865, 0.12405776232481003, 0.2568836212158203, 0.2646104693412781, 0.21807271242141724, -0.09343637526035309, -0.45252570509910583, -0.18620824813842773, 0.2095731496810913, -0.289900004863739, 0.2991717457771301, -0.05289820581674576, 0.07359632849693298, 0.2373773604631424], [0.5219977498054504, 0.09577879309654236, 0.16909193992614746, 0.1403978019952774, -1.0639326572418213, -0.5950804352760315, 0.08910215646028519, -0.004536015447229147, -0.37811633944511414, 0.5812791585922241, 0.0007763953180983663, 1.2075997591018677, 0.5658367276191711, 0.6168932318687439, -0.12414782494306564, -0.006255854852497578, -0.24313150346279144, 0.6266152262687683, 0.40254515409469604, 0.0008973524672910571, 0.18110348284244537, 0.2203686535358429, 0.06193099915981293, -0.9574821591377258, 0.07188957184553146, -0.19593480229377747, -0.09534270316362381, 0.1669185757637024, -0.48669570684432983, -0.08255192637443542, 0.07138832658529282, -0.22124356031417847, 0.2806106209754944, 0.2202795147895813, 0.06256617605686188, 0.1869579255580902, 0.16591069102287292, 0.11729443073272705, 0.313056617975235, -0.5253978967666626, 0.1953318864107132, -0.39040011167526245, -0.4930334687232971, -0.49346500635147095, -0.09841122478246689, -0.5291720032691956, 0.08154258877038956, -0.7009719014167786, -0.12648873031139374, -0.19446901977062225, -0.02308034896850586, -0.09454108029603958, -0.4131672978401184, -0.14874346554279327, 0.1210683286190033, -0.007712364662438631, 0.2646239101886749, 0.16522742807865143, 0.5889712572097778, 0.44658565521240234, 0.5273282527923584, 0.012352459132671356, -0.24130567908287048, -0.21235768496990204], [0.040975868701934814, -0.17171204090118408, -0.6733461022377014, -0.3364242613315582, 0.2834306061267853, 0.8598657846450806, 0.1389392912387848, -0.5004332065582275, 0.20340551435947418, 0.012660901993513107, -0.7046968340873718, -0.5487988591194153, 0.7097377181053162, 0.25445783138275146, -1.0933772325515747, 0.350648432970047, 0.08832911401987076, -0.572712779045105, -0.1053847074508667, -0.3322398364543915, -0.011708901263773441, -0.16559487581253052, 0.6488358974456787, 0.544514536857605, 0.3788050413131714, 0.8888674974441528, 0.007002672646194696, 0.7515220642089844, 0.5112630128860474, -0.14914289116859436, 0.0550992414355278, 0.1824405938386917, 0.25939443707466125, -0.46777474880218506, -0.17598219215869904, -0.32119622826576233, 0.38721027970314026, 0.08291036635637283, 0.702276349067688, 0.4479755163192749, -0.48407411575317383, 0.30052053928375244, 0.04607979580760002, 0.24869415163993835, -0.47148045897483826, -0.8890758752822876, 0.044836074113845825, 0.7924525737762451, -0.5989289879798889, -0.09219949692487717, 0.13789857923984528, 0.620647132396698, -0.07506325095891953, -0.05132438614964485, 0.09819996356964111, 0.6082408428192139, 0.07017659395933151, -0.2545943260192871, 0.2827872335910797, -0.20878398418426514, -0.10937885195016861, 0.28921547532081604, 0.03483070805668831, 0.1013379842042923], [0.211124986410141, -0.055157266557216644, 0.29769861698150635, 0.12751998007297516, -0.34681716561317444, -0.20910301804542542, 0.3316322863101959, 0.31491708755493164, 0.2734307050704956, 0.32320818305015564, 0.442269891500473, 0.024832168594002724, 0.36331906914711, -0.02575918287038803, 0.15169253945350647, -0.8491952419281006, -0.4424514174461365, -0.45966070890426636, -0.31038156151771545, 0.053578659892082214, -0.007315531838685274, 0.05060045048594475, 0.026733966544270515, -0.08172395825386047, -0.2749951481819153, 0.16758979856967926, -0.309187114238739, -0.4461098909378052, 0.1622077375650406, -0.12386366724967957, 0.15706852078437805, -0.2653878629207611, -0.08406463265419006, -0.47858309745788574, 1.1720361709594727, -0.07280180603265762, 0.26372912526130676, 0.2710002362728119, -0.3618074953556061, 0.06537070870399475, 0.7448437213897705, -0.8927990794181824, 0.07687072455883026, 0.396376371383667, 0.43178218603134155, 0.3504982590675354, 0.20756296813488007, 0.22744248807430267, -0.03529749810695648, -0.3123375177383423, 0.07637814432382584, -0.1293228715658188, 0.4118269383907318, 1.2796587944030762, -0.1971496194601059, 0.31986522674560547, -0.2455727905035019, -0.10289144515991211, -0.31982630491256714, 0.08712530136108398, 0.13378138840198517, -0.3011443614959717, 0.45109304785728455, 0.27870750427246094], [0.33624398708343506, 0.42567262053489685, 0.37561726570129395, 0.7974213361740112, -1.0975381135940552, -0.7738195061683655, 0.4462434947490692, 0.356664776802063, -0.651512622833252, 0.6970641016960144, -0.2591143250465393, 0.4002089500427246, -0.447924941778183, 0.7391782999038696, 0.23713581264019012, 0.02171889878809452, 0.3898184299468994, 0.2850413918495178, -0.20081274211406708, 0.06905847042798996, 0.2500825524330139, 0.17893153429031372, 0.08470147848129272, -0.13913026452064514, -0.23532308638095856, 0.2859935462474823, -0.05105866864323616, -0.1807165890932083, 0.020411858335137367, -0.4761142134666443, -0.6436415314674377, -0.12604720890522003, -0.0227083470672369, 0.4389100968837738, -0.18288962543010712, 1.1256868839263916, 0.08169491589069366, 0.3123575747013092, -0.383144736289978, 0.8548378944396973, -0.31994038820266724, 0.3590683937072754, 0.08002959936857224, -0.43099668622016907, -0.021078944206237793, 0.20528875291347504, -0.19356684386730194, -0.14104384183883667, 0.03886010870337486, -0.2875092923641205, 0.03573016822338104, 1.351182460784912, 0.3021974265575409, -0.05109405145049095, -0.5748565793037415, -0.3649995028972626, 0.0776648297905922, 0.4223274886608124, -0.1580743044614792, -0.06768257915973663, 0.19147883355617523, 0.046026140451431274, -0.1115589439868927, -0.32009220123291016], [0.05112748593091965, 0.7990016341209412, -0.763541042804718, -0.3752405047416687, 0.5253562331199646, -0.043748077005147934, 0.8038864135742188, 0.4409737288951874, 0.22303466498851776, 0.19961614906787872, 0.7588382363319397, -0.23992861807346344, 0.15145504474639893, -0.3247586488723755, -0.15328742563724518, -0.17665471136569977, -0.04141702130436897, 0.007807696703821421, 0.052496012300252914, -0.24518151581287384, -0.24590465426445007, 0.33040308952331543, 0.445382684469223, -0.16227367520332336, -0.5074542760848999, 0.17377150058746338, -0.22982901334762573, -0.7287821769714355, 0.8014534115791321, 0.5069801211357117, -0.37751153111457825, 0.38980832695961, -0.5658780932426453, -0.846779465675354, 0.75993812084198, 0.09438471496105194, -0.05826490372419357, 0.4620838463306427, -0.08397702872753143, 0.26071393489837646, 0.17449772357940674, -0.43097081780433655, 0.36146777868270874, 0.1325538009405136, 0.3847200572490692, 0.017560996115207672, 0.40668097138404846, -0.9350866675376892, -0.40637683868408203, -0.2631271481513977, 0.3933723568916321, 0.20633465051651, 0.10404891520738602, 0.35057151317596436, -0.255912721157074, 0.36653634905815125, -0.032975561916828156, -0.5394341349601746, -0.774542510509491, -0.1786395162343979, -0.10258930176496506, -1.1843291521072388, 0.678076446056366, 0.23610560595989227], [0.3375261127948761, -0.04894164949655533, 0.24464337527751923, -0.010039043612778187, 0.48898181319236755, -0.010428193025290966, -0.1679295301437378, -0.6483719348907471, -0.3267047107219696, 0.21550434827804565, 0.16356106102466583, -0.4221808612346649, 0.2946915030479431, 0.32587358355522156, -0.21201616525650024, 1.4732166164321825e-05, 0.6913040280342102, -0.2604125738143921, 0.40226995944976807, 0.1334327757358551, -0.43243494629859924, 0.19655802845954895, 0.37022095918655396, 0.016828494146466255, 0.931134045124054, 0.28009364008903503, 0.6684993505477905, -0.06252696365118027, -0.364838182926178, -0.8360595107078552, -0.09714857488870621, 0.004554024897515774, 0.305830180644989, 0.12839637696743011, -0.09963152557611465, 0.03463808819651604, 0.2712010145187378, 0.18024225533008575, 0.01855340413749218, 0.852212131023407, 0.23628772795200348, 0.0443645641207695, 0.1428622454404831, -0.5513196587562561, -0.5966589450836182, -0.5859949588775635, -0.3517708480358124, 0.5101245641708374, 0.12755541503429413, 0.12165746837854385, 0.3798353374004364, 0.1600228250026703, -0.30099502205848694, 0.2906652092933655, 0.33489900827407837, 0.1698823869228363, 0.6420066356658936, 0.2445063292980194, 0.4380784034729004, 0.09292382001876831, -0.7598091959953308, 0.9556530714035034, -0.3725404441356659, -0.42097535729408264], [0.529085636138916, -0.2517763674259186, 0.06551063060760498, 0.40814393758773804, -0.06147066503763199, 0.41719651222229004, -0.03920863941311836, -0.5509870648384094, -0.7334549427032471, 0.15495221316814423, -0.8285971879959106, -0.2766602635383606, 0.36486321687698364, 0.007183735258877277, -0.22540012001991272, -0.07084658741950989, 0.07616928964853287, -0.21013124287128448, 0.4218136668205261, 0.4417416751384735, -0.11574462056159973, 0.32798850536346436, -0.06919004768133163, -0.2388114333152771, 0.6676672697067261, 0.5117706060409546, 0.30639660358428955, 0.5322523713111877, -0.20149171352386475, 0.03088546171784401, -0.2816218435764313, -0.5487635731697083, 0.27434274554252625, -0.18583162128925323, -0.08419189602136612, -0.5321595072746277, 1.2241865396499634, -0.5914121270179749, 0.36449292302131653, 0.31180593371391296, -0.36009103059768677, 0.39773499965667725, 0.08590768277645111, 0.24245527386665344, -0.8279500603675842, -0.3357672691345215, 0.2276003062725067, 0.8845796585083008, 0.050077248364686966, -0.1624528467655182, -0.046351950615644455, -0.527062714099884, -0.8322104215621948, 0.2110712081193924, 0.24223823845386505, -0.342327743768692, 0.30264440178871155, -0.025113806128501892, 0.791289210319519, 0.29800179600715637, 0.21412040293216705, 0.9664183855056763, -0.2882571518421173, -0.08037436008453369], [0.09746407717466354, 0.1315545290708542, 0.4559655487537384, 0.12363434582948685, 0.17785145342350006, 0.3320941627025604, -0.2619633078575134, 0.8716927766799927, -0.024548545479774475, 0.034057848155498505, 0.6835894584655762, -0.5285809636116028, -0.9833606481552124, -0.4142656922340393, 0.893366277217865, -0.09726381301879883, -0.36582598090171814, 0.28251829743385315, -0.10557272285223007, -0.5731589794158936, 0.5135762095451355, 0.07355736196041107, -0.13648255169391632, 0.40385040640830994, -0.3747933804988861, -0.6723278760910034, -0.009155822917819023, -0.7853697538375854, 0.6522329449653625, 0.07940680533647537, 0.3205734193325043, 0.20627190172672272, -0.6495571136474609, -0.004851099569350481, -0.0010366388596594334, 0.4487396776676178, -0.5938936471939087, 0.1370410919189453, -0.36412376165390015, 0.36897867918014526, -0.5898194313049316, 0.38922011852264404, -0.14653824269771576, 0.022776687517762184, -0.11017165333032608, 0.015924343839287758, -0.011741213500499725, -0.37414929270744324, -0.275130033493042, 0.266476571559906, 0.07187535613775253, 0.04773072898387909, 0.18915458023548126, -0.2811998128890991, 0.005720860790461302, -0.09627559781074524, -0.03396695852279663, -0.07666464895009995, -1.4230796098709106, -0.5173065662384033, -0.37567806243896484, -1.432202935218811, -0.036168843507766724, 0.0018993980484083295], [0.009675976820290089, 0.33658865094184875, 0.06651537865400314, -0.0777890533208847, 0.001706278300844133, -0.11703680455684662, 0.4601679742336273, 0.09257067739963531, 0.32355424761772156, 0.06887149065732956, -0.6090111136436462, -0.3264617621898651, -0.24946780502796173, -0.22817088663578033, 0.14608193933963776, -0.4084271192550659, -0.5839231610298157, -0.48708951473236084, -0.5134449005126953, 0.1837044507265091, -0.12414804846048355, -0.09401688724756241, -0.2616516649723053, 0.4432978928089142, -0.10876885801553726, -0.4781133234500885, -0.5058124661445618, -0.647808313369751, 0.3502953350543976, -0.016586076468229294, 0.286527544260025, 0.5132423043251038, -0.529209554195404, -0.05926420912146568, 0.41355425119400024, -0.21953073143959045, -0.38523590564727783, -0.14461109042167664, 0.965731143951416, -1.4794801473617554, 0.4638802707195282, -0.736764669418335, -0.08238629251718521, 0.009039047174155712, 0.2701963782310486, 0.35210466384887695, 0.20032432675361633, -0.6743186116218567, -0.42001885175704956, -0.027953097596764565, -0.8164836764335632, -0.05690137296915054, 0.9412323236465454, 0.3650071322917938, -0.29166680574417114, 0.22092419862747192, -0.8195538520812988, 0.7123399972915649, -0.8906742334365845, 0.005633939523249865, 0.38219398260116577, -0.03997467830777168, -0.039147406816482544, -0.05777043476700783], [0.2613261938095093, 0.06611019372940063, 0.04062012583017349, 0.17470696568489075, -0.10542386025190353, -0.15692777931690216, 0.7229944467544556, 0.27266544103622437, 0.32756108045578003, -0.3272414803504944, 0.33019453287124634, 0.0332653783261776, 0.2242085039615631, -0.008457317017018795, -0.10375885665416718, -0.8018460869789124, -0.41389328241348267, -0.24813932180404663, -0.44309234619140625, -0.39853596687316895, -0.14854538440704346, -0.22511133551597595, 0.01769142784178257, 0.153505340218544, -0.5837386846542358, -0.12053763121366501, -0.5622355341911316, 0.1387820839881897, -0.10300188511610031, -0.025135956704616547, 0.2975562512874603, 0.0020330091938376427, 0.09563470631837845, -0.2552854120731354, 1.1268298625946045, -0.2724378705024719, 0.027236266061663628, -0.37856531143188477, 0.1529024839401245, 0.2184094786643982, 1.035176157951355, -0.9052808284759521, 0.380098819732666, -0.027436356991529465, -0.03726333752274513, 0.5401855707168579, -0.09428850561380386, 0.3715030252933502, -0.4193860590457916, -0.08754576742649078, -0.00224572722800076, -0.044959984719753265, 0.11209938675165176, 1.1387161016464233, 0.22604252398014069, -0.3721768856048584, -0.4766353368759155, -0.5569140315055847, 0.051836978644132614, 0.012778747826814651, -0.22854216396808624, -0.21933946013450623, 0.1038445457816124, 0.45977848768234253], [0.2807796597480774, -0.9238000512123108, -0.09815339744091034, 0.3345504701137543, 0.22597429156303406, -0.2966515123844147, -0.031160268932580948, -0.8048958778381348, -0.2876589596271515, 0.4239925742149353, 0.008181869983673096, -0.4237096607685089, 0.6575224995613098, -0.06657838076353073, -0.36655086278915405, -0.39532455801963806, -0.5216392874717712, 0.29289349913597107, 0.21341069042682648, 1.3103312253952026, 0.12153752148151398, -0.15085762739181519, -0.2492549568414688, 0.6000947952270508, -0.2432878315448761, 0.05854041129350662, -0.03500014916062355, 0.1378258466720581, -0.21697461605072021, -0.12501636147499084, -0.5040300488471985, -0.3431786000728607, 0.32421010732650757, 0.6332234740257263, 0.2443365603685379, -0.760999321937561, 0.0827951654791832, -0.4950762987136841, 1.0770834684371948, -0.13849025964736938, 0.5377440452575684, -0.6659249663352966, -0.09827364981174469, -0.7682886719703674, 0.1172104999423027, -0.046337176114320755, -0.1330716907978058, 0.8086310029029846, 0.4226266145706177, -0.3162904977798462, -0.21643531322479248, -0.4669206440448761, -0.24849960207939148, 0.19992253184318542, -0.7885874509811401, 0.1991233378648758, -0.41211745142936707, 0.4556005895137787, 0.022782016545534134, -0.024849889799952507, -0.004710367880761623, 0.4824913740158081, -0.8379672169685364, -0.6736552715301514], [0.06934310495853424, -0.3503132462501526, 0.6331625580787659, 0.11786501109600067, -0.2900305688381195, -0.3221726417541504, 0.31256598234176636, 0.08536334335803986, 0.3373560309410095, -0.47788748145103455, 0.10927588492631912, 0.22685807943344116, -0.6105510592460632, -0.3555688261985779, 1.0185331106185913, -0.06522024422883987, -0.14537130296230316, -0.3065715730190277, -0.6447421312332153, 0.15264900028705597, 0.20705664157867432, -0.5449476838111877, 0.14250411093235016, -0.41898414492607117, -0.08735878020524979, -0.44546517729759216, -0.09430001676082611, -0.6703377962112427, 0.4768450856208801, 0.5649502873420715, -0.10082779824733734, 0.24364545941352844, -0.38449499011039734, 0.11550982296466827, 0.46448591351509094, -0.15177296102046967, -0.16029717028141022, -0.5472373366355896, 0.024418171495199203, -0.3930918574333191, -0.7390405535697937, -0.3881215751171112, 0.07678919285535812, 0.2182062268257141, -0.10295634716749191, 0.03806193917989731, -0.6453768610954285, -0.5837538242340088, 0.00538273248821497, 0.06236749514937401, -0.16491983830928802, 1.238386869430542, 0.03547532856464386, 0.2722664773464203, -0.8280390501022339, -0.9656280875205994, 0.7249782085418701, 0.5580491423606873, -0.8597433567047119, -0.59981769323349, 0.3804921805858612, -0.10123062133789062, -0.23581631481647491, 0.005543667823076248], [0.3650353252887726, 0.6935352087020874, 0.14103251695632935, 0.3102666735649109, -0.8261479735374451, -0.37748637795448303, 0.5197350382804871, -0.16158883273601532, 0.15289413928985596, -0.29806968569755554, 0.22645831108093262, 0.558316707611084, 0.14794844388961792, 1.6585677862167358, -0.30709490180015564, -0.4515204131603241, 0.06448324024677277, -0.09182044118642807, 0.33448323607444763, -1.3077664375305176, -0.18177255988121033, 0.4285663962364197, 0.35623905062675476, -0.12102192640304565, -0.07102973014116287, -0.04445755481719971, 0.12181258201599121, 0.32913389801979065, -0.08905652165412903, -0.37111836671829224, -0.41942188143730164, -0.17014405131340027, 0.21752148866653442, -0.1922454982995987, 0.056777339428663254, 1.2188140153884888, 0.10533986985683441, 0.27068978548049927, -1.0878463983535767, 0.4634428322315216, -0.35814884305000305, 0.3095541000366211, -0.1364404708147049, 0.2119525969028473, -0.06339021027088165, -0.16800877451896667, 0.08544804900884628, -0.15158136188983917, -0.38399985432624817, 0.4278835952281952, -0.019523505121469498, 0.8073543310165405, 0.4707280993461609, -0.1290220469236374, 0.5779877305030823, 0.555755615234375, 0.23325787484645844, -0.337954044342041, -0.13597096502780914, -0.1645737737417221, 0.1091996431350708, 0.15270543098449707, 0.2349446415901184, 0.28574419021606445], [-0.18565863370895386, -0.33469417691230774, -0.028412632644176483, -0.22042495012283325, -0.23138943314552307, 0.31014004349708557, 0.22451575100421906, -0.4317360520362854, 0.16957256197929382, 0.43444788455963135, 0.2877030074596405, -0.14197233319282532, 0.2537439167499542, 0.06773504614830017, 0.1472160965204239, 0.49729692935943604, 0.29641321301460266, -0.020160380750894547, 0.2431931495666504, 0.1917588859796524, -0.04564168304204941, -0.4171554148197174, -0.3535025119781494, -0.49406009912490845, 0.4670668840408325, 0.23596599698066711, 0.2904855012893677, 0.38680166006088257, 0.16233490407466888, -0.7647629380226135, 0.25010064244270325, 0.1856008917093277, 0.0016007790109142661, -0.17023643851280212, -0.8167906403541565, -0.3877205550670624, -0.11012009531259537, 0.24000270664691925, 0.04969213530421257, -0.1767868548631668, -0.8623753190040588, 1.1719534397125244, 0.2869304120540619, -0.13730086386203766, 0.08651341497898102, -0.17598892748355865, 0.1876038908958435, 0.8433814644813538, 0.5269574522972107, -0.17333681881427765, 0.12750740349292755, -0.5341189503669739, 0.011435703374445438, -1.0992262363433838, -0.2833293080329895, 0.5214450359344482, 0.49251142144203186, -0.21953780949115753, 0.0711246132850647, 0.1924261897802353, 0.10316312313079834, 0.08478322625160217, -0.06491225957870483, -0.3241749107837677], [0.11352252215147018, -0.051534418016672134, -0.32403501868247986, -0.288277268409729, 0.10753678530454636, -0.5525054931640625, -0.21557660400867462, 0.6407703161239624, -0.19458891451358795, -0.34661298990249634, -0.32315200567245483, -0.211044043302536, -0.5023115873336792, -0.39540156722068787, 0.7680274844169617, -0.05551006644964218, -0.15033945441246033, 0.06702776998281479, -0.3593236207962036, -0.025951918214559555, 0.2989233732223511, 0.09488631039857864, -0.11127839982509613, -0.26135119795799255, -0.21184398233890533, -0.11133009195327759, 0.16639314591884613, -0.3797103464603424, 0.8526411652565002, 0.624415397644043, -0.5370394587516785, 0.47940823435783386, 8.159596472978592e-05, -0.2917425036430359, 0.04386685788631439, 0.002860073233023286, -0.3639088571071625, -0.05592627078294754, -0.1343892514705658, -0.3557283878326416, -0.3440060615539551, 0.5620363354682922, 0.03712734952569008, 0.4230508804321289, -0.07153075933456421, 0.5843846201896667, 0.21774491667747498, -0.6438378691673279, 0.28411778807640076, -0.18118660151958466, 0.4242798388004303, -0.1398974359035492, 0.5978105664253235, -0.09055738896131516, -0.21044528484344482, -0.40195947885513306, -0.09645005315542221, 0.45523908734321594, -0.8873916268348694, -1.4817460775375366, 0.06400373578071594, -1.3161612749099731, -0.18788962066173553, 0.7111810445785522], [-0.1755613535642624, -0.5901988744735718, 0.3162353038787842, -0.19950932264328003, 0.06459426134824753, -0.6689959764480591, 0.0477086566388607, -0.048464324325323105, 0.21974575519561768, 0.37043648958206177, -0.10736361891031265, -0.09357494860887527, -0.21381457149982452, 0.2353334277868271, 0.18896231055259705, -0.4855262041091919, -1.0206378698349, -0.24819344282150269, -0.5922160148620605, -0.23766624927520752, 0.40264052152633667, -0.27460652589797974, 0.27848219871520996, 0.4336050748825073, -0.6063992381095886, -0.15776820480823517, -0.6206657290458679, -0.8175134062767029, 0.15287524461746216, 0.24221700429916382, -0.13733747601509094, 0.3205261826515198, -0.5899644494056702, 0.15723055601119995, 0.5182332992553711, -0.6105899214744568, -0.1526397466659546, -0.006032564677298069, -0.2933700978755951, -0.7031046748161316, 0.7080947160720825, -0.6763137578964233, 0.06208799406886101, 0.3898064196109772, 0.009087279438972473, 0.8736297488212585, -0.34965986013412476, -0.12753978371620178, 0.38367578387260437, 0.3009261190891266, -0.733018159866333, -0.14742623269557953, 0.10060720145702362, 0.20626948773860931, 0.09061568975448608, -0.416591078042984, -0.20637068152427673, -0.3084101974964142, -0.17974334955215454, -0.09312281757593155, 0.43701544404029846, -0.742257297039032, -0.3349553346633911, -0.18638460338115692], [0.038124438375234604, -0.028050435706973076, 0.4436442255973816, 0.043242327868938446, -1.3563041687011719, -0.3624248206615448, -0.14827847480773926, -0.1430240422487259, 0.14298157393932343, 0.7287709712982178, -0.43217188119888306, 0.816043496131897, 0.1557668298482895, 1.2032701969146729, 0.1300651729106903, 0.12948590517044067, -0.06100870668888092, 0.5277096033096313, -0.23071812093257904, 0.24477162957191467, -0.31161150336265564, -0.011511250399053097, -0.3376867473125458, -0.9446394443511963, 0.2745993137359619, -0.3396414816379547, -0.3978205919265747, 0.4096631109714508, 0.026764746755361557, -0.059333089739084244, 0.05144219473004341, -0.3175327777862549, 0.20600593090057373, 0.4431917667388916, 0.2709723114967346, 0.1808127462863922, -0.06723421066999435, -0.03034168854355812, -0.104218989610672, -0.15573744475841522, -0.26987698674201965, -0.37016022205352783, -0.09919025003910065, 0.12093706429004669, 0.010549335740506649, 0.0046362075954675674, -0.26415276527404785, -0.08201126754283905, 0.526327908039093, 0.014115136116743088, -0.450916051864624, 0.16779659688472748, -0.370011568069458, -0.11138494312763214, -0.4369252920150757, -0.070146843791008, 0.29965871572494507, -0.21676941215991974, -0.277123361825943, 0.2027142345905304, -0.011290201917290688, -0.040109485387802124, -0.5119778513908386, -0.1233808845281601], [-0.5485950708389282, 0.3477669954299927, -0.3204001486301422, -0.12785908579826355, 0.4226672053337097, -0.3786916732788086, 0.19262634217739105, 0.833665132522583, -0.001856985967606306, -0.05084231123328209, 0.009943393059074879, 0.1412527710199356, -0.7819781303405762, -0.2218596190214157, 0.8985809087753296, -0.21381497383117676, 0.07838606089353561, 0.02930821105837822, -0.34161168336868286, 0.08550519496202469, 0.09284840524196625, 0.17389783263206482, 0.2920866906642914, -0.19466325640678406, -0.5958271622657776, -0.2243010252714157, -0.21213281154632568, -0.14765653014183044, 0.09774462133646011, -0.10753361880779266, 0.05485973879694939, 0.030067816376686096, 0.1996183544397354, 0.14447644352912903, -0.17249372601509094, 0.25857242941856384, -0.934427797794342, -0.07296212017536163, -0.1459517776966095, -0.05143622308969498, -0.18538950383663177, 0.3267545700073242, -0.37253129482269287, -0.059779707342386246, 0.7054371237754822, 0.14990466833114624, 0.004285451956093311, -0.18087543547153473, -0.26364418864250183, 0.5083853006362915, -0.23819398880004883, 0.8565500974655151, 0.1424829065799713, 0.21968945860862732, -0.11314269155263901, -0.008321110159158707, -0.5803829431533813, -0.4237314462661743, -1.1343114376068115, 0.018153829500079155, -0.09198560565710068, -1.0651514530181885, 0.232391819357872, 0.7292936444282532], [-0.3648156523704529, -0.5212726593017578, -0.10744087398052216, 0.5878735184669495, 1.0338140726089478, 0.12571260333061218, -0.22620560228824615, 0.48112937808036804, 0.16458632051944733, -0.3417256772518158, 0.13217918574810028, -0.5611987709999084, -0.08924940228462219, -1.3628313541412354, 0.19025875627994537, -0.048630595207214355, 0.18800194561481476, -0.08877821266651154, 0.34576737880706787, 0.44273701310157776, -0.2665749192237854, 0.14457763731479645, 0.23253387212753296, 0.3908480107784271, 0.15277500450611115, -0.525964617729187, -0.07364541292190552, -0.06128888577222824, 0.15965193510055542, -0.005905350670218468, 0.23359638452529907, 0.009339729323983192, -0.1282505840063095, -0.10368791222572327, 0.10006632655858994, -0.6455579400062561, 0.26240596175193787, -0.30393412709236145, 0.43250203132629395, -0.5685887932777405, 0.7045087814331055, -0.5527264475822449, 0.2936974763870239, 0.7692503333091736, 0.30252620577812195, -0.11274966597557068, 0.03496600687503815, -0.6909138560295105, -0.3354957699775696, -0.31622591614723206, 0.0318366140127182, -0.16740639507770538, 0.06995878368616104, 0.45264872908592224, -0.008998380042612553, 0.3797529637813568, -0.23760978877544403, -0.06109767407178879, -0.37676486372947693, -0.3839874565601349, 0.13445262610912323, -0.27932894229888916, -0.12789113819599152, 0.528095006942749], [0.06902884691953659, 0.04045730084180832, 0.2688310444355011, -0.06559305638074875, -1.2483134269714355, 0.2455887794494629, -0.010448750108480453, -0.3045009672641754, -0.10614330321550369, 0.4096164107322693, 0.05303141102194786, 1.0485291481018066, 0.13071906566619873, 1.2285014390945435, 0.5716057419776917, 0.0391438826918602, 0.22160214185714722, 0.1670909970998764, -0.27300509810447693, 0.3539557456970215, 0.22725695371627808, 0.4519811272621155, -0.10234080255031586, -0.8313684463500977, -0.43551796674728394, 0.22735576331615448, 0.2204342782497406, -0.4101499021053314, 0.30091211199760437, -0.011462798342108727, -0.25310608744621277, -0.2283961921930313, 0.07006116211414337, 0.18730966746807098, -0.07259105890989304, 0.31757956743240356, 0.037529364228248596, -0.238201305270195, -0.10660873353481293, -0.32368332147598267, 0.060009539127349854, 0.3398769199848175, -0.21880273520946503, 0.10195118188858032, 0.061092037707567215, 0.3559536039829254, -0.22856135666370392, 0.2787521183490753, 0.12413566559553146, 0.2042931318283081, -0.00877268984913826, 0.03222509101033211, 0.21119718253612518, -0.2960186302661896, -0.510448694229126, -0.3908422291278839, -0.14233234524726868, 0.12661713361740112, -0.251671701669693, 0.11164591461420059, -0.1795569658279419, 0.07887079566717148, -0.4164545238018036, 0.16060282289981842], [0.5570823550224304, 0.04084990173578262, -0.282970666885376, -0.07218150794506073, -0.724801778793335, -0.04624123126268387, 0.7502949237823486, 0.7020889520645142, 0.3023087680339813, -0.24073746800422668, 0.05066803842782974, 0.4498556852340698, 0.023005587980151176, 0.7100426554679871, 1.690907597541809, 0.27255678176879883, -0.49523255228996277, -0.06664162129163742, 0.17223325371742249, -0.3020172715187073, 0.4482186734676361, 0.2261955887079239, -0.11893100291490555, -0.3105027377605438, -0.17079460620880127, -0.566770613193512, -0.4466637372970581, -0.40269166231155396, 0.3429368734359741, 0.7754119038581848, 0.1172521635890007, -0.03050772100687027, 0.3268378973007202, 0.26318806409835815, -0.11167476326227188, 0.5099802017211914, 0.03017650730907917, 0.5257004499435425, -0.6702489852905273, -0.595755934715271, 0.43742552399635315, 0.12095525860786438, 0.11423201113939285, -0.295078843832016, -0.01408438291400671, 0.32876622676849365, -0.13247592747211456, -0.8494029641151428, -0.20156440138816833, 0.4903603494167328, -0.2914748191833496, -0.2594660818576813, -0.21344105899333954, -0.0384749099612236, -0.39751842617988586, -0.012865331955254078, -0.22381849586963654, 0.4355774521827698, -1.2299472093582153, -0.31661224365234375, 0.7736284136772156, -0.5553727746009827, -0.0668376237154007, 0.2195775806903839], [-0.46139469742774963, -0.06970074027776718, -0.11409853398799896, -0.10259926319122314, 1.5010827779769897, 0.3438299298286438, -0.011287901550531387, 0.01783507503569126, -0.6790942549705505, 0.20290213823318481, -0.36037343740463257, -0.9354161620140076, -0.5102631449699402, -1.387412190437317, 0.3982454836368561, -0.15256212651729584, -0.017460694536566734, 0.0734771192073822, 0.33394989371299744, 1.141243815422058, -0.23206934332847595, 0.0011696440633386374, -0.21186691522598267, 0.2619050145149231, -0.22017253935337067, -0.5155348181724548, -0.2649271488189697, -0.34200242161750793, 0.34281662106513977, 0.4627465605735779, -0.025550829246640205, -0.594222903251648, -0.04575534164905548, 0.3863391876220703, -0.3356322944164276, -0.10486623644828796, -0.535868227481842, -0.5935784578323364, 0.5801410675048828, -0.570277750492096, 0.19713014364242554, 0.28298649191856384, 0.15539680421352386, -0.43300166726112366, -0.4916493594646454, 0.4439699649810791, 0.3756868243217468, -0.38513490557670593, 0.16654081642627716, 0.07363495975732803, 0.14180517196655273, -0.6764402985572815, 0.2167070209980011, -0.006827650126069784, -0.156490758061409, 0.04611515253782272, -0.7379556894302368, 0.365278959274292, -0.9082151651382446, -0.5405846238136292, 0.37798872590065, -0.8820170760154724, -0.03580152243375778, 0.008334768004715443], [-0.13084951043128967, -0.10834676027297974, 0.030895201489329338, 0.019513266161084175, -0.49878963828086853, 0.09255797415971756, -0.14094983041286469, -0.008216681890189648, 0.18602050840854645, 0.027088221162557602, -0.37245580554008484, 0.3562030494213104, -0.06147000566124916, 0.4693078398704529, -0.10976067185401917, 0.7991020083427429, -0.1017104759812355, -0.13032610714435577, 0.3967203199863434, 0.5209048986434937, -0.30131274461746216, 0.17424336075782776, -0.5257967114448547, -0.17652826011180878, 0.6030423045158386, 0.06758390367031097, -0.2549308240413666, 0.38919690251350403, -0.44267451763153076, -0.26074033975601196, 0.06710518896579742, 0.08669707924127579, 0.5054389834403992, -0.03223957121372223, -1.28842294216156, 0.22750577330589294, 0.33180248737335205, 0.1334446519613266, -0.24722586572170258, 0.06299047917127609, -0.5664228200912476, 1.0394577980041504, 0.04545418918132782, -0.01991472952067852, -0.1268204152584076, -0.2854432165622711, 0.1251891553401947, 0.10031808167695999, -0.09406336396932602, -0.1012851670384407, -0.30850115418434143, -0.46526575088500977, -0.04239187017083168, -0.9642046689987183, -0.2094704806804657, -0.33040571212768555, 0.7836501002311707, -0.15203256905078888, 0.279268354177475, 0.24247249960899353, 0.29082217812538147, 0.1792566180229187, 0.21864807605743408, -0.1910456120967865], [-0.04034436494112015, -0.22990180552005768, 0.41353824734687805, -0.1422080248594284, 0.1970500349998474, 0.01050341036170721, 0.1944577991962433, 0.01823144406080246, 0.36151522397994995, -0.25490182638168335, -0.060421597212553024, -0.07866589725017548, -0.04742731899023056, -0.0044008344411849976, -0.3015846312046051, -1.2644633054733276, -0.18545293807983398, -0.04711611568927765, -0.5091768503189087, -0.3188623785972595, 0.000780263973865658, 0.35103628039360046, 0.05543123930692673, 0.15061967074871063, -0.09311584383249283, -0.2311413437128067, -0.16420051455497742, -0.7506771087646484, 0.764690101146698, 0.471794068813324, 0.3301044702529907, 0.3519617021083832, -0.5435390472412109, 0.4431544244289398, 0.7213655710220337, -0.31817367672920227, 0.012579211965203285, -0.12160234898328781, -0.1442524939775467, 0.3983958959579468, 0.18111054599285126, -0.7516894340515137, -0.18357914686203003, 0.2380191683769226, 0.06989116221666336, 0.1771644949913025, -0.37778598070144653, -0.22350247204303741, 0.0428471602499485, -0.31044209003448486, -0.21589632332324982, -0.0925232321023941, 0.7875936031341553, 0.8015052676200867, -0.27147918939590454, -0.3100333511829376, 0.11578035354614258, 0.05305393785238266, -0.6999064683914185, -0.19099506735801697, -0.49148327112197876, -0.05466533824801445, -0.2958069145679474, 0.7747229933738708], [-0.0587943010032177, 0.26343971490859985, 0.19024157524108887, -0.09127189964056015, -1.2220455408096313, -0.05165591090917587, -0.09251924604177475, 0.0571318082511425, -0.05500228330492973, 0.10957855731248856, -0.255937784910202, 1.0933150053024292, -0.35114917159080505, 1.2325899600982666, 0.2736446261405945, 0.2550744414329529, -0.048027362674474716, 0.37004175782203674, 0.22169049084186554, -0.03363843262195587, -0.24914221465587616, -0.12867289781570435, 0.1118520125746727, -0.8361568450927734, 0.21794584393501282, -0.21077482402324677, 0.31881460547447205, 0.10804544389247894, -0.11344099789857864, 0.45158714056015015, -0.2701595425605774, -0.5116305351257324, 0.20374181866645813, -0.040034063160419464, -0.3667648136615753, 0.30900177359580994, 0.12394396215677261, -0.4948256015777588, 0.3245416581630707, 0.6369419693946838, 0.21120022237300873, -0.2297365814447403, -0.29799598455429077, -0.41655927896499634, -0.16102856397628784, 0.2953394055366516, 0.008272391743957996, -0.3222907781600952, 0.42790958285331726, -0.27044394612312317, -0.4115518033504486, 0.10250810533761978, 0.082164466381073, -0.034953098744153976, -0.6403202414512634, 0.13433130085468292, 0.35779061913490295, 0.017765503376722336, -0.042104996740818024, 0.08750948309898376, 0.04894818365573883, 0.1286839097738266, 0.14900247752666473, -0.3975851237773895], [-0.07280892878770828, -0.25660595297813416, -0.12627124786376953, -0.1283370554447174, 0.1694284975528717, 0.3979875147342682, -0.223239004611969, 0.5527147054672241, -0.20918405055999756, 0.39126768708229065, -0.27890095114707947, 0.03738965466618538, -0.4893016219139099, -0.32404032349586487, 0.5741989016532898, 0.6349389553070068, 0.2077629566192627, -0.3125438392162323, 0.36485981941223145, 0.21165679395198822, 0.0008069322793744504, 0.38154634833335876, -0.09816157817840576, -0.04321807995438576, -0.3010634481906891, -0.08684875071048737, -0.2507052719593048, -0.05070091784000397, 0.12044857442378998, 0.010621353052556515, -0.12421014159917831, -0.242073655128479, 0.28988856077194214, 0.17958803474903107, -1.371728777885437, 0.1542816162109375, 0.3888675570487976, 0.23284563422203064, 0.07418625056743622, -0.4289504587650299, -0.8311082124710083, 1.2707751989364624, 0.024343060329556465, -0.09003017842769623, -0.16037949919700623, -0.44791868329048157, -0.065641388297081, 0.03230335935950279, 0.3945195972919464, -0.26669347286224365, 0.03549545630812645, -0.09937093406915665, -0.0327293835580349, -0.6958807110786438, -0.45879867672920227, 0.4452231526374817, 0.1969587206840515, -0.3166821300983429, 0.057237908244132996, -0.1854199469089508, -0.037039004266262054, -0.21594128012657166, 0.35599350929260254, -0.43698590993881226], [0.007187427952885628, 0.24510416388511658, -0.13291192054748535, 0.08702044188976288, -0.1977016031742096, 0.2432737797498703, 0.7033835053443909, 0.8903046250343323, 0.7660008668899536, -0.28959840536117554, 1.0318093299865723, -0.4155365526676178, 0.3938031494617462, -0.11670346558094025, 0.048320360481739044, -0.1612703651189804, -0.04218669980764389, 0.2080368548631668, -0.31857678294181824, -0.490092933177948, 0.12990765273571014, -0.0714893788099289, -0.25577473640441895, 0.24816952645778656, -0.13657690584659576, -0.26961550116539, 0.16155698895454407, -0.6495528817176819, 0.34606632590293884, 0.4865838587284088, 0.44767165184020996, 0.6282989382743835, -0.5565050840377808, -0.24075166881084442, 0.5720288157463074, 0.2434121072292328, -0.7699123620986938, -0.05528469383716583, -0.5971319079399109, -0.04597362503409386, -0.31057649850845337, -0.26308077573776245, -0.07526130229234695, 0.528059720993042, 0.6471614837646484, -0.1909448653459549, -0.3832557797431946, -0.6822255849838257, -0.20248658955097198, -0.11297980695962906, 0.16699863970279694, 0.9274317622184753, 0.32395797967910767, 0.24932420253753662, -0.47728386521339417, -0.28498902916908264, -0.5685402154922485, -0.6645076274871826, -0.9316966533660889, -0.4683629870414734, -0.0660107359290123, -0.5289528369903564, 0.614960253238678, 0.39922046661376953], [0.1168542355298996, -0.22329168021678925, -0.36461958289146423, -0.010853201150894165, -0.37148770689964294, 0.5891843438148499, -0.27538812160491943, -0.3466910421848297, -0.23166188597679138, 0.27822521328926086, -0.2779269516468048, 0.213132843375206, 0.6187717914581299, 0.6070242524147034, -1.062912940979004, -0.298808753490448, 0.6885573863983154, -0.2349829375743866, 1.0920886993408203, 0.7015520930290222, 0.1989758014678955, 0.21337367594242096, -0.034593552350997925, 0.2917824983596802, 0.02852504700422287, -0.16697965562343597, 0.33867722749710083, -0.10169713199138641, -0.9059342741966248, -0.5239804983139038, -0.16642127931118011, 0.05635607987642288, -0.2847525179386139, -0.13503551483154297, 0.07161599397659302, -0.17961247265338898, 0.22178949415683746, 0.18920108675956726, 0.3022441267967224, 0.6956267356872559, 0.8216032981872559, -0.578402578830719, -0.031366780400276184, -0.4704798460006714, -0.38569965958595276, 0.21620266139507294, -0.1674702763557434, 1.0223183631896973, -0.2640853822231293, -0.4696895182132721, 0.348174124956131, 0.0668976902961731, -0.32536590099334717, 0.7455508708953857, -0.2872612476348877, -0.06763914972543716, 0.469242125749588, -0.3595437705516815, 0.8454383015632629, 0.3385717272758484, -0.657886803150177, 1.026545763015747, -0.04007672891020775, -0.1978531777858734], [0.03389958664774895, -0.21086393296718597, -0.19984695315361023, -0.3638134002685547, -0.3235939145088196, -0.15277400612831116, 0.2241305559873581, -0.7938186526298523, -0.04699739068746567, -0.11316520720720291, -0.6119693517684937, 0.6285787224769592, 0.30788537859916687, 0.05503270402550697, -0.5965726971626282, 0.46381351351737976, 0.3505094647407532, -0.17764785885810852, -0.15779231488704681, -0.23417331278324127, -0.0023849806748330593, 0.7403225898742676, 0.4287550747394562, 0.06438121944665909, 0.30651378631591797, 0.35915407538414, 0.38036227226257324, 0.8060385584831238, -0.43483221530914307, -0.7714928984642029, -0.0200137160718441, 0.16293887794017792, -0.30201324820518494, -0.07743975520133972, 0.2604743242263794, 0.01929214969277382, 0.7643600702285767, 0.16997113823890686, -0.23802302777767181, 0.9199830889701843, -0.3579871356487274, -0.04529222473502159, 0.4056328535079956, -0.20734655857086182, -0.33384478092193604, 0.19092638790607452, 0.7441745400428772, -0.021215731278061867, -0.12716124951839447, 0.2531949281692505, 0.12761709094047546, 0.34586113691329956, -0.1743580847978592, -0.2230166494846344, 0.3976883292198181, 0.6316258907318115, 0.02167341485619545, 0.14587871730327606, 0.23072081804275513, 0.47392508387565613, -0.7805113792419434, 1.1924082040786743, 0.07467560470104218, -0.08527872711420059], [0.08700495213270187, -0.23428626358509064, -0.2911170721054077, 0.7144887447357178, -0.18649674952030182, -0.8436708450317383, -0.4087234139442444, 0.5144551396369934, 0.3051794171333313, 0.11231743544340134, 0.19579333066940308, -0.1744787096977234, -0.9503870010375977, 0.6028249263763428, 0.5311238169670105, 0.15915261209011078, 0.03134248033165932, 0.16068845987319946, -0.32116827368736267, 0.46140238642692566, -0.05722498521208763, -0.33114519715309143, -0.06998930126428604, -0.3598935008049011, -0.5613559484481812, -0.3518926501274109, 0.16563968360424042, 0.47407233715057373, -0.4593101739883423, -0.44201624393463135, -0.13181862235069275, -0.29532843828201294, -0.0885937511920929, 0.5181612968444824, -0.170352041721344, 0.06384042650461197, -0.3538047969341278, -0.7807462215423584, -0.36748209595680237, 0.2641820013523102, -0.561306893825531, 0.3679017424583435, -0.5739507079124451, -0.1302713006734848, 0.3999475836753845, -0.6462572813034058, -0.2632140815258026, -1.4650371074676514, 0.4618107080459595, -0.05633706972002983, -0.41012680530548096, 0.864804744720459, -0.2338925153017044, -0.6217724680900574, -0.07294819504022598, -0.6778016686439514, 0.09561628103256226, -0.04306340590119362, -0.8963606953620911, -0.1923900842666626, -0.19037288427352905, -0.5580233931541443, -0.2755306661128998, 0.021126262843608856]], "fc1.bias": [0.4960595667362213, -0.04353949427604675, 0.097471684217453, 0.6309950351715088, 0.018813608214259148, 0.21101267635822296, -0.39934730529785156, 0.45274242758750916, 0.16577565670013428, 0.17834743857383728, -0.1578594595193863, 0.17657479643821716, -0.7773428559303284, 0.09721153229475021, -1.014851450920105, 0.04246191680431366, 0.6339114904403687, 0.5200589299201965, 0.37096816301345825, 0.5425831079483032, -0.7906410098075867, 0.3501887321472168, -0.31931453943252563, 0.09059592336416245, -0.011184513568878174, -0.5026798248291016, 0.10853517055511475, -0.013798214495182037, -0.08680468797683716, -0.3328598141670227, 0.6315907835960388, 0.08891739696264267], "fc2.weight": [[0.15848930180072784, 0.08681191504001617, -0.05619419738650322, 0.1283338963985443, 0.42877304553985596, 0.014262215234339237, -0.027969587594270706, 0.0846816897392273, 0.14291098713874817, -0.3916952311992645, 0.2634850740432739, 0.26544812321662903, 0.4012310802936554, -0.02434641681611538, -0.239419624209404, -0.3957936763763428, -0.30514657497406006, 0.07688162475824356, 0.1125323474407196, 0.0962129682302475, 0.003357712645083666, -0.33838316798210144, -0.21906410157680511, -0.03001500479876995, -0.45261457562446594, 0.09730303287506104, -0.2684941589832306, -0.35130900144577026, -0.17882278561592102, 0.2630396783351898, 0.03412561118602753, 0.1356499344110489], [-0.20706413686275482, -0.15120060741901398, 0.14059294760227203, -0.03848494961857796, -0.3782222867012024, 0.03799005225300789, 0.09681922942399979, -0.17206430435180664, -0.03200625255703926, 0.3368717133998871, 0.2426014393568039, -0.1006397232413292, 0.27873048186302185, -0.028244411572813988, -0.49404457211494446, 0.27088627219200134, 0.03153996542096138, 0.16149625182151794, -0.16340944170951843, 0.4738485813140869, -0.006300848443061113, -0.1548074334859848, -0.0717630460858345, 0.42244231700897217, 0.3922522962093353, 0.005912331864237785, 0.1795150488615036, 0.3735991418361664, 0.036373745650053024, -0.0880875214934349, -0.053542591631412506, 0.21049365401268005]], "fc2.bias": [0.5275795459747314, 0.4434162378311157]}