{"fc0.weight": [[0.36629313230514526, -0.03156949579715729, 2.7118446826934814, -0.5356459617614746, 0.10251979529857635, 0.18242427706718445, 2.7600698471069336, -1.2017545700073242], [-0.35142552852630615, -0.035092368721961975, 0.9901970028877258, -1.7803045511245728, -0.10930289328098297, -0.03438499942421913, 1.4051927328109741, -0.437308132648468], [0.023068204522132874, 0.7512087225914001, 0.021329697221517563, -1.3482972383499146, -0.24378417432308197, -0.19291752576828003, -0.6375203728675842, -0.0854082852602005], [-0.052803777158260345, -1.0429390668869019, 0.04362975433468819, 0.3832044303417206, -0.1311873495578766, 0.2838186025619507, -0.542945384979248, -0.1701890528202057], [0.8072264194488525, -0.08303146809339523, 1.7207798957824707, 0.355603963136673, -0.17558221518993378, 0.11806180328130722, 1.762255072593689, -0.09851876646280289], [0.037776879966259, -0.544022798538208, -0.4781365394592285, -0.017200907692313194, -0.45756739377975464, 0.1657094806432724, -0.48742514848709106, -0.17657439410686493], [-0.017314499244093895, 0.2861730754375458, 0.7448804378509521, -2.3112986087799072, -0.008621658198535442, 0.39748260378837585, 0.8428489565849304, 0.2508837580680847], [-0.008138285018503666, 1.105759620666504, -0.12214792519807816, -1.1468135118484497, 0.1827307790517807, 0.45612919330596924, 0.49523746967315674, -0.49821558594703674], [0.7024530172348022, 0.062457211315631866, -2.77776837348938, 0.06438679993152618, -0.13685093820095062, 0.009183159098029137, -2.9056105613708496, 1.1731458902359009], [0.9180346131324768, 0.02174581028521061, 0.9026191234588623, -1.241973876953125, -0.4347923696041107, 0.2125997245311737, 0.7238723039627075, 0.5871174335479736], [-0.2574816644191742, 0.19226767122745514, 2.265044689178467, -0.7741861343383789, 0.14138486981391907, -0.1751880645751953, 2.465195894241333, -0.6407701969146729], [-0.343701034784317, 0.05044877156615257, 0.281930148601532, -1.9915721416473389, -0.34658879041671753, 0.009856903925538063, -0.12164915353059769, -1.063418984413147], [0.0325821116566658, 0.7915996313095093, -0.24468553066253662, -0.9623638987541199, -0.2938055694103241, 0.26348167657852173, -0.2999890148639679, -0.47972002625465393], [-0.06670228391885757, -0.3219800591468811, -0.1450035572052002, -1.9986059665679932, -0.1762077808380127, -0.08413546532392502, 0.307936429977417, 0.1394718587398529], [-0.009107234887778759, -0.9680936932563782, -1.2045122385025024, 0.5033044219017029, -0.1411626785993576, 0.15452148020267487, -0.592832088470459, -0.8507305979728699], [0.5492296814918518, -0.027772370725870132, 1.2509199380874634, -0.28494733572006226, 0.17812210321426392, 0.021060321480035782, 1.8564237356185913, 0.6754736304283142], [-0.7327292561531067, 0.0632922425866127, -0.6786426305770874, 1.409045934677124, -0.38144272565841675, 0.3514510691165924, -1.167015790939331, -0.06273604929447174], [-0.980742335319519, 0.05138704180717468, -0.6513368487358093, 0.29552584886550903, -0.4076939821243286, 0.11426291614770889, -0.9600804448127747, -0.1082143634557724], [1.2205742597579956, -0.011150822974741459, -1.7667152881622314, 0.33284926414489746, 0.20276157557964325, -0.1278802752494812, -2.3980798721313477, 0.5104103088378906], [2.662168264389038, -0.007737555541098118, -0.13563309609889984, 0.012784835882484913, -0.07450103759765625, 0.4429410696029663, -0.5797266364097595, -0.3542861044406891], [-2.1257541179656982, -0.011173493228852749, 0.6216542720794678, -0.1277427077293396, -0.2185758501291275, 0.3209948241710663, 1.0766597986221313, 0.9080041646957397], [-0.9638382196426392, -0.08215822279453278, 0.01743181236088276, 1.0534855127334595, -0.14823415875434875, -0.08386165648698807, -0.19703494012355804, -0.22461482882499695], [0.0061478689312934875, 0.8402003645896912, 0.5646012425422668, -0.8357810378074646, -0.36624157428741455, -0.27497541904449463, 0.39170050621032715, 0.32636794447898865], [0.1476622372865677, -0.11946603655815125, 1.933353304862976, 0.16880829632282257, -0.021555062383413315, 0.28697970509529114, 2.186332941055298, -0.4350438416004181], [0.7758151292800903, 0.06151951476931572, 1.4702844619750977, 0.22706684470176697, 0.25575119256973267, -0.3316810727119446, 0.7724019885063171, -0.08360955864191055], [1.4229987859725952, -0.14272668957710266, 0.5930219888687134, -0.17126601934432983, 0.2479969710111618, -0.1115780919790268, 0.609930157661438, 0.48084932565689087], [0.08578790724277496, 0.9755234718322754, -0.2678104639053345, 0.7604966163635254, -0.10843454301357269, 0.2903614938259125, -0.2751954197883606, -0.4999803304672241], [0.13319031894207, -0.3035750687122345, 1.5488916635513306, 0.49206724762916565, 0.19188186526298523, 0.32912155985832214, 2.0945658683776855, -0.25017014145851135], [-0.06087973713874817, -0.2299106866121292, -0.5020491480827332, 2.1241517066955566, -0.47185683250427246, -0.2936587631702423, -0.3397345244884491, 0.029480593279004097], [0.45867660641670227, 0.05568460002541542, 0.5144287943840027, 1.4328413009643555, -0.13929206132888794, -0.278080552816391, 0.24598903954029083, 0.4598793387413025], [-0.024878444150090218, 0.7824188470840454, -0.59173184633255, -1.5162160396575928, 0.37261906266212463, 0.0157869104295969, -0.2601124048233032, -0.19254527986049652], [0.3679337799549103, -0.0013357088901102543, 2.5314767360687256, -0.11227201670408249, -0.07760461419820786, 0.4595016837120056, 3.314617395401001, -0.5750284790992737], [0.7201430797576904, -0.046756207942962646, 1.2804131507873535, -0.2603701651096344, 0.13542945683002472, -0.2682988941669464, 0.9509079456329346, -0.2081889808177948], [2.025020122528076, 0.013927635736763477, -0.7941221594810486, 0.08012077212333679, 0.0918995589017868, -0.34297746419906616, -0.17732353508472443, -0.35079678893089294], [0.029902582988142967, 0.5361650586128235, 0.30211007595062256, 0.9333965182304382, -0.37898674607276917, 0.3172532916069031, 0.11375565826892853, 0.3628496825695038], [-0.12382503598928452, 0.5296463370323181, 2.0293097496032715, 0.3490844666957855, -0.1370798945426941, 0.049153175204992294, 2.0820820331573486, -0.11025173962116241], [-0.30190256237983704, -0.11411888152360916, -2.4967072010040283, -0.2633323073387146, 0.13315518200397491, 0.06192776560783386, -3.1259050369262695, 0.40683427453041077], [0.02323564514517784, 0.44982290267944336, 1.9253766536712646, 1.1329737901687622, 0.13425908982753754, -0.21363548934459686, 2.1684601306915283, -1.040549635887146], [0.2683119475841522, -0.019354935735464096, -2.7987794876098633, -0.3836790919303894, 0.3909524083137512, -0.32944080233573914, -2.5759074687957764, 1.1985996961593628], [0.44876280426979065, 0.24703823029994965, 1.675736904144287, -0.04420348256826401, -0.049813900142908096, -0.1263081282377243, 1.8991731405258179, -0.3084944188594818], [-0.051778651773929596, 0.5573184490203857, -0.32883545756340027, 1.6541064977645874, -0.09407777339220047, -0.13629132509231567, 0.041699428111314774, 0.3264627754688263], [-0.15344837307929993, -0.015962129458785057, 2.039156436920166, 0.1470669060945511, -0.43447214365005493, 0.4338195025920868, 2.8560068607330322, -0.3722149729728699], [-0.001134807476773858, -0.40722230076789856, -0.2510499060153961, 1.307422399520874, -0.4072220027446747, -0.05182871222496033, -0.6543373465538025, -0.7200245261192322], [-0.0013828203082084656, 0.5173877477645874, -2.15329909324646, 0.025529617443680763, -0.3751109540462494, -0.10729359090328217, -1.784340500831604, 0.8664591908454895], [1.8373943567276, -0.031034504994750023, -1.0976039171218872, -0.17602916061878204, -0.28659024834632874, -0.3166601359844208, -0.9679771661758423, -0.06672689318656921], [1.3519734144210815, 0.0419735349714756, 0.4380587041378021, -0.2010812908411026, -0.159885972738266, 0.29005199670791626, 0.7378892302513123, 0.15645731985569], [0.22542835772037506, 0.1616460084915161, 0.40699663758277893, -1.8803637027740479, -0.1607152670621872, -0.06342087686061859, 0.3411582112312317, -0.4042051434516907], [-0.6601054668426514, 0.13245148956775665, -0.4243055582046509, -1.5405926704406738, -0.2168147712945938, 0.20861133933067322, -0.10846593230962753, -0.047601036727428436], [1.624602198600769, -0.06104274094104767, -0.5590752959251404, -0.1261511892080307, -0.3308318257331848, 0.4166254699230194, -0.5139067769050598, -0.5246304273605347], [-0.47012269496917725, 0.287827730178833, -0.9452476501464844, 0.2071981281042099, -0.2778348922729492, -0.4135487377643585, -1.5633598566055298, -0.003018809948116541], [0.0032289992086589336, 0.7470760941505432, -0.09308932721614838, -0.9558107852935791, 0.3557387888431549, -0.2961932420730591, 0.7253585457801819, 0.8135707974433899], [-0.02024073526263237, 0.11008939892053604, -0.3273341655731201, -2.2289156913757324, -0.3760988712310791, -0.44032517075538635, -0.45861491560935974, -0.41747763752937317], [-0.41683170199394226, 0.017846252769231796, -0.5970895886421204, 2.307497978210449, 0.12808410823345184, 0.46060192584991455, -0.9734721779823303, -0.17689287662506104], [1.1431841850280762, 0.020374473184347153, -0.1295686513185501, 0.6718986630439758, 0.40572643280029297, 0.3065537214279175, 0.044311799108982086, 0.3899022042751312], [0.477789968252182, 0.044157497584819794, 1.8630648851394653, -0.011353877373039722, 0.4698415696620941, -0.42471951246261597, 2.127936840057373, -0.05050203204154968], [0.8113716840744019, -0.06156794726848602, 2.113473653793335, -0.5775177478790283, 0.19824151694774628, -0.020266477018594742, 1.6647549867630005, -0.14350947737693787], [-0.05257573351264, 0.45237505435943604, -2.2252259254455566, 0.2524673640727997, 0.0328027568757534, 0.22234772145748138, -1.8811454772949219, -0.48414382338523865], [1.081228256225586, 0.023665383458137512, 1.014260172843933, -0.4560297429561615, 0.26160091161727905, 0.3128657042980194, 1.4955048561096191, -0.5292711853981018], [0.06752408295869827, 0.13602040708065033, 0.14212574064731598, -2.0859568119049072, 0.2899630069732666, -0.3037581443786621, -0.06948891282081604, 0.27285951375961304], [-0.3280004560947418, 0.052156779915094376, -2.161505937576294, 0.9129632711410522, 0.44360992312431335, 0.3194541037082672, -1.6636717319488525, 0.8052904009819031], [-0.11667780578136444, 0.15654031932353973, -2.7776737213134766, -0.37787091732025146, 0.06554105132818222, 0.1689007431268692, -2.5426394939422607, -0.008042794652283192], [-1.3522690534591675, -0.008257481269538403, 0.16107600927352905, -0.01672207936644554, 0.11349999159574509, 0.07842380553483963, 0.0998285636305809, 0.3193608820438385], [0.9023183584213257, 0.1852395087480545, 0.39934390783309937, 0.1865585744380951, -0.08322616666555405, -0.10016137361526489, 0.5298764109611511, 0.26508185267448425], [0.02256670407950878, 0.9574335813522339, -0.08060674369335175, -1.3833433389663696, 0.3682742714881897, 0.41114842891693115, -0.09765034914016724, 0.9463679790496826]], "fc0.bias": [-0.859710156917572, -0.5415076017379761, 0.019497830420732498, -0.021385639905929565, 0.31675800681114197, 0.05575226619839668, -0.356264591217041, -0.10626205801963806, -0.35189366340637207, -0.7481928467750549, 0.44318702816963196, -0.3486325740814209, 0.5325380563735962, -0.001389011973515153, -0.9188001751899719, -0.03411542996764183, -0.047770626842975616, -0.10960948467254639, -0.1252041459083557, 0.5929807424545288, -0.5735630393028259, 0.6869547367095947, 0.08146890997886658, -0.18843863904476166, 0.015014152973890305, 0.6442564725875854, -0.5436652898788452, 0.40773627161979675, 0.07137816399335861, 0.21725842356681824, 0.35464173555374146, -0.33157476782798767, -1.186838984489441, -0.29247334599494934, 0.04027251526713371, 0.3066689670085907, 0.16703996062278748, -0.0038202451542019844, -0.4670599400997162, 0.19179929792881012, 0.3204182982444763, -0.3246385455131531, 0.19456692039966583, -0.3503127992153168, -0.22875206172466278, 0.013457824476063251, -0.7966294288635254, -0.0357024259865284, 0.24753735959529877, 1.09358549118042, -0.7485856413841248, 0.20355947315692902, -0.4593490958213806, 0.1513364017009735, 0.1900128722190857, -0.6292965412139893, -0.2528756260871887, -0.18962927162647247, -0.09094197303056717, 0.1565021425485611, -0.030194615945219994, 0.2096310406923294, 0.07237058877944946, 0.1338990479707718], "fc1.weight": [[0.05502665787935257, 0.08336786180734634, -0.9957067370414734, 1.7414201498031616, 0.3230494260787964, 0.36501091718673706, 0.16948622465133667, -1.3527097702026367, -1.370201587677002, -0.08732961863279343, 0.2681121826171875, 0.6484811305999756, -0.2760588228702545, -0.3360374867916107, 0.0533580407500267, -0.8797869682312012, 0.6569336652755737, 0.1693592518568039, -0.4606156051158905, -0.14878009259700775, -0.26789960265159607, -0.18331323564052582, -0.860485851764679, 1.1126799583435059, 0.07120754569768906, -0.33120205998420715, -0.10106043517589569, -0.4843958020210266, 0.1825890690088272, 0.4280458390712738, -0.524650514125824, -0.09420962631702423, -0.020405367016792297, -0.037136949598789215, -0.4237263798713684, 0.5407932996749878, -0.9727078676223755, 0.013317030854523182, 0.5727067589759827, 0.18743126094341278, -0.31964224576950073, 1.0423152446746826, 0.09584328532218933, -1.008252501487732, -0.5472334027290344, 0.28877606987953186, -0.4820624887943268, 0.17393268644809723, 0.002955390140414238, -0.4994491636753082, -0.18689888715744019, -0.3116604685783386, -0.07514214515686035, 0.2726861238479614, 0.20931939780712128, -0.29103273153305054, -0.2546730637550354, -0.5442985892295837, -0.47091254591941833, 0.48645976185798645, -0.8372495770454407, 0.7385187745094299, -0.12220285087823868, -0.47008541226387024], [0.5603384971618652, 1.7949906587600708, -0.0728105902671814, -0.508317232131958, 0.28720155358314514, -0.6938230991363525, 0.1689663678407669, 0.523826539516449, -0.4422464966773987, -0.41483017802238464, 0.6831622123718262, 0.16280487179756165, 0.33091726899147034, 0.9264504909515381, -0.7583584785461426, 1.2140693664550781, -1.0626466274261475, -0.6833240985870361, -0.5937620401382446, 0.3538269102573395, -0.6491393446922302, -0.7036701440811157, 1.3443577289581299, 0.5052136182785034, -0.10273445397615433, 0.4545647203922272, 0.4921729266643524, 0.5628041625022888, -0.3266166150569916, -0.4149537980556488, 0.5056344866752625, 1.5800100564956665, -0.439057320356369, 0.9117900133132935, -0.5272226333618164, -0.02110332064330578, -0.6605156064033508, -0.028872976079583168, -0.37058526277542114, 0.1661296933889389, -0.1608424335718155, 1.3746352195739746, -0.7261145710945129, -0.43925634026527405, 0.07259244471788406, 0.1321684569120407, -0.05412466824054718, 0.3017272651195526, 0.42518579959869385, -0.2345070093870163, 0.05985847860574722, 0.3721170127391815, -0.02962193638086319, -0.12997758388519287, 0.4062627851963043, 0.6164531707763672, -0.650246798992157, 0.23425571620464325, 0.9889368414878845, -0.6579349040985107, -0.4597725570201874, -0.5662655830383301, -0.19945582747459412, 1.1830573081970215], [-0.8569827079772949, -1.1599849462509155, 0.19963862001895905, -0.03195151314139366, -0.32301291823387146, 1.4217967987060547, -0.5337400436401367, -0.22787384688854218, 2.139439821243286, 0.46912631392478943, -0.005578160285949707, -0.14921525120735168, -0.49707767367362976, 0.43995824456214905, 0.974657416343689, -0.4784446060657501, 0.09475260227918625, -0.13784992694854736, 1.045253038406372, 0.22050747275352478, -0.09510723501443863, 0.05634818598628044, -0.39514827728271484, -0.3451336920261383, -0.5196767449378967, -0.31522631645202637, 0.17975394427776337, -0.8463333249092102, 0.751613199710846, 0.009841016493737698, 0.6224967241287231, -0.6964648962020874, -0.252892404794693, 0.5300643444061279, -0.27307575941085815, -0.4679286479949951, 0.7970057725906372, -0.7931386828422546, 1.5616613626480103, -0.7572603821754456, 0.3185517191886902, -1.8956069946289062, -0.2781050503253937, 0.21909381449222565, 0.7178840041160583, -0.025505121797323227, -0.2686425447463989, 0.24688906967639923, 0.33137598633766174, 0.9605351686477661, -0.7199613451957703, -0.6141577959060669, 0.1498836725950241, 0.4228551387786865, -0.4863523542881012, -0.23193199932575226, 0.3027138113975525, -0.5079549551010132, 0.4976124167442322, 0.9443665146827698, 0.37357449531555176, -0.6824637055397034, 0.2784332036972046, -0.1941792517900467], [0.47597283124923706, 0.053903400897979736, -0.22163936495780945, -0.3989781141281128, 0.9324676394462585, -1.7551867961883545, -0.3388734459877014, 0.27105647325515747, 0.590225875377655, 0.500025749206543, 0.5607203841209412, -0.7491073608398438, -0.0784517228603363, -0.5168343782424927, 0.10038000345230103, 1.1471213102340698, -0.1654394418001175, -0.040975235402584076, 1.4629511833190918, 1.247705101966858, -0.675533652305603, -0.7380163073539734, -0.1178235337138176, -0.07029806077480316, 0.4743258059024811, 0.3253364861011505, -0.5864039659500122, 0.8535376787185669, 0.3713664412498474, 1.1533496379852295, -0.6292843818664551, 0.9105570316314697, 0.770908534526825, 0.6721699237823486, -0.24102561175823212, 0.374744176864624, -0.3841158151626587, 0.46214234828948975, -0.04045382887125015, -0.49600881338119507, -0.5114896893501282, -0.13865987956523895, -0.04968452826142311, -0.7821632027626038, 0.5798197388648987, 0.33199965953826904, -0.3975289762020111, 0.4653546214103699, 1.0838351249694824, 0.09572649747133255, 0.11259108781814575, 0.2392461597919464, 0.1360839158296585, 0.44488146901130676, -0.15335671603679657, 0.756839394569397, -0.3305569589138031, 0.8245272040367126, -0.18498417735099792, -0.2640567123889923, -0.3742939829826355, -1.1040196418762207, 0.7633984088897705, 0.42413264513015747], [0.4938585162162781, 0.22375646233558655, -0.3606652319431305, -0.20988887548446655, 1.0209218263626099, -1.6470454931259155, -1.8879891633987427, 0.3070566654205322, 0.4789620637893677, 0.6438161134719849, -0.1815640777349472, -0.972791850566864, -0.2138776332139969, -0.6808622479438782, -0.10630673170089722, 1.1192420721054077, -0.20278316736221313, -0.5897502899169922, -0.03954461216926575, 0.5365415811538696, -0.1882142424583435, -0.008081166073679924, 0.2521188259124756, 0.012987776659429073, 0.5028907060623169, 1.0640347003936768, -0.4051562547683716, 0.24015358090400696, 1.3400641679763794, 0.3812561333179474, -0.1042523980140686, -0.03777735307812691, 0.7522364854812622, 0.5650356411933899, 0.35516080260276794, 0.6975433826446533, -0.8798040151596069, 0.5789763331413269, 0.22327682375907898, 0.11894617229700089, -0.23955009877681732, 0.5600703954696655, 0.6233149766921997, -0.5946010947227478, 0.42010143399238586, 0.7292677164077759, -0.5819885730743408, -0.5958713889122009, 0.5783063173294067, -0.3940960168838501, -0.646162211894989, -0.3208495080471039, 0.06754256784915924, -0.14790187776088715, 0.2681785821914673, 0.7603844404220581, -0.71835857629776, 0.07540062814950943, -1.16072678565979, -0.2106197476387024, -1.2197321653366089, -0.12696167826652527, 0.20580017566680908, 0.8614742755889893], [1.0386830568313599, 0.42168495059013367, 0.2732057273387909, -0.29971036314964294, -0.18825924396514893, 0.12773698568344116, -0.063757985830307, -0.19155287742614746, 0.10847422480583191, 0.6588040590286255, 0.45432382822036743, -0.24505801498889923, 0.31850430369377136, 0.23838365077972412, 0.318741112947464, 0.42697253823280334, -0.3289198875427246, -0.42740920186042786, -0.1454290896654129, 0.5603137016296387, -1.0508038997650146, -0.013815614394843578, -0.38541528582572937, 0.36405831575393677, 0.41309747099876404, 0.7695940732955933, 0.2963208258152008, 0.01926324889063835, 0.6630263328552246, 0.5505136847496033, 0.20610098540782928, 0.16421999037265778, 0.20919932425022125, 1.4641841650009155, 0.03593284264206886, 0.237605482339859, -0.6798861622810364, -0.0556400828063488, -0.2390749752521515, 0.2161942720413208, -0.07441556453704834, -0.7944219708442688, -0.04941798001527786, 0.04941844195127487, 1.1579371690750122, 0.7695150375366211, 0.07774518430233002, 0.5306853652000427, 0.7595210075378418, 0.055730998516082764, 0.16642601788043976, 0.6219424605369568, -0.10004492104053497, -0.6333155035972595, 0.275041401386261, 0.5875402092933655, 0.28520438075065613, 1.001484751701355, -0.3765223026275635, -0.08303801715373993, -0.21905437111854553, -0.2928294837474823, 1.0553756952285767, 0.07264559715986252], [0.28285250067710876, -0.3218579888343811, -0.8479241728782654, 0.3494563102722168, 0.026478547602891922, 0.11094053834676743, 0.16346517205238342, 0.14987367391586304, -0.6723953485488892, -0.22712130844593048, 0.5856634378433228, -0.6327135562896729, -1.099224328994751, -0.43062689900398254, -0.04445807635784149, -0.7711890339851379, -0.06262090802192688, -0.47493988275527954, -0.09067153930664062, -0.32526132464408875, -0.47569918632507324, 0.7500213980674744, -0.2810029983520508, -0.13742415606975555, 0.716094970703125, 0.9841198921203613, 0.08184950053691864, 0.4863778352737427, 0.02796434611082077, 1.068272352218628, -0.04568709060549736, 1.4048725366592407, 1.2910181283950806, 0.3274095356464386, 0.1611623466014862, 0.8044617176055908, -0.934564471244812, 0.42181384563446045, -1.2482261657714844, 1.3050538301467896, 0.6456146836280823, 1.806883692741394, 0.39957815408706665, -1.120590090751648, -0.1427386999130249, 0.01861683838069439, 0.920400083065033, 0.3673158586025238, -0.30348265171051025, -0.8999154567718506, -0.08091814815998077, 1.0848406553268433, -0.07797033339738846, 0.8491902351379395, 1.02962064743042, 0.7361290454864502, 0.1787758469581604, 0.216191828250885, -0.4457767605781555, -0.6583318710327148, -0.5842922329902649, 0.3886241912841797, 0.6864697337150574, -0.5513748526573181], [-0.27729853987693787, -1.4939327239990234, -0.8039596080780029, -1.314943552017212, -0.30899176001548767, -0.5325467586517334, -1.0812307596206665, 0.403452605009079, -0.6573755741119385, -0.7156567573547363, 0.0829581469297409, -0.5846022963523865, 0.0030976415146142244, -1.2756731510162354, 0.014043358154594898, 1.2535303831100464, 1.3377572298049927, -0.112093485891819, 0.4071563184261322, -0.348253071308136, 0.2371467649936676, 0.44110292196273804, 0.15716850757598877, 0.21067780256271362, 0.13516098260879517, 0.58697110414505, 0.8970375657081604, 0.41502508521080017, 1.3632575273513794, 0.21546322107315063, -0.2273719608783722, 0.4980930685997009, -0.10159876197576523, 0.013805566355586052, 1.365723729133606, 0.4242422878742218, 0.41019782423973083, 0.7775738835334778, -0.5761087536811829, -0.18347856402397156, 1.4379627704620361, -0.2408723533153534, 1.1115705966949463, 1.1935652494430542, -0.12351593375205994, 0.5454502105712891, -0.7656680941581726, -0.7135053873062134, 0.06343743950128555, 0.5085804462432861, 0.5651794075965881, -1.180497646331787, 1.0572926998138428, 0.357766717672348, -0.11010795831680298, -0.21660639345645905, 0.4621731638908386, -0.537649393081665, -1.7357912063598633, 0.8874955773353577, -0.6260659694671631, 0.013927626423537731, 0.9347427487373352, -1.0255450010299683], [0.22566008567810059, -0.47512349486351013, -0.1614120900630951, -0.06012061610817909, 0.27587220072746277, 0.3875848650932312, 0.10320628434419632, -0.304907888174057, 0.4028919041156769, 0.232577845454216, 0.23545190691947937, 0.25705164670944214, -0.14816604554653168, -0.343436062335968, 0.2628630995750427, 0.15209288895130157, -0.27439963817596436, -0.0913490280508995, 0.3841826319694519, 1.707113265991211, -0.9025151133537292, -0.23967070877552032, -0.20260773599147797, -0.35498741269111633, 0.43454867601394653, 0.3529917597770691, 0.13131572306156158, 0.14099693298339844, -0.3651083707809448, -0.343309223651886, 0.29926878213882446, 0.32398557662963867, -0.014092287980020046, 1.2564985752105713, 0.17975223064422607, 0.33751267194747925, 0.1494525671005249, 0.3324572443962097, -0.4056478440761566, -0.059669509530067444, 0.0524044893682003, -0.194570392370224, -0.19659604132175446, -0.1696922332048416, 1.2598297595977783, 0.15418289601802826, 0.09349250048398972, -0.3546172082424164, 0.718542754650116, -0.15838341414928436, 0.15876299142837524, -0.05106594040989876, -0.16827331483364105, 0.30868297815322876, 0.3071058690547943, 0.7040796279907227, 0.08575917780399323, 0.6073212623596191, 0.09937937557697296, -0.3148781657218933, -0.3947703242301941, -0.8282729983329773, 0.4084566533565521, -0.5191245079040527], [-0.5161616206169128, 0.5643854141235352, 0.07794934511184692, 0.5920775532722473, -0.6819308400154114, 0.5351055860519409, 1.4070452451705933, -0.2400919646024704, 0.8805637359619141, 0.38090482354164124, -0.4920002520084381, 0.9456139206886292, -0.3179187476634979, 1.7072396278381348, 1.0732814073562622, -0.5211316347122192, 0.21279412508010864, 0.31136462092399597, 1.3072447776794434, 0.4920613765716553, -0.4600202739238739, -0.018568912521004677, -0.2112300843000412, -0.37036773562431335, -0.4968920648097992, -0.0718197450041771, -0.362792044878006, 0.32286620140075684, -1.0515198707580566, -1.165281057357788, 0.6470758318901062, -0.1668870449066162, -0.0674290806055069, -0.0480673648416996, -1.3639823198318481, -1.0821186304092407, 0.6231347322463989, -1.0398874282836914, 0.7049354314804077, -0.572488009929657, -1.0396091938018799, -0.21460430324077606, -0.7404202818870544, 0.28769436478614807, 0.660493016242981, -0.005630741827189922, 1.4756134748458862, 0.8635706305503845, 1.0658529996871948, -0.20940208435058594, 0.25843143463134766, 0.2547473609447479, -0.447990357875824, 1.1682848930358887, -0.9521257877349854, 0.18460054695606232, 0.2274307906627655, -0.13253366947174072, 1.17310631275177, 0.4334809482097626, 0.9750311374664307, 0.15156874060630798, -0.44673359394073486, -0.17531730234622955], [-0.059824611991643906, -0.10458890348672867, -0.22827284038066864, -0.18016190826892853, 0.5014384388923645, 0.09361449629068375, -0.007494708057492971, -0.3192061185836792, -2.273648262023926, 0.4777127504348755, 1.0202914476394653, 0.22864040732383728, -0.26459625363349915, -0.3549326956272125, -0.0010619739769026637, -0.42035192251205444, 0.6443415284156799, 0.7747202515602112, -1.93861985206604, -0.42420998215675354, 0.5202697515487671, -0.29744741320610046, -0.5006221532821655, -0.2146371454000473, -0.6258421540260315, -0.46674874424934387, 0.5718240737915039, -0.3308602571487427, -0.41536271572113037, -0.3850669860839844, -0.01360356342047453, -0.04836784675717354, -0.10056362301111221, -0.049313582479953766, 0.13534875214099884, 0.04457799717783928, 0.6051583886146545, 0.9450083374977112, -0.3640762269496918, -0.2819616198539734, 0.010175898671150208, 0.5948238372802734, 0.5517539978027344, -0.7984865307807922, -0.9747779965400696, -0.8506054282188416, -0.5458483695983887, 0.3969334661960602, -0.8703348636627197, 0.9709620475769043, 0.26331278681755066, 0.042700108140707016, 0.06316294521093369, -0.6056739687919617, 0.6620790958404541, -0.7286324501037598, -0.40795472264289856, -0.7920385599136353, -0.06898437440395355, 0.19683773815631866, -0.4722965657711029, 0.03602118790149689, 0.3993220329284668, -0.9453457593917847], [-0.5903071165084839, 0.02379843033850193, -1.0474821329116821, 0.3170546591281891, 0.26832735538482666, 0.1539987325668335, -0.10371378809213638, -1.2277578115463257, 1.7845916748046875, 0.05903341621160507, -0.09534835815429688, 0.5020954012870789, -0.6932547092437744, 0.3659474849700928, 1.4131228923797607, -0.4471499025821686, 0.02807144820690155, -0.13441523909568787, 1.1086604595184326, 0.38086992502212524, -0.5738785862922668, -0.32274219393730164, -1.0876744985580444, 0.27465441823005676, 0.023570384830236435, 0.23982751369476318, -0.7678131461143494, 0.22187960147857666, 0.01443477626889944, -0.21771076321601868, -0.2856995165348053, -0.23903967440128326, -0.24866852164268494, 1.1473253965377808, -0.6685221791267395, -0.9132498502731323, 0.04477927088737488, -0.4825173616409302, 0.3170098662376404, -0.5504069328308105, 0.13078734278678894, 0.1523563116788864, -0.040572818368673325, 0.14846540987491608, 0.587924063205719, -0.36447545886039734, -0.888541042804718, -0.039702191948890686, 0.22234776616096497, -0.10845134407281876, -1.2583885192871094, -0.36963197588920593, -0.26322871446609497, -0.17936578392982483, -0.15398284792900085, 0.13443616032600403, 0.4145660400390625, 0.15824377536773682, 0.6244035363197327, 0.06684735417366028, 0.6632701754570007, 0.10199389606714249, 0.3408427834510803, -1.6017712354660034], [-0.047523677349090576, 0.026096051558852196, 0.7896220088005066, -0.1585245281457901, 0.19158650934696198, 0.22954247891902924, 1.0719499588012695, 0.7648642063140869, -0.3716191053390503, 0.00835141446441412, 0.38110285997390747, 0.6475734710693359, 0.8175739645957947, 0.12356767058372498, -0.45767122507095337, -0.6325203776359558, -0.5240381956100464, -0.35760223865509033, 0.23967735469341278, 0.32414546608924866, 0.09377904236316681, 0.2567206025123596, 1.1534947156906128, 0.07980681210756302, -0.4235174357891083, -0.6182966232299805, -0.5907107591629028, -0.7971120476722717, -0.4530881941318512, -1.1450954675674438, 1.6569969654083252, -0.160893052816391, 0.34461626410484314, 0.11610058695077896, 0.22970245778560638, 0.4535463750362396, 0.526851236820221, -0.3847346305847168, 1.2901647090911865, 0.0868125706911087, -0.6158406138420105, -1.7209621667861938, -1.7822132110595703, 0.352361798286438, -0.0816294476389885, 0.5602644085884094, 0.5846515893936157, 1.6384845972061157, -0.4817273020744324, 0.08504240959882736, 1.4798741340637207, 0.04089673236012459, -1.798997163772583, 0.14085213840007782, 0.024081099778413773, -0.4309738278388977, 0.29118612408638, -0.3097586929798126, 0.6684970259666443, 0.38028186559677124, 0.2783626914024353, 0.20786377787590027, 0.4912574887275696, 0.9565447568893433], [-0.21800872683525085, 0.0847640186548233, 0.21969543397426605, -0.051098231226205826, 0.6123073697090149, 0.28257495164871216, -0.2318965494632721, 0.07177889347076416, 0.8863012194633484, -0.04836314544081688, 0.14333969354629517, -0.5377500057220459, -0.09726273268461227, 0.11618981510400772, -0.22921136021614075, 0.31190329790115356, 0.18802425265312195, -0.06145515665411949, 1.9300252199172974, 0.6894153952598572, -1.202020525932312, -0.7125701904296875, -0.5551471710205078, -0.6182041764259338, 0.4639773964881897, 0.7380801439285278, 0.08153237402439117, 0.39175689220428467, -0.19192615151405334, -0.518721342086792, -0.07530072331428528, -0.2571362555027008, 0.457862913608551, 0.8663984537124634, -0.1326317936182022, -0.3567124903202057, -0.18700383603572845, -0.18267813324928284, 0.27107882499694824, 0.3890571594238281, -0.18543186783790588, -0.3340720534324646, -0.4737701416015625, -0.05179545283317566, 1.3704426288604736, -0.31686103343963623, -0.004383933264762163, 0.43047088384628296, 1.325762391090393, -0.47918573021888733, 0.24218346178531647, 0.39509817957878113, -0.3235989212989807, 1.1987863779067993, -0.27132830023765564, -0.028974303975701332, 0.3917989134788513, -0.20351389050483704, 0.3768658936023712, -0.3378082513809204, 0.024509500712156296, -0.5087184309959412, 0.22046536207199097, -0.389896035194397], [0.0180232971906662, 0.8256137371063232, 0.39559096097946167, 0.34469088912010193, -0.04829433932900429, 0.48223355412483215, 0.7254055142402649, -0.32169947028160095, 0.36109063029289246, 0.02619851753115654, -0.5959513783454895, -0.19451670348644257, 0.15808725357055664, 1.1937543153762817, 0.0374760702252388, -0.5170502066612244, -1.0112005472183228, 0.723770022392273, -0.778392493724823, 0.060568295419216156, 0.32923445105552673, -0.5190879702568054, 0.34263813495635986, 0.303521990776062, -0.08512155711650848, -0.2420302778482437, -0.4806607961654663, -0.9305577874183655, -1.18087637424469, -0.25617676973342896, 1.0201685428619385, -0.24102310836315155, 0.05178900435566902, -0.39958709478378296, -0.6246442198753357, -0.7441364526748657, -0.2530653774738312, 0.08077641576528549, 0.9895203709602356, 0.44357186555862427, -0.29263317584991455, -1.1075211763381958, -0.13977666199207306, 0.2671845853328705, -0.9228265285491943, -0.08679825812578201, 1.2401247024536133, -0.1504429429769516, -0.2967331111431122, -0.25327861309051514, 0.35728880763053894, 1.0957938432693481, -0.6541284918785095, -0.9347877502441406, -0.6993239521980286, -0.3357539474964142, -0.9953117370605469, 0.14002732932567596, 1.2308595180511475, -0.3549420237541199, 1.194191813468933, 0.7108513116836548, -0.06310760229825974, 1.0351955890655518], [0.8212564587593079, -0.465023010969162, 0.24154743552207947, 0.9647289514541626, 0.7865188121795654, 0.4403105080127716, 0.047256991267204285, -1.6884571313858032, -1.5697131156921387, 0.3795499801635742, 1.4214571714401245, 0.5338709950447083, -0.17642797529697418, -0.14971128106117249, 0.22564293444156647, 0.7646133899688721, 0.0334630161523819, -0.5530263781547546, -0.7758288383483887, -0.6308093070983887, -0.06871557980775833, 0.18571844696998596, -0.3353755474090576, 1.2333823442459106, -0.3456226587295532, 0.12441336363554001, 0.15872013568878174, 0.269191712141037, -0.016873888671398163, -0.053134627640247345, 0.12361443042755127, 0.6421242356300354, 0.31971797347068787, -0.0716935321688652, -0.39144906401634216, 0.3596094250679016, -0.8379600644111633, 0.9603337049484253, -1.0527926683425903, 0.6650149822235107, -0.02471894770860672, 1.1092127561569214, -0.6258499026298523, -0.28685951232910156, -0.10910435765981674, -0.11423161625862122, 0.6705161929130554, 0.5908371210098267, -0.12166444212198257, -0.050443533807992935, -0.013204661197960377, -0.3692024052143097, -0.5759991407394409, 0.37171822786331177, 0.5137966871261597, 0.5113571286201477, -0.09061943739652634, 0.537297785282135, -0.07526829093694687, -0.34927868843078613, -0.8722380995750427, -0.5365452170372009, 0.37900906801223755, 0.20826172828674316], [-0.36621156334877014, 0.09071553498506546, 1.3655673265457153, -0.757987916469574, 0.27188840508461, -0.23336048424243927, 1.3694517612457275, 1.2136465311050415, 1.081300139427185, 0.43151411414146423, -0.28941524028778076, -0.2200067639350891, 1.4335737228393555, 0.11918248236179352, -1.2690280675888062, 0.619546115398407, -0.9942205548286438, 0.6730596423149109, 0.1940537542104721, -0.6113325953483582, 0.1112857311964035, -0.586158275604248, 0.7416739463806152, 0.15666531026363373, -0.3392503261566162, -0.7532461285591125, 0.06229853630065918, -0.4988730251789093, -0.9417224526405334, -1.3227689266204834, 1.7549933195114136, -0.08819864690303802, 0.37073832750320435, -0.486141562461853, 0.43176499009132385, 0.1944095492362976, 0.3949551284313202, -0.5163536667823792, 0.691528856754303, 0.12521107494831085, -0.04940901696681976, -0.6345492005348206, -0.9179716110229492, 0.7800143361091614, -0.21339775621891022, 0.269709974527359, 0.9482846260070801, 0.30131691694259644, 0.15905781090259552, 0.32510659098625183, 0.5110632181167603, 1.2556769847869873, -0.7784462571144104, 0.034913208335638046, -0.13147975504398346, -0.12648411095142365, 0.15314312279224396, -0.23552438616752625, -0.007951652631163597, 0.22038772702217102, 0.14508888125419617, -0.08056388795375824, -0.35470762848854065, 1.8009428977966309], [-0.6363272666931152, 0.11801961064338684, -0.05935294181108475, 0.001674011000432074, -0.23764310777187347, -0.3512788414955139, -0.2873600125312805, -0.04630468040704727, -0.37674370408058167, 0.05556600168347359, -0.2957853078842163, -0.04059093818068504, -0.2665518522262573, 0.1688101440668106, -0.12010219693183899, 0.29641005396842957, -0.04360397532582283, 0.4188555181026459, -0.25979921221733093, -2.224376678466797, 0.7665060758590698, -0.04504933953285217, 0.32589778304100037, -0.4579194486141205, 0.3112344443798065, -0.33708563446998596, 0.06311969459056854, 0.2689705491065979, 0.36597681045532227, -0.41995182633399963, -0.24263234436511993, 0.08117131143808365, 0.06489135324954987, -1.1187007427215576, -0.230901300907135, 0.19338996708393097, 0.21342672407627106, -0.7408890724182129, 0.3108658790588379, -0.10524089634418488, 0.42586755752563477, 0.1763177365064621, -0.4292953610420227, 0.11255862563848495, -1.1424767971038818, -0.13913792371749878, 0.3237304985523224, 0.02903718315064907, -0.555387556552887, 0.4888196885585785, 0.21108777821063995, 0.10304484516382217, -0.28444692492485046, 0.011907233856618404, -0.5223590135574341, -0.6738740801811218, 0.33759698271751404, -0.527955949306488, -0.5599341988563538, 0.07509978115558624, 0.3643437623977661, 0.9176867008209229, -0.183752179145813, -0.22397352755069733], [-0.49939194321632385, 0.12213496118783951, 0.4300539791584015, 0.2020498365163803, -0.2535935044288635, -0.22090451419353485, 0.05249182879924774, 0.3368169665336609, -0.6758691072463989, -0.4989602267742157, 0.1565220206975937, 0.109920933842659, 0.3020668923854828, -0.5546276569366455, -0.6126019358634949, 0.32770028710365295, -0.20889808237552643, 0.14286278188228607, -0.17031444609165192, -1.490739107131958, 1.9445018768310547, -0.0004672179347835481, 0.3664579391479492, -0.1336323320865631, 0.08969026803970337, -0.06021122634410858, -0.2297857701778412, 0.46424034237861633, -0.10171736776828766, -0.05837105214595795, 0.4398767650127411, -0.45058754086494446, -0.0199105404317379, -0.3218959867954254, 0.2297302484512329, 0.07221117615699768, 0.3876020014286041, -0.405453085899353, 0.2939859926700592, 0.0666082501411438, 0.1535605639219284, 0.49557244777679443, -0.050613079220056534, 0.18945668637752533, -1.8695752620697021, 0.3698391914367676, 0.27165794372558594, -0.2230793982744217, -0.17563079297542572, -0.16882404685020447, -0.007410374935716391, -0.19435015320777893, 0.0817549005150795, -0.1579435020685196, -0.13836520910263062, 0.3295227885246277, 0.6054240465164185, -0.464792400598526, 0.008951802738010883, 0.13802796602249146, 0.12778961658477783, 0.7289619445800781, -0.5003070831298828, -0.01859951764345169], [0.42333662509918213, 0.1920982301235199, -0.44780775904655457, 0.814475417137146, -0.7335723638534546, 0.5482448935508728, -0.5028817057609558, -1.1651512384414673, 0.8911099433898926, -0.5317257642745972, -0.6047977805137634, -0.8959084749221802, -0.360334187746048, -0.5531485676765442, 1.6483505964279175, 0.6794366240501404, 0.45093774795532227, -0.6633482575416565, 0.5944180488586426, 0.29609450697898865, 0.1328352987766266, 1.3236960172653198, -0.8192722201347351, -1.4512042999267578, 0.24698035418987274, -0.007650656625628471, -0.5786315202713013, 0.09789010882377625, 1.35589599609375, 0.3607375919818878, -0.7226787209510803, 0.028130492195487022, 0.212711364030838, 0.5117513537406921, -0.23388493061065674, -0.47126874327659607, 0.3928517997264862, -0.2878555357456207, 0.3323855996131897, -0.08064435422420502, -0.18747752904891968, -0.37221017479896545, 1.1961820125579834, 0.07555653154850006, 0.3519051969051361, 0.32162803411483765, -1.015034794807434, -0.9173228740692139, -0.1053406223654747, 0.33031654357910156, -0.38746315240859985, 0.0032727413345128298, -0.34974971413612366, 0.0647730827331543, -0.7155961394309998, -0.21724936366081238, -0.4682224988937378, -0.08534649014472961, -0.7237486243247986, 0.7875513434410095, 0.2033051699399948, -0.06602517515420914, 0.6536329984664917, -2.382265090942383], [0.025569133460521698, -0.3689482808113098, -0.3299311399459839, 1.2598768472671509, 0.04944567382335663, 0.5506933331489563, -0.34417346119880676, -2.929293394088745, -0.18228738009929657, 0.5811160802841187, 0.0439932607114315, 0.3875017762184143, 0.038018226623535156, 0.33379924297332764, 0.4795888364315033, -0.006445025093853474, 0.17686019837856293, 0.02661486528813839, 0.047955673187971115, 0.04309647157788277, -0.15575328469276428, 0.3122575879096985, -0.11905182152986526, 0.18649496138095856, -0.317854642868042, -0.07646798342466354, -0.3538338541984558, -0.1444186419248581, -0.04517826810479164, -0.47346413135528564, -0.32366839051246643, -0.3389849066734314, -0.1499643325805664, -0.20452161133289337, -0.32589665055274963, 0.3967323899269104, 0.34003034234046936, -0.21928946673870087, 0.029549356549978256, -0.41249537467956543, -0.06981800496578217, -0.19389985501766205, 0.5358481407165527, -0.4300551414489746, 0.17723342776298523, 0.32804012298583984, 0.39905837178230286, -0.03375152871012688, 0.14320644736289978, -0.6714102029800415, -0.5224593281745911, 0.24545349180698395, -0.0933510959148407, 0.08017050474882126, -0.21423804759979248, -0.31296274065971375, -0.12642277777194977, 0.27007049322128296, -0.4210413098335266, 0.02648511342704296, 0.1637977808713913, 0.2234308123588562, 0.11609388142824173, -0.677419126033783], [-0.8329008221626282, 0.3323415517807007, 0.6161442995071411, 0.4218968451023102, -0.58030104637146, -0.09146354347467422, 0.14136461913585663, -0.2640981078147888, 1.6216388940811157, -0.4619203209877014, -1.35595703125, 0.0010201609693467617, 0.27572599053382874, 0.8462283611297607, 0.7133539915084839, 0.22191742062568665, 0.3402421474456787, -0.3183562159538269, 0.9560755491256714, 0.034518077969551086, 0.046276431530714035, -0.319254070520401, 0.1740862876176834, -0.4763067662715912, -1.1064707040786743, -0.28665778040885925, 0.0804605484008789, -1.3918919563293457, 0.04166892170906067, -0.5984853506088257, 0.4404679238796234, -0.9735387563705444, -0.036639612168073654, -0.4267670214176178, -0.4479357898235321, -0.5894014835357666, 0.8066586852073669, -1.0601396560668945, 0.7678813338279724, -0.6097692847251892, 0.07338538765907288, -2.2709925174713135, -0.4955499768257141, 1.1848077774047852, 0.09985394030809402, 0.24749264121055603, -0.3717930018901825, 0.007235336117446423, 0.20208682119846344, 0.34327420592308044, 0.4948595464229584, 0.04759666696190834, -0.09080059081315994, -0.44311338663101196, -0.5492381453514099, -0.06502072513103485, 0.586359977722168, -0.0060700541362166405, 0.5530113577842712, 1.117061734199524, 0.8351475596427917, 0.29885992407798767, -0.6002130508422852, -0.07383949309587479], [0.38199248909950256, -0.06764157861471176, -0.6048027276992798, 1.6855130195617676, 0.006132613401859999, 0.7597097158432007, -0.7672869563102722, -2.5807018280029297, -0.08649586141109467, 0.17982035875320435, 0.026031121611595154, 0.44248589873313904, -0.3862413465976715, 0.3034312427043915, 0.7920656800270081, -0.5408748984336853, -0.46851879358291626, 0.24459099769592285, 0.2498888075351715, 0.20172221958637238, 0.34436604380607605, 0.3711826801300049, -0.05913633853197098, 0.12814991176128387, -0.4607156217098236, -0.07216093689203262, -0.5703380703926086, -0.3193643093109131, 0.2842293381690979, -0.35078221559524536, -0.3336597979068756, 0.5620251297950745, -0.2032647728919983, -0.33972591161727905, -0.45372116565704346, -0.06502380967140198, -0.46736961603164673, 0.2145683914422989, 0.1271304041147232, 0.3277703821659088, -0.29046452045440674, 0.10990080237388611, 0.2243807464838028, 0.17996804416179657, 0.2801206111907959, 0.12394014000892639, -0.04211396723985672, -0.30694112181663513, 0.31035947799682617, -0.4535999298095703, -0.4585874080657959, 0.26303768157958984, -0.4321913719177246, 0.17481224238872528, -0.32202571630477905, -0.16943086683750153, -0.2710500657558441, -0.1771060675382614, -0.4232361316680908, 0.10275346785783768, 0.24157002568244934, 0.05057699233293533, 0.05272923782467842, -1.1067755222320557], [0.20358148217201233, -0.0997181311249733, 0.46297168731689453, -0.19546781480312347, 0.3363712728023529, -0.17920750379562378, -0.1193380281329155, 0.0520394928753376, 0.48332181572914124, -0.22192247211933136, 0.28261542320251465, -0.08424849063158035, -0.1431237906217575, 0.30254197120666504, 0.3863178789615631, -0.044988345354795456, -0.013358909636735916, -0.49596986174583435, 0.5410839319229126, 1.9169162511825562, -1.2884109020233154, 0.28223294019699097, 0.2542155385017395, 0.24533309042453766, -0.06372657418251038, 0.6967432498931885, -0.2642929255962372, -0.1066124215722084, 0.09708647429943085, 0.4241856336593628, 0.3096126616001129, 0.5579560399055481, -0.09088621288537979, 1.2967783212661743, 0.17220526933670044, 0.009900365956127644, 0.22595174610614777, 0.5294327139854431, -0.2847921550273895, -0.04121091216802597, -0.14829805493354797, -0.1965291053056717, -0.06444951891899109, 0.16521897912025452, 0.8233487010002136, 0.22813630104064941, 0.14382138848304749, 0.07161781191825867, 0.02278495579957962, 0.11021299660205841, -0.2599104344844818, -0.09233205020427704, -0.198495015501976, 0.2018211930990219, 0.49391797184944153, 0.23648373782634735, -0.022319797426462173, 0.572687566280365, 0.1518498808145523, -0.5930899977684021, -0.2802884876728058, -0.5097260475158691, 0.1778104454278946, -0.1982453465461731], [-0.4719095230102539, -0.2623600661754608, -0.4796610176563263, 0.6731564998626709, 0.22040922939777374, 0.21261776983737946, 0.9787670969963074, -0.37593239545822144, 0.32467541098594666, 0.1937827169895172, -0.5957210659980774, -0.2909674644470215, -0.28474849462509155, 0.652762234210968, 0.5297225713729858, 0.13910052180290222, -0.5314003825187683, 0.610755443572998, 0.07529041916131973, -0.5736995339393616, 0.47685858607292175, 0.5915042757987976, -0.29591310024261475, -0.08279398828744888, -0.5122034549713135, -0.8486855030059814, -0.5805922150611877, -0.22213274240493774, -0.17895062267780304, 0.01758933998644352, 0.3180901110172272, -0.4334716498851776, 0.9392892718315125, -0.20131047070026398, -0.8150829076766968, -0.024491777643561363, 0.00985933467745781, -0.30313703417778015, 1.634650707244873, -0.3375062048435211, -1.3745529651641846, -0.5442180037498474, -0.4735252857208252, -0.3732481896877289, -0.5567080974578857, -0.17293588817119598, 0.6528842449188232, -0.4976297616958618, -0.2687012553215027, -0.1711728572845459, -0.5013445019721985, 1.3069307804107666, -1.2650294303894043, 0.4481974244117737, -0.6561122536659241, 0.006375413853675127, -1.2261791229248047, -0.25849467515945435, 1.1944435834884644, -0.08659780770540237, 0.5309516787528992, 0.6417356133460999, -0.23406752943992615, 0.08238814771175385], [0.033548206090927124, 0.2740482985973358, -0.3937363028526306, 0.24764521420001984, -0.16456152498722076, -0.24319106340408325, 0.3882090151309967, -0.05688207596540451, -2.2578508853912354, 0.20408301055431366, 1.332637906074524, 0.7769721150398254, -0.07913091033697128, 0.3497749865055084, -0.5980316400527954, -0.10427148640155792, 0.11618395149707794, 0.6915003657341003, -1.9422575235366821, -0.17207133769989014, 0.4406530261039734, 0.7108451724052429, -0.034824028611183167, 0.32050248980522156, -0.4108230471611023, -0.7491164207458496, -0.31684133410453796, -0.5811135768890381, -1.1991033554077148, 0.02244139276444912, 0.2709926664829254, 0.13695140182971954, 0.22558990120887756, -0.43641385436058044, 0.029331574216485023, 0.4485451281070709, 0.030645102262496948, 0.45489704608917236, -0.8835068941116333, -0.22158287465572357, 0.364990234375, 0.18789458274841309, -0.7446579933166504, -0.1172197163105011, -0.9685933589935303, 0.017522521317005157, -0.4617290198802948, 0.8896311521530151, -0.26193591952323914, -0.22566893696784973, -0.11955605447292328, -1.023084044456482, -0.4927244484424591, -0.8495016694068909, -0.6044635772705078, -0.16323192417621613, -0.3353041708469391, -0.25708523392677307, -0.06206398457288742, -0.13094088435173035, -0.33311331272125244, 1.0285004377365112, -0.7237110137939453, -0.006316300947219133], [-0.8451809883117676, -0.6188036799430847, 0.24319688975811005, -0.05081520602107048, -0.7839313745498657, 0.08660610765218735, 0.3965476155281067, -0.23101875185966492, 0.8348860740661621, -0.29286450147628784, 0.03966948762536049, -0.20956502854824066, -0.02648460678756237, -0.1411423236131668, 0.9006224274635315, -0.9394118189811707, 1.087916612625122, 0.7742787599563599, 0.06391386687755585, -0.15675652027130127, 0.11180263012647629, 1.2151100635528564, -0.27769583463668823, -0.5983795523643494, -0.5001356601715088, -0.3341473340988159, -0.7420215606689453, 0.04632672294974327, 0.16597098112106323, -0.03216508775949478, -0.44545748829841614, -1.1981390714645386, -0.15073473751544952, -0.3994346857070923, -0.624578595161438, -0.423211932182312, 0.6357377767562866, -0.37917715311050415, -0.19462710618972778, -0.5185694098472595, 0.032862983644008636, -1.0952686071395874, -0.42130613327026367, 0.2671678960323334, 0.31313297152519226, -0.23384106159210205, -0.013777944259345531, 0.5720142126083374, 0.09260877221822739, 0.6579839587211609, 0.17632339894771576, 0.24298815429210663, 0.1468866616487503, 0.05956336855888367, -0.6704305410385132, -0.532982587814331, -0.6238018870353699, -1.6092180013656616, 1.0348975658416748, 0.12372055649757385, 0.6380934119224548, 0.10435888171195984, -0.844695508480072, -0.7873963713645935], [-0.11198581010103226, -0.9285664558410645, -0.2849525213241577, -0.9450434446334839, -0.3453947603702545, -0.9285348057746887, -0.9307057857513428, 0.2449450045824051, -0.3479086458683014, -0.6458200216293335, -0.16141128540039062, -0.21186724305152893, 0.230890691280365, -0.0064798686653375626, -1.3767234086990356, -0.4949524998664856, 0.9251763224601746, -0.09423436224460602, -0.3986038267612457, -0.6290794014930725, 0.16647610068321228, -1.0116900205612183, 0.18126025795936584, -0.2622929811477661, 0.08431854844093323, -0.42628127336502075, 1.1767590045928955, -0.6036055684089661, 0.36835482716560364, -0.35240408778190613, -0.26603811979293823, -0.17247679829597473, -0.6270871758460999, -0.5983894467353821, 0.6439747214317322, 0.2766701281070709, 0.4993957579135895, -0.6790920495986938, 0.3647177815437317, -0.7766619920730591, 0.005206483881920576, -0.5311887860298157, 0.5713080167770386, -0.5867332816123962, -0.13010074198246002, -0.3024742901325226, -0.625071108341217, -0.2636023163795471, 0.1383100301027298, 0.22243143618106842, -0.6962893605232239, -0.09909481555223465, 1.1033880710601807, -0.9539145827293396, -0.06705311685800552, -0.265054315328598, 0.8420546054840088, -0.3011484146118164, -1.5906004905700684, 1.0150521993637085, 0.0962824895977974, 0.38247615098953247, -0.16669705510139465, -0.2628094255924225], [-0.3122020363807678, 0.15629082918167114, -0.3475745618343353, 0.004106143023818731, -0.24242718517780304, 0.028619961813092232, 0.05359082669019699, -0.1940731406211853, -0.43396198749542236, 0.12779280543327332, -0.016622524708509445, 0.1554110199213028, -0.3502136468887329, 0.37995240092277527, 0.291276752948761, 0.2401033192873001, -0.29375678300857544, -0.18212999403476715, -1.921460747718811, -1.296053171157837, 1.0826469659805298, 1.15938138961792, 0.24180755019187927, 0.11997202783823013, 0.33344006538391113, -0.6247750520706177, 0.29022690653800964, -0.1802985668182373, -0.24634681642055511, 0.04971444979310036, -0.3498375415802002, 0.16294299066066742, -0.664686918258667, -1.5240201950073242, -0.25215521454811096, -0.3759976029396057, -0.2557339072227478, -0.5107429027557373, -0.746684730052948, -0.2815982699394226, -0.1487845480442047, 0.11576660722494125, -0.11000526696443558, -0.46011587977409363, -0.8520187139511108, -0.8567084074020386, 0.25543102622032166, 0.1111644059419632, -1.1122715473175049, 0.6031308174133301, -0.006933277472853661, -0.2611631751060486, -0.26190638542175293, -1.03788161277771, 0.33411189913749695, 0.016935724765062332, -0.41517770290374756, -0.4486342966556549, -0.024949360638856888, 0.15572215616703033, 0.37918171286582947, 0.9925551414489746, -0.6820488572120667, -0.14875167608261108], [-0.12668997049331665, 0.05033337324857712, -0.031466566026210785, -0.3001823127269745, -0.30306461453437805, 0.8072285056114197, 0.34898999333381653, 0.1028376892209053, -0.08030153810977936, 0.13986141979694366, 0.6549091935157776, 0.5960699915885925, -0.4594118595123291, -0.2526082992553711, 0.6033393740653992, 0.5320664048194885, 0.06277697533369064, 0.005094376392662525, 1.1793755292892456, 0.8178852796554565, -0.5545293688774109, -1.0967775583267212, 0.4607807695865631, -0.03616517037153244, 0.6567281484603882, 0.6887356638908386, 0.6374333500862122, 0.08925636112689972, -0.0850200355052948, -0.3284739851951599, 0.9113518595695496, 1.3694524765014648, 0.56357741355896, 1.1826095581054688, 0.25455614924430847, 0.17529147863388062, -0.6321293115615845, 0.2211633324623108, 0.23306259512901306, 0.3826328217983246, -0.28326427936553955, 0.29636090993881226, 0.2232438176870346, -0.2630252242088318, 0.8742088675498962, 0.5452468991279602, 0.17012855410575867, -0.02061311900615692, 0.9753925204277039, -0.1937015801668167, -0.4911476969718933, -0.5967748761177063, -0.35603222250938416, -0.35058608651161194, 0.8281618356704712, 0.8323699831962585, 0.6510182619094849, 0.7753669619560242, 0.2081136554479599, -0.3506896495819092, -0.052804406732320786, -1.4613726139068604, 0.44715526700019836, -0.011095724999904633], [0.0616069920361042, -0.7338908314704895, -1.5811700820922852, 0.454351007938385, -0.104875348508358, 0.591821014881134, -1.032815933227539, -0.990780770778656, 0.22079116106033325, -0.2879926562309265, 0.008689948357641697, -0.13266010582447052, -0.6037800312042236, 0.5927973985671997, 0.2582763433456421, -0.9727777242660522, 0.9900275468826294, 0.0034244058188050985, 1.0993674993515015, 0.5387645363807678, -0.44823920726776123, -0.4601103663444519, -1.34609055519104, 0.1838787943124771, -0.1427709013223648, 0.7061811685562134, -0.1392841935157776, -0.05646144226193428, 0.5230486392974854, -0.1883050948381424, -1.0965582132339478, -0.05807597562670708, -0.3326411843299866, 0.2549707591533661, -0.38421112298965454, -1.0534299612045288, 0.3884751796722412, -0.07645624876022339, 0.48764118552207947, -0.08528029173612595, 0.42988452315330505, -0.07635737955570221, 0.8116654753684998, 0.3058120906352997, 0.09774362295866013, -0.2503976821899414, -0.29912447929382324, -0.7294175624847412, -0.13337399065494537, -0.3590984344482422, -0.7419173717498779, -0.3467017710208893, 0.31186050176620483, -0.14423838257789612, -0.14758628606796265, 0.32084688544273376, 1.1285908222198486, 0.07895777374505997, -0.1570250391960144, 0.37935155630111694, -0.07502089440822601, 0.17670080065727234, -0.26843124628067017, -1.3863993883132935], [0.1855607032775879, 0.5429016947746277, 0.18245643377304077, -1.848207712173462, -0.29949814081192017, -0.037736617028713226, 0.8264844417572021, 3.128507614135742, 0.31718796491622925, 0.48151689767837524, -0.4412846267223358, -0.4603240489959717, -0.018145091831684113, -0.20443619787693024, -1.0982869863510132, 0.8023969531059265, -0.6600345969200134, -0.2337319701910019, 0.2185492217540741, 0.1066177636384964, 0.34773141145706177, 0.23501978814601898, 0.3215675354003906, -0.5931226015090942, -0.19008015096187592, 0.17574113607406616, 0.6285340785980225, 0.09518508613109589, 0.2564622461795807, -0.46525949239730835, 0.3246288299560547, -0.44059041142463684, 0.35859543085098267, -0.29704388976097107, 0.57037353515625, -0.36910855770111084, -0.021875374019145966, -0.17002250254154205, -0.40726375579833984, 0.06559429317712784, -0.10970476269721985, -0.12515075504779816, -0.39065852761268616, 0.5966513752937317, 0.0986667349934578, -0.25080427527427673, 0.7100586891174316, 0.5261674523353577, 0.0027625211514532566, 0.05566538870334625, 0.8113694190979004, 0.663637638092041, -0.17171931266784668, -0.4181099534034729, -0.3739089071750641, -0.2061416208744049, 0.007285994477570057, -0.2910449206829071, -0.21203076839447021, 0.44079720973968506, 0.16738221049308777, 0.12433379143476486, -0.2290419489145279, 0.8151121735572815]], "fc1.bias": [-0.9065254330635071, -2.2052841186523438, 0.3991994261741638, 0.8423905372619629, -0.5274280309677124, 0.018709827214479446, 0.9615640044212341, 2.070739269256592, -0.015611641108989716, -1.544647455215454, 0.21716298162937164, -0.869327962398529, 0.441034734249115, -0.17554248869419098, 1.1273272037506104, 0.7206726670265198, -0.755895733833313, 0.30914121866226196, 0.5787860155105591, 1.032796025276184, -0.15132933855056763, -0.28579577803611755, -0.30403631925582886, 0.11064616590738297, 0.24418337643146515, 0.5400551557540894, 1.0322322845458984, -0.1696666181087494, 0.04136299714446068, 0.7053525447845459, 0.67057204246521, 0.22773928940296173], "fc2.weight": [[0.01282760314643383, 0.06893184781074524, -0.13327226042747498, 0.1214933916926384, 0.04526309296488762, -0.16302236914634705, 0.41767168045043945, 0.5238738059997559, -0.12709994614124298, -0.32829004526138306, 0.09903572499752045, 0.06360965222120285, -0.22004415094852448, -0.2915823757648468, -0.06615269184112549, -0.04075134918093681, -0.10065783560276031, 0.325135737657547, 0.20054104924201965, 0.03942263498902321, 0.3588237762451172, -0.6587013006210327, 0.23279836773872375, -0.4160727858543396, -0.12339279800653458, -0.023202180862426758, -0.10612301528453827, 0.3293417990207672, 0.03410171717405319, 0.08896331489086151, -0.004031479358673096, -0.29586032032966614], [0.04284575209021568, -0.1266176700592041, 0.26877254247665405, 0.18766513466835022, 0.03127730265259743, -0.008060410618782043, -0.22360630333423615, 0.4731720983982086, 0.17972590029239655, -0.48644888401031494, -0.006904957816004753, 0.03877292573451996, 0.018415626138448715, 0.20079447329044342, -0.11453788727521896, -0.1763353794813156, -0.0317719392478466, -0.3285539746284485, -0.1482144594192505, 0.2730896770954132, 0.4384419620037079, 0.4115867614746094, 0.1294909119606018, 0.39423510432243347, -0.2512805759906769, -0.11142431199550629, 0.34970295429229736, 0.3890177011489868, -0.14301727712154388, 0.10460401326417923, -0.02510327473282814, -0.2557668685913086]], "fc2.bias": [0.37732115387916565, 0.382389098405838]}