{"fc0.weight": [[0.02476690337061882, -0.3707136809825897, -0.39552566409111023, 0.5902346968650818, -0.3361113667488098, -0.2641812860965729, 0.116785429418087, -0.17127858102321625], [-0.2134534865617752, -0.058571647852659225, -0.3608046770095825, -0.27231353521347046, -0.39928585290908813, 0.13210254907608032, -0.4773394465446472, -0.12754203379154205], [-0.1643916219472885, 0.6243463158607483, 0.3256787359714508, 0.5276002883911133, -0.10146475583314896, 0.2660796344280243, -0.31209519505500793, 0.5098809599876404], [0.6580252051353455, 0.021374551579356194, -0.3255687952041626, -0.1284998655319214, -0.08078876882791519, -0.3123365640640259, 0.020605694502592087, -0.4442000389099121], [0.6710951328277588, -0.05013144388794899, 0.004964230116456747, 0.05492142587900162, -0.38565006852149963, 0.015236363746225834, 0.1871955245733261, 0.1357881873846054], [0.033556681126356125, 0.2828595042228699, 0.5271614193916321, 0.649468719959259, -0.1824367791414261, 0.1846216917037964, -0.013013448566198349, 0.22177885472774506], [-0.006175301503390074, 0.28960558772087097, -0.03837575390934944, -0.8828601837158203, -0.10187604278326035, 0.11300679296255112, -0.41691428422927856, -0.1588681936264038], [0.7904599905014038, -0.013214277103543282, -0.46659335494041443, 0.16388124227523804, 0.27783095836639404, -0.11417832225561142, -0.33173802495002747, -0.23653607070446014], [-0.08971952646970749, -0.03499865531921387, -0.18319430947303772, 0.6591406464576721, 0.24544349312782288, 0.3648236393928528, -0.3647868037223816, 0.4376930594444275], [-0.8167051076889038, -0.051798317581415176, 0.22080975770950317, 0.28386691212654114, -0.3475709855556488, -0.054117560386657715, 0.01958162896335125, 0.41011103987693787], [-0.02136642299592495, 0.3683006167411804, 0.1380796730518341, 1.1805864572525024, -0.469169944524765, 0.020540574565529823, 0.25245875120162964, -0.24351215362548828], [-0.48688194155693054, 0.1095661073923111, -0.3104957342147827, 0.29649147391319275, -0.4056851267814636, -0.41023892164230347, -0.5575591921806335, 0.23246830701828003], [-0.7679622769355774, -0.024235248565673828, -0.6282309293746948, 0.5485060811042786, 0.3603522777557373, -0.15580880641937256, -0.20415297150611877, -0.6908155083656311], [-0.10193655639886856, 0.511380136013031, 0.03172936290502548, 0.45438313484191895, 0.11181657016277313, 0.08083385229110718, -0.3615225553512573, 0.49000653624534607], [-0.14842092990875244, -0.24903105199337006, 0.19127808511257172, -0.7963111400604248, 0.07567279785871506, -0.10142185539007187, -0.36195412278175354, -0.17873455584049225], [-0.029349125921726227, 0.8140284419059753, -0.2064947634935379, 0.11460573226213455, 0.28974321484565735, 0.16024088859558105, -0.2416755110025406, -0.033480510115623474], [0.9765076041221619, -0.0010172545444220304, -0.404331773519516, 0.1817771941423416, -0.10924743115901947, 0.4671969711780548, -0.796608030796051, -0.6164097189903259], [-0.48253336548805237, -0.013880717568099499, -0.4182949662208557, 0.752933144569397, -0.28109288215637207, 0.02680283598601818, 0.009345568716526031, -0.10462600737810135], [0.03661850467324257, -0.2107560932636261, 0.27620118856430054, 1.4315602779388428, -0.0992564931511879, 0.11471114307641983, -0.4845251142978668, 0.2929821014404297], [-0.3729466497898102, 0.058829694986343384, -0.8652852177619934, 0.57737135887146, -0.10862048715353012, -0.23399361968040466, -0.6996222138404846, 0.0734126940369606], [-0.26430562138557434, 0.14372815191745758, -0.1763867884874344, 0.021631071344017982, 0.36998236179351807, -0.2155156284570694, 0.2466176301240921, 0.45900774002075195], [0.6528280377388, 0.022677430883049965, 0.6494634747505188, -0.17682556807994843, 0.44197314977645874, -0.27232399582862854, 0.45117971301078796, -0.26268497109413147], [-0.31941506266593933, 0.3553112745285034, -0.05616356432437897, -0.4307660460472107, -0.2237074226140976, 0.2651194930076599, -0.07504428923130035, -0.029798200353980064], [-0.8113484382629395, -0.03637339174747467, -0.41359519958496094, 0.08082403987646103, 0.1466282308101654, -0.1560133397579193, -0.24330425262451172, -0.8310685157775879], [-0.3765030801296234, 0.4583987891674042, -0.5150370001792908, -0.25765886902809143, -0.08235902339220047, 0.06893426179885864, -0.6241446733474731, 0.04469134658575058], [-0.04371389374136925, 0.681369423866272, 0.5392200946807861, -0.03261513635516167, -0.28084057569503784, 0.16992893815040588, -0.30203089118003845, 0.638185977935791], [0.11128858476877213, 0.41199541091918945, -0.6493444442749023, 0.640066921710968, -0.08832705765962601, 0.007669399492442608, -0.6068454384803772, -0.18030479550361633], [0.05349743366241455, -0.286933034658432, 0.24736125767230988, 0.4126753807067871, 0.2000347077846527, 0.17721888422966003, 0.4530521631240845, -0.4887842833995819], [-0.5296494364738464, 0.01877535879611969, -0.07279804348945618, 0.46132639050483704, -0.16623564064502716, -0.4296385943889618, -0.3547365367412567, -0.40338850021362305], [0.9992184638977051, -0.02702436037361622, -0.5978703498840332, -0.059444181621074677, -0.12525086104869843, -0.41728922724723816, -1.0349727869033813, -0.2866085469722748], [-0.753634512424469, 0.03399995341897011, -0.7143142819404602, -0.29197123646736145, -0.14737597107887268, -0.35511431097984314, -0.7313069105148315, 0.21916285157203674], [-0.03466027230024338, -0.23236516118049622, 0.0478951670229435, -0.6919427514076233, -0.08365947753190994, -0.07317683845758438, -0.01533108577132225, -0.3334701359272003], [0.0017015575431287289, -0.6147779822349548, 0.2590729892253876, 0.5393674969673157, 0.13851025700569153, -0.38292744755744934, 0.23069056868553162, -0.14902132749557495], [-0.2935602068901062, 0.0521947517991066, -1.372954249382019, 0.26556721329689026, -0.07086177915334702, 0.40148603916168213, -1.684584140777588, 0.3457617461681366], [-0.5302731990814209, -0.025505293160676956, -1.3434408903121948, 0.3793526291847229, -0.22757576406002045, 0.13292260468006134, -1.6640310287475586, 0.13826382160186768], [-0.04346904903650284, -0.03133394196629524, -0.9437065720558167, 0.16617000102996826, 0.4033105969429016, 0.3074713945388794, -0.3057017922401428, 0.1826932728290558], [-0.035699643194675446, -0.3725365996360779, 0.267242431640625, -0.29689598083496094, 0.13108651340007782, -0.23916994035243988, 0.40395647287368774, -0.13058273494243622], [-0.7365425229072571, 0.04011634737253189, 0.31546375155448914, 0.27624091506004333, -0.43737301230430603, -0.4680340588092804, 0.21164928376674652, 0.5104156136512756], [-0.7362226247787476, -0.02058827504515648, -0.04594382271170616, -0.12143006175756454, 0.45677465200424194, 0.3897259831428528, -0.46144720911979675, 0.22901181876659393], [0.36041393876075745, -0.04464283585548401, -0.24511781334877014, -0.4532645046710968, 0.3414047360420227, -0.40297770500183105, 0.017551757395267487, -0.12230876833200455], [0.04420747607946396, 0.4223299026489258, -0.028610996901988983, 1.003214955329895, 0.21650925278663635, 0.1661672741174698, 0.6152820587158203, 0.6320505738258362], [0.002393706701695919, 0.5163587927818298, -0.5338343381881714, 0.1434820294380188, 0.17156659066677094, 0.15140822529792786, -0.4066908359527588, 0.3997420072555542], [0.010937008075416088, 0.29660114645957947, -0.2721517086029053, 0.6408237814903259, 0.34249165654182434, 0.3380435109138489, 0.4191238582134247, -0.33440545201301575], [0.187542125582695, -0.33660152554512024, -0.3256564438343048, -0.021188048645853996, -0.3701778054237366, -0.24793095886707306, 0.03309043496847153, -0.3396967947483063], [-0.0029457109048962593, -0.40825870633125305, 0.02861422300338745, 0.29127588868141174, 0.3808976113796234, -0.04784554988145828, 0.5998406410217285, 0.39397791028022766], [-0.09434552490711212, -0.3706323504447937, -0.07280240952968597, -0.9234591126441956, -0.2791033089160919, 0.20380710065364838, 0.4269254207611084, -0.5811424255371094], [0.06966189295053482, -0.7129385471343994, -0.10578052699565887, -0.37267035245895386, 0.27556347846984863, 0.26865190267562866, -0.6237453818321228, -0.0430963933467865], [-0.3704305589199066, 0.061369795352220535, -0.9478610754013062, -0.10682322829961777, 0.09366349875926971, 0.30815815925598145, -0.3443877398967743, 0.36587464809417725], [-0.3880210816860199, 0.4901792109012604, -0.08114877343177795, -0.04309609532356262, -0.3841562867164612, -0.4691444933414459, -0.4161474108695984, -0.30728596448898315], [0.486080139875412, -0.03876984119415283, 0.7779536247253418, 0.3555642068386078, -0.3400326371192932, 0.2874338924884796, 0.34695714712142944, 0.2612764537334442], [-0.3857770264148712, 0.20341065526008606, 0.11053793877363205, -0.32346758246421814, 0.04498923197388649, -0.1135571151971817, 0.017025141045451164, 0.18515655398368835], [-0.6115595698356628, 0.014979145489633083, 0.16089828312397003, -0.029186856001615524, 0.3113327920436859, 0.29094937443733215, 0.2470710277557373, -0.023312145844101906], [-0.034161731600761414, -0.8274828791618347, 0.6173049807548523, -0.7114183902740479, 0.14084166288375854, -0.3433115482330322, 0.6988272666931152, 0.6033360958099365], [0.07991641014814377, 0.7174283266067505, 0.2841079533100128, -0.2571200430393219, -0.20477426052093506, -0.3001497983932495, 0.4882504642009735, 0.5721399188041687], [-0.8000267148017883, 0.02561546303331852, -0.45286083221435547, 0.1805320382118225, 0.26016131043434143, -0.4443674087524414, -1.0156567096710205, -0.5713807344436646], [-0.703811526298523, 0.02639203518629074, -0.33879849314689636, -0.2918632924556732, 0.11837948858737946, -0.2068401724100113, -0.14425675570964813, -0.5025702714920044], [-0.1795467883348465, -0.5778874754905701, -0.3656826913356781, -0.4021948277950287, -0.24461810290813446, 0.21992391347885132, -0.04239680990576744, 0.35839515924453735], [-0.08997004479169846, -0.33458027243614197, 0.23243896663188934, -0.6112061142921448, 0.25338447093963623, -0.28861263394355774, -0.1265161782503128, -0.05690158158540726], [-0.030273308977484703, 0.5183135271072388, -0.43593311309814453, 0.6902365684509277, -0.10967661440372467, -0.17266079783439636, 0.0516921766102314, 0.08216853439807892], [-0.08055020868778229, 0.46066272258758545, -0.663698673248291, 0.12277694791555405, 0.2709387540817261, -0.022253870964050293, -0.7317469120025635, -0.3317168354988098], [-0.07479261606931686, -0.07966238260269165, -1.3472297191619873, 0.2196006327867508, -0.45055410265922546, -0.12543708086013794, -1.3502618074417114, -0.3385730981826782], [-0.7693779468536377, 0.013840368017554283, 0.21575263142585754, -0.19498871266841888, 0.24167633056640625, -0.22004160284996033, -0.0001832785055739805, 0.17447395622730255], [-0.40858593583106995, -0.11269813776016235, -0.13459078967571259, 0.3447411060333252, -0.443132221698761, -0.020705411210656166, -0.94368577003479, 0.2983475923538208], [0.08293108642101288, -0.41909679770469666, 0.38931894302368164, -0.031729113310575485, -0.16389138996601105, 0.33514270186424255, -0.02250771038234234, 0.36239275336265564]], "fc0.bias": [0.20502746105194092, -0.004539084620773792, -0.41616708040237427, -0.25700777769088745, 0.15590038895606995, 0.0013432818232104182, 0.3271034061908722, -0.34689220786094666, 0.21766942739486694, -0.19738207757472992, 0.26672106981277466, -0.18393905460834503, 0.30428436398506165, -0.1858292520046234, -0.017240488901734352, 0.11479024589061737, -0.07767625898122787, 0.43005454540252686, 0.033519793301820755, 0.09050480276346207, 0.05956588685512543, 0.24475911259651184, -0.21358627080917358, 0.1826425939798355, -0.2991141378879547, -0.01454969123005867, 0.035983581095933914, -0.2678166627883911, 0.16941511631011963, 0.19503842294216156, -0.18085584044456482, -0.25217071175575256, 0.17334052920341492, -0.056931428611278534, 0.1718374788761139, -0.46631956100463867, 0.05956708639860153, 0.0013715203385800123, 0.003252116497606039, 0.16218115389347076, 0.2128843516111374, -0.515984058380127, -0.038590189069509506, -0.3901346027851105, -0.08393538743257523, -0.4121743142604828, 0.4713289439678192, 0.42182624340057373, 0.33784931898117065, -0.1088971197605133, -0.18813471496105194, 0.14173419773578644, 0.08262665569782257, -0.31994712352752686, 0.3659203350543976, -0.5129989981651306, 0.17921803891658783, 0.36492887139320374, 0.4368579387664795, 0.11602633446455002, 0.1902424842119217, 0.5125318765640259, -0.10921972990036011, -0.2415446639060974], "fc1.weight": [[-0.12077334523200989, -0.2868531048297882, -0.33608806133270264, -0.40472328662872314, 0.1053096204996109, -0.40002384781837463, -0.4485316574573517, 0.09209944307804108, 0.23540103435516357, 0.045881934463977814, -0.0817645862698555, -0.35789790749549866, -0.20507697761058807, -0.32164594531059265, 0.4104648232460022, -0.4051873981952667, 0.16826610267162323, 0.12986348569393158, 0.6227642297744751, 0.4685533344745636, -1.0346622467041016, 0.027670802548527718, -1.0978842973709106, 0.149577796459198, -0.44344770908355713, -0.8797988295555115, -0.12552852928638458, 0.028703009709715843, -0.6267057061195374, 0.07295962423086166, -0.21680335700511932, -0.34262704849243164, -0.0013595933560281992, -0.009927899576723576, -0.10521184653043747, 0.2597046196460724, -0.020558178424835205, -0.2690146267414093, 0.2575925886631012, 0.2028276026248932, 0.03721773996949196, 0.024445820599794388, -0.8107630610466003, 0.9177853465080261, 0.11046543717384338, 0.14537839591503143, 0.5670321583747864, -0.07498486340045929, -0.1124090924859047, 0.4880739152431488, -0.7425575256347656, 0.5038579702377319, 0.30380985140800476, -0.5789119601249695, 0.32470834255218506, -0.21269792318344116, -0.3044613003730774, -0.181951105594635, -0.2778926491737366, -0.503972589969635, 0.18988437950611115, -0.18656447529792786, 0.2777631878852844, -0.1120462715625763], [-0.3237934410572052, -0.08830618113279343, 0.3701073229312897, 0.3133237361907959, 0.5577009916305542, 0.055914256721735, 0.5635964870452881, 0.08831753581762314, -0.04402058944106102, -0.06722424924373627, 0.5593357086181641, 0.1184973269701004, -0.6319906115531921, 0.4678182601928711, -0.08397497236728668, 0.4077162742614746, 0.5354493260383606, -0.16601809859275818, -0.12320360541343689, -0.06846453994512558, 0.07239308208227158, -0.03695274889469147, 0.25434452295303345, 0.1398591697216034, -0.12899667024612427, 0.2774727940559387, 0.5865697264671326, -0.12487050890922546, 0.3161359131336212, -0.036697179079055786, 0.05461704730987549, -0.5449408888816833, -0.5505176186561584, 0.044422876089811325, -0.3894003927707672, -0.08891081064939499, -0.5577285289764404, -0.29139432311058044, 0.10505978018045425, 0.17540700733661652, 0.18745023012161255, 0.5710813403129578, 0.45832616090774536, -0.45753124356269836, -0.39839091897010803, -0.295154869556427, -0.14177875220775604, 0.3872831463813782, 0.3220173120498657, 0.05602136254310608, -0.06884902715682983, -0.48530206084251404, -0.1874956488609314, 0.6384787559509277, 0.07047080993652344, 0.38408786058425903, -0.8138421177864075, -0.23925484716892242, 0.09002455323934555, 0.25924691557884216, -0.5713122487068176, -0.5002193450927734, -0.3802171051502228, -0.6045889258384705], [0.3327656090259552, 0.3445768654346466, 0.020931756123900414, 0.5212457180023193, -0.17718374729156494, -0.3475021719932556, -0.23408003151416779, 0.17762020230293274, 0.6396306157112122, 0.06298331171274185, 0.45976170897483826, -0.23496519029140472, 0.5104902386665344, -0.13078439235687256, 0.13740526139736176, -0.7487960457801819, -0.2351456731557846, 0.15604503452777863, -0.08472150564193726, -0.04638134315609932, -0.46432486176490784, 0.4619028866291046, 0.17061536014080048, 0.16324734687805176, -0.013603359460830688, -0.5829808115959167, 0.23205775022506714, 0.09611637890338898, 0.08611617982387543, -0.45303139090538025, 0.15922290086746216, 0.2184385061264038, 0.1582157164812088, 0.4044314920902252, -0.5049102306365967, 0.4964122176170349, 0.17797578871250153, -0.18190167844295502, -0.1594991683959961, -0.44652268290519714, -0.35294342041015625, -0.8284823298454285, 0.0991717278957367, -0.11516476422548294, 0.8331687450408936, 0.22087691724300385, 0.2761550843715668, 0.20632308721542358, -0.4482195973396301, -0.3695233166217804, -0.5410398244857788, 0.2761595845222473, 0.39647376537323, -0.8219466805458069, -0.023744113743305206, 0.3792950510978699, -0.07673773914575577, 0.27265045046806335, -0.26305246353149414, 0.1362125426530838, 0.24312500655651093, 0.5184951424598694, -0.18377569317817688, 0.16702915728092194], [-0.08306138217449188, -0.7919617891311646, 0.004096936900168657, 0.1970624029636383, 0.7951111197471619, -0.06438256800174713, -0.14979660511016846, 0.35951119661331177, 0.2607450485229492, -0.40688276290893555, 0.020063305273652077, -0.7550077438354492, -0.30487391352653503, 0.11878044903278351, -0.891882598400116, -0.25002482533454895, 0.09554925560951233, -0.43743929266929626, 0.8260020613670349, -0.7202212810516357, -0.06606810539960861, 0.5507839918136597, -0.21189147233963013, -0.1820814162492752, -0.30326583981513977, 0.05529962107539177, 0.23811841011047363, -0.6272270083427429, -0.3074829578399658, -0.11957266926765442, -0.11978853493928909, -0.37904414534568787, -0.05211399123072624, -0.5865563750267029, -0.05483686551451683, 0.028565583750605583, 0.08536078780889511, -0.8338134288787842, -0.06346240639686584, -0.009787033312022686, 0.02649219147861004, 0.49338239431381226, 0.05961134657263756, 0.2971712052822113, -0.036943402141332626, -0.22718170285224915, -0.37945815920829773, -0.3780600130558014, 0.3195890486240387, 0.5971527099609375, -0.07686930894851685, -0.4897671937942505, 0.12253514677286148, 0.3158152997493744, -0.5805070996284485, 0.13094696402549744, -0.570468008518219, 0.30424007773399353, 0.3246399760246277, 0.10014835745096207, -0.26072075963020325, -0.6173712611198425, 0.2966296672821045, 0.15700706839561462], [-0.25484806299209595, 0.3844241499900818, 0.3773980736732483, -0.2446243315935135, -0.14054858684539795, -0.13017627596855164, 0.2135067731142044, -0.5343891382217407, 0.30474942922592163, 0.3073979616165161, 0.42101606726646423, 0.824084460735321, 0.5801212787628174, 0.3859359622001648, 0.3386894464492798, 0.20740114152431488, -0.7139105200767517, 0.8598345518112183, 0.4113380014896393, 0.10799846798181534, 0.5533334612846375, -0.20908711850643158, 0.5437408685684204, 0.6894773840904236, 0.6151027679443359, 0.3489697277545929, -0.3341885805130005, 0.13452742993831635, 0.7949833869934082, -0.2691192030906677, -0.30296576023101807, -0.03567015379667282, 0.46253958344459534, 0.3872887194156647, 0.3689815104007721, 0.18268586695194244, 0.5580039620399475, 0.39184650778770447, -0.05221354588866234, -0.7004286646842957, 0.09772498160600662, -0.07118533551692963, 0.5218603610992432, -0.4491997957229614, 0.4686231017112732, 0.37006306648254395, 0.02963356487452984, 0.06212884187698364, 0.6031494140625, 0.04178360104560852, 0.26310500502586365, 0.6293479204177856, -0.12029711902141571, 0.22046369314193726, 0.07818202674388885, 0.10097227990627289, 0.3101927638053894, -0.2973809838294983, -0.34003767371177673, 0.17010045051574707, 0.6150764226913452, 0.18127235770225525, 0.7924002408981323, -0.19969533383846283], [-1.0302027463912964, 0.24119174480438232, 0.1675257682800293, -0.33818337321281433, 0.1083400771021843, 0.3396666944026947, 0.45510512590408325, 0.21767877042293549, -0.15981289744377136, -0.2432735413312912, -0.33501461148262024, -0.3165663778781891, -0.2442002296447754, 0.06756608933210373, -0.24990426003932953, 0.44399330019950867, -0.31184515357017517, -0.4077474772930145, -0.8209496736526489, -0.014153964817523956, 0.17726989090442657, -0.21059994399547577, 0.1696975827217102, 0.16671402752399445, -0.3225593566894531, 0.3304502069950104, 0.38813477754592896, 0.08220603317022324, 0.3936358690261841, -0.3844250440597534, -0.0008593910606577992, -0.07026638835668564, -1.4017711877822876, 0.2321849763393402, 0.282257080078125, 0.003028587205335498, -0.26515063643455505, 0.2694368362426758, -0.004317558370530605, 0.3457781672477722, -0.3220893144607544, 0.27710700035095215, 0.07073908299207687, 0.022412938997149467, -0.3050081729888916, -0.15448594093322754, -0.0019685926381498575, 0.18633396923542023, 0.1984964907169342, 0.28858011960983276, 0.017660869285464287, -0.32117974758148193, -0.37009477615356445, 0.6261653900146484, 0.2307731658220291, 0.1277892142534256, -0.016629286110401154, -0.021484708413481712, -0.11694242060184479, -0.15683232247829437, 0.21321095526218414, -0.15101711452007294, -0.34761857986450195, 0.014378928579390049], [0.09729135781526566, -0.25482556223869324, 0.6210706233978271, 0.4243103265762329, 0.4793041944503784, 0.15292982757091522, 0.47688186168670654, 0.14856040477752686, -0.06983073055744171, 0.4143510162830353, 0.7805842161178589, 0.0970039889216423, 0.07191413640975952, 0.6855897307395935, 0.1795399785041809, 0.3992377817630768, -0.3920583724975586, 0.5726590156555176, -0.5326099991798401, -0.23664243519306183, 0.502026379108429, -0.2633475661277771, 0.46799466013908386, -0.45182669162750244, 1.0131608247756958, 0.5228767991065979, 0.1426590234041214, -0.5418320298194885, -0.0271466001868248, -0.38533562421798706, 0.2904479205608368, -0.5412553548812866, -0.04562624543905258, -0.36722299456596375, 0.42214512825012207, 0.014086517505347729, 0.09408394247293472, -0.304383784532547, -0.2952654957771301, -0.12286251783370972, 0.3102845847606659, 0.22187909483909607, 0.07047519087791443, -0.2717454433441162, 0.07418769598007202, -0.06268473714590073, 0.07781500369310379, 0.046609461307525635, 0.40931379795074463, -0.5634801983833313, 0.6054973006248474, 0.22898800671100616, -0.3549889624118805, 0.09594342112541199, 0.09528891742229462, 0.2828643023967743, -0.4765000343322754, -0.19804860651493073, 0.37841084599494934, 0.1640649437904358, -0.08607657998800278, 0.24809110164642334, 0.8704573512077332, -0.16784565150737762], [-0.3265547752380371, 0.10715299844741821, -0.4272812306880951, -0.4138752818107605, -0.4745570123195648, 0.1642560064792633, -0.08296993374824524, -0.5562347769737244, -0.1315390020608902, 0.35439857840538025, 0.12461378425359726, -0.2496844083070755, -0.007432767190039158, -0.09445971995592117, -0.05041685327887535, 0.8566358089447021, -0.2566909193992615, 0.12706682085990906, 0.12887024879455566, 0.10968295484781265, -0.24212883412837982, -0.46756911277770996, 0.17878839373588562, 0.05533503368496895, 0.30376243591308594, -0.2871381640434265, 0.4845832288265228, 0.05123700201511383, 0.2756515443325043, -0.4712548851966858, -0.170260488986969, 0.22343884408473969, -0.46510398387908936, 0.1484808772802353, -0.20764082670211792, -0.0319652333855629, -0.31243178248405457, 0.2987396717071533, 0.04210832715034485, -0.34516406059265137, 0.3073854148387909, -0.17314164340496063, -0.19334273040294647, 0.11995235830545425, -0.09015648066997528, -0.46213245391845703, -0.24840836226940155, 0.23709964752197266, -0.20877818763256073, -0.1964128017425537, -0.1526140570640564, 0.44052308797836304, -0.3128717541694641, 0.07826410979032516, 0.34971487522125244, 0.7117903232574463, 0.6145628094673157, 0.1008300632238388, 0.12968483567237854, 0.14664128422737122, 0.11205270141363144, 0.16622696816921234, 0.6993852853775024, -0.7150987386703491], [-0.1087622120976448, 0.6711950898170471, 0.25725939869880676, -0.49507373571395874, -0.7125896215438843, -0.11257663369178772, -0.36879754066467285, 0.02077076956629753, 0.40664634108543396, 0.9892553091049194, 0.34809595346450806, 0.6902258396148682, 0.255985826253891, 0.3330603539943695, 0.5875070691108704, 0.0734194815158844, -0.09913069009780884, 0.07456625998020172, -0.014115406200289726, 0.35796919465065, 0.47347354888916016, -0.2669934928417206, -0.24154742062091827, 0.413496732711792, 0.5272805690765381, 0.1639300137758255, 0.2669511139392853, 0.2635640799999237, 0.13274557888507843, -0.4839158058166504, 0.6426483392715454, -0.5694975256919861, -0.2135751098394394, 0.5169042944908142, 0.8268595337867737, 0.028081953525543213, -0.11165599524974823, 0.7747293710708618, 0.24311290681362152, -0.3363523483276367, 0.048325203359127045, 0.5495525598526001, -0.3941960632801056, 0.09970510005950928, 0.27521461248397827, 0.3258712887763977, -0.38455069065093994, 0.5692369341850281, 0.4962804317474365, -0.20947077870368958, -0.3024260997772217, -0.11745622009038925, 0.1823655217885971, -0.055923428386449814, 0.2715871036052704, -0.07272189855575562, 0.15560606122016907, 0.7473551034927368, 0.24394087493419647, -0.21336297690868378, 0.47749704122543335, 0.17352965474128723, 0.5069400072097778, -0.08836018294095993], [-0.37631815671920776, -0.40188664197921753, -0.1555895209312439, 0.16327789425849915, 0.43061983585357666, -0.4974535405635834, 1.5876339673995972, 0.3029305636882782, -0.8301059007644653, 0.3903457224369049, -0.21999591588974, -0.18773460388183594, -0.07037416845560074, 0.14510877430438995, -0.21170930564403534, 0.4489923119544983, -0.25663602352142334, -0.6856746077537537, -1.275913953781128, 0.372283399105072, -0.17646826803684235, -0.4007635712623596, 0.13578622043132782, 0.23261268436908722, 0.4333851635456085, 0.09456153959035873, 0.09352341294288635, -0.735648512840271, -0.1560048907995224, 0.3158704340457916, 0.18492791056632996, 0.5743512511253357, -0.27065956592559814, -0.2743578255176544, 0.20335322618484497, 0.4664163291454315, 0.03282073885202408, 0.34231382608413696, 0.42123380303382874, 0.3914130926132202, 0.2629876732826233, 0.3581918478012085, -0.21185050904750824, -0.038893334567546844, -0.016662534326314926, -0.2861456871032715, 0.08084626495838165, -0.35448163747787476, 0.3924846053123474, -0.12158121168613434, 0.11875181645154953, 0.27924418449401855, -0.15749222040176392, 0.07717829197645187, 0.2077515870332718, 0.7841227054595947, 0.190515398979187, -0.28473660349845886, 0.045930732041597366, -0.11712902039289474, -0.38721758127212524, 0.07783912122249603, 0.40829944610595703, 0.1763557344675064], [-0.20177343487739563, -0.11450771987438202, 0.18139615654945374, 0.42800450325012207, -0.2596419155597687, -0.04920068755745888, 1.2868965864181519, 0.33750253915786743, 0.006192708853632212, -0.011616772040724754, -0.05333053320646286, -0.20106174051761627, 0.25383687019348145, -0.03311316668987274, -0.5734692215919495, -0.24317193031311035, -0.13816601037979126, 0.11493121087551117, -1.7851990461349487, -0.26395943760871887, -0.3146560788154602, -0.022629057988524437, 0.0665300115942955, -0.2174263596534729, -0.34716323018074036, 0.07058585435152054, 0.3957620859146118, -0.4251269996166229, 0.20145156979560852, 0.3877406120300293, -0.21441636979579926, -0.39490440487861633, -0.6520577669143677, 0.26635417342185974, 0.2226659059524536, 0.0133378179743886, -0.4078380763530731, -0.21421699225902557, -0.3388689160346985, -0.22235116362571716, -0.291517049074173, 0.4363066256046295, -0.07289745658636093, -0.4201001226902008, -0.26103007793426514, -0.010707496665418148, -0.48745158314704895, 0.17670120298862457, -0.07135043293237686, 0.2510644495487213, -0.4544048011302948, -0.07015405595302582, 0.00802992470562458, 0.36160022020339966, 0.06572987884283066, -0.07441185414791107, 0.1704886108636856, -0.035512860864400864, 0.16118033230304718, 0.17225994169712067, -0.15951800346374512, 0.26944559812545776, 0.07897660881280899, -0.20705723762512207], [-0.4252115488052368, -0.2480396032333374, 0.20504678785800934, -0.5362709760665894, 0.1340898722410202, 0.378217875957489, 0.09166555851697922, -0.45063596963882446, -0.16169600188732147, 0.3926660120487213, 0.07492874562740326, 0.38232648372650146, 0.2863883376121521, -0.40820202231407166, 0.06432903558015823, -0.433525025844574, -0.63711017370224, 0.11999442428350449, -0.2924546003341675, -0.2653235197067261, -0.088313028216362, -0.16933311522006989, 0.30575329065322876, 0.3036816120147705, 0.07700057327747345, 0.06520845741033554, 0.21222779154777527, -0.21910785138607025, 0.3374597728252411, -1.4346922636032104, 0.20735862851142883, 0.21221594512462616, 0.011744624935090542, -0.3809281289577484, 0.039679259061813354, -0.41347798705101013, -0.2907311022281647, 0.6576969027519226, 0.26757100224494934, -0.1953766793012619, 0.1970185786485672, -0.07202033698558807, -0.029573258012533188, 0.32456451654434204, 0.44287821650505066, 0.39910393953323364, -0.3192662000656128, 0.002950766123831272, 0.18485406041145325, 0.2171674370765686, 0.024998124688863754, 0.306110143661499, 0.23381485044956207, 0.21863621473312378, 0.07370924949645996, 0.3173544108867645, -0.33703285455703735, 0.01986474171280861, -0.44552451372146606, 0.21833395957946777, -0.11491524428129196, 0.6943879127502441, 0.17442187666893005, -0.13326910138130188], [0.003633209504187107, -0.028775127604603767, 0.13696300983428955, 0.3096131682395935, 0.2833138704299927, 0.015343710780143738, -0.24815915524959564, 0.32957425713539124, 0.0866188183426857, -0.15903647243976593, -0.387317955493927, 0.3646153211593628, -0.16115306317806244, -0.1540871262550354, 0.2725468575954437, -0.021009106189012527, 0.3916056454181671, 0.37758925557136536, -0.10493294894695282, 0.3476426601409912, 0.43453893065452576, -0.45741304755210876, -0.1656988114118576, 0.10983400046825409, 0.23697572946548462, 0.2388145625591278, -0.30265000462532043, -0.10022437572479248, -1.8596083464217372e-05, 0.535912275314331, 0.12566228210926056, 0.01003105379641056, -0.16128695011138916, 1.2669875621795654, 0.8258264660835266, 0.6373212933540344, 0.29564356803894043, -0.41207531094551086, 0.039493221789598465, 0.03211338073015213, 0.15740764141082764, 0.3043016493320465, -0.44624975323677063, 0.3559858202934265, 0.22916828095912933, -0.2352742999792099, 0.04435356333851814, -0.12107591331005096, -0.11248458176851273, 0.15601271390914917, 0.15961109101772308, 0.23933948576450348, 0.12034552544355392, 0.018276235088706017, 0.289985716342926, 0.18114393949508667, 0.32456257939338684, 0.2921822667121887, -0.08024170249700546, 0.2682175040245056, 1.6818028688430786, 0.1682242453098297, 0.35000789165496826, 0.45010921359062195], [0.3832230269908905, -0.05934404954314232, -0.4456339180469513, -0.06781401485204697, 0.16707004606723785, -0.30974578857421875, -0.09939733892679214, 0.4067681133747101, -0.033653467893600464, -0.26836004853248596, -0.5169872641563416, -0.7289813756942749, 0.0961422547698021, 0.11413874477148056, -0.271621972322464, -0.23566128313541412, 0.7319024801254272, -0.16486459970474243, -0.08189663290977478, -0.430064857006073, -0.3211905062198639, 0.2027178704738617, -0.30186524987220764, -0.3584340810775757, -0.48663413524627686, -0.346685528755188, -0.2774146497249603, 0.35988515615463257, -0.34611764550209045, 0.13436880707740784, -0.7156944274902344, 0.4779355227947235, 0.1442999541759491, -0.03849320486187935, -0.4433710277080536, -0.3310457766056061, 0.32933351397514343, -0.234467551112175, -0.08590064197778702, -0.022398414090275764, -0.23468007147312164, -0.3778567910194397, -0.10185912996530533, 0.2896046042442322, 0.29033392667770386, 0.23128390312194824, 0.7434564828872681, -0.47028815746307373, -0.5277054309844971, 0.2718001902103424, -0.8173282742500305, -0.0034201324451714754, 0.05710315704345703, -0.03806491196155548, -0.29518595337867737, -0.24037030339241028, -0.42971915006637573, -0.37629786133766174, 0.08647274225950241, -0.04854140058159828, -0.1282157599925995, -0.5732738971710205, -0.345059871673584, 0.7217037081718445], [-0.1457454115152359, 0.11659687757492065, 0.18200306594371796, -0.43507733941078186, -0.37133151292800903, 0.46054911613464355, -0.01214211992919445, 0.08562857657670975, 0.5163605809211731, 0.621401309967041, 0.06015922501683235, 0.11346790194511414, 0.43790462613105774, -0.0020726441871374846, 0.41735202074050903, -0.2548668086528778, -0.2397012710571289, 0.5698015689849854, -0.7404300570487976, 0.8938510417938232, 0.03272749483585358, 0.20886161923408508, -0.2236923724412918, -0.16471323370933533, 0.09995516389608383, 0.39239951968193054, -0.19814705848693848, -0.324075847864151, 0.006688669789582491, -0.12358006834983826, 0.6049050688743591, 0.08003591001033783, -0.09228489547967911, 0.7148584723472595, 0.7909124493598938, 0.503547728061676, 0.3183586895465851, 0.19966980814933777, 0.09424664825201035, -0.39885082840919495, -0.050972890108823776, 0.5315155982971191, 0.2251730114221573, -0.05097219720482826, -0.16206908226013184, -0.32742810249328613, 0.24073824286460876, 0.27300509810447693, 0.06011172756552696, -0.38271981477737427, -0.08724528551101685, 0.7335693836212158, 0.5455263257026672, -0.1414659470319748, 0.525151252746582, 0.061960965394973755, 0.08538306504487991, -0.3838415741920471, -0.20059917867183685, 0.21454352140426636, 1.204222321510315, -0.04487460479140282, -0.02489258162677288, 0.2907029092311859], [-0.05245894566178322, -0.18916411697864532, 0.08286102861166, 0.49399372935295105, 0.43776991963386536, -0.04862365871667862, -0.5720005631446838, 0.7932326197624207, 0.016547277569770813, 0.08689190447330475, -0.05214093625545502, -0.22733265161514282, -0.45830532908439636, -0.27150994539260864, -0.45948606729507446, -0.37193429470062256, 0.07243425399065018, -0.38457199931144714, 0.5987779498100281, -0.04053373262286186, -0.0008589037461206317, 0.5813083052635193, -0.28380826115608215, -0.08718901872634888, -0.43493762612342834, -0.3525904417037964, -0.36952489614486694, 0.5696797370910645, -0.3612760603427887, 0.14454802870750427, -0.6382612586021423, 0.15518607199192047, 0.0879121795296669, -0.3646513521671295, -0.5339196920394897, -0.15796466171741486, -0.32754677534103394, -0.21048277616500854, -0.4731144607067108, 0.13505324721336365, -0.21248744428157806, -0.32530856132507324, -0.3446759879589081, 0.5148258805274963, -0.36781296133995056, -0.06654468178749084, -0.27924203872680664, -1.1681938171386719, -0.052663661539554596, 0.7042052745819092, 0.1366269439458847, -0.057423185557127, -0.3473101854324341, -0.14324073493480682, -0.3062303066253662, -0.589340329170227, -0.29194504022598267, -0.08237511664628983, 0.2735520005226135, -0.2396874725818634, -1.1482218503952026, -0.7513200640678406, 0.12837950885295868, -0.017000406980514526], [0.05377984046936035, -0.29348036646842957, -0.5070106983184814, -0.07362846285104752, -0.1838199645280838, 0.10067643970251083, -0.5688062310218811, -0.23510436713695526, 0.9909149408340454, 0.26530519127845764, 0.09778105467557907, -0.09589768201112747, -0.07260552048683167, 0.22514916956424713, 0.19182057678699493, 0.09650679677724838, -0.09045085310935974, 0.11105076223611832, 1.5920697450637817, 0.43758997321128845, 0.4259600341320038, 0.33291828632354736, 0.37944096326828003, 0.1718386858701706, 0.32840341329574585, -0.061010122299194336, -0.39191117882728577, 0.206778421998024, 0.062477678060531616, -0.24525469541549683, 0.05376996845006943, -0.47159793972969055, 0.9444312453269958, -0.3947961628437042, -0.2907888889312744, 0.8178539276123047, 0.47771891951560974, -0.13716627657413483, -0.29094716906547546, -0.07558023929595947, -0.1627953052520752, -0.1832168847322464, -0.3441666066646576, 0.3245495855808258, 0.5293910503387451, 0.21452976763248444, 0.35214558243751526, 0.4864406883716583, -0.31839683651924133, -0.1301148384809494, 0.0668594092130661, 0.02700076252222061, 0.043024491518735886, -0.3278316259384155, 0.34629544615745544, -0.10009884834289551, 0.573588490486145, -0.19201676547527313, -0.21245107054710388, -0.3233759105205536, 0.4060457646846771, -0.3128287196159363, -0.3446812629699707, 0.25163859128952026], [0.2108333557844162, 0.16012956202030182, -0.21175594627857208, -0.13041135668754578, -0.7462086081504822, -0.0561690591275692, -0.21984274685382843, 0.005683992523699999, 0.5357117056846619, 0.5295200943946838, 0.39891254901885986, -0.1563468724489212, 0.29475176334381104, -0.03097393549978733, 0.2289929836988449, 0.33750513195991516, 0.5743071436882019, 0.37167757749557495, -0.09819220751523972, 0.7614715099334717, 0.09347841888666153, -0.7550367712974548, -0.333047479391098, 0.3216799199581146, 0.3221023380756378, -0.15226693451404572, 0.15278565883636475, -0.32007119059562683, 0.29290756583213806, -0.27925562858581543, -0.001122179557569325, -0.35353797674179077, -0.12271412461996078, 1.5591543912887573, 0.6384274959564209, 0.7255595326423645, 0.0003943366464227438, -0.4034167230129242, 0.08716722577810287, 0.21485629677772522, -0.002286711009219289, -0.014464913867413998, 0.3661038279533386, -0.10931439697742462, 0.27901536226272583, 0.31825894117355347, -0.03148627281188965, 0.13363921642303467, -0.1256149858236313, 0.08108009397983551, 0.44607287645339966, -0.07628690451383591, 0.14729861915111542, 0.08878500014543533, 0.07328326255083084, -0.14942745864391327, 0.0635812059044838, -0.251882404088974, -0.03474249318242073, -0.1906438171863556, 1.3319052457809448, -0.33150196075439453, 0.4086989462375641, 0.3776871860027313], [0.19673053920269012, 0.19034798443317413, 0.20987080037593842, -0.24261663854122162, 0.2249409705400467, -0.24708124995231628, 0.5896051526069641, 0.298887699842453, -0.7271299362182617, -0.08809953182935715, -0.4163225591182709, -0.5399590134620667, -0.3332371413707733, -0.47068706154823303, -0.13757367432117462, 0.1664690226316452, 0.3662305474281311, -0.3237687647342682, -0.3482793867588043, -0.4302801787853241, -0.33319658041000366, 0.1313096284866333, -0.1998838484287262, -0.29559168219566345, -0.2863712012767792, -0.4642907679080963, 0.30339738726615906, 0.0946749821305275, 0.08197464048862457, 0.3077724575996399, -0.297100692987442, -0.16393519937992096, 0.02829313650727272, -0.8466319441795349, -0.17583554983139038, -0.6911818981170654, -0.23103803396224976, -0.502838134765625, -0.2049987018108368, -0.10225708782672882, 0.32525983452796936, 0.057782918214797974, -0.15496930480003357, 0.18021416664123535, -0.0976194366812706, -0.19311903417110443, -0.2914329469203949, -0.5582490563392639, 0.2485826462507248, 0.29473888874053955, -0.30556029081344604, 0.055805522948503494, -0.13861359655857086, -0.3342510759830475, -0.6015804409980774, -0.5282432436943054, 0.3271401822566986, 0.05392453446984291, 0.3152487277984619, -0.43511804938316345, -1.5624619722366333, 0.08920498192310333, -0.2927300035953522, 0.05281020700931549], [-0.24853169918060303, -0.1014820784330368, 0.1946619749069214, 0.6936195492744446, 0.9902099967002869, 0.08612219244241714, 0.28975674510002136, 0.2613212466239929, -0.5827906727790833, 0.1403009444475174, -0.03428054228425026, -0.37066134810447693, -0.7393458485603333, -0.16494609415531158, -0.5196978449821472, -0.08528915792703629, 0.4602936804294586, -0.5420036911964417, 0.2924615442752838, -0.23358649015426636, 0.04809209331870079, 0.7081655263900757, 0.2472924292087555, -0.8622974157333374, 0.3250165283679962, -0.3585755527019501, 0.11574318259954453, -0.0777452141046524, 0.06392110884189606, 0.19585908949375153, -0.42933619022369385, 0.669407844543457, -0.4519370198249817, -0.33224424719810486, -0.49420320987701416, 0.3933858275413513, -0.61823970079422, -0.15288738906383514, -0.5863556265830994, 0.4797622859477997, -0.001037996611557901, 0.10210536420345306, 0.36480143666267395, -0.045335859060287476, -0.015447177924215794, -0.06936269998550415, -0.13947488367557526, -0.4751877188682556, -0.3491952121257782, -0.1423439085483551, 0.25009793043136597, -0.5364663004875183, 0.2730751931667328, 0.41929981112480164, -0.3445363938808441, -0.46165281534194946, -0.1516290009021759, -0.36231887340545654, -0.07692362368106842, -0.2039991170167923, -0.2879990339279175, -0.07776306569576263, -0.2700168788433075, -0.06819187849760056], [-0.2748096287250519, 0.23024339973926544, 0.34633225202560425, 0.14948077499866486, 0.5676809549331665, -0.09821546822786331, 0.03549551963806152, -0.05728339031338692, -0.18793734908103943, 0.38914862275123596, 0.36798933148384094, 0.550629198551178, 0.17155170440673828, 0.8208217024803162, -0.41328972578048706, 0.1711157113313675, 0.422541081905365, 0.3962278366088867, -0.8200926780700684, 0.0305775199085474, 0.783833920955658, -0.40121015906333923, 0.20579971373081207, 0.07990121841430664, 0.49639269709587097, 0.07962692528963089, 0.4522148072719574, -0.6347726583480835, 0.679502010345459, 0.07432924956083298, 0.1595490574836731, -0.5084987878799438, -0.18041209876537323, 0.06932220607995987, 0.19414310157299042, 0.1100437119603157, 0.011847029440104961, 0.012953735888004303, -0.08670313656330109, -0.325271338224411, 0.4074805676937103, 0.6146315932273865, 0.7169283628463745, -0.30971333384513855, -0.7354645729064941, -0.381704181432724, -0.9503663778305054, -0.6703508496284485, 0.08927906304597855, -0.17457544803619385, 0.6696977019309998, -0.26695990562438965, -0.06298686563968658, 0.471133828163147, 0.6792627573013306, 0.026307277381420135, -0.12005777657032013, -0.10870474576950073, 0.49141424894332886, 0.3690434694290161, -0.1613357812166214, -0.31093448400497437, 0.18127617239952087, 0.224080890417099], [0.07043157517910004, 0.2602802813053131, 0.26817452907562256, -0.28009772300720215, 0.19544121623039246, 0.08187437802553177, -0.052182916551828384, -0.4900948703289032, 0.3908151388168335, 0.5117897987365723, 0.27563732862472534, 0.08324982970952988, 0.029218686744570732, 0.26109573245048523, 0.6847957372665405, 0.08300754427909851, -1.0606132745742798, -0.10158725082874298, 0.09817223995923996, -0.4176502525806427, 0.4670439660549164, -0.14503556489944458, -0.17996272444725037, 0.1069350317120552, 0.3864618241786957, -0.1782352328300476, -0.36674240231513977, -0.027684230357408524, -0.06904422491788864, -1.29542875289917, 0.3667450547218323, -0.05767178535461426, 0.10998475551605225, 0.0030703197699040174, 0.039965011179447174, 0.2820426821708679, -0.2242993265390396, 0.3959650695323944, -0.07392845302820206, 0.1173718050122261, 0.22867585718631744, -0.10844994336366653, 0.12770798802375793, -0.4174189269542694, 0.07515732198953629, 0.38025516271591187, 0.22685526311397552, -0.1798618882894516, 0.03974488750100136, -0.231840118765831, -0.30765101313591003, 0.2546786367893219, -0.3089081048965454, 0.09180755168199539, 0.028370335698127747, 0.1278601884841919, -0.076109379529953, 0.35139596462249756, 0.028733033686876297, 0.04479657858610153, -0.3376244902610779, 0.2223128229379654, 0.20730140805244446, -0.11125379055738449], [0.0008769131964072585, -0.07313522696495056, -0.1357051283121109, 0.07288572192192078, -0.19704939424991608, -0.4979701042175293, -0.09539745002985, 0.3245629370212555, -0.16772495210170746, -0.027336325496435165, 0.04714171960949898, -0.647046685218811, 0.14332515001296997, -0.06963128596544266, -0.6166244149208069, 0.2620196044445038, 0.16982927918434143, 0.07500318437814713, -0.31766510009765625, -0.4274389445781708, -0.5600481033325195, 0.3446981608867645, -0.1817370504140854, 0.1389559507369995, 0.06681781262159348, -0.4921855330467224, 0.22797541320323944, 0.4572512209415436, 0.3219980299472809, 0.573987603187561, -0.7953426241874695, 0.32479462027549744, 0.38194143772125244, -0.12411503493785858, -0.7894042134284973, -0.4538101255893707, -0.09366638213396072, -0.9428787231445312, -0.13615986704826355, 0.007717901840806007, 0.29675278067588806, -0.3887077271938324, -0.060732342302799225, -0.25082477927207947, 0.07464649528265, -0.146279975771904, -0.20216552913188934, -0.4537736177444458, -0.18561111390590668, 0.7352747917175293, -0.5827270746231079, -0.12114404886960983, -0.18823792040348053, -0.07164818793535233, -0.36491769552230835, -0.6523778438568115, -0.0901511162519455, -0.33916816115379333, 0.08093731850385666, 0.11872796714305878, 0.04795898497104645, -1.0265475511550903, -0.5970792770385742, 0.42256635427474976], [-1.0768052339553833, -0.0031806693878024817, -0.2587633430957794, -0.09937165677547455, -0.27033138275146484, -0.3087133467197418, 0.7362269759178162, -0.2573608160018921, -0.3546304702758789, -0.19261965155601501, 0.07479347288608551, -0.13140083849430084, -0.27671629190444946, 0.2780996859073639, -0.0009067413629963994, 0.5033735632896423, 0.1828542798757553, 0.15881972014904022, -0.538327157497406, -0.4496690332889557, 0.20977966487407684, -0.22480493783950806, -0.29029637575149536, -0.21352732181549072, -0.2767631709575653, 0.05875980108976364, 0.34121811389923096, 0.25658220052719116, -0.2878241240978241, 0.16596056520938873, 0.28870561718940735, -0.42368078231811523, -1.3686614036560059, -0.46070629358291626, -0.4121917486190796, -0.15172764658927917, -0.37605687975883484, -0.019232220947742462, 0.06919138133525848, -0.1927856057882309, -0.056705292314291, 0.03525432199239731, -0.08374858647584915, -0.15372905135154724, -0.3763715922832489, 0.2197772115468979, -0.275735467672348, 0.28042083978652954, -0.18211263418197632, -0.048812005668878555, 0.34044209122657776, -0.11997090280056, 0.2587648928165436, 0.1638954132795334, -0.08833504468202591, 0.029503190889954567, -0.2568363845348358, -0.34165874123573303, 0.07992091774940491, -0.07299184799194336, 0.05655582994222641, 0.11539764702320099, -0.15519411861896515, -0.27799272537231445], [-0.2830628752708435, -0.20210283994674683, -0.23881997168064117, -0.042880140244960785, 0.8579977750778198, -0.05435851961374283, -1.2585886716842651, 0.3192998766899109, 0.4048194885253906, 0.03930699825286865, 0.10256574302911758, -0.3254265785217285, -0.16124670207500458, -0.0031438099686056376, 0.11671260744333267, 0.014402654953300953, -0.14534203708171844, -0.2727362811565399, 1.6539092063903809, -0.03952796757221222, 0.31323906779289246, -0.022626245394349098, -0.03679000213742256, -0.13355672359466553, -0.06095852330327034, 0.1924317479133606, 0.33076196908950806, -0.2121867835521698, 0.24761398136615753, -0.21694841980934143, -0.15346938371658325, -0.001915788627229631, 0.5116901993751526, -0.6805250644683838, -0.7975053191184998, -0.2921530604362488, -0.36440789699554443, -0.32964250445365906, -0.20089609920978546, 0.3939518928527832, -0.0628717765212059, 0.7290735244750977, -0.22352972626686096, -0.2796071171760559, 0.20002996921539307, -0.707787811756134, 0.018343880772590637, -0.318560928106308, 0.037830375134944916, 0.11697741597890854, -0.6166465878486633, -0.15295591950416565, -0.4029214084148407, -0.5616002082824707, -0.2875998020172119, 0.19396549463272095, -0.24789828062057495, 0.2960335612297058, 0.037915099412202835, 0.26318615674972534, -0.4043275713920593, -0.5347970128059387, -0.43351414799690247, -0.012170000933110714], [0.43155157566070557, 0.08837605267763138, 0.15612579882144928, 0.2947887182235718, -0.3745870292186737, -0.16112247109413147, 0.2726353406906128, 0.3750630021095276, -0.4316430389881134, -0.07843862473964691, -0.3925584554672241, 0.15312667191028595, 0.3481971025466919, -0.6278567910194397, -0.313628613948822, -0.4440734088420868, 0.05883955582976341, -0.16337473690509796, -1.476292610168457, -0.29974648356437683, -0.14638887345790863, -0.2640961706638336, -0.24803128838539124, -0.005403575953096151, -0.07913964986801147, -0.24653230607509613, -0.4082809388637543, -0.08283806592226028, 0.15179404616355896, 0.03223169595003128, 0.04879084229469299, -0.05606353282928467, -0.20635715126991272, -0.2752687633037567, -0.02119244821369648, -0.33380743861198425, 0.32022225856781006, 0.038182590156793594, -0.4631956219673157, -0.4036983549594879, -1.0263351202011108, -0.17625565826892853, -0.14275234937667847, 0.22837160527706146, 0.3777223825454712, 0.7853284478187561, -0.051576174795627594, 0.047393035143613815, -0.4637272357940674, 0.04274851083755493, 0.11296497285366058, 0.1991536021232605, 0.24849151074886322, -0.053539905697107315, 0.18993403017520905, -0.033124007284641266, -0.24647969007492065, 0.10797200351953506, -0.8416284322738647, -0.4460332989692688, -0.06670703738927841, -0.23433393239974976, 0.023758098483085632, 0.569359540939331], [-0.24721558392047882, -0.26538580656051636, 0.10861922800540924, -0.20349134504795074, -0.2780056595802307, -0.011987145058810711, 0.15880459547042847, -0.8305528163909912, -0.16332033276557922, 0.35171714425086975, 0.1348908543586731, 0.08880126476287842, 0.09889160096645355, 0.29928550124168396, 0.7401195168495178, -0.2884179949760437, -1.4355850219726562, -0.1432909369468689, -0.2746838331222534, -0.12370549887418747, 0.34002941846847534, -0.09504913538694382, 0.18764947354793549, -0.08092816919088364, -0.32451924681663513, -0.3295954167842865, -0.21343854069709778, 0.10425132513046265, 0.10495533794164658, -1.0290027856826782, 0.35767504572868347, 0.21887323260307312, -0.1458902508020401, 0.1926283985376358, -0.34718015789985657, 0.23174045979976654, -0.14971138536930084, 0.4616294205188751, 0.10697340220212936, -0.24004913866519928, -0.39774563908576965, 0.019838688895106316, -0.17098687589168549, -0.3772026300430298, 0.21250875294208527, -0.062124103307724, 0.107426717877388, 0.07167299836874008, -0.20594795048236847, -0.16484521329402924, -0.21971453726291656, 0.2472114861011505, -0.23123541474342346, -0.16221864521503448, -0.32008904218673706, -0.02448354847729206, 0.06649842858314514, 0.14313796162605286, 0.06789429485797882, 0.12313901633024216, 0.07396119832992554, -0.13549181818962097, 0.5694428086280823, 0.17679712176322937], [-0.273227334022522, -0.07593198865652084, 0.5315533876419067, 0.22777299582958221, 0.3190692067146301, 0.7277326583862305, -0.649228036403656, 0.20195646584033966, -0.29569756984710693, -0.36403098702430725, 0.37985482811927795, 0.09468130767345428, -0.0911703109741211, 0.31834590435028076, 0.017315635457634926, 0.004071405157446861, 0.3686205744743347, 0.0320669449865818, 0.9212431907653809, -0.1611867994070053, -0.08146849274635315, -0.1876026839017868, 0.2566767632961273, 0.0345904603600502, -0.10142664611339569, 0.04302975535392761, 0.20924481749534607, -0.5567243099212646, 0.14744621515274048, -0.1961999088525772, 0.23264946043491364, -0.03792906552553177, -0.1513231247663498, -0.13171078264713287, -0.1957692950963974, -0.18644031882286072, 0.16315607726573944, 0.1416524201631546, 0.2643986642360687, -0.047924913465976715, 0.4102228879928589, 0.3610873222351074, 1.2022340297698975, -0.2913041412830353, 0.10489010810852051, -0.4227569103240967, -0.9590322971343994, -0.4977929890155792, 0.28573280572891235, 0.018825840204954147, 0.3018712103366852, 0.2653304636478424, -0.3444281816482544, 0.5817184448242188, -0.18461129069328308, -0.028916800394654274, -0.10611002892255783, -0.618619441986084, 0.03127067908644676, 0.5813113451004028, 0.2867114841938019, -0.0069633712992072105, -0.34946945309638977, -0.14850395917892456], [-0.30350378155708313, -0.2509298622608185, 0.14226968586444855, -0.5246863961219788, 0.18453174829483032, 0.22657248377799988, -0.4804021418094635, -0.5551351308822632, 0.1697583794593811, 0.6583800315856934, 0.32166483998298645, -0.003707733005285263, 0.3936293125152588, 0.21494194865226746, -0.1724359095096588, 0.012332899495959282, -0.19741004705429077, 0.7378152012825012, 0.19280149042606354, 0.5143163800239563, 0.22140462696552277, -0.19451147317886353, -0.023139724507927895, 0.1494324952363968, 0.5052891969680786, -0.20046550035476685, 0.14317214488983154, -0.515695333480835, 0.16472774744033813, -0.7749995589256287, 0.1358443796634674, 0.12532535195350647, 0.2955474257469177, 0.30417463183403015, 0.7534140944480896, 0.6692814826965332, -0.18013224005699158, 0.3925594687461853, -0.12018607556819916, -0.38973501324653625, 0.017735566943883896, 0.28222203254699707, 0.16958647966384888, -0.4953904449939728, 0.3425101041793823, -0.23738625645637512, -0.24260157346725464, 0.34632542729377747, 0.20519693195819855, 0.1846066266298294, 0.05189666152000427, 0.48201990127563477, 0.11849690973758698, 0.3308418095111847, 0.43476033210754395, 0.2266964614391327, 0.11433147639036179, -0.24272000789642334, -0.18676164746284485, -0.10244434326887131, -0.035639431327581406, 0.039107680320739746, 0.276719868183136, -0.3648518919944763], [-1.0819666385650635, 0.049338821321725845, -0.07544512301683426, 0.2129470556974411, 0.11242422461509705, 0.2997318506240845, 0.8083043098449707, 0.4147072732448578, 0.21189852058887482, 0.05504365637898445, -0.15936090052127838, -0.03851733356714249, -0.09003814309835434, 0.007828195579349995, 0.33937519788742065, 0.28387075662612915, -0.07562485337257385, -0.0018758435035124421, -0.23308806121349335, -0.2569703459739685, 0.06098095327615738, 0.13394604623317719, 0.5252203941345215, -0.46762996912002563, -0.2781178057193756, 0.15256185829639435, 0.12478986382484436, -0.25451573729515076, -0.33970561623573303, -0.11844716966152191, -0.18714569509029388, 0.14186912775039673, -1.541082739830017, 0.19868195056915283, -0.19941632449626923, -0.25480473041534424, -0.13997168838977814, 0.060797788202762604, 0.24150708317756653, 0.1021033227443695, 0.193550705909729, 0.28724047541618347, 0.005550438538193703, -0.35148322582244873, -0.6654506921768188, 0.2614995539188385, 0.042370717972517014, -0.3194749653339386, -0.11029580980539322, -0.2506621181964874, 0.2881467938423157, -0.07166275382041931, -0.45399153232574463, 0.26417824625968933, 0.08499005436897278, -0.2525803744792938, 0.04379560798406601, 0.25017741322517395, -0.11780789494514465, 0.3636956512928009, -0.2958236336708069, 0.37370333075523376, 0.10493221879005432, 0.28850436210632324], [-0.6122707724571228, 0.005101107992231846, 0.22378334403038025, -0.5296894907951355, -0.08745334297418594, -0.11727345734834671, -0.332823783159256, -0.6338974237442017, 0.02829483523964882, 0.6587421894073486, 0.16531074047088623, 0.5176217555999756, 0.5286669135093689, 0.2044890969991684, 0.553016185760498, 0.28091976046562195, -0.061706021428108215, 0.34145277738571167, 0.5420187711715698, 0.11171171069145203, 0.08534810692071915, -0.6971754431724548, 0.29650577902793884, 0.09269571304321289, -0.12812380492687225, 0.04099941626191139, -0.19083482027053833, -0.10602959245443344, -0.027621492743492126, 0.05439182370901108, 0.04707835614681244, -0.09358946233987808, -0.5291959643363953, 0.5852113962173462, 0.5460931062698364, 0.5331743955612183, 0.30553972721099854, 0.005940315313637257, -0.032564498484134674, -0.06629292666912079, -0.4034305214881897, 0.16773703694343567, 0.35512059926986694, -0.49902188777923584, 0.04056716337800026, 0.057473428547382355, 0.030970415100455284, 0.4758661687374115, -0.06343018263578415, -0.128220796585083, -0.01198108121752739, 0.17639745771884918, -0.4323883354663849, -0.03594093397259712, 0.4551924765110016, 0.4951242208480835, -0.04695122689008713, -0.3235344886779785, 0.4581059217453003, 0.06634383648633957, -0.04110877588391304, 0.17424558103084564, 0.5624298453330994, -0.6990392208099365], [-0.0906662791967392, -0.04352720081806183, 0.23796340823173523, 0.6832408308982849, -0.09563376009464264, -0.052767522633075714, 0.284658819437027, 0.7388482689857483, -0.20792004466056824, -0.6803008913993835, 0.15057246387004852, -0.3463483452796936, -0.06145242601633072, -0.30684036016464233, -0.41894638538360596, -0.43850818276405334, 0.13381502032279968, -0.5219617486000061, -0.5477134585380554, -0.19169162213802338, -0.3417641222476959, 0.03516080230474472, -0.11817926168441772, 0.2558967173099518, 0.27597665786743164, 0.09342947602272034, 0.4235309362411499, 0.45352664589881897, -0.2444542944431305, 0.3893072009086609, 0.10302942246198654, 0.15131248533725739, 0.4469035565853119, -0.06764043867588043, 0.21657563745975494, 0.1202390044927597, -0.4065641164779663, -0.6804651618003845, -0.4270458221435547, 0.6400584578514099, -0.007249950896948576, 0.16895858943462372, 0.30744239687919617, 0.44415393471717834, -0.2535378038883209, -0.20147362351417542, -0.06866584718227386, -0.02479446493089199, -0.16619271039962769, -0.21131852269172668, 0.12807582318782806, -0.8200238347053528, -0.22692422568798065, -0.284490704536438, -0.4254908859729767, 0.16970863938331604, 0.24297408759593964, 0.009240338578820229, -0.25014203786849976, 0.12194516509771347, 0.26466459035873413, -0.5720052719116211, -0.1059250608086586, 0.13058562576770782]], "fc1.bias": [0.9467633366584778, -0.12488953024148941, 0.7544847726821899, 0.8560678958892822, 1.4050947427749634, 0.3546960651874542, -0.9156481623649597, 0.19753527641296387, -0.18598680198192596, -0.9133104681968689, 0.051881782710552216, 0.12469441443681717, 0.4784095585346222, 0.050322026014328, 0.18435730040073395, 0.473219633102417, 1.090973973274231, -0.16481228172779083, 0.5648159384727478, -0.4941311478614807, 0.4897729456424713, 0.012941677123308182, 0.12789273262023926, 0.21200419962406158, 0.5131587982177734, -0.38738179206848145, -0.08971019089221954, 0.18069295585155487, 0.03693012893199921, -0.09925100952386856, -0.38250139355659485, -0.1599564403295517], "fc2.weight": [[0.03631884232163429, -0.017476852983236313, 0.020931798964738846, 0.018939701840281487, 0.27327460050582886, -0.35637742280960083, -0.00745681906118989, 0.05628815293312073, -0.13792431354522705, -0.1468733847141266, -0.3045789301395416, 0.35289445519447327, -0.16838419437408447, -0.202674999833107, -0.07012903690338135, 0.5135166049003601, 0.07985154539346695, -0.12787595391273499, 0.3143499195575714, -0.044154997915029526, 0.11309990286827087, 0.4896800220012665, 0.02456398867070675, -0.12894293665885925, 0.2557796537876129, -0.5123504996299744, 0.236965611577034, 0.3776407837867737, 0.43678656220436096, -0.32891419529914856, -0.0017697950825095177, -0.43765199184417725], [0.028778010979294777, -0.09434288740158081, 0.08824323117733002, 0.15076276659965515, 0.27510854601860046, -0.55438232421875, -0.022395484149456024, -0.04476412758231163, 0.044775962829589844, -0.028817757964134216, -0.17911340296268463, -0.5232944488525391, 0.39193999767303467, 0.01487885881215334, 0.21382954716682434, 0.08571915328502655, 0.2697431743144989, 0.2330138236284256, -0.4163304567337036, -0.11753799021244049, 0.10469169169664383, -0.4991714656352997, 0.009799592196941376, -0.403572678565979, 0.40245282649993896, -0.7468786835670471, -0.7836809754371643, 0.40587687492370605, 0.3495464622974396, -0.5409172773361206, 0.24912196397781372, 0.32887208461761475]], "fc2.bias": [0.4531465768814087, 0.5637698173522949]}