{"fc0.weight": [[-0.6993035674095154, 0.05114629492163658, -0.7157247066497803, 0.4916297495365143, -0.4795333445072174, -0.21966552734375, -0.3160749673843384, -0.23776501417160034], [-0.3120174705982208, 0.2078527957201004, -1.1455389261245728, -0.26888108253479004, 0.1675969660282135, -0.1878538578748703, -0.48388373851776123, -0.24523954093456268], [-0.04448466747999191, 0.6623850464820862, -0.2320212870836258, 0.20576131343841553, -0.15255732834339142, 0.47180625796318054, -0.3627198338508606, -0.4087342321872711], [0.03821355104446411, 0.5210035443305969, 0.43689438700675964, 1.0470259189605713, 0.06131866201758385, -0.3952292203903198, -0.2283439189195633, -0.2891170382499695], [0.15497606992721558, 0.34109511971473694, 0.4670819640159607, 1.4137375354766846, 0.3260997235774994, -0.07723106443881989, 0.1383681297302246, -0.004477369599044323], [0.45569685101509094, -0.03173832967877388, 0.758805513381958, 0.4324280321598053, 0.03173235058784485, -0.23529155552387238, 1.2088111639022827, -0.25488945841789246], [-0.43870460987091064, 0.016310734674334526, 1.3723790645599365, 0.2505456507205963, -0.10396186262369156, -0.4577277600765228, 1.37892746925354, 0.009903419762849808], [0.6205358505249023, 0.01817006804049015, 1.592537760734558, 0.34731540083885193, 0.2432832270860672, -0.2651907503604889, 1.2110638618469238, 0.2892993092536926], [0.32498401403427124, 0.06789759546518326, 1.047729730606079, 0.01566099002957344, -0.22925430536270142, 0.027045274153351784, 1.7172929048538208, 0.16095058619976044], [0.040084000676870346, -0.0679698958992958, -2.0625693798065186, 0.21413429081439972, -0.39158135652542114, -0.11480916291475296, -2.5569443702697754, -0.7507495284080505], [0.06466939300298691, -0.41097989678382874, -0.6034873127937317, -1.3183965682983398, -0.3042939603328705, -0.01997322216629982, -0.08009066432714462, 0.46994447708129883], [0.8110286593437195, 0.031093355268239975, 0.2577187120914459, -0.08579465001821518, -0.36978572607040405, 0.07791232317686081, 0.4230310916900635, 0.19088111817836761], [-1.182854175567627, 0.02531382068991661, 0.5904999375343323, -0.24341358244419098, -0.05034511908888817, -0.3421323895454407, 0.1881895810365677, 0.6372686624526978], [0.05037335306406021, -0.5988748073577881, -0.07659783214330673, 0.1645294576883316, -0.13418303430080414, -0.2295018434524536, 0.19442781805992126, -0.5132087469100952], [-0.4336718022823334, -0.04437708109617233, -1.0521583557128906, -0.522848904132843, 0.030632516369223595, 0.1508340984582901, -1.5190081596374512, -0.04831745848059654], [-0.43734994530677795, -0.015659263357520103, 0.6188390254974365, 0.4667586386203766, 0.26548004150390625, -0.2849539816379547, 0.28303802013397217, -0.30457931756973267], [-0.32721713185310364, 0.04861737787723541, -0.9699740409851074, 0.019545111805200577, -0.39451149106025696, 0.24498403072357178, -0.2692895531654358, 0.3629229664802551], [-0.08516969531774521, -0.632278561592102, 0.20916242897510529, 0.0947108045220375, 0.11055012792348862, 0.4149591326713562, -0.1298658549785614, -0.3432222008705139], [-0.17934902012348175, 0.06728990375995636, 0.5172830820083618, 1.273827314376831, 0.348655104637146, 0.3326043486595154, 0.5128414034843445, 0.037876926362514496], [1.6132397651672363, 0.0068829962983727455, -0.44226768612861633, 0.1471802145242691, 0.45859014987945557, -0.32465416193008423, -0.5666094422340393, -0.9877632856369019], [1.0504050254821777, 0.024039391428232193, -0.4415495693683624, -0.28274986147880554, -0.46214747428894043, 0.24742968380451202, -0.07981900125741959, -0.1775328367948532], [0.04766415059566498, 0.14323624968528748, 0.5536595582962036, -1.0082502365112305, 0.3404042422771454, 0.2178386151790619, 0.6347478032112122, 0.057272206991910934], [0.5635525584220886, -0.022081049159169197, 0.9664076566696167, -0.026048215106129646, 0.455645352602005, -0.16284823417663574, 0.7990763187408447, -0.15614624321460724], [0.11604396253824234, -0.686397910118103, -0.4620589315891266, -1.1284209489822388, -0.33225542306900024, -0.29357415437698364, 0.34886935353279114, -0.4147535562515259], [-0.036545127630233765, -0.3463152348995209, -0.31106674671173096, -1.1923871040344238, 0.4117206037044525, 0.20727813243865967, 0.013056584633886814, 0.274840772151947], [-0.13761122524738312, -0.15115255117416382, -0.12403145432472229, -1.3677207231521606, 0.4681624174118042, -0.4231605529785156, 0.3070400059223175, -0.07443545013666153], [-0.5746665000915527, -0.03939535841345787, -1.6239172220230103, 0.2683965861797333, 0.04612904042005539, -0.44496217370033264, -2.0421838760375977, -0.5860123634338379], [0.028677480295300484, -0.3305683434009552, 0.117730513215065, 0.8009085655212402, 0.20971576869487762, 0.1487755924463272, 0.5454134941101074, 0.22588886320590973], [0.9061785936355591, 0.03121975250542164, 0.7679091691970825, 0.1906885802745819, -0.013224651105701923, -0.28981828689575195, 1.2996701002120972, -0.22756782174110413], [-0.6799206733703613, 0.010330954566597939, -1.3614468574523926, 0.2923976182937622, -0.06979016214609146, 0.22232086956501007, -1.2452073097229004, -0.5799604654312134], [-0.16602599620819092, 0.01903490349650383, -1.9002299308776855, 0.16335859894752502, -0.27412211894989014, 0.10531318932771683, -2.404803991317749, -0.15365780889987946], [0.05843539535999298, -0.593438446521759, 0.06003516912460327, -1.1434017419815063, 0.3198854625225067, 0.06047715246677399, -0.3099500834941864, 0.408954381942749], [-0.3926742672920227, -0.0004630675248336047, -0.7288389801979065, 0.5916517376899719, 0.18733158707618713, 0.31547287106513977, -0.33516883850097656, -0.3719666302204132], [-1.094023585319519, 0.007825306616723537, 0.22796182334423065, -0.33106014132499695, 0.3137887716293335, 0.132754385471344, 0.15690334141254425, 0.664559543132782], [-0.07901131361722946, 0.2605937123298645, -0.6397662162780762, -0.047851644456386566, 0.1870073676109314, 0.36992716789245605, -0.6287314891815186, -0.33912256360054016], [0.05677758529782295, 0.6880747675895691, 0.5129154324531555, 0.33408820629119873, -0.157830610871315, -0.3260032534599304, 0.012701093219220638, -0.10830733180046082], [-1.4894856214523315, 0.012937557883560658, 0.5676806569099426, -0.2439422309398651, 0.05170132592320442, -0.45657649636268616, 0.21675921976566315, 0.29410386085510254], [-0.3920794129371643, 0.503018856048584, 0.454849511384964, 0.5196186304092407, -0.1768609881401062, -0.28353211283683777, -0.12849397957324982, -0.1162642315030098], [-0.06900829821825027, 0.3142806887626648, 0.3693690598011017, -1.0516325235366821, 0.2595180869102478, 0.23232460021972656, 0.2246115356683731, -0.44177672266960144], [0.07508983463048935, -0.04659909009933472, 1.4778454303741455, 0.5693903565406799, 0.1529688984155655, 0.23370026051998138, 1.548529863357544, -0.28562548756599426], [0.0030448371544480324, 0.1955857127904892, -0.1298956722021103, -1.621246576309204, 0.32538139820098877, 0.1212707906961441, -0.7720996737480164, -0.44533586502075195], [-0.3316616714000702, 0.01786854863166809, 1.299208164215088, -0.666141152381897, 0.41623735427856445, -0.3461943566799164, 1.3478542566299438, -0.10520470142364502], [-0.17464135587215424, -0.2626110017299652, -0.4468691647052765, -0.8019323945045471, -0.06602420657873154, -0.34471046924591064, -0.08659406006336212, -0.23173697292804718], [0.18904194235801697, -0.491641640663147, 0.084093376994133, -0.5222659111022949, -0.06385402381420135, 0.3922712504863739, 0.27144888043403625, 0.04927744343876839], [-0.11604437232017517, 0.31522855162620544, -0.5814349055290222, 0.5059275031089783, -0.275524765253067, 0.2542230486869812, -0.2147633582353592, -0.2503061294555664], [1.0633726119995117, 0.048495128750801086, -0.7653648853302002, 0.01336077693849802, 0.38414520025253296, -0.3182736933231354, -1.1659278869628906, -0.5778979659080505], [-0.6668551564216614, 0.021922888234257698, -1.0044267177581787, -0.18391282856464386, -0.2481948584318161, 0.21119414269924164, -1.0604478120803833, -0.7043899297714233], [-0.45109444856643677, -0.01103760302066803, -0.4332999289035797, -0.5914797782897949, -0.1876012682914734, 0.4410821497440338, -0.7370474338531494, 0.3225451111793518], [0.021677231416106224, 0.6186705231666565, 0.1579790711402893, -0.12416891753673553, -0.022332733497023582, -0.3303963243961334, 0.19631196558475494, 0.3495621085166931], [-0.4985329210758209, 0.004126321990042925, -1.010203242301941, -0.38697752356529236, -0.4058827757835388, 0.4232487082481384, -1.2306264638900757, 0.23434662818908691], [-0.5151100158691406, 0.0010567139834165573, 0.03997841104865074, -1.0968738794326782, 0.1588301956653595, 0.42185550928115845, -0.19892844557762146, -0.3558003306388855], [-0.11861768364906311, -0.47171714901924133, 0.043731044977903366, 0.5110635757446289, -0.10839731991291046, -0.33330878615379333, 0.1047501340508461, -0.5180602073669434], [0.2747816741466522, -0.060255471616983414, -1.3007103204727173, -1.0436975955963135, -0.27928775548934937, 0.019677216187119484, -0.9668418169021606, 0.5716391205787659], [-0.08066995441913605, -0.7543705105781555, -0.17544680833816528, -0.566434383392334, 0.2062637060880661, 0.18612518906593323, 0.20210690796375275, 0.3313710689544678], [0.0386597141623497, -0.8332383632659912, 0.49849051237106323, -0.4370599389076233, 0.3777626156806946, 0.2966199219226837, -0.037061888724565506, -0.15467125177383423], [0.022619174793362617, 0.7780213952064514, 0.2601483166217804, 0.2846096456050873, -0.4501058757305145, -0.2826133966445923, 0.14792419970035553, -0.3833191394805908], [-0.16844715178012848, 0.026402486488223076, -0.07075664401054382, -1.6409528255462646, 0.3067334294319153, -0.3971318304538727, -0.31106072664260864, 0.5190127491950989], [-0.5071965456008911, -0.06844692677259445, 0.841772735118866, 0.9749420881271362, -0.13506491482257843, 0.4236786365509033, 0.5900835394859314, -0.20735925436019897], [0.42629069089889526, -0.218702495098114, 1.4231212139129639, 0.40002554655075073, -0.379761666059494, 0.34869450330734253, 1.7204142808914185, 0.25374776124954224], [0.16578514873981476, -0.6896992921829224, -0.16928166151046753, -0.42486774921417236, 0.12855683267116547, -0.378913551568985, 0.23849354684352875, -0.4221186339855194], [0.5329191088676453, 0.017736339941620827, 1.1079559326171875, 0.6020331978797913, -0.10074059665203094, -0.4197821319103241, 1.2770068645477295, 0.3109934329986572], [0.018765060231089592, 0.8006394505500793, -0.04097342863678932, -0.9244025945663452, -0.18065699934959412, -0.05659355968236923, -0.15608377754688263, -0.1979294866323471], [0.5572652220726013, -0.04267410561442375, 1.2894701957702637, 0.2437819093465805, 0.4254852533340454, 0.12758196890354156, 1.0004130601882935, -0.596773087978363], [-0.04055362194776535, 0.6365596652030945, 0.09721539914608002, -0.8117870092391968, -0.42677173018455505, 0.09242750704288483, 0.2750331461429596, -0.34041205048561096]], "fc0.bias": [0.30529770255088806, 0.4501565098762512, -0.28490790724754333, -0.07371068000793457, -0.2717558443546295, 0.08722367882728577, 0.08159396052360535, 0.40687644481658936, 0.049692247062921524, 0.04441327974200249, -0.26050883531570435, 0.27244633436203003, 0.2573609948158264, -0.12403687834739685, 0.3730555772781372, -0.40975531935691833, -0.12706471979618073, -0.3854843080043793, 0.09482821077108383, -0.4275277256965637, -0.3769157826900482, -0.11425305157899857, -0.40649497509002686, -0.06780444830656052, 0.18862737715244293, 0.13712234795093536, 0.18862025439739227, 0.056957878172397614, 0.3515477776527405, -0.031504008919000626, 0.29503294825553894, -0.13132774829864502, 0.2298925369977951, 0.025583328679203987, 0.04168950766324997, -0.5002666115760803, -0.4345506429672241, 0.13868793845176697, -0.1370004564523697, -0.38635557889938354, 0.017616676166653633, -0.5310105085372925, 0.29976874589920044, -0.22533893585205078, -0.43926122784614563, -0.0567949078977108, -0.31053096055984497, 0.0063181850127875805, 0.28278979659080505, -0.010474964044988155, -0.1578584462404251, -0.050880253314971924, -0.10005853325128555, 0.5953428745269775, 0.4859735667705536, 0.31857237219810486, 0.10004010796546936, 0.13991358876228333, 0.056578557938337326, 0.20490053296089172, 0.16965344548225403, 0.4867881238460541, -0.18454056978225708, 0.2820034921169281], "fc1.weight": [[-0.31993651390075684, -0.25754037499427795, 0.3259459435939789, 0.2138999104499817, -0.12120561301708221, 0.013770056888461113, -0.03779948502779007, -0.2454465627670288, -0.236466646194458, 0.2713278532028198, 0.3015069365501404, 0.286255806684494, -0.49275872111320496, 0.10233545303344727, 0.0239088274538517, -0.33102625608444214, 0.12341930717229843, -0.4958077073097229, -0.09553273022174835, -0.1588870882987976, -0.03519755229353905, 0.7900791168212891, 0.12788380682468414, -0.36062195897102356, 0.001038621529005468, 0.07163447141647339, -0.12144195288419724, -0.8665857315063477, -0.25144219398498535, 0.2172619253396988, 0.0760195255279541, 0.02607981488108635, 0.03772171959280968, -0.39582571387290955, -0.4263785183429718, 0.28058263659477234, 0.24089504778385162, 0.08351825177669525, 0.36001428961753845, -0.025965802371501923, 0.2786303460597992, 0.1717907041311264, 0.03650293126702309, 0.10804784297943115, 0.1341896951198578, 0.20077939331531525, -0.21094413101673126, 0.05138517543673515, 0.36969470977783203, 0.17568594217300415, -0.2930419445037842, -1.1277101039886475, 0.2129562497138977, -0.34025758504867554, -0.20165114104747772, 0.20942221581935883, 0.45134010910987854, 0.12190567702054977, 0.26044777035713196, -0.20095548033714294, -0.2615436017513275, 1.6025707721710205, -0.3660903871059418, 0.705374002456665], [0.41629520058631897, -0.480296790599823, 0.4532298743724823, 0.4719741642475128, 0.0009683130192570388, 0.154902383685112, -0.14708293974399567, -0.04148688167333603, 0.4997096359729767, 0.7226651310920715, -0.8039014339447021, -0.277597039937973, -0.849983274936676, -0.02497609332203865, -0.3916396498680115, -0.15197037160396576, -0.49750852584838867, -0.3649550676345825, -0.2635875642299652, 0.7091696262359619, 1.4883924722671509, 0.2745846211910248, 0.05741278454661369, -0.03878868743777275, -0.3528836667537689, -0.07725537568330765, -0.5819520950317383, -0.20965473353862762, 0.5297663807868958, -0.23499563336372375, 0.1676730215549469, 0.08948242664337158, 0.36211004853248596, -0.496740460395813, -0.14489515125751495, 0.2479693740606308, 0.1713891327381134, 0.07236404716968536, -0.496273934841156, -0.15442971885204315, -0.2675972878932953, 0.1519189178943634, -0.1908818632364273, -0.13671116530895233, 0.5597365498542786, 0.5636088848114014, -0.31887441873550415, -0.14967603981494904, -0.009549703449010849, 0.04524499177932739, -0.764707624912262, 0.38204288482666016, -0.012053165584802628, -0.4247090816497803, -0.3758527338504791, 0.4144606590270996, -1.2913731336593628, -0.2316858321428299, 0.3971790075302124, 0.3087478578090668, -0.2336799055337906, -0.25679394602775574, 0.1022215187549591, -0.04184458404779434], [0.42167869210243225, -0.38843441009521484, 0.2840110659599304, 0.617194652557373, 0.5853331685066223, 0.34222906827926636, -0.12859375774860382, 0.28981664776802063, 0.34359613060951233, -1.0726593732833862, -0.4850621223449707, -0.16053947806358337, -0.13725218176841736, -0.4326690435409546, -0.8067746162414551, -0.22653290629386902, -0.4315992593765259, -0.07703525573015213, 0.07482875883579254, 0.21662795543670654, 0.01606765016913414, 1.152966856956482, 0.7980470657348633, -0.27218735218048096, -0.6152854561805725, -0.4626651108264923, -0.4500730335712433, -0.5871633291244507, -0.17734839022159576, -0.1957644522190094, -0.39272910356521606, -0.7041628956794739, -0.3263038098812103, 0.13431425392627716, -0.398698627948761, 0.5508451461791992, -0.29276958107948303, 0.26983028650283813, -0.15511472523212433, -0.26044896245002747, -0.18041899800300598, 0.4458710253238678, -1.129351019859314, -0.025263264775276184, 0.16369260847568512, -0.01356368325650692, -0.6502649784088135, 0.3934784531593323, -0.04677271842956543, -0.6672484278678894, 0.18563558161258698, 0.07185766100883484, 0.009199485182762146, -0.5952425599098206, -0.3918323218822479, 0.2589205503463745, -0.6055974364280701, 0.38723039627075195, 0.08963778614997864, 0.10255886614322662, 0.034324388951063156, 0.1954096406698227, 0.28820309042930603, 0.15734456479549408], [0.11420059949159622, -0.34959179162979126, 0.15553197264671326, 0.35313719511032104, 0.08651004731655121, -0.15175342559814453, 0.32549360394477844, 0.0877603217959404, -0.4985434412956238, 0.31634506583213806, -0.038886696100234985, -0.48186084628105164, 0.4891219139099121, -0.19694943726062775, 0.8612322807312012, 0.2542167603969574, -0.017980068922042847, 0.061126939952373505, 0.8110588788986206, -0.7843035459518433, -1.175913691520691, -0.6493721008300781, -0.34298211336135864, -0.3358928859233856, 0.40633919835090637, -0.27098190784454346, -0.4423913359642029, 0.5463296175003052, -0.23386122286319733, 0.6481743454933167, -0.2512199580669403, 0.008158214390277863, 0.584572434425354, 0.8063474893569946, -0.6048023104667664, -0.07247615605592728, 0.18500889837741852, -0.09050947427749634, -0.3606066405773163, -0.39109453558921814, -0.2819348871707916, -0.05859609320759773, 0.054914236068725586, 0.30856141448020935, 0.16976191103458405, -0.22868746519088745, -0.13546349108219147, -0.0004691107606049627, -0.03813377022743225, 0.3353055417537689, -0.16145695745944977, 0.06073032319545746, -0.9846354722976685, 0.10316113382577896, 0.383334219455719, 0.2090662270784378, -0.24565736949443817, 0.5776724219322205, 0.0852125957608223, -0.19390714168548584, -0.9685747027397156, -0.28767427802085876, -0.4648987650871277, -0.09261374175548553], [0.45904091000556946, 0.9337303638458252, -0.3468473255634308, -0.4701066315174103, -0.2275223284959793, 0.32625746726989746, -0.27278709411621094, 0.1012389287352562, 0.3001970946788788, 1.098930835723877, 0.4815823435783386, -0.3328222334384918, -0.5039034485816956, 0.43543216586112976, -0.4004416763782501, 0.49805495142936707, 0.06482791155576706, 0.275109201669693, 0.5761897563934326, 0.44592544436454773, 0.21677856147289276, -0.8053193092346191, 0.16418617963790894, -0.456783264875412, -0.281296968460083, -0.4009977877140045, -0.21260760724544525, 0.0488651879131794, 0.7078912258148193, 0.2893989682197571, 0.6027657389640808, 0.6204173564910889, -0.010658073239028454, -0.2433917373418808, 0.08518531918525696, 0.5095338225364685, -0.05023876205086708, -0.01288185641169548, -1.0870081186294556, -0.6255188584327698, -0.9244269132614136, -0.9351627826690674, 0.8181179165840149, -0.1317877471446991, -0.3867796063423157, 0.17959295213222504, 0.47449368238449097, 0.7312378883361816, 0.0020401813089847565, -0.38200852274894714, 0.17318688333034515, 0.6937710046768188, 0.07053747773170471, -0.03751328960061073, 0.78630530834198, -0.5695881247520447, -0.6569148302078247, 0.019143156707286835, -0.6898998022079468, -0.038960885256528854, 0.0609157457947731, -0.050403036177158356, 0.06451620161533356, -0.20929378271102905], [-0.37972912192344666, 0.4893544316291809, -0.31508758664131165, -0.42372414469718933, -0.6376738548278809, -0.12027502804994583, -0.7114336490631104, 0.12298000603914261, 0.3449929356575012, 0.12237636744976044, 0.5418959259986877, -0.14828446507453918, -0.3620765507221222, 0.20643439888954163, -0.3090845048427582, -0.3437648117542267, -0.03181049972772598, -0.15845073759555817, -1.2421807050704956, 0.004300805274397135, 0.18120387196540833, 0.5494533181190491, 0.35713791847229004, 0.4481583535671234, 0.5316028594970703, 0.7812665700912476, -0.3465938866138458, -0.2144477367401123, -0.4722409248352051, 0.1161746084690094, -0.32130861282348633, 0.17548373341560364, 0.24679356813430786, 0.25771036744117737, 0.21262603998184204, -0.17090867459774017, -0.04592280834913254, -0.4353228807449341, 1.2304608821868896, 0.09519665688276291, 1.1659984588623047, -0.1770428717136383, 0.1964610517024994, 0.20275592803955078, -0.0707535669207573, -0.05051737651228905, 0.35011133551597595, -0.09689441323280334, -0.19098234176635742, 0.2972646653652191, 0.923348069190979, -0.24864743649959564, 0.2634000778198242, 0.31118106842041016, 0.0718865692615509, -0.19022776186466217, 1.9832208156585693, -0.9646982550621033, 0.15030153095722198, 0.18576228618621826, -0.48064497113227844, 0.4911172688007355, -0.21989168226718903, 0.40804171562194824], [-0.45829540491104126, -0.06516947597265244, 0.28570330142974854, 0.3939690887928009, -0.2874363660812378, -0.3708803057670593, -0.8888994455337524, 0.29842618107795715, 0.6919438242912292, 0.8753586411476135, 0.2547793686389923, -0.03464088216423988, -0.48865336179733276, 0.16458278894424438, 0.05979178473353386, -0.449612021446228, 0.13967165350914001, -0.5278012156486511, -0.01711391471326351, -0.2614816427230835, -0.09807886928319931, 1.1360969543457031, 0.38296571373939514, -0.15807148814201355, 0.3869458734989166, 0.5597783923149109, -0.3809998035430908, -0.4867934584617615, 0.2937590479850769, -0.41335782408714294, -0.5287892818450928, 0.5311331152915955, -0.035997167229652405, -0.09346882998943329, 0.40474894642829895, 0.31365758180618286, 0.13898621499538422, -0.27586305141448975, 0.5866587162017822, 0.034505654126405716, 1.1126168966293335, -0.7557018399238586, 0.1862107217311859, 0.1332516372203827, -0.045216772705316544, 0.6855751276016235, -0.48698103427886963, 0.5693126320838928, 0.04559515789151192, -0.5325983762741089, -0.32389703392982483, -0.46915462613105774, 0.22970475256443024, -0.013032221235334873, -0.2727892994880676, 0.38186147809028625, 0.7427815794944763, -0.4248632490634918, -0.08323685824871063, -0.008572000078856945, 0.40259838104248047, 0.6691513061523438, 0.3927699029445648, 0.1654423326253891], [0.5078249573707581, 0.12536393105983734, 0.40951237082481384, 1.223156452178955, 0.577524721622467, -0.2703061103820801, 0.5808507800102234, -0.2314932942390442, 0.04208614304661751, -0.6359898447990417, -0.44393566250801086, 0.019276505336165428, 0.041450418531894684, 0.10852751135826111, -0.15196426212787628, 0.45768725872039795, 0.19125689566135406, 0.12455762177705765, 0.6197950839996338, 0.06271716207265854, 0.29973652958869934, 0.4194590151309967, 0.16284939646720886, -0.8270537257194519, -0.36182141304016113, -0.8086512088775635, -0.3787315785884857, 0.07648065686225891, -0.010051438584923744, -0.12201244384050369, -0.5410177707672119, -0.9230630993843079, 0.02486710250377655, 0.12895143032073975, 0.39767974615097046, 0.3028562366962433, 0.4272933602333069, 0.6829487085342407, -0.29967114329338074, -0.23177200555801392, -0.13813963532447815, 0.42036911845207214, -0.25657379627227783, -0.11923746019601822, 0.6315982341766357, -0.2144617736339569, -0.2872786223888397, 0.09988870471715927, 0.2647320628166199, -0.22335290908813477, -0.21387290954589844, -0.5722934603691101, -0.78665691614151, -0.16092848777770996, -0.4507218599319458, 0.1939893215894699, -0.48948079347610474, 0.4297095239162445, 0.36623090505599976, -0.5092921853065491, 0.2766627371311188, -0.11353270709514618, 0.3051680624485016, 0.7275444865226746], [0.01742934063076973, -0.2985270917415619, 0.1862676739692688, 0.49972087144851685, 0.6368524432182312, -0.45389771461486816, -0.18493317067623138, -0.5129882097244263, 0.2496335655450821, 0.032968562096357346, -0.5103500485420227, 0.3733428716659546, 0.4214327037334442, -0.11038951575756073, -0.28468087315559387, -0.3018188178539276, -0.42529478669166565, -0.4770311415195465, 0.5422983765602112, -0.30122262239456177, 0.3762066960334778, 0.8715804815292358, -0.018245497718453407, -0.12931795418262482, -0.09356926381587982, 0.0286116860806942, 0.30402183532714844, -0.30191630125045776, -0.18708790838718414, -0.29458993673324585, -0.14887212216854095, -0.2848823070526123, -0.676094651222229, 0.32480424642562866, -0.0018658742774277925, 0.5678538680076599, 0.2868020236492157, -0.06103670969605446, 0.6671614050865173, -0.45413297414779663, 0.5869342088699341, -0.7410526275634766, 0.16533340513706207, 0.07284913957118988, 0.015282800421118736, -0.28643086552619934, 0.0515088327229023, -0.014463475905358791, 0.48271647095680237, 0.4600543975830078, -0.2657257318496704, -0.9252855777740479, 0.42480096220970154, 0.23284494876861572, -0.3226398825645447, 0.407574325799942, 0.2704637348651886, -0.5210866928100586, 0.001769284252077341, 0.1514252871274948, 0.01774158887565136, 0.997149646282196, 0.022139493376016617, 0.5849332213401794], [0.030826017260551453, 0.024830905720591545, -0.28293877840042114, 0.06291073560714722, -0.31759634613990784, 0.6098437309265137, -0.5269771218299866, -0.048518333584070206, -0.6164337396621704, 0.7614455223083496, 0.8084213137626648, -0.20302455127239227, 0.16142261028289795, 0.036919135600328445, -0.20969273149967194, 0.723005473613739, 0.004641086328774691, 0.40004274249076843, 0.06018177047371864, 0.024310899898409843, -0.3044433295726776, -0.4733647108078003, 0.03431979939341545, 0.12746909260749817, 0.8226819634437561, 0.8392112255096436, -0.06069770082831383, 0.7531876564025879, -0.2796642780303955, -0.455994188785553, -0.45705878734588623, 0.10173045098781586, 0.055419065058231354, 0.41025862097740173, 0.3510087728500366, -0.22097331285476685, 0.3842475712299347, -0.24142645299434662, 0.08120160549879074, 0.7288302779197693, 0.3655279874801636, -0.08066429197788239, 0.8944390416145325, 0.38236477971076965, -0.2458922564983368, -0.3882877230644226, 0.27552926540374756, -0.564639151096344, -0.42737627029418945, 0.1647716611623764, 0.3794304132461548, 0.4134119749069214, -0.8906715512275696, 0.4940541684627533, 0.0579962357878685, -0.6223822236061096, -0.08327775448560715, 0.6682664155960083, -0.13601693511009216, 0.7337232232093811, -0.15830416977405548, -0.7979588508605957, 0.19455495476722717, -0.8289735913276672], [0.07949584722518921, 0.24538853764533997, 0.4214846193790436, 0.18053054809570312, -0.22344914078712463, -0.03356049209833145, 0.033372316509485245, -0.5016654133796692, 0.211824432015419, -0.39995408058166504, -0.4274064004421234, 0.13174507021903992, 0.8585863709449768, -0.060974959284067154, -0.02466414123773575, -0.2653586268424988, 0.20101700723171234, -0.08551442623138428, 0.34611013531684875, -1.4102864265441895, -1.274991512298584, -0.20227117836475372, 0.008576923049986362, -0.4860404133796692, 0.062498126178979874, -0.1614982783794403, 0.17443498969078064, -0.11629625409841537, -0.06314130872488022, -0.07322882860898972, -0.1689191460609436, 0.3324844241142273, -0.08319021761417389, 0.7479093670845032, 0.5704402923583984, -0.006317710969597101, 0.8453478813171387, -0.13344937562942505, -0.031839050352573395, -0.29116976261138916, -0.352761447429657, 0.40177151560783386, 0.1710881143808365, -0.2921641170978546, -0.28688421845436096, -0.9451416730880737, -0.2540609836578369, 0.11993724852800369, -0.013851075433194637, 0.02918947860598564, 0.13361909985542297, -0.14087757468223572, -0.05891505628824234, -0.4159640669822693, -0.3445099890232086, 0.2858538031578064, 0.3050180971622467, 0.1944175511598587, 0.29576754570007324, -0.1047162264585495, 0.002993572736158967, 0.07851426303386688, -0.47874265909194946, 0.13568474352359772], [0.3601176142692566, 0.3937246799468994, -0.19033274054527283, 0.11121965199708939, -0.4095682203769684, -0.18792842328548431, -1.1540107727050781, -0.6806994676589966, -0.6853487491607666, 1.5466054677963257, 0.20841765403747559, 0.0327477753162384, -0.04100094735622406, -0.04959706962108612, 0.48022782802581787, -0.16629967093467712, 0.4720872938632965, -0.4380699694156647, 0.228937566280365, 0.08425389230251312, 0.026411432772874832, -0.9401676654815674, -0.22583270072937012, 0.13008591532707214, -0.1271383911371231, -0.02821396104991436, 0.6402701139450073, 0.268462598323822, -0.012085814028978348, 0.2559395730495453, 1.1736667156219482, -0.20051820576190948, -0.2478158324956894, 0.314520001411438, 0.10938984155654907, 0.05834392458200455, -0.306813508272171, -0.2280230075120926, -0.045700836926698685, -0.5775540471076965, 0.18263712525367737, -0.751753032207489, 0.06305400282144547, -0.5778717994689941, 0.3788685202598572, 0.479015588760376, 0.4639109671115875, -0.08808639645576477, -0.09227932244539261, 0.7925096750259399, -0.3941267728805542, -0.3293791115283966, 0.678969144821167, 0.09579473733901978, -0.07893051207065582, 0.13276764750480652, -0.4405035972595215, -1.0047142505645752, -0.5564261674880981, -0.39238789677619934, -0.42098352313041687, -0.06223138049244881, -0.2375916838645935, 0.02935095876455307], [-0.21393974125385284, -0.0022703977301716805, 0.06608858704566956, -0.8650385141372681, -0.8221451640129089, 0.20056545734405518, -0.6004666090011597, 0.1292601078748703, -0.006166278850287199, -0.32119953632354736, 0.06472654640674591, 0.062039829790592194, 0.49536481499671936, 0.4405995011329651, 0.773666501045227, 0.3301926255226135, 0.1807946115732193, -0.15175512433052063, -0.16862598061561584, -0.2706149220466614, -0.32221555709838867, -0.3605823218822479, -0.5201742053031921, 0.3880250155925751, 0.31471604108810425, 0.565284788608551, 0.5994729399681091, -0.11652056872844696, -0.15289534628391266, 0.13370463252067566, 0.5573533773422241, 0.3779446482658386, -0.07092580199241638, 0.1682744026184082, 0.5252934694290161, 0.3424559235572815, 0.6494408249855042, 0.510235607624054, 0.871380627155304, -0.6430562734603882, 0.028222637251019478, 0.27288109064102173, -0.09959546476602554, 0.15176746249198914, 0.07828675955533981, -0.0820436030626297, -0.187234565615654, 0.19928593933582306, -0.26939019560813904, 0.45957913994789124, 1.3100844621658325, 0.48998138308525085, 0.051119036972522736, 0.7758176326751709, -0.21594972908496857, 0.15436558425426483, 1.3698172569274902, -0.2393631488084793, 0.3799467980861664, 0.05905388668179512, -0.21181334555149078, -0.005749433767050505, 0.35239139199256897, -0.43226802349090576], [0.08313361555337906, -0.27736690640449524, -0.16054242849349976, 0.48100200295448303, 0.38490715622901917, 0.2155940979719162, -0.44088464975357056, -0.42828354239463806, -0.19660088419914246, -0.35704872012138367, -0.022519012913107872, -0.17708835005760193, -0.11411067098379135, -0.3149796426296234, 0.05055275186896324, -0.0670543909072876, 0.02110438607633114, 0.04103508219122887, -0.023508528247475624, -0.07606740295886993, 0.25502777099609375, 1.0254536867141724, 0.4606030583381653, -0.28128090500831604, 0.3593420684337616, 0.03848107531666756, -0.07177488505840302, -0.49471670389175415, -0.4379282295703888, 0.3051197826862335, -0.26479774713516235, -0.10739630460739136, 0.35693007707595825, 0.29552051424980164, -0.08279021084308624, 0.5439443588256836, -0.10209351778030396, 0.443707674741745, 0.19374413788318634, 0.1182471513748169, 1.1966781616210938, 0.24484585225582123, -0.4699331820011139, -0.334476500749588, 0.5613391995429993, 0.26904037594795227, 0.0505610816180706, 0.12357080727815628, 0.3184186518192291, 0.4064761996269226, 0.4564003348350525, -0.847625195980072, 0.1589599847793579, -0.3974226117134094, -0.047777753323316574, 0.15075521171092987, 0.5824500322341919, 0.13478782773017883, -0.1700148731470108, 0.21312804520130157, 0.19107374548912048, 1.401759147644043, 0.1717803031206131, 0.842860996723175], [0.011847056448459625, -0.4024409353733063, 0.5037757158279419, 0.2109914869070053, -0.3561621606349945, -0.26224520802497864, 0.006515130866318941, 0.11683035641908646, -0.09563988447189331, 0.19380882382392883, 0.21885204315185547, -0.07218318432569504, 0.03330475464463234, -0.4477250576019287, -0.24794547259807587, -0.3650023639202118, 0.13207384943962097, 0.09889779984951019, 0.028415735810995102, 0.03902950510382652, -0.2864990532398224, 0.3297637403011322, -0.17323926091194153, 0.19364310801029205, -0.13564272224903107, -0.08360126614570618, 0.3481905460357666, -0.532561719417572, -0.29869401454925537, -0.3087455928325653, 0.3555953800678253, -0.13343778252601624, -0.4266536235809326, -0.22696194052696228, -0.205823615193367, -0.18031379580497742, 0.20364855229854584, 0.05386548489332199, -0.002742363139986992, -0.3234648108482361, 0.8653169870376587, 0.13118982315063477, -0.30209189653396606, -0.3329329788684845, 0.10059347748756409, -0.038098547607660294, 0.2945505976676941, -0.3074376583099365, 0.3762643039226532, -0.27860763669013977, 0.17558225989341736, -0.9517821073532104, -0.17167982459068298, -0.3795728087425232, -0.3790789842605591, -0.16026924550533295, 0.25920403003692627, 0.0717172846198082, 0.25604885816574097, -0.2041354775428772, -0.1315186768770218, 1.6119568347930908, 0.31772708892822266, 0.9523444175720215], [-0.1340460628271103, -0.3412539064884186, 0.42197901010513306, 0.4457405209541321, 0.36602720618247986, -0.6692708730697632, 0.5194685459136963, -0.4775266647338867, -0.14018641412258148, 0.6056731343269348, -0.9852806329727173, -0.09953399747610092, 0.4255368411540985, -0.21556587517261505, 0.2218783050775528, 0.13518552482128143, 0.16217242181301117, -0.2166227251291275, 0.017600854858756065, -0.004338642582297325, -0.21222203969955444, 0.4168805778026581, 0.36393874883651733, -0.06520561128854752, -0.10709647089242935, -0.5373998284339905, 0.3776947557926178, -0.7047969698905945, -0.29741570353507996, 0.20876748859882355, -0.17724944651126862, -0.7534298300743103, 0.36123037338256836, 0.23706629872322083, 0.48479992151260376, 0.6264567971229553, -0.09535813331604004, -0.06059761717915535, 0.12836021184921265, 0.36582404375076294, 0.08282136172056198, 0.006053375080227852, 0.4252656400203705, -0.3384310305118561, 0.6477296948432922, 0.27914124727249146, -0.005537641234695911, 0.007470195181667805, 0.3272903859615326, -0.009351540356874466, -0.2265755832195282, -0.7891126871109009, 0.1517835259437561, 0.28617918491363525, -0.18184985220432281, 0.13959042727947235, 0.18319594860076904, 0.4263765215873718, 0.1288486123085022, -0.32530102133750916, 0.021632544696331024, 1.4789128303527832, -0.45766204595565796, 0.6994806528091431], [0.11367850005626678, 0.03969307243824005, 0.12105588614940643, -0.14432896673679352, 0.4916134774684906, 0.5689453482627869, -0.07086990028619766, 0.2545006275177002, 0.3895511031150818, -0.39885011315345764, 0.09600556641817093, 0.11894490569829941, -0.33010125160217285, 0.06630367040634155, -0.5802366137504578, -0.08640379458665848, -0.353712260723114, 0.07083471864461899, -0.30097711086273193, 0.4796847403049469, 0.7136662006378174, 0.22321057319641113, 0.5321420431137085, 0.5671757459640503, -0.1380200833082199, -0.4130619764328003, -1.154630184173584, -0.2792319357395172, 0.13627628982067108, -0.8551623225212097, -0.2013908177614212, -0.2603914737701416, -0.7444373369216919, -0.3146677017211914, 0.0056299627758562565, 0.3480093479156494, -0.03581957891583443, -0.3360479772090912, 0.2193002551794052, 0.629684567451477, 0.8290066719055176, 0.44130221009254456, 0.007714166305959225, 0.4221583306789398, 0.6334165930747986, 0.021993642672896385, -0.8141011595726013, 0.01447676494717598, 0.2819038927555084, -0.5455281734466553, 0.18289364874362946, -0.17041000723838806, -0.31055882573127747, -0.47062522172927856, -0.2264615148305893, 0.12564770877361298, 1.1562671661376953, 0.22943800687789917, 0.6587735414505005, 0.11361909657716751, 0.9755452275276184, 0.807116687297821, 0.1955951452255249, 0.4189460873603821], [-0.1865725815296173, 0.2363756150007248, 0.38629019260406494, 0.18492229282855988, 0.08964529633522034, 0.048922378569841385, -0.3291170299053192, -0.00764191709458828, -0.30669325590133667, 0.10256189107894897, -0.09813351184129715, 0.26964324712753296, -0.2707216143608093, -0.19842761754989624, 0.10626664012670517, 0.27265581488609314, -0.15881946682929993, -0.2985116243362427, -0.41433024406433105, -0.049084290862083435, 0.11721150577068329, 1.5719653367996216, 0.5104398727416992, 0.26755306124687195, -0.014773847535252571, -0.3306811451911926, -0.31494563817977905, -0.621525228023529, 0.20625217258930206, -0.3233894407749176, 0.10054250806570053, 0.02256031520664692, 0.00689395098015666, -0.27119535207748413, 0.23954522609710693, 0.09991690516471863, -0.021488197147846222, -0.26370373368263245, 0.04357210919260979, 0.05079403519630432, 1.508170247077942, -0.0373523011803627, -0.40576085448265076, -0.21031847596168518, -0.0006327343871816993, -0.4474294185638428, 0.07906139642000198, 0.22324331104755402, 0.6305122375488281, 0.035962287336587906, 0.21274173259735107, -0.7819920778274536, 0.05564654618501663, -0.3477105498313904, 0.14396680891513824, 0.23465868830680847, 0.8374094367027283, -0.3667398989200592, -0.33632776141166687, -0.36614593863487244, -0.3187715709209442, 1.5631670951843262, -0.350185364484787, 0.4519297182559967], [0.12757211923599243, 0.07166092842817307, 0.5180560946464539, 0.2952241897583008, 0.2471679151058197, -0.40086790919303894, -0.8830965757369995, -0.22376243770122528, 0.3873181939125061, -0.6536837816238403, -0.4469686448574066, -0.22305797040462494, -0.3254142701625824, -0.3932497203350067, -0.23072589933872223, -0.18193010985851288, -0.03389891982078552, -0.8545045256614685, -0.3822029232978821, -0.4834250509738922, -0.45805656909942627, 0.538310706615448, 0.5364106297492981, -0.9065521955490112, -0.27951979637145996, -0.6792318224906921, -0.1560274213552475, -0.13780038058757782, -0.017153630033135414, 0.4849783182144165, -0.14637896418571472, -1.0188542604446411, -0.06558521091938019, 0.31578242778778076, 0.6486886143684387, 0.5840066075325012, 0.49589765071868896, 0.1690601408481598, 0.2204897254705429, -0.8023552894592285, -0.38846561312675476, -0.3012094795703888, -0.7039464712142944, -0.16135066747665405, -0.0021373028866946697, -0.36056092381477356, -0.3820297122001648, 0.4070928394794464, 0.1486634761095047, -0.21223391592502594, -0.1911219209432602, -0.5975423455238342, -0.012892520055174828, -0.34763428568840027, -0.7162054777145386, 0.3605278432369232, 0.8555514216423035, -0.26317933201789856, -0.5686746835708618, -0.5187787413597107, 0.1263040006160736, 0.5275031328201294, -0.4983620047569275, 0.6286277770996094], [0.14525628089904785, 0.4902695417404175, -0.3476329445838928, 0.27777552604675293, -0.2063184380531311, -0.2648654282093048, -0.23601596057415009, -0.6849789023399353, -0.6419057250022888, 0.5747818946838379, 0.20539315044879913, -0.08829107135534286, 0.4760522246360779, 0.216061532497406, 0.7832369208335876, 0.35915109515190125, 0.10076743364334106, 0.4870676100254059, -0.2135498970746994, -0.18174761533737183, 0.08025851845741272, -0.7010658383369446, -0.6622118949890137, -0.02808980457484722, 0.10852319002151489, 0.10368774086236954, 0.4458818733692169, 0.5610501766204834, -0.5693001747131348, 0.093507781624794, 0.3054623007774353, 0.47851017117500305, -0.08365686982870102, 0.1776614487171173, 0.6510337591171265, -0.2711673378944397, 0.19677932560443878, 0.07375248521566391, 0.36113274097442627, -0.05728885158896446, 0.2296125590801239, 0.12181475758552551, 0.07202332466840744, 0.15823496878147125, 0.4177282452583313, -0.2972427010536194, 0.18392767012119293, 0.6365057826042175, -0.5696426033973694, 0.4268518388271332, 0.172769233584404, 0.5335605144500732, -0.40657100081443787, -0.052488233894109726, 0.1839018017053604, -0.17027029395103455, -0.28901925683021545, 0.13884404301643372, -0.45179417729377747, -0.047337524592876434, -0.3463973104953766, -0.694386899471283, -0.39566347002983093, -0.35440894961357117], [-0.27888911962509155, 0.4607144296169281, -0.22954024374485016, -0.3182011842727661, -0.31693214178085327, -0.253407746553421, -0.27334946393966675, 0.04778303578495979, -0.24607089161872864, 0.5395358204841614, -0.13223960995674133, -0.40447309613227844, -0.20749884843826294, -0.05135825648903847, 0.3009467124938965, -0.6825768947601318, 0.0087968111038208, -0.277173787355423, -0.7384148240089417, 0.13831304013729095, 0.028280291706323624, 0.7342316508293152, 0.15027029812335968, 0.2175534963607788, 0.43580615520477295, 0.2813785970211029, -0.31547945737838745, -0.6278402209281921, -0.12257610261440277, 0.6963115930557251, 0.11425705999135971, 0.6973634958267212, -0.35999733209609985, 0.30162516236305237, 0.2615773379802704, 0.5513653755187988, 0.26807528734207153, -0.13607291877269745, 0.8614485263824463, -0.7146685123443604, 1.2064591646194458, 0.39984598755836487, 0.32712316513061523, 0.6090231537818909, -0.3101222515106201, 0.10895467549562454, 0.1269802451133728, 0.1946488320827484, -0.22989428043365479, 0.29023927450180054, 0.5891286730766296, -0.036916397511959076, 1.191268801689148, 0.04706666246056557, 0.9392068386077881, 0.349608451128006, 1.3751866817474365, -1.1340155601501465, 0.13381868600845337, 0.4107220768928528, -0.3540535271167755, 0.7532260417938232, -0.6204168796539307, 0.2819474935531616], [0.3064446747303009, -0.09138288348913193, -0.18142318725585938, -0.18036946654319763, -0.6796068549156189, 0.11778294295072556, 0.19766274094581604, -0.34165164828300476, -0.16028626263141632, 0.10962805151939392, 0.4428475797176361, 0.04291895031929016, -0.08298713713884354, -0.11150380223989487, 0.6642342805862427, -0.283927857875824, 0.5453245639801025, -0.036514755338430405, -0.4058849811553955, 0.2065039873123169, -0.5063417553901672, 0.2498156726360321, -0.8761484622955322, 0.3520238995552063, 0.3421318531036377, 0.1429915726184845, 0.23757342994213104, 0.2287588268518448, -0.772894561290741, 0.025875935330986977, 0.8997608423233032, 0.18869847059249878, 0.014563905075192451, 0.42895448207855225, -0.4419509172439575, 0.25911709666252136, 0.4191135764122009, 0.016297176480293274, -0.3717983067035675, -0.429251492023468, 0.06883272528648376, 0.2699405252933502, 0.04171187803149223, 0.30705708265304565, -1.0715205669403076, -0.5244271755218506, 0.5547046065330505, 0.14446675777435303, -0.07794613391160965, 0.2931012809276581, 0.9411446452140808, 0.4417635500431061, 0.13299551606178284, 0.3838483989238739, 0.3372209072113037, 0.030766557902097702, -0.25273677706718445, -0.38836219906806946, -0.1715148687362671, 0.027027104049921036, -0.9354754686355591, 0.20567606389522552, -0.9359665513038635, -0.26347821950912476], [0.11668061465024948, -0.6789259910583496, -0.3727407157421112, -0.09979735314846039, -0.17383521795272827, 0.10879893600940704, 1.4834309816360474, 0.45783355832099915, 0.15349821746349335, -0.7546468377113342, -0.13146613538265228, -0.18037088215351105, 0.25320562720298767, 0.09449497610330582, -0.43678519129753113, 0.7392148375511169, -0.017338573932647705, -0.006384414155036211, 0.18588459491729736, -0.7192609906196594, -0.6881787776947021, 0.571390688419342, 0.3681628406047821, 0.18353785574436188, -0.12204881012439728, 0.04787495359778404, -0.004628010559827089, 0.27875658869743347, -0.06543901562690735, -0.4163772463798523, -0.3270435035228729, 0.4679434597492218, 0.04240836203098297, 0.2699877619743347, -0.21278426051139832, -0.6200910210609436, 0.5404531955718994, -0.46320903301239014, 0.1518653780221939, 1.1527682542800903, 0.16380983591079712, 1.631350040435791, -0.04245521128177643, 0.2975088953971863, 0.0681309849023819, -0.6612614989280701, 0.4413721263408661, -0.1079389750957489, -0.3710734248161316, -0.24809442460536957, 0.19268710911273956, 0.20539355278015137, -1.3380452394485474, -0.16277077794075012, 0.09926329553127289, 0.1542075127363205, -0.3134976327419281, 0.7045671939849854, -0.04223521053791046, 0.3242564797401428, 0.16657331585884094, 0.07560787349939346, 0.12732526659965515, -0.5255463719367981], [0.1627173125743866, -0.32018277049064636, 0.12408454716205597, -0.14553876221179962, 0.3307117521762848, 0.1213979497551918, 0.24776242673397064, 0.2947954833507538, 0.24038323760032654, -0.54688960313797, 0.046223293989896774, -0.08724058419466019, 0.8112332820892334, -0.2929946482181549, 0.24938923120498657, 0.011726969853043556, 0.1500779092311859, -0.2510271966457367, -0.16289560496807098, -1.259500503540039, -0.20706871151924133, 0.451095312833786, -0.08683416992425919, 0.2640494406223297, 0.10283773392438889, -0.00422097509726882, -0.3323274552822113, -0.009759386070072651, -0.7149080038070679, 0.29586970806121826, 0.09625949710607529, 0.07079219073057175, -0.18790602684020996, 0.9245213270187378, 0.1691054105758667, 0.4220018982887268, 0.9866829514503479, -0.02986260876059532, 0.11416682600975037, 0.060717448592185974, -0.4381573796272278, 0.11130207777023315, 0.14615309238433838, -0.08059820532798767, -0.3978022634983063, -1.3809332847595215, 0.339019238948822, 0.06679827719926834, -0.2274969071149826, 0.38742104172706604, 0.18021243810653687, 0.030029967427253723, -0.09183041751384735, -0.11894303560256958, 0.37884002923965454, -0.17762719094753265, -0.1872420758008957, 0.26024913787841797, 0.33191999793052673, -0.04596662521362305, -0.41430389881134033, -0.08867383748292923, 0.30528390407562256, -0.17797867953777313], [0.29065456986427307, 0.3184017241001129, 0.2187725454568863, -0.2887100279331207, -0.18623988330364227, 0.43942686915397644, 0.31516778469085693, 0.0531328059732914, 0.3391183316707611, -0.02361162193119526, -0.13120347261428833, 0.19675523042678833, -0.38963770866394043, -0.014694340527057648, -0.4287121593952179, -0.10970361530780792, 0.04653127118945122, 0.45560094714164734, 0.14723452925682068, -0.06569373607635498, 0.3186894655227661, -0.7321738600730896, 0.1914598047733307, 0.17358651757240295, 0.13294637203216553, -0.13521739840507507, -0.07484681904315948, 0.5942794680595398, -0.376789391040802, 0.00973319262266159, -0.022542541846632957, -0.2762722969055176, 0.3089658319950104, -0.16813048720359802, 0.40650007128715515, -0.04179879650473595, 0.33399587869644165, -0.6925587058067322, -0.10018391162157059, 0.36177581548690796, -0.9863289594650269, 0.11156207323074341, 0.4236729145050049, 0.5129408836364746, -0.5851584076881409, -0.08494392782449722, -0.4056941866874695, 0.08830098807811737, -0.6706607341766357, 0.2565934360027313, 0.055813997983932495, 0.7526993751525879, 0.1238996759057045, 0.5819255709648132, 0.023920945823192596, 0.11802423745393753, -0.6061154007911682, 0.3442300260066986, -0.2185264676809311, 0.14498841762542725, -0.3700461983680725, -1.1756868362426758, 0.313277930021286, -0.8944501876831055], [0.044488273561000824, -0.0879911333322525, -0.18814757466316223, 0.318130224943161, 0.18796950578689575, -0.07370006293058395, -0.6996650099754333, 0.4494147300720215, 0.3289225995540619, -0.022355040535330772, -0.05717722326517105, -0.09827183187007904, -1.1399264335632324, -0.12717600166797638, 0.026200855150818825, 0.1466108113527298, -0.08123986423015594, -0.2660619914531708, -0.032576996833086014, 0.7532808184623718, 1.0468069314956665, 0.39206141233444214, 0.24344877898693085, 0.24135838449001312, -0.27469339966773987, 0.13277605175971985, -0.17042489349842072, 0.26417580246925354, 0.13839976489543915, 0.2605159878730774, -0.15149405598640442, -0.4393337368965149, -0.13607746362686157, -0.7971267104148865, 0.2536134123802185, -0.3276800811290741, -0.543473482131958, 0.05259241908788681, -0.21659860014915466, 0.2506222426891327, -0.8879678249359131, -0.648536741733551, -0.2421160787343979, 0.21874192357063293, 0.03908585384488106, 1.0071371793746948, 0.047746315598487854, -0.06801961362361908, -0.19734719395637512, -0.28351590037345886, -0.3010152578353882, -0.5584485530853271, 0.38508373498916626, 0.2064531296491623, -0.2746930420398712, -0.203300341963768, -0.3208169639110565, -0.32130178809165955, 0.04977656900882721, 0.3015356957912445, 0.15858985483646393, 0.4046776294708252, -0.015650449320673943, 0.5390291810035706], [0.4950166344642639, 0.15820668637752533, 0.31595349311828613, -0.2696128487586975, -0.11496113240718842, -0.37650594115257263, 0.5730665922164917, -0.13355138897895813, 0.03728727251291275, 0.5084372162818909, -0.13479109108448029, -0.221078023314476, 0.14974679052829742, -0.8408955931663513, 0.48740634322166443, 0.2798159420490265, 0.39591577649116516, -0.22830012440681458, 0.5465289950370789, -0.18225742876529694, -0.5987870693206787, 0.08303267508745193, -0.2860185503959656, -0.21932274103164673, -0.10034877806901932, 0.32686495780944824, 0.18581071496009827, -0.6257576942443848, -0.07324354350566864, 0.6681468486785889, 0.8365169763565063, -0.20266345143318176, 0.6471108198165894, -0.14524425566196442, 0.5003657937049866, 0.02627028338611126, 0.3977533280849457, -0.04054834321141243, -0.3304296135902405, 0.21187184751033783, 0.020788174122571945, 0.05065563693642616, 0.451174795627594, -0.1961359977722168, -0.003069041995331645, -0.31930890679359436, 0.5452395081520081, -0.25623559951782227, 0.17851118743419647, 0.3987080752849579, 0.5939247012138367, -0.8283635973930359, -0.8220118880271912, 0.6456896662712097, -0.34900009632110596, 0.28839847445487976, -0.6469906568527222, 0.2724746763706207, -0.6644829511642456, -0.30900436639785767, -0.5690521597862244, 0.7676228284835815, -0.3988383114337921, 0.2055082768201828], [-0.2566228210926056, 0.5223805904388428, 0.27011871337890625, -0.06290479749441147, 0.20715607702732086, -0.23725640773773193, -0.825886607170105, -0.5592135190963745, -0.8514860272407532, 1.3178385496139526, -0.628192663192749, 0.33181145787239075, -0.7844170331954956, -0.34698012471199036, -0.051316726952791214, -0.5555123686790466, -0.31516990065574646, -0.10771293193101883, 0.31818103790283203, 0.464948832988739, 0.6600704193115234, -0.5006224513053894, -0.34284722805023193, -0.5966641902923584, -0.47964560985565186, -0.566072940826416, 0.589410126209259, 0.225028857588768, -0.41257205605506897, 0.17500604689121246, 0.8077638149261475, -0.54767245054245, 0.09201675653457642, -0.16622470319271088, 0.8158835172653198, 0.5223751664161682, 0.18117813766002655, -0.0038776015862822533, 0.5046152472496033, -0.8430269956588745, -0.029543042182922363, -0.5311174988746643, -0.020308278501033783, -0.007405842188745737, -0.2891809046268463, 0.8049731850624084, -0.11115916818380356, -0.04982318729162216, 0.3953425884246826, 0.21079552173614502, 0.06884832680225372, -0.6071273684501648, 0.7671135067939758, -0.08410770446062088, -0.22157905995845795, 0.40161997079849243, 0.1874842792749405, -1.456086277961731, -0.02016369439661503, -0.4691636264324188, -0.4202539026737213, 0.43999946117401123, -0.1588601917028427, -0.19516272842884064], [-0.2504705488681793, -0.3448515236377716, 0.17652559280395508, -0.06614472717046738, 0.18006326258182526, 0.37429627776145935, 0.11311175674200058, 0.11978886276483536, 0.1276981234550476, 0.6730270385742188, 0.16659128665924072, 0.4169387221336365, -0.4995168447494507, 0.16931357979774475, 0.28386521339416504, -0.10212405025959015, -0.18053749203681946, 0.2530590295791626, 0.2990078926086426, 1.3130449056625366, 1.2518210411071777, 0.20945821702480316, 0.21555176377296448, -0.30693694949150085, -0.23610256612300873, -0.1506205052137375, 0.19558079540729523, 0.3814753592014313, 0.30255791544914246, -0.582038164138794, 0.08357378095388412, -0.16532672941684723, -0.2226790487766266, -0.7100040912628174, 0.13795967400074005, -0.3123030960559845, -1.1098673343658447, 0.129909947514534, -0.10014086961746216, -0.06513923406600952, 0.22546139359474182, 0.12811028957366943, 0.03768737614154816, -0.3193228542804718, -0.3194221556186676, 0.660876452922821, 0.01742333360016346, -0.4546535015106201, -0.08911141008138657, -0.25211262702941895, -0.14775018393993378, 0.39983296394348145, 0.13772645592689514, 0.13769611716270447, -0.07352201640605927, -0.3928316533565521, -0.4086575508117676, -0.4905354380607605, 0.07412709295749664, -0.15352346003055573, 0.21942953765392303, -0.47689205408096313, 0.11210978776216507, -0.4290352463722229], [-0.42738988995552063, -0.5302734971046448, -0.1912951022386551, 0.31057441234588623, 0.5411742329597473, 0.47607550024986267, -0.13771170377731323, 0.7467997670173645, 0.26981931924819946, -0.42040637135505676, -0.438955694437027, 0.21189233660697937, -0.6463884711265564, 0.05572503060102463, -0.5538979768753052, -0.2531193792819977, 0.14877763390541077, -0.0393398180603981, 1.1769280433654785, 0.01191926933825016, 0.4613613486289978, -1.5297437906265259, 0.5924733281135559, -0.2556905150413513, 0.12624473869800568, -0.3265632390975952, 0.08904114365577698, 0.8677554726600647, 0.3296385109424591, -0.2082192450761795, -0.5222214460372925, 0.1157669797539711, 0.5153496861457825, -0.0005185243207961321, 0.3753281235694885, -0.07811474800109863, -0.310106098651886, 0.6587056517601013, -1.585770845413208, 0.673447847366333, -1.4796721935272217, -0.2491249442100525, -0.17641092836856842, -0.2092028111219406, 0.543937623500824, -0.12883059680461884, 0.10303516685962677, -0.28355011343955994, 0.5295425057411194, -0.5982202291488647, -0.2364429384469986, 0.4485072195529938, -0.05983034521341324, -0.09359345585107803, -0.10840096324682236, 0.2800968587398529, -0.9488834738731384, 0.011056069284677505, -0.25971823930740356, -0.23335614800453186, 0.5526213645935059, 0.16825604438781738, -0.00881605502218008, -0.0936756432056427], [-0.1172015592455864, 0.6262000799179077, -0.5268004536628723, -0.11845152080059052, -0.47347620129585266, 0.4228929877281189, 0.5180402994155884, 0.6763841509819031, -0.08972910791635513, 0.16682018339633942, -0.03658138960599899, -0.05437539890408516, -0.047947876155376434, -0.002767468336969614, 0.3109304904937744, 0.4713212549686432, 0.43823760747909546, 0.5997470617294312, 0.08148113638162613, -0.35267120599746704, -0.20840485394001007, 0.2847738564014435, 0.261480450630188, 0.46270477771759033, 0.6754322648048401, 0.5116884112358093, 0.1216200664639473, 1.1339452266693115, 0.6141160130500793, -0.3472866415977478, -0.4622674882411957, 0.08673194795846939, -0.011911002919077873, -0.5270326733589172, -0.47138404846191406, -0.6297205090522766, 0.25142404437065125, -0.7473992705345154, -0.2604812681674957, 0.31452518701553345, 0.7249321341514587, 0.16221360862255096, 0.299334853887558, 0.04921142756938934, -0.1951831430196762, -0.26827290654182434, 0.5193389654159546, -0.05147873982787132, -0.5134254097938538, -0.21826116740703583, 0.17986762523651123, 1.0553580522537231, -1.3440589904785156, 0.5272019505500793, 0.09131696820259094, -0.28680914640426636, -0.05368993803858757, 0.9437309503555298, -0.40074896812438965, -0.024078693240880966, 0.18278902769088745, -0.6580545902252197, 0.2004690170288086, -0.27505412697792053], [0.05498229339718819, 0.33317217230796814, 0.2494380921125412, -0.3878917694091797, -0.34032994508743286, -0.09042736142873764, 0.34136685729026794, -0.44977542757987976, 0.0544545017182827, -0.6765094995498657, -0.28547680377960205, 0.15012742578983307, 0.8522652983665466, -0.34373578429222107, -0.17383430898189545, 0.23289692401885986, 0.17776519060134888, -0.3509652018547058, -0.20778052508831024, -1.4007086753845215, -1.0479284524917603, 0.1297425925731659, -0.07716351747512817, 0.17331662774085999, 0.3889138400554657, -0.35572367906570435, 0.07168615609407425, 0.2714499235153198, -0.36758747696876526, -0.03548317402601242, 0.36320117115974426, -0.12856344878673553, -0.03438536077737808, 0.39161670207977295, 0.2281169295310974, -0.09572310745716095, 0.7246906757354736, 0.0183485709130764, -0.3409728705883026, -0.19165906310081482, -0.2476089745759964, -0.15670041739940643, 0.07216408103704453, -0.1651190221309662, -0.3569885194301605, -1.2079260349273682, 0.26818618178367615, 0.23522643744945526, -0.09977982193231583, -0.19827501475811005, 0.4184633493423462, 0.07770954817533493, -0.13791073858737946, 0.1586644947528839, 0.366060733795166, 0.33452504873275757, -0.23636934161186218, 0.023808136582374573, -0.1703910380601883, 0.24098904430866241, -0.05063902586698532, 0.297879159450531, 0.0031496966257691383, 0.1632896065711975]], "fc1.bias": [0.12946899235248566, 0.7239400148391724, -0.9008486270904541, 0.11462129652500153, -0.9865483641624451, -1.0916019678115845, 0.40882283449172974, -0.3147304356098175, -0.6141590476036072, -0.2040485143661499, 0.20472437143325806, 0.15890586376190186, -1.0477629899978638, 0.10925561934709549, 0.09093524515628815, 0.27155110239982605, -0.36230218410491943, 0.4303893446922302, 0.33988407254219055, -1.2313272953033447, -0.21737787127494812, 0.6059309244155884, 0.175758957862854, 0.13658897578716278, -0.11585952341556549, -0.11007482558488846, 0.1251058429479599, -0.028296880424022675, -0.02444596402347088, 1.2541849613189697, 0.38243794441223145, 0.17056331038475037], "fc2.weight": [[-0.24423523247241974, 0.0279401708394289, -0.0674322172999382, 0.23453639447689056, -0.06622470915317535, -0.5443792939186096, -0.13239246606826782, 0.35812801122665405, -0.08040367811918259, 0.03362653777003288, 0.5273287296295166, -0.3074309825897217, -0.13477608561515808, -0.19733783602714539, -0.014779077842831612, -0.09638936817646027, 0.15234622359275818, -0.46277016401290894, -0.012640824541449547, -0.1687338650226593, -0.28517869114875793, -0.1221812292933464, 0.3163968026638031, 0.30622875690460205, 0.197054922580719, -0.01593070663511753, -0.19010509550571442, -0.0788663998246193, -0.3165719509124756, 0.43976569175720215, 0.06931830942630768, 0.1319759637117386], [-0.2749292254447937, -0.035192493349313736, -0.006340275052934885, 0.05939530208706856, 0.045869357883930206, -0.42325541377067566, -0.11255044490098953, -0.054100263863801956, -0.012852909974753857, -0.00361648085527122, -0.2161351889371872, 0.687225878238678, -0.020990926772356033, -0.2994022071361542, -0.3862973749637604, 0.13009478151798248, 0.0427573099732399, -0.3091001510620117, 0.10835191607475281, 0.1767890453338623, -0.11372923105955124, 0.02078857831656933, -0.4411657750606537, -0.37524914741516113, 0.17374813556671143, 0.11232633143663406, 0.1912268102169037, 0.1514001041650772, 0.37459465861320496, 0.0820111557841301, 0.0007614915375597775, -0.2873349189758301]], "fc2.bias": [0.29830202460289, 0.3015458583831787]}