{"fc0.weight": [[1.0414661169052124, 0.001304000150412321, -0.7365401387214661, -0.08664080500602722, 0.36398157477378845, -0.35905721783638, -0.8314048647880554, -0.29021087288856506], [-0.05593203753232956, -0.5291857123374939, -0.2781611979007721, -0.4017826020717621, 0.30517005920410156, 0.21626503765583038, -0.07610021531581879, 0.4631175994873047], [0.6095761060714722, -0.05057257041335106, 0.5234907269477844, -0.3498934507369995, 0.3331195116043091, 0.1015925407409668, 0.467744916677475, 0.37022897601127625], [-0.44269248843193054, -0.09685263782739639, -0.6469339728355408, 0.3436732292175293, -0.14074192941188812, 0.08231078833341599, -1.1148911714553833, -0.335959255695343], [0.43807733058929443, 0.08013706654310226, 0.7334946990013123, -0.14639180898666382, 0.10073136538267136, 0.3533739447593689, 0.6333181858062744, 0.010727839544415474], [0.01262840535491705, -0.510295569896698, -0.032961320132017136, 0.7515997290611267, -0.06691452115774155, 0.47598809003829956, -0.15448413789272308, 0.38521406054496765], [-0.7962005138397217, 0.02787935361266136, -0.10484614223241806, -0.03595676273107529, -0.30355942249298096, -0.20048391819000244, -0.8744495511054993, -0.6020287275314331], [-0.39457449316978455, 0.04084759205579758, -0.4566992521286011, 0.15417665243148804, 0.15355512499809265, -0.38365447521209717, -0.9155794978141785, -0.4795101284980774], [0.01788504049181938, 0.6537636518478394, -0.1749819964170456, -0.6907770037651062, 0.3082312345504761, -0.14510202407836914, 0.47117677330970764, 0.22862952947616577], [-0.01343030296266079, 0.455357164144516, 0.7917460799217224, -0.2542385458946228, -0.06651744991540909, 0.3139451742172241, 0.8789916038513184, -0.021806800737977028], [-0.12678097188472748, 0.31436192989349365, -0.161995530128479, 0.4920324683189392, -0.2589140236377716, -0.20313410460948944, -0.7313109040260315, 0.16341663897037506], [0.04465622082352638, -0.28096190094947815, -0.3357592225074768, 1.1315284967422485, -0.21466293931007385, -0.23744763433933258, 0.00689544016495347, -0.13399045169353485], [0.5603997111320496, 0.07428038120269775, 0.278129518032074, 0.04024534299969673, -0.15571732819080353, 0.35310623049736023, 0.8772908449172974, -0.11750070005655289], [0.13677965104579926, -0.07840108871459961, 0.10710761696100235, -0.579914927482605, -0.12607240676879883, 0.35756421089172363, 0.13173875212669373, -0.31687936186790466], [-0.590859591960907, 0.09122465550899506, -0.6688960194587708, -0.16740743815898895, 0.1406623274087906, -0.19301393628120422, -0.8735805153846741, 0.632133960723877], [-0.6536734104156494, 0.08644301444292068, -0.817704975605011, 0.4716550409793854, -0.34700173139572144, 0.1540500968694687, -0.8608697056770325, 0.1964612901210785], [0.08380670845508575, -0.5848491191864014, 0.09584462642669678, -0.586663007736206, 0.21160800755023956, -0.4751453995704651, 0.026104804128408432, -0.6836263537406921], [0.2407507449388504, -0.0406167171895504, 1.2069510221481323, 0.2399863451719284, 0.05504171550273895, -0.25306037068367004, 1.0599510669708252, 0.3384135365486145], [-0.021375006064772606, -0.5072371363639832, -0.5054321885108948, -1.2839137315750122, 0.04975729435682297, 0.2698590159416199, 0.11812250316143036, 0.3893536329269409], [0.43207448720932007, -0.2949550151824951, 0.6635144948959351, -0.0051729739643633366, -0.4247737228870392, 0.19248329102993011, -0.24980901181697845, 0.038310457020998], [-0.07007354497909546, 0.264009565114975, 0.3849582374095917, 1.0993837118148804, 0.4686260521411896, -0.21856874227523804, 0.37499046325683594, 0.0997992604970932], [-0.0011754099978134036, -0.38932254910469055, 0.007775147911161184, -0.6235304474830627, 0.30062177777290344, -0.45424503087997437, 0.4698406159877777, 0.014964467845857143], [0.47717419266700745, -0.04442404583096504, 0.16391637921333313, -0.9498350620269775, -0.14988993108272552, 0.3883061707019806, 0.787575364112854, 0.6331896185874939], [-0.1940128654241562, 0.12755252420902252, 0.14820212125778198, 0.23130536079406738, 0.35708650946617126, 0.37559035420417786, 0.44398701190948486, 0.08327784389257431], [-0.26398223638534546, -0.06916598975658417, -1.4252594709396362, 0.23355188965797424, -0.12156335264444351, -0.38697823882102966, -1.5331112146377563, 0.40668103098869324], [-0.007840423844754696, 0.5782896280288696, -0.11404450237751007, -0.5638669729232788, 0.21087592840194702, -0.04092307761311531, -0.03653475642204285, 0.4926939606666565], [0.049489833414554596, 0.7229755520820618, -0.6464521288871765, 0.369543194770813, -0.33161601424217224, 0.3614344000816345, -0.5863710641860962, -0.3396795690059662], [0.2559499144554138, 0.3369971513748169, -0.1751731038093567, -0.478640079498291, -0.40444615483283997, 0.009236384183168411, -0.22145023941993713, 0.04834388196468353], [0.5053622126579285, -0.2522636353969574, 0.6303614974021912, -0.12816068530082703, 0.08584526181221008, -0.4663309156894684, 0.33010971546173096, 0.07973741739988327], [0.06221463158726692, -0.518343448638916, 0.6523119807243347, -0.5194265842437744, 0.20586135983467102, -0.26965683698654175, 0.5209176540374756, 0.387416273355484], [0.16360482573509216, 0.7116488814353943, -0.3749815821647644, 0.4546392560005188, 0.293268620967865, -0.19406507909297943, -0.3655393719673157, -0.7479037642478943], [0.5632586479187012, -0.09916727989912033, 0.5678333044052124, 0.5867710709571838, -0.3823956549167633, 0.04653402045369148, 0.8832568526268005, 0.02921803668141365], [-0.05168571695685387, -0.5263656377792358, 0.1921449452638626, -0.43956151604652405, -0.05322644114494324, 0.21677400171756744, -0.42681336402893066, 0.13809916377067566], [-0.49249741435050964, -0.20441029965877533, 0.1918250322341919, -0.1926267147064209, 0.300178200006485, 0.06513749808073044, 0.07127592712640762, 0.6883559226989746], [-0.5599095225334167, -0.028088830411434174, 1.04600191116333, -0.007270519156008959, -0.42849236726760864, -0.08838481456041336, 0.8863032460212708, 0.7807064056396484], [-0.1945023089647293, 0.13653334975242615, -0.6732383370399475, -0.6785628795623779, 0.08354569226503372, -0.21485966444015503, -0.6463047862052917, 0.13618001341819763], [0.12014172226190567, 0.4734710454940796, 0.14282558858394623, 0.735870361328125, -0.4135071337223053, -0.33916664123535156, 0.23628342151641846, 0.4374292492866516], [-0.5055046081542969, 0.3083457350730896, 0.0938529297709465, 0.6636720299720764, -0.16043336689472198, -0.09625380486249924, 0.3996133804321289, -0.38502076268196106], [0.12582123279571533, -0.4443208873271942, -0.4803900420665741, -0.04556462541222572, 0.21082650125026703, 0.4023784101009369, -0.06910732388496399, 0.04955989494919777], [-0.10103267431259155, 0.6662025451660156, 0.6167901158332825, 0.2913585305213928, 0.12346707284450531, 0.0030008498579263687, 0.6021698117256165, -0.12493031471967697], [-0.7046262621879578, 0.06601851433515549, -0.7348023653030396, 0.669741690158844, 0.0937451720237732, 0.4773869812488556, -0.8234480023384094, -0.6207489967346191], [-0.011996813118457794, -0.1339893788099289, -0.14700250327587128, 1.3249708414077759, -0.05844169482588768, -0.21243438124656677, 0.12104051560163498, 0.24892286956310272], [0.016303081065416336, 0.16208989918231964, 0.9884069561958313, -0.5495140552520752, 0.01306348480284214, -0.2279226928949356, 0.31684935092926025, -0.445383757352829], [0.21284592151641846, -0.02257692813873291, -0.412847101688385, 0.7400004863739014, -0.3096942901611328, 0.32100290060043335, -0.49910855293273926, -0.07488635927438736], [0.8325909972190857, 0.04413852095603943, -0.18730813264846802, 0.4572145342826843, 0.13712692260742188, -0.4730431139469147, 0.043816596269607544, 0.40275442600250244], [0.23982106149196625, -0.38146090507507324, -0.35902586579322815, -0.5092948079109192, 0.43435433506965637, -0.14220848679542542, -0.34572067856788635, 0.4504168927669525], [0.6370113492012024, -0.06669896095991135, 0.6875045895576477, -0.15140092372894287, -0.11137998849153519, 0.31784358620643616, 0.4729418158531189, 0.6487752795219421], [-0.03635508194565773, -0.5614528059959412, 0.4467022120952606, 0.7360137701034546, -0.043328072875738144, -0.25044384598731995, -0.4781884253025055, 0.5191851258277893], [-0.15153071284294128, -0.04529641941189766, -1.5501399040222168, -0.04835367947816849, 0.36283040046691895, 0.19801606237888336, -1.2568141222000122, 0.44125404953956604], [0.1855575442314148, -0.4670009911060333, 0.22568808495998383, -0.8538333773612976, -0.4779600203037262, -0.21447086334228516, -0.3606996536254883, 0.271409273147583], [0.11387680470943451, 0.51014643907547, -0.21717604994773865, 0.33520975708961487, 0.03378971666097641, -0.3714655339717865, -0.295413076877594, -0.2558577060699463], [0.07179538160562515, -0.0879766196012497, 0.08000515401363373, 1.3221125602722168, 0.2205478698015213, -0.23219148814678192, 0.7881788611412048, -0.11572960764169693], [-0.003493073396384716, -0.5125856995582581, -0.17141194641590118, 0.7919597625732422, 0.005950596649199724, -0.2914586365222931, -0.38017070293426514, -0.22879378497600555], [0.4993743598461151, 0.11104878783226013, 1.008907675743103, 0.28381213545799255, 0.35090845823287964, 0.05987091735005379, 0.42196646332740784, -0.08327890187501907], [-0.25669363141059875, 0.4372398257255554, -0.22436347603797913, 0.5761324763298035, -0.39887410402297974, -0.02248535305261612, 0.4830135107040405, 0.44608935713768005], [0.07498914003372192, 0.14055375754833221, -0.06842972338199615, -0.9991366863250732, -0.1158081665635109, 0.30411219596862793, -0.21017524600028992, -0.31399014592170715], [-0.7049050331115723, 0.050914037972688675, -0.5680906772613525, 0.107759989798069, 0.06676832586526871, -0.3551834225654602, -1.2858160734176636, -0.24357101321220398], [0.11456403881311417, -0.20449982583522797, -0.3212648630142212, -1.1682833433151245, -0.4696844220161438, 0.39060837030410767, 0.25271090865135193, -0.12756186723709106], [-0.038575638085603714, -0.4489642381668091, 0.04238346591591835, -0.544357419013977, 0.22163227200508118, -0.19675523042678833, -0.2806294560432434, 0.09134753793478012], [-0.7409946322441101, 0.009161904454231262, -0.6489908695220947, 0.7197403311729431, -0.42138147354125977, -0.0715063288807869, -1.4877769947052002, -0.5850211381912231], [0.8740168809890747, -0.00837531965225935, -0.27255627512931824, -0.022262578830122948, -0.38237541913986206, 0.11005526781082153, -0.6598755121231079, -0.4184178411960602], [-0.3501371741294861, 0.04928140342235565, -1.0555609464645386, 0.19738924503326416, 0.32868829369544983, 0.2891705334186554, -1.4518909454345703, 0.36334848403930664], [0.24177250266075134, 0.586438775062561, -0.5359871983528137, 1.0112777948379517, -0.1976117640733719, 0.20952001214027405, -0.31746357679367065, -0.5407544374465942], [-0.840796709060669, -0.01869337633252144, -0.19162678718566895, -0.21839916706085205, 0.36316776275634766, -0.0651855617761612, -0.23731598258018494, -0.6226978302001953]], "fc0.bias": [0.2887585461139679, 0.40665391087532043, -0.06592180579900742, -0.18374265730381012, 0.204003244638443, -0.5486261248588562, 0.19927628338336945, 0.23414959013462067, 0.1606844812631607, 0.33648085594177246, -0.3627975881099701, -0.040147289633750916, 0.3131973147392273, 0.1218748539686203, 0.27947500348091125, -0.4440990090370178, -0.37026843428611755, -0.06278721988201141, 0.12775103747844696, 0.04515039920806885, -0.008778436109423637, -0.2999964952468872, -0.28921088576316833, 0.3948437571525574, -0.1856621950864792, 0.23829172551631927, 0.4957883358001709, 0.2307664155960083, 0.035441551357507706, -0.4289938807487488, -0.26119741797447205, -0.07563116401433945, -0.12112852185964584, -0.30028754472732544, 0.07893664389848709, 0.09148506075143814, -0.10837884992361069, -0.23723122477531433, 0.15876610577106476, -0.2705532908439636, 0.16907817125320435, -0.1515415906906128, -0.3790152370929718, 0.30995139479637146, -0.05062941834330559, 0.22970236837863922, -0.135035440325737, -0.3403388559818268, -0.12000923603773117, 0.17987202107906342, -0.2578725218772888, -0.4121861159801483, 0.09003075957298279, 0.35178977251052856, 0.17472225427627563, 0.038125116378068924, -0.11446414142847061, -0.5801089406013489, 0.16667400300502777, -0.1916034072637558, 0.22940465807914734, 0.2619209587574005, -0.20048856735229492, 0.25113457441329956], "fc1.weight": [[1.4968613386154175, -0.2867625653743744, -0.28264322876930237, -0.3632360100746155, 0.36847975850105286, 0.2372569739818573, -0.3237745761871338, 0.09002495557069778, -0.11487799882888794, 0.08460924029350281, -0.15891891717910767, -0.3625812530517578, -0.16854606568813324, 0.32585111260414124, -0.017146287485957146, -0.054218873381614685, -0.07490374892950058, -0.3591551184654236, 0.07299663126468658, 0.009797187522053719, -0.0704299658536911, 0.535302460193634, -0.323029100894928, -0.2092728316783905, -0.13919316232204437, 0.0961511880159378, -0.3818313181400299, -0.37443628907203674, 0.611771285533905, -0.009509621188044548, 0.2371521145105362, -0.012756322510540485, 0.24428009986877441, -0.6003014445304871, -1.2904675006866455, -0.3124082088470459, 0.2513594329357147, -0.419034868478775, 0.2983645498752594, 0.17248433828353882, 0.02260531671345234, 0.15743762254714966, 0.24445272982120514, -0.3185802698135376, 0.43730345368385315, -0.14671418070793152, -0.06620742380619049, 0.5016169548034668, 0.7268929481506348, -0.2383641004562378, 0.260335236787796, 0.31929922103881836, 0.16981416940689087, 0.1043689176440239, -0.3850496709346771, -0.020124312490224838, 0.07024514675140381, 0.38238903880119324, 0.046198707073926926, 0.23085138201713562, 0.5321152806282043, 0.37773388624191284, -0.15976811945438385, 0.18057827651500702], [-0.030937226489186287, -0.8803374171257019, 0.22587724030017853, 0.035894643515348434, 0.07230284810066223, -0.13420207798480988, -0.42059326171875, -0.22590169310569763, 0.2230067253112793, 0.905705451965332, 0.3620499074459076, 0.3874399960041046, -0.03338778391480446, -0.5837664008140564, -0.4767833352088928, -0.12725301086902618, 0.20835299789905548, 0.6929978728294373, 0.10522118210792542, 0.2041638195514679, 0.726996123790741, -0.6377010941505432, 0.4854750633239746, 0.2921670973300934, -0.6352521777153015, 0.03927510604262352, 0.4875425100326538, 0.028542695567011833, 0.047458428889513016, -0.14705242216587067, 0.6853306889533997, 0.6495537757873535, -0.14481952786445618, 0.03095274604856968, -0.2076745629310608, -0.5100707411766052, 1.0268419981002808, -0.03366978466510773, 0.012127820402383804, 0.17227795720100403, 0.11197877675294876, 0.6101081967353821, 0.5398763418197632, -0.3292628526687622, -0.0634351596236229, -0.21735848486423492, 0.011649436317384243, 0.13041074573993683, -0.4715902507305145, -0.10285263508558273, -0.10297930985689163, 0.3918266296386719, -0.3526398241519928, 0.6940895915031433, 0.10859264433383942, -0.5813115835189819, -0.036948204040527344, -0.10382500290870667, -0.9450814723968506, -0.3162086009979248, -0.24675393104553223, 0.14721249043941498, 0.9421361684799194, -0.1691330224275589], [0.267636239528656, -0.19529511034488678, 0.1961258500814438, -0.5028458833694458, 0.8688111305236816, 0.12464205175638199, -0.3496694564819336, 0.42084816098213196, -0.2961016893386841, -0.34179338812828064, 0.12133945524692535, -0.5328162908554077, 0.3697049617767334, 0.10273315757513046, -0.7661468386650085, -0.22648128867149353, 0.2755846381187439, 0.4918292462825775, -0.28455787897109985, -0.050323355942964554, -0.2748737633228302, -0.2895621657371521, -0.7256851196289062, 0.12372303754091263, -0.13552846014499664, 0.4033527374267578, 0.10831364244222641, -0.30856457352638245, -0.02871100790798664, -0.1301434338092804, 0.13185495138168335, 0.06008949503302574, -0.3069409430027008, -0.5319258570671082, -0.0214705727994442, -0.997234582901001, 0.03247477114200592, -0.5230218172073364, -0.17882448434829712, 0.23644477128982544, 0.16494417190551758, -0.2574510872364044, 0.39395976066589355, 0.47692152857780457, 0.9947787523269653, -0.35392701625823975, -0.2887507975101471, -0.02437693066895008, -0.9303305149078369, -0.051509711891412735, 0.32545530796051025, -0.15037880837917328, 0.17568612098693848, 0.4207102358341217, -0.2741241157054901, 0.31732359528541565, -0.5378212928771973, 0.14949241280555725, 0.22695036232471466, -0.07062403112649918, 0.055708013474941254, -0.38884973526000977, 0.16682162880897522, 0.4879637360572815], [0.13827812671661377, -0.7892584800720215, 0.4488644301891327, -0.1674138605594635, 0.8806146383285522, -0.26661694049835205, -0.5227668285369873, -0.6985140442848206, 0.18895666301250458, 0.21457678079605103, -0.03452000021934509, 0.8362439274787903, 0.5516008138656616, -0.09801448881626129, 0.3802819848060608, -0.23322096467018127, -0.1781178116798401, 0.5368768572807312, -0.48671209812164307, -0.04048943147063255, -0.050370216369628906, -0.04368239641189575, 0.8203955292701721, 0.08459796011447906, -0.5535390377044678, 0.2578166127204895, -0.02515382133424282, 0.03976812958717346, 0.08482442796230316, -0.16369399428367615, -0.07456128299236298, 0.31251001358032227, -0.4536206126213074, -0.482553094625473, 0.5426225662231445, 0.15771156549453735, 0.2674398422241211, 0.2542873024940491, 0.0888441950082779, 0.47369685769081116, -0.003324254648759961, 0.6396442651748657, 0.8300184607505798, 0.25606489181518555, 0.07499654591083527, 0.14667284488677979, 0.3830639719963074, 0.01754314824938774, -1.0445822477340698, -0.12386298179626465, 0.16536854207515717, 0.1994265764951706, -0.5698040723800659, 0.6774176955223083, -0.18557800352573395, 0.22207024693489075, -0.7843544483184814, -0.11743611842393875, -0.050338711589574814, -0.26743030548095703, -0.4063769578933716, -0.4500063955783844, 0.31489402055740356, -0.4474642872810364], [-0.4165850877761841, -0.12689827382564545, -0.21531420946121216, -0.24727487564086914, -0.13584068417549133, 0.8454059362411499, -0.28121745586395264, 0.3477717339992523, -0.6369020938873291, -0.6735067963600159, -0.3723645508289337, 0.5216271281242371, 0.35492953658103943, -0.15839093923568726, 0.3612489104270935, -0.5383197665214539, -0.2407049536705017, 0.17945478856563568, -0.3797304332256317, 0.42049235105514526, -0.14449071884155273, 0.5153806805610657, 0.08562503010034561, -0.42370837926864624, -0.17307893931865692, -0.6650713086128235, 0.018761076033115387, -0.4486123323440552, -0.2814948260784149, 0.014306417666375637, 0.034914493560791016, 0.1716451495885849, 0.25267183780670166, 0.14601902663707733, 0.11465555429458618, -0.08236800879240036, -0.01058603823184967, -0.08481565862894058, 0.3597716689109802, -0.09407249838113785, 0.21757782995700836, 0.42161446809768677, 0.31565213203430176, 0.40274277329444885, -0.036486998200416565, -0.18780532479286194, 0.4065227508544922, 0.5969493389129639, -0.3744647204875946, -0.039413370192050934, 0.4317120909690857, 0.7740776538848877, 0.6872552037239075, -0.37354782223701477, 0.28163471817970276, -1.2936502695083618, 0.17455078661441803, -0.5290415287017822, 0.5708199143409729, 0.3128719925880432, 0.04684876278042793, -0.21075233817100525, -0.16508951783180237, -0.033041130751371384], [0.11375896632671356, -0.13663439452648163, -0.2124490737915039, 0.269260048866272, -0.19194306433200836, -0.04654291272163391, 0.3608173131942749, -0.38180655241012573, 1.0961068868637085, -0.18637974560260773, 0.14677466452121735, -0.48001131415367126, -0.0624542310833931, -0.18278148770332336, -0.12748804688453674, -0.08713723719120026, -0.6128533482551575, 0.044160593301057816, -0.38251450657844543, -1.0460753440856934, 0.10768381506204605, -0.7680169343948364, -0.288943886756897, 0.6827000379562378, 0.38304153084754944, 0.35432347655296326, 0.12011343240737915, 0.1734592467546463, -0.2628944516181946, -0.5047663450241089, 0.07782498747110367, 0.3358214795589447, -0.1180814653635025, -0.13438718020915985, -0.3129076361656189, 0.16942773759365082, 0.03170729801058769, -0.001608366728760302, -0.6723483800888062, 0.10901690274477005, -0.07043123990297318, 0.3673360347747803, -0.09768395870923996, 0.3773528039455414, 0.01033362653106451, -0.8868675827980042, -0.46294477581977844, -0.7595987915992737, 0.36435550451278687, -0.453115850687027, -0.017816973850131035, -0.3079727590084076, -1.4431045055389404, 0.32370105385780334, 0.529944121837616, -0.2154313176870346, 0.1410454660654068, 0.03987421467900276, -0.4634740352630615, 0.011367008090019226, 0.2797793745994568, -0.11167216300964355, 0.05571185424923897, -0.33706170320510864], [-0.5158461332321167, -0.0984412208199501, -0.15891925990581512, 0.21042881906032562, -0.2148413211107254, 0.3145908713340759, 0.350871205329895, 0.433178573846817, -0.5270130038261414, -0.03598042204976082, 0.11945876479148865, 1.034165859222412, 0.08802060037851334, -0.5061057806015015, -0.01737586036324501, 0.16718538105487823, -0.14076802134513855, -0.3332846462726593, -0.14053340256214142, -0.09288736432790756, 0.9590011239051819, -0.5730094313621521, -0.3397541344165802, 0.3956158459186554, 0.3039228618144989, -0.2554897665977478, 0.3589145541191101, -0.17717604339122772, 0.006290686782449484, 0.41952741146087646, -0.14995281398296356, -0.14473941922187805, -0.4908902943134308, 0.6082106232643127, 0.05482082813978195, 0.07061392813920975, 0.2581295967102051, 0.2604963481426239, -0.5850576162338257, 0.2576884329319, -0.15949761867523193, 0.7988172769546509, 0.01832355372607708, -0.10086870193481445, -0.7347237467765808, -0.2647073566913605, 0.25785937905311584, 0.09407339990139008, -0.10993529111146927, -0.6196365356445312, 0.48117008805274963, 0.967769205570221, 0.3674335777759552, -0.366373211145401, -0.10118356347084045, -0.8672177195549011, 0.5689345002174377, -0.41532450914382935, -0.40276387333869934, 0.6209395527839661, -0.40788817405700684, 0.3315292298793793, 0.01944969780743122, -0.30347031354904175], [-0.27677953243255615, -0.430114209651947, 0.24775265157222748, -0.5327545404434204, -0.34504029154777527, -0.43812626600265503, 0.3789723217487335, -0.42356252670288086, 0.49347174167633057, 1.1887649297714233, 0.7130736112594604, 0.3875589370727539, -0.30022063851356506, -0.42993128299713135, -0.48864877223968506, 0.3249931037425995, -0.18317238986492157, -0.2512778639793396, -0.033218864351511, 0.014129740186035633, 0.6631801724433899, -0.5400103330612183, 0.06311113387346268, -0.011510058306157589, -0.3155938386917114, 0.40115559101104736, 0.6289112567901611, 0.5124932527542114, -0.2928188443183899, -0.3682553470134735, 0.6704738140106201, -0.1424814611673355, -0.13483645021915436, -0.3210269510746002, 0.5305728912353516, 0.2858053743839264, 0.1645139753818512, -0.09936544299125671, -0.015599247068166733, -0.044376276433467865, 0.3395218849182129, 0.0763910710811615, 0.3506178855895996, -0.6981384754180908, 0.1052778959274292, -0.6520339846611023, 0.3951209485530853, -0.428320050239563, -0.7840031385421753, 0.022984247654676437, 0.6079519987106323, 0.34975796937942505, -0.43812206387519836, 0.6041121482849121, -0.06114717572927475, -0.04666255787014961, 0.2756410241127014, 0.00694199837744236, -0.743574857711792, 0.07129056006669998, 0.23425514996051788, -0.7181386947631836, -0.03541283681988716, -0.463241845369339], [1.724343180656433, -0.44103309512138367, -0.033335085958242416, -0.413051038980484, -0.09291670471429825, 0.3076403737068176, -0.7277657985687256, 0.26469099521636963, -0.2708584666252136, -0.3181436061859131, -0.010151348076760769, -0.3387829661369324, -0.23052901029586792, -0.17130641639232635, 0.10507077723741531, 0.0669340267777443, -0.3083314299583435, 0.15071071684360504, -0.3095869719982147, 0.08336569368839264, -0.23226606845855713, 0.37731853127479553, 0.10094145685434341, -0.21741732954978943, -0.17924019694328308, -0.04929051920771599, 0.4152715504169464, 0.3042014241218567, 0.22439798712730408, 0.179531529545784, -0.17143477499485016, -0.11372100561857224, -0.37164998054504395, -0.5485087633132935, -1.0511889457702637, -0.46573734283447266, -0.04548894986510277, -0.020474309101700783, -0.13764812052249908, -0.1570516973733902, -0.3944721817970276, 0.227149099111557, -0.09144068509340286, -0.22718757390975952, 0.750515878200531, 0.043154336512088776, 0.31602421402931213, -0.31309249997138977, -0.1301775425672531, -0.07850237190723419, -0.3666292726993561, 0.019069448113441467, 0.33082345128059387, 0.4408465325832367, 0.25253352522850037, -0.4174495041370392, -0.22345779836177826, 0.32416093349456787, -0.11712969094514847, 0.08033591508865356, 0.6069384217262268, 0.008591336198151112, 0.05076536163687706, 0.15459094941616058], [-0.17595641314983368, 0.6467906832695007, 0.1232994869351387, -0.3707157373428345, 0.2789689600467682, -0.00678389985114336, 0.3540651202201843, 0.299080491065979, -0.31467169523239136, -0.409820556640625, -0.6395788788795471, -0.7459739446640015, 0.1795228272676468, 0.16348527371883392, -0.30272623896598816, -0.37835192680358887, -0.38533106446266174, -0.11378715187311172, 0.12473586201667786, -0.1768689751625061, -0.9101876616477966, 0.731045126914978, -0.20320770144462585, -0.12429980933666229, -0.10910417139530182, -0.5100526213645935, -0.5752087235450745, -0.44390353560447693, -0.12645521759986877, 0.2546355426311493, -0.55314701795578, -0.23400811851024628, 0.5124081373214722, -0.1979677379131317, 0.07601166516542435, -0.3283159136772156, -0.6180633902549744, -0.09341200441122055, 0.17061859369277954, -0.4596504867076874, -0.20659251511096954, -0.5146667957305908, -0.21764042973518372, -0.09128203988075256, -0.2706718146800995, 0.05774873495101929, 0.20828942954540253, -0.24368217587471008, -0.13295017182826996, 0.6931664347648621, -0.2626100778579712, -0.3403702676296234, 0.06901080906391144, 0.009159702807664871, -0.22956582903862, -0.025229908525943756, -0.061683010309934616, 0.6443927884101868, 0.8915265202522278, -0.24504151940345764, 0.35334545373916626, -0.22917962074279785, -0.34444424510002136, 0.3296288251876831], [-0.4053003489971161, -0.0389319509267807, -0.6800549626350403, 0.5843658447265625, 0.07634634524583817, 0.259747177362442, 0.5517850518226624, 0.32437026500701904, -0.016411717981100082, -0.005753278732299805, -0.14839708805084229, -0.29891064763069153, -0.3901394307613373, -0.6201507449150085, 0.33703145384788513, 0.1284020096063614, -0.3600555658340454, -0.3711909055709839, 0.10842616856098175, 0.2182125449180603, -0.2916333079338074, -0.009254634380340576, -0.6760978102684021, 0.10774476081132889, 0.07641711086034775, 0.17034316062927246, -0.21407626569271088, -0.38797304034233093, -0.15834461152553558, 0.10503699630498886, -0.3525620400905609, -0.4444141089916229, 0.5282639265060425, 0.21680870652198792, 0.7941795587539673, 0.010111323557794094, -0.49461644887924194, 0.24961480498313904, 0.2433173954486847, 0.036312248557806015, 0.45934736728668213, -0.4017215371131897, -0.06937858462333679, -0.22450612485408783, -0.5875563025474548, 0.44967958331108093, -0.6352918148040771, 0.36094939708709717, 0.5082902312278748, 0.25377506017684937, -0.39408430457115173, -0.582184374332428, -0.15991073846817017, -0.2435450404882431, -0.019305400550365448, 0.2997440993785858, 0.3739773631095886, 0.36210113763809204, 0.2697622776031494, 0.2520447075366974, -0.5003816485404968, 0.29034581780433655, -0.11330392956733704, 0.8358769416809082], [0.14071765542030334, 0.19967849552631378, 0.17735852301120758, -0.18725687265396118, -0.09360162168741226, -0.21769028902053833, -0.16378885507583618, 0.18750041723251343, 0.6198202967643738, 0.7314609289169312, 0.4024646282196045, -0.8226457834243774, -0.19239088892936707, -0.010326199233531952, -0.015362310223281384, -0.1939123272895813, -0.017861703410744667, 0.25032708048820496, 0.35786253213882446, 0.014535011723637581, -0.057166021317243576, -0.785607635974884, 0.034616805613040924, 0.5007038116455078, -0.18281957507133484, 0.41923660039901733, -0.015275056473910809, 0.09889357537031174, 0.02494325116276741, -0.20738159120082855, -0.1163221076130867, 0.35085782408714294, 0.13301688432693481, 0.043006520718336105, -0.12663690745830536, -0.09522738307714462, -0.24128711223602295, 0.3996705710887909, -0.3059329688549042, 0.07619504630565643, 0.23546458780765533, -0.6824400424957275, 0.03386295586824417, 0.22836577892303467, -0.08127830922603607, -0.5756409168243408, 0.21100714802742004, -1.0493996143341064, -0.3086389899253845, -0.06497858464717865, 0.2591404616832733, -0.6657644510269165, -0.7715039849281311, 0.4074752628803253, 0.5843546390533447, 1.436339259147644, 0.04554873704910278, 0.5944937467575073, -0.7672926783561707, 0.26197531819343567, -0.24560251832008362, 0.3263842761516571, 0.4827784299850464, -0.2102235108613968], [-0.08283019065856934, -0.3610808849334717, -0.07814624160528183, -0.404317170381546, -0.3998258709907532, 0.36267605423927307, -0.2702304720878601, 0.02152438648045063, 0.1907009333372116, 0.38508862257003784, 0.5290620923042297, 0.5428756475448608, 0.25770649313926697, -0.4673680067062378, 0.33388906717300415, 0.47001883387565613, -0.17333577573299408, 0.4760512411594391, -0.8144004940986633, -0.052252139896154404, 0.8109513521194458, -0.2850695550441742, -0.5019397735595703, -0.1880227029323578, -0.06677556037902832, -0.1162702739238739, 0.3565281331539154, 0.08786206692457199, -0.2730848789215088, -0.41331052780151367, -0.008932861499488354, -0.011612897738814354, -0.3874496519565582, -0.48151013255119324, -0.09461666643619537, -0.5090800523757935, 0.3660444915294647, 0.4087541401386261, 0.21700982749462128, 0.21299207210540771, 0.2619471251964569, 1.3048875331878662, 0.16469797492027283, 0.7222538590431213, -0.202894926071167, 0.093687042593956, 0.3222634792327881, 0.31468114256858826, -0.29834282398223877, -0.5238240957260132, -0.06532705575227737, 0.48401251435279846, 0.617046594619751, 0.05175860971212387, 0.2796326279640198, -1.6382108926773071, 0.28894323110580444, -1.0201246738433838, -0.01892963983118534, 0.2302190661430359, -0.343128502368927, 0.2769680321216583, 0.10137537866830826, 0.04556058719754219], [-0.08805100619792938, -0.06813214719295502, 0.045746564865112305, 0.20784743130207062, -0.19669696688652039, 0.4402763545513153, 0.18171893060207367, 0.24938535690307617, -0.010089579969644547, -0.40766122937202454, -0.03995473310351372, 0.5783766508102417, 0.09771160036325455, 0.0963432714343071, 0.06742996722459793, 0.6388051509857178, -0.36104995012283325, -0.5041308999061584, 0.01941344141960144, -0.709908127784729, -0.2785012125968933, -0.6068132519721985, -0.018986284732818604, 0.3108047842979431, 0.5280294418334961, -0.31723150610923767, 0.3146419823169708, -0.3888285756111145, -0.48017147183418274, 0.05670556426048279, -0.3240393400192261, -0.2064237892627716, -0.4252929389476776, -0.25026899576187134, 0.49320584535598755, 0.1556571125984192, -0.2639380097389221, 0.8617270588874817, -0.4109557569026947, -0.07704589515924454, 0.18174494802951813, 0.1324060559272766, -0.8949435353279114, 0.6475034952163696, -0.48172977566719055, -0.4705171287059784, -0.7719970941543579, 0.1887778788805008, 0.220396026968956, 0.024873431771993637, 0.21422946453094482, 0.32376620173454285, -0.3216266930103302, -0.813122570514679, 0.9882755875587463, -0.345329612493515, 0.7085542678833008, -0.04604508355259895, 0.09073707461357117, 0.8921982645988464, -0.6621050238609314, 0.46737140417099, 0.13192971050739288, 0.3759693503379822], [-0.28407618403434753, 0.07476729899644852, -0.24759048223495483, -0.24070151150226593, -0.11011757701635361, -0.19085878133773804, 0.3615488111972809, 0.15278075635433197, 1.1815383434295654, 0.45693841576576233, 0.03175980597734451, -0.3932153880596161, -0.06583032011985779, -0.2483319789171219, 0.11051611602306366, -0.37044885754585266, 0.34163954854011536, -0.26759791374206543, -0.20138630270957947, -0.335064560174942, 0.08701398968696594, -0.13691926002502441, 0.12490150332450867, -0.33776676654815674, 0.05147145688533783, 0.6661936640739441, 0.1215834990143776, 0.4739520251750946, -0.007522314786911011, -0.32657158374786377, 0.12590113282203674, -0.3249970078468323, -0.38967886567115784, 0.12201199680566788, -0.18462184071540833, 0.06620662659406662, -0.08376779407262802, -0.021326225250959396, 0.12851932644844055, 0.22920896112918854, 0.010800489224493504, -0.48379525542259216, 0.3500515818595886, -0.3225848376750946, -0.42152416706085205, -0.20893962681293488, -0.2352047860622406, -1.1840612888336182, -0.37907466292381287, -0.3645475208759308, -0.06423401832580566, 0.04113629087805748, -0.788985550403595, 0.23859240114688873, 0.0665920078754425, 0.03740515187382698, -0.32231295108795166, -0.074201799929142, 0.13534410297870636, -0.33576714992523193, -0.20997482538223267, -0.33005207777023315, 0.40931564569473267, 0.0068395440466701984], [-1.283743977546692, -0.2843218147754669, -0.12069502472877502, -0.17391255497932434, -0.29660990834236145, 0.2727469205856323, 0.0251369196921587, 0.499257892370224, 0.19269128143787384, -0.128882497549057, 0.07685904949903488, -0.4629931151866913, -0.5106828808784485, 0.11123697459697723, 0.5997152924537659, 0.5337775945663452, 0.20878727734088898, 0.07999248802661896, 0.06568597257137299, 0.2050621509552002, 0.025861449539661407, -0.313154399394989, -0.09145402163267136, -0.02362310327589512, -0.42336058616638184, 0.46114444732666016, 0.24589714407920837, 0.27522608637809753, -0.12102171033620834, 0.2627459466457367, 0.17141219973564148, -0.18423990905284882, -0.47389280796051025, 0.7216435670852661, 1.472630262374878, -0.19973985850811005, -0.31223994493484497, 0.05816067382693291, -0.330627977848053, 0.14703679084777832, -0.12349878996610641, -0.15752628445625305, 0.09792759269475937, 0.31859737634658813, -0.09708983451128006, -0.1430715024471283, 0.3709779381752014, 0.3222266733646393, -0.022554494440555573, -0.1318974643945694, 0.015776636078953743, -0.3762631118297577, -0.3179806172847748, 0.06841395050287247, 0.10015836358070374, -0.1773780882358551, -0.18811798095703125, -0.178165003657341, 0.36740177869796753, 0.19086620211601257, -0.7521700263023376, 0.12888574600219727, 0.22673822939395905, 0.07497226446866989], [0.5502293109893799, 0.20973506569862366, 0.19265039265155792, 0.10279188305139542, 0.40428122878074646, -0.35894960165023804, -0.6871563792228699, -0.3912431001663208, 0.16754330694675446, -0.1517658680677414, -0.1972281038761139, 0.30265384912490845, 0.36436712741851807, -0.3481372594833374, -0.5787162780761719, -0.5816097855567932, 0.12767331302165985, 0.5362572073936462, -0.07391437888145447, 0.7647181153297424, -0.32630208134651184, -0.07360374927520752, 0.14715664088726044, -0.4687610864639282, -0.2737967371940613, -0.3732563853263855, -0.25053417682647705, 0.3265435993671417, -0.1004190444946289, 0.19127888977527618, 0.2133314609527588, 1.163034200668335, 0.10907609760761261, -0.04333028569817543, 0.09885372221469879, -0.02997491881251335, 0.31578344106674194, -0.36627665162086487, -0.13968569040298462, -0.48862677812576294, -0.45305436849594116, -0.19152894616127014, 0.2038673311471939, 0.13494816422462463, 0.3886758089065552, 0.30417129397392273, 0.2483070194721222, -0.034572403877973557, -0.6899041533470154, 0.22274407744407654, 0.30643734335899353, 0.6124479174613953, -0.004251834470778704, 0.2552008628845215, -0.732530415058136, -0.5611998438835144, -0.16873806715011597, 0.3820053040981293, 0.2868174910545349, -0.05902829393744469, 0.4135177731513977, 0.40562090277671814, 0.45609843730926514, -0.1392410397529602], [-0.2080857902765274, -0.29174166917800903, 0.3490723669528961, -0.17390426993370056, -0.02488640882074833, -0.5325219631195068, 0.11127445846796036, 0.033989518880844116, 1.2773493528366089, 0.15170803666114807, 0.07559821754693985, -0.3337460458278656, 0.24985334277153015, -0.2625676691532135, -0.3092777132987976, -0.14597944915294647, 0.08081969618797302, -0.1880752146244049, 0.09791084378957748, 0.2172139286994934, 0.17199960350990295, 0.11508607119321823, 0.015143509954214096, -0.07472052425146103, -0.38346290588378906, 0.4359607398509979, 0.24331256747245789, 0.6575337052345276, 0.2850801646709442, -0.3007083237171173, -0.1840497851371765, -0.10703133791685104, -0.4785384237766266, 0.09377910941839218, -0.22922101616859436, -0.12539182603359222, -0.2695719003677368, 0.3803376853466034, -0.3187731206417084, 0.1331806480884552, -0.2870772182941437, 0.08631593734025955, 0.046862758696079254, 0.174538716673851, -0.19401375949382782, -0.4356508255004883, -0.31362366676330566, -1.0156505107879639, -0.2870093584060669, 0.053697049617767334, -0.018167948350310326, 0.21721044182777405, -1.0996953248977661, 0.3325219452381134, -0.14853788912296295, 0.2592620551586151, 0.16561424732208252, -0.2206394523382187, 0.06705549359321594, 0.3714350759983063, -0.29209885001182556, 0.21564257144927979, 0.003003670135512948, -0.3784853518009186], [-0.621210515499115, 0.06174694746732712, -0.557522177696228, 0.30096641182899475, -0.8076140880584717, 0.5164219737052917, 0.3592797517776489, 0.0006538578891195357, 0.2049528956413269, -0.26113826036453247, -0.48519349098205566, -0.35656845569610596, -0.6851280331611633, 0.08219285309314728, 0.22423219680786133, 0.2625614106655121, -0.10843684524297714, 0.057322997599840164, 0.3904339671134949, -0.216391921043396, 0.10287829488515854, -0.10959212481975555, -0.15503010153770447, 0.03318608179688454, 0.3020947277545929, 0.023372724652290344, 0.2219662070274353, -0.13945825397968292, -0.31230035424232483, 0.6720643043518066, -0.40680649876594543, -0.6620849370956421, -0.22273476421833038, 0.08138013631105423, 0.6810612082481384, 0.5318692326545715, -0.6297601461410522, 0.32809147238731384, -0.23120522499084473, 0.23770152032375336, 0.3072057068347931, -0.024239975959062576, -0.12191842496395111, 0.4748118817806244, -0.4439646303653717, -0.26433733105659485, -0.45181334018707275, -0.10119589418172836, 0.20797258615493774, 0.3007063567638397, -0.5835756659507751, -0.17915716767311096, -0.07176446169614792, -0.4803331196308136, -0.19499003887176514, 0.6153321266174316, 0.06806855648756027, 0.1682099848985672, -0.0059135123156011105, 0.135594442486763, -0.5550714731216431, 0.16023077070713043, -0.04667274281382561, 0.4399265944957733], [-0.40135037899017334, 0.9681175351142883, -0.3691042959690094, 0.002960129175335169, -0.18788349628448486, 1.0122944116592407, 0.41901180148124695, 0.22670897841453552, -0.20694568753242493, -0.8025065660476685, -0.14531412720680237, -0.21543379127979279, -0.26352381706237793, -0.0018076905980706215, -0.35628920793533325, -0.30137765407562256, -0.020501308143138885, 0.15975326299667358, 0.40965116024017334, -0.134171262383461, -0.5624969601631165, 0.06779191642999649, -0.5351251363754272, 0.0008940937113948166, 0.39592471718788147, -0.21258488297462463, -0.5990921258926392, -0.49144667387008667, 0.2768869698047638, 0.36704912781715393, -0.1610865592956543, -0.18682290613651276, 0.03888045996427536, 0.37371334433555603, -0.3273048400878906, 0.2267751544713974, -0.547220766544342, -0.031688131392002106, 0.47332045435905457, -0.012351613491773605, 0.2472807765007019, -0.3580886125564575, -0.6926671862602234, -0.1315237283706665, 0.17412158846855164, 0.5950717926025391, -0.10927865654230118, 0.1804274469614029, -0.1744687408208847, 0.516887366771698, -0.32258379459381104, -0.08928009122610092, 0.4030326008796692, 0.21378949284553528, -0.3388621509075165, -0.378851056098938, 0.2071150690317154, 0.15955913066864014, 0.6459782719612122, -0.3324924111366272, -0.0002563305606599897, -0.21644872426986694, -0.5110160708427429, 0.4162681996822357], [0.3447122573852539, -0.22612746059894562, -0.3988346755504608, -0.03846913203597069, 0.2575896084308624, -0.9191323518753052, -0.09281445294618607, 0.3721710741519928, 1.2299302816390991, 0.5437387228012085, 0.16350851953029633, -0.25791946053504944, -0.07094422727823257, -0.3654245138168335, 0.16686607897281647, -0.11934851855039597, -0.3825274705886841, 0.3724949359893799, -0.17952749133110046, 0.2567521929740906, 0.06719046831130981, -0.3269210159778595, 0.37270405888557434, 0.1038464903831482, -0.17780397832393646, 0.614202082157135, 0.39633437991142273, 0.5477592945098877, 0.08660580217838287, -0.12442748993635178, 0.3273937404155731, 0.06257978081703186, -0.11514713615179062, 0.4006263315677643, 0.031016657128930092, 0.05601269006729126, -0.1866963803768158, 0.31930091977119446, -0.4973885118961334, 0.25239720940589905, -0.11941985040903091, -0.15706776082515717, -0.33655989170074463, 0.023678304627537727, -0.10232892632484436, 0.11914901435375214, 0.3600844144821167, -0.654559314250946, 0.4144437909126282, -0.5031144022941589, 0.1096796989440918, 0.4626125991344452, -0.9352004528045654, -0.34923601150512695, 0.2167283147573471, -0.2866430878639221, 0.17069017887115479, -0.12360072135925293, -0.05942149460315704, -0.2949625253677368, -0.12282425910234451, 0.16015493869781494, -0.3306915760040283, 0.039142049849033356], [0.27414244413375854, -0.12249930948019028, -0.28988179564476013, -0.4236583709716797, 0.4449382424354553, 0.040902648121118546, -0.36274513602256775, 0.1703871190547943, -0.3155641257762909, 0.24024325609207153, -0.758030891418457, 0.04036232829093933, -0.1731971949338913, 0.6796646118164062, -0.5045437216758728, -0.4420344829559326, 0.3826875686645508, 0.2924567461013794, 0.6189871430397034, 0.11256188899278641, -0.0011015668278560042, 0.21171624958515167, 0.7977067232131958, -0.5566930770874023, 0.2693338394165039, -0.5399672389030457, 0.15316608548164368, -0.2795845866203308, 0.3298056125640869, 0.5448457598686218, -0.18786725401878357, 0.2570405900478363, 0.1949009895324707, -0.25095027685165405, -0.044364430010318756, -0.4127820134162903, -0.5037224292755127, -0.786444902420044, 0.15491104125976562, -0.1873607039451599, -0.6289187669754028, -0.03214774280786514, 0.11070967465639114, -0.003208157606422901, 0.012309273704886436, 0.4491415321826935, 0.04997996613383293, -0.03099360689520836, -0.9612554311752319, 0.37219634652137756, -0.4633062183856964, -0.5140330195426941, -0.032188475131988525, 0.05811815336346626, -0.8712387084960938, -0.37849000096321106, 0.0980590283870697, 0.12127413600683212, -0.07137925177812576, -0.24812351167201996, 0.6383643746376038, -0.5947409868240356, -0.11996077746152878, 0.5411285161972046], [-0.9220009446144104, 0.5225704312324524, -0.4255259335041046, -0.18412087857723236, 0.21780312061309814, 0.05920300632715225, 0.6065776944160461, -0.29600897431373596, -0.14197443425655365, -0.16987352073192596, 0.027991320937871933, -0.2343551367521286, -0.5895764827728271, 0.3626038134098053, 0.27276021242141724, -0.05661236122250557, -0.265002965927124, 0.2779516875743866, 0.3680282235145569, 0.009714299812912941, -0.23955969512462616, 0.007455814629793167, -0.6851930618286133, -0.11147695779800415, -0.01563320867717266, 0.2798289954662323, -0.16239118576049805, -0.010836038738489151, -0.44476404786109924, -0.2295907884836197, -0.23429033160209656, -0.29144150018692017, 0.2508051097393036, 0.0922885537147522, 0.8910927176475525, -0.09663927555084229, 0.3256055414676666, 0.34317946434020996, 0.24571022391319275, 0.45209741592407227, -0.016096122562885284, -0.25792309641838074, -0.11681731790304184, -0.22731854021549225, -0.900084912776947, 0.24429504573345184, -0.223869189620018, -0.25748273730278015, -0.5086425542831421, -0.21504203975200653, -0.3706086277961731, 0.1002880185842514, 0.026718076318502426, -0.32603275775909424, 0.52568519115448, 0.3854657709598541, 0.2841447591781616, -0.3982016444206238, 0.22683362662792206, -0.0649956688284874, -0.9292515516281128, 0.18670421838760376, -0.44092708826065063, 0.3346925377845764], [0.3986423909664154, -0.19673500955104828, 0.23594529926776886, 0.8058894276618958, -0.4398666024208069, 0.32403674721717834, -0.43553751707077026, -0.0032357298769056797, -0.15740816295146942, -0.4387129247188568, 0.20432671904563904, 0.42799898982048035, -0.21785850822925568, 0.12943755090236664, 0.3344843089580536, 0.7194536328315735, -0.8392268419265747, -0.9259979128837585, 0.4128821790218353, -0.39890018105506897, -0.446466863155365, 0.007288211025297642, -0.2937784790992737, -0.09537045657634735, 0.4227076470851898, 0.07988674938678741, -0.40802890062332153, -0.46930232644081116, -0.17328470945358276, -0.0933680310845375, 0.01166829839348793, -0.07684250175952911, 0.05996347963809967, 0.1262783706188202, 0.3729449510574341, -0.15697668492794037, 0.17434071004390717, 0.21554936468601227, -0.14050938189029694, -0.08253127336502075, 0.6710260510444641, 0.38889625668525696, -0.6177729964256287, 0.6797189712524414, -0.5813789963722229, 0.09932537376880646, -0.09478310495615005, 0.41717079281806946, 1.4121441841125488, -0.1367020308971405, -0.06744509935379028, -0.46112409234046936, 0.4074512720108032, -0.5070940852165222, 0.28855040669441223, -0.10196412354707718, -0.013771158643066883, 0.2739713490009308, 0.06452970206737518, 0.48108619451522827, 0.14881141483783722, 0.4541941285133362, -0.25140270590782166, 0.22872450947761536], [-0.12969395518302917, -0.03727833926677704, 0.32624250650405884, 0.08042300492525101, -0.5219444632530212, 0.09480847418308258, -0.2007046341896057, 0.15175457298755646, 0.1492324322462082, 0.16825911402702332, 0.8155176043510437, 1.186153531074524, -0.32197171449661255, -0.8148946166038513, 0.07578626275062561, 0.24992750585079193, 0.044323377311229706, 0.4107387363910675, -0.34927377104759216, 0.08874369412660599, 0.2175389975309372, -0.5976923108100891, -0.3932952880859375, 0.4153022766113281, 0.15804243087768555, -0.09651808440685272, 0.09053646773099899, -0.038085028529167175, -0.4123212993144989, -0.20393423736095428, 0.20413130521774292, -0.21579642593860626, -0.4794718623161316, -0.34827500581741333, -0.1705813705921173, 0.0002181425952585414, 0.16097396612167358, 0.43238434195518494, -0.17078953981399536, 0.12468849122524261, 0.41500502824783325, 1.0613903999328613, -0.19049052894115448, -0.2507137060165405, 0.20450834929943085, -0.3934559226036072, -0.3726294934749603, -0.3054167628288269, -0.3145276606082916, -0.8345474004745483, 0.2772075831890106, 0.4677037298679352, 0.021119985729455948, -0.3986852467060089, 0.22706842422485352, -0.5854868292808533, -0.3674306571483612, -0.5683295130729675, -0.5684201121330261, 0.07162630558013916, -0.36830106377601624, -0.05504355579614639, 0.49433502554893494, -0.09284935891628265], [0.658150851726532, 0.032755546271800995, 0.0038180602714419365, -0.3079649806022644, 0.1956089586019516, 0.6156180500984192, -0.44784942269325256, -0.21521826088428497, -0.1931775063276291, -0.6543751955032349, -0.24616077542304993, 1.4846258163452148, 0.43960198760032654, 0.09140906482934952, -0.05673111975193024, 0.24160611629486084, -0.15726976096630096, -0.05876849964261055, 0.068937748670578, -0.33158522844314575, 0.5757403373718262, -0.4926197826862335, 0.5883887410163879, -0.158320814371109, -0.17506328225135803, -0.02106979675590992, 0.10164257884025574, 0.25110924243927, 0.4011886715888977, -0.46474650502204895, 0.41634154319763184, 0.26666444540023804, 0.2339394986629486, -0.4357714056968689, -0.24191279709339142, -0.09177679568529129, 0.3563392460346222, 0.2060159295797348, -0.1506609171628952, 0.35431984066963196, 0.011511511169373989, 0.47436949610710144, -0.04142483323812485, -0.0446968637406826, -0.16381680965423584, -0.5008623600006104, -0.19867414236068726, 0.7591179609298706, -0.19671255350112915, -0.2845061421394348, 0.1991640031337738, 0.3052731156349182, 0.17169862985610962, 0.3994547426700592, 0.20591787993907928, -1.082259178161621, -0.1872873157262802, -0.7514634132385254, 0.48999544978141785, -0.03661239519715309, 0.5435444116592407, -0.4636625349521637, 0.446951687335968, -0.2607123553752899], [-0.13385747373104095, -0.4336070418357849, 0.43646183609962463, 0.35390856862068176, 0.3262990117073059, -0.5523456931114197, 0.05745968222618103, -0.22986477613449097, 1.1445698738098145, 0.08545898646116257, 0.15342848002910614, -0.10500265657901764, -0.0852544829249382, 0.16933192312717438, 0.15662781894207, 0.2522934675216675, 0.17689812183380127, -0.11285340785980225, -0.05669046565890312, 0.07162344455718994, -0.019446825608611107, -0.15659098327159882, 0.35045552253723145, 0.37627020478248596, -0.3612153232097626, 0.758445143699646, -0.13141360878944397, 0.7849938869476318, -0.10309185087680817, -0.4402240514755249, 0.3869432508945465, -0.2101188600063324, -0.39393118023872375, -0.24621032178401947, 0.3058483302593231, 0.3364050090312958, 0.1380990892648697, 0.0895773395895958, -0.4231979250907898, -0.059287238866090775, -0.2865775227546692, 0.13870203495025635, 0.10530993342399597, 0.06651586294174194, 0.2537557780742645, -0.49995726346969604, 0.230978861451149, -0.842218816280365, 0.03323123976588249, -0.02611735463142395, 0.40029430389404297, 0.458088755607605, -0.8774604201316833, -0.27434471249580383, 0.24620321393013, -0.2198023945093155, 0.08418258279561996, 0.015743104740977287, 0.18824221193790436, 0.1546354442834854, 0.3586044907569885, 0.20560431480407715, -0.027917206287384033, 0.3227193355560303], [-0.17433254420757294, 0.27043694257736206, -0.11187981069087982, 0.5949360132217407, -0.2089870423078537, 0.29663366079330444, 0.5660770535469055, -0.2266906350851059, 0.24009771645069122, -0.1209065392613411, -0.21825069189071655, 0.6917508840560913, 0.06636306643486023, -0.5818666815757751, 0.3043328821659088, 0.5953426957130432, -0.6501845121383667, -0.3733058273792267, -0.2705214321613312, -0.2327495664358139, 0.28054067492485046, -0.4705929160118103, -0.2936706840991974, 0.4066840708255768, 0.3991943895816803, 0.08148231357336044, -0.24443654716014862, -0.4739854633808136, -0.305051326751709, -0.19342613220214844, 0.19279029965400696, -0.26977571845054626, -0.2562027871608734, -0.051246341317892075, -0.1342930942773819, 0.6103474497795105, -0.20097070932388306, 0.8940593004226685, -0.28582456707954407, 0.2232409417629242, 0.46476176381111145, -0.08209541440010071, -0.6731746196746826, -0.014713680371642113, -0.558935284614563, -0.5840740203857422, -0.3678033649921417, 0.336102157831192, -0.2635152339935303, 0.17900249361991882, -0.45515087246894836, 0.22660812735557556, 0.3773353397846222, 0.034177545458078384, 0.804712176322937, -0.8194851875305176, 0.35756587982177734, -0.00855944212526083, 0.21290598809719086, 0.8428884148597717, 0.03044014424085617, 0.3638491928577423, -0.19999156892299652, -0.19954052567481995], [0.40499430894851685, -0.18207426369190216, 0.0766834020614624, 0.2146824151277542, -0.1551418900489807, 0.13954898715019226, 0.1307739019393921, -0.33486559987068176, -0.2043893039226532, 0.47536787390708923, -0.1944810450077057, 1.3179776668548584, 0.42621996998786926, -0.7156691551208496, 0.10073935240507126, 0.4798987805843353, -0.15646180510520935, 0.11749265342950821, -0.29428207874298096, -0.03525901958346367, 0.6769368052482605, -0.07550998032093048, -0.33127257227897644, 0.11377876251935959, -0.33061304688453674, -0.39075854420661926, -0.11007276922464371, 0.05516510456800461, -0.5806583166122437, -0.16187892854213715, -0.06072252616286278, 0.2879733443260193, 0.28584402799606323, 0.032106973230838776, -0.1841498464345932, 0.007796376012265682, 0.07055043429136276, 0.1545896679162979, -0.4535878896713257, -0.3167177736759186, 0.04195553436875343, 1.606976866722107, 0.2857436537742615, 0.5201737880706787, -0.11835145205259323, -0.36624011397361755, 0.10877330601215363, 0.21440698206424713, 0.2796558439731598, -0.16162051260471344, 0.09816189110279083, 1.0515084266662598, 0.007010945118963718, -0.1814528852701187, -0.20958730578422546, -1.6376265287399292, -0.10440903902053833, -0.11520753055810928, -0.57744961977005, 0.08563826233148575, -0.11254318058490753, 0.2297126054763794, 0.28140395879745483, -0.006096520461142063], [0.49279701709747314, 0.034540995955467224, -0.343692421913147, 0.4962947368621826, -0.5874466896057129, -0.0003813518851529807, 0.3769077658653259, 0.840084433555603, -0.2670351564884186, -0.2129964679479599, -0.4015785753726959, -0.2303859442472458, -0.5383750200271606, -0.10271389037370682, 0.20943841338157654, 0.6608353853225708, -0.355171263217926, -1.304198145866394, -0.042218659073114395, -0.24089378118515015, 0.3603304922580719, -0.04597245529294014, 0.2543816864490509, 0.010138158686459064, 1.0862675905227661, -0.10222234576940536, -0.11855447292327881, -0.36099404096603394, -0.4116837978363037, 0.007910571992397308, -0.10559920966625214, -0.3168160021305084, -0.3306182026863098, 0.2100898176431656, 0.22773303091526031, 0.03430451825261116, -0.6096270680427551, -0.3244885802268982, 0.21144765615463257, 0.00885545089840889, 0.28103750944137573, -0.29271477460861206, -0.1798371523618698, -0.0040956344455480576, 0.1352999210357666, -0.16251201927661896, -0.013948455452919006, 0.1419675201177597, 0.7655407786369324, -0.009707077406346798, -0.033221349120140076, -0.04134832322597504, -0.17290638387203217, -0.21517939865589142, 0.26274290680885315, -0.6391081809997559, 0.22704581916332245, -0.16879551112651825, 0.39773091673851013, 0.15851101279258728, 0.21258164942264557, 0.7258825302124023, 0.5282014608383179, 0.37548214197158813], [0.042775753885507584, 0.10843593627214432, -0.030295196920633316, 0.02553512156009674, -0.027059784159064293, -0.6505752801895142, 0.17699912190437317, 0.31718334555625916, 0.7031236886978149, 0.4359414577484131, -0.009234532713890076, -0.01781306229531765, 0.17025353014469147, 0.34783968329429626, -0.23433806002140045, -0.11548858880996704, -0.08597499132156372, 0.15054988861083984, 0.17893967032432556, 0.09140408039093018, 0.4983241558074951, 0.04655763879418373, 0.1137230396270752, 0.15926118195056915, 0.25435569882392883, 0.6391665935516357, 0.526846706867218, 0.6247037053108215, 0.13893835246562958, -0.4091111719608307, -0.36232301592826843, -0.07665705680847168, -0.44871437549591064, -0.20787954330444336, 0.24353373050689697, 0.46998295187950134, -0.3665528893470764, 0.1304713785648346, -0.21821600198745728, 0.2322337031364441, 0.48402488231658936, 0.25175026059150696, -0.1462276726961136, -0.15925352275371552, -0.17377637326717377, -0.3068201243877411, -0.3481943905353546, -0.9593436121940613, 0.225365549325943, 0.09403106570243835, 0.14105790853500366, 0.17860528826713562, -1.3346621990203857, -0.03591059520840645, -0.2193193882703781, 0.09547636657953262, 0.10790356993675232, 0.1244654655456543, -0.13965435326099396, -0.02953922003507614, -0.14593465626239777, 0.1268160045146942, 0.3568929433822632, -0.21617743372917175], [-0.44916531443595886, 0.21235449612140656, 0.484445184469223, 0.5158115029335022, -0.27678772807121277, 0.6093233823776245, -0.14637184143066406, -0.2612440884113312, -0.7509132027626038, -0.01004298496991396, -0.41772356629371643, -0.1442146599292755, 0.022019129246473312, -0.19835638999938965, -0.41710832715034485, 0.5270221829414368, 0.3635132908821106, 0.07914634793996811, 0.23640723526477814, -0.28036972880363464, -0.1250395029783249, 0.5688942074775696, -0.3825490474700928, 0.39697739481925964, -0.12658847868442535, -0.12701250612735748, -0.6438829302787781, -0.5649147033691406, 0.1748778373003006, 0.4966343641281128, -0.003230747301131487, 0.7091631889343262, 0.45378586649894714, -0.010078254155814648, -0.08733147382736206, -0.9672329425811768, -0.13491536676883698, 0.4808075428009033, 0.5728369951248169, -0.0023934319615364075, -0.019355827942490578, -0.072311170399189, -0.30790311098098755, -0.34503981471061707, -0.3961270749568939, 0.2053077667951584, -0.4841073155403137, 1.076481819152832, -0.9074667692184448, 0.16227877140045166, -0.1545376032590866, 0.3150790333747864, 0.6036880612373352, 0.6231253147125244, 0.39747875928878784, -0.6807335019111633, -0.23328833281993866, -0.06623333692550659, 0.17072920501232147, 0.1789310723543167, -0.05525406077504158, -0.08124261349439621, -0.5283039212226868, -0.24958400428295135]], "fc1.bias": [0.15756289660930634, 0.4720936715602875, 0.6564239263534546, 0.15802907943725586, -0.3948642313480377, 0.7437742948532104, -0.38095277547836304, -0.39982253313064575, 0.2314397245645523, -0.6076275706291199, 0.3072354793548584, 0.03310491144657135, 0.669806182384491, -0.5641728043556213, -0.2144700139760971, -0.25758224725723267, 0.4603444039821625, 0.20910122990608215, 0.027342312037944794, 0.9357941150665283, 0.15330658853054047, 0.09454544633626938, -0.34599506855010986, -0.49648186564445496, 0.5199814438819885, 0.5143780708312988, 0.4399851858615875, 0.1992889791727066, -0.3109421730041504, 0.4513853192329407, -0.17705301940441132, 0.5818685293197632], "fc2.weight": [[-0.24096092581748962, -0.03505433723330498, 0.42676374316215515, -0.054514870047569275, 0.21529081463813782, -0.20173202455043793, 0.33548519015312195, 0.0725012943148613, -0.4729497730731964, 0.03184282407164574, 0.06277718394994736, -0.14907348155975342, 0.19058877229690552, -0.14629852771759033, -0.31335651874542236, 0.3000573515892029, 0.43268105387687683, -0.3826376497745514, 0.0011538316030055285, -0.03317014500498772, -0.0770384892821312, -0.1067831963300705, 0.2793430685997009, -0.3944428861141205, 0.4016503691673279, 0.1299096643924713, -0.029926536604762077, 0.1561168134212494, 0.23964057862758636, -0.0639641210436821, 0.0021786715369671583, 0.19143187999725342], [0.38765671849250793, -0.10564381629228592, 0.12037750333547592, -0.23394498229026794, 0.21833854913711548, -0.1344759613275528, 0.0937715470790863, -0.18028424680233002, 0.3507702350616455, -0.2761062681674957, -0.12524743378162384, -0.11214219778776169, 0.34998998045921326, 0.19909065961837769, -0.40618473291397095, -0.4836723506450653, 0.3703967034816742, -0.12495255470275879, -0.05894085019826889, 0.0846940353512764, -0.1676502376794815, -0.2539093792438507, -0.30327290296554565, 0.2812352478504181, 0.21139763295650482, 0.17355221509933472, -0.053048208355903625, 0.05593103915452957, 0.07015351951122284, 0.40988919138908386, -0.3990003168582916, -0.12729313969612122]], "fc2.bias": [0.5757386684417725, 0.547563910484314]}